Bad Bad 1.0000000
NULL August 1.0000000
filed counter 0.2222222
counter counter 0.7777778
io.BytesIO BytesIO 0.0217391
created BytesIO 0.0869565
instance BytesIO 0.1304348
of BytesIO 0.0434783
an BytesIO 0.1086957
BytesIO BytesIO 0.4347826
a BytesIO 0.0217391
class BytesIO 0.1304348
six.BytesIO. BytesIO 0.0217391
unencoded unencoded 1.0000000
NULL jan1 0.1428571
jan1 jan1 0.8571429
function hexlify 0.5000000
binascii.hexlify hexlify 0.5000000
of urllib.request 0.0303030
NULL urllib.request 0.9696970
.0 .0 1.0000000
appear appear 1.0000000
plat plat 0.6000000
does plat 0.4000000
initial EACCES 0.5000000
entries EACCES 0.5000000
NULL new-test-runner 1.0000000
negate negate 0.5714286
self.negate. negate 0.1428571
self.negate negate 0.2857143
string wt&apos; 0.2000000
wt wt&apos; 0.2000000
is wt&apos; 0.2000000
mode wt&apos; 0.2000000
a wt&apos; 0.2000000
2 addQuickElement 0.2517483
arguments addQuickElement 0.3286713
3 addQuickElement 0.0769231
handler.addQuickElement addQuickElement 0.3286713
self.xml.addQuickElement addQuickElement 0.0139860
escaping escaping 1.0000000
comment COMMENT 0.1333333
COMMENT COMMENT 0.4666667
NULL COMMENT 0.3333333
extend COMMENT 0.0666667
size sizeof 0.6666667
sizeof sizeof 0.3333333
funtion mail 0.0217391
EmailMultiAlternatives mail 0.0434783
django.core.mail mail 0.0434783
django.core.mail.backends.console mail 0.0217391
mail.outbox.extend mail 0.0217391
NULL mail 0.2173913
mail.mail mail 0.0434783
mail mail 0.1739130
call mail 0.2173913
None. mail 0.0217391
django.core.mail.utils mail 0.0652174
mail.send mail 0.0217391
default mail 0.0434783
django.core.mail.message mail 0.0434783
pre-migrate pre-migrate 1.0000000
from ContextDict 0.1428571
class ContextDict 0.2857143
instantiate ContextDict 0.1428571
ContextDict ContextDict 0.4285714
django.utils.six.moves.urllib.request urllib 0.0140845
urllib urllib 0.5211268
NULL urllib 0.3521127
django.utils.six.moves.urllib.parse urllib 0.1126761
mark mark 0.5188679
function mark 0.3396226
NULL mark 0.0566038
conditional mark 0.0094340
separated mark 0.0094340
CONTEXT mark 0.0094340
the mark 0.0471698
BLOCK mark 0.0094340
. unbound 0.1111111
unbound unbound 0.7777778
unbound.im unbound 0.1111111
Removes Removes 1.0000000
phrase phrase 1.0000000
id create 0.0147059
pyinotify.INotifyWrapper.create create 0.0147059
NULL create 0.0588235
create create 0.6617647
self.create create 0.2058824
command.create create 0.0147059
connection.creation.create create 0.0147059
cls.create create 0.0147059
value no 0.0307692
return no 0.0307692
4 no 0.0153846
NULL no 0.1538462
no no 0.7384615
self.no no 0.0307692
globals globals 1.0000000
self.fed fed 0.4000000
self.fed. fed 0.6000000
NULL jun 0.3333333
jun jun 0.6666667
timezone-aware timezone-aware 1.0000000
iterkeys iterkeys 0.5833333
. iterkeys 0.0833333
for iterkeys 0.2083333
substitute iterkeys 0.0833333
self.iterkeys iterkeys 0.0416667
.html html 0.0050505
respectively. html 0.0050505
substitute html 0.0050505
self.html html 0.0505051
val html 0.0050505
4 html 0.0101010
call html 0.0151515
html html 0.5303030
NULL html 0.1262626
tml html 0.0050505
as html 0.0050505
mail. html 0.0101010
django.utils.html html 0.0454545
2 html 0.0505051
Updates html 0.0050505
called html 0.0050505
arguments html 0.0858586
3 html 0.0303030
hmtl html 0.0050505
NULL 414 1.0000000
ETAG etag 0.0555556
with etag 0.2222222
etag etag 0.5000000
argument etag 0.1666667
an etag 0.0555556
an EscapeBytes 0.2857143
EscapeBytes EscapeBytes 0.2857143
of EscapeBytes 0.1428571
instance EscapeBytes 0.1428571
created EscapeBytes 0.1428571
&apos; context&apos; 0.2500000
a context&apos; 0.2500000
strign context&apos; 0.2500000
context context&apos; 0.2500000
&apos; Downloading 0.4000000
in Downloading 0.2000000
replace Downloading 0.2000000
Downloading Downloading 0.2000000
numberformat numberformat 0.5000000
NULL numberformat 0.5000000
foreground foreground 1.0000000
-x -x 1.0000000
tuple copyreg 0.1428571
3 copyreg 0.1428571
: copyreg 0.1428571
copyreg copyreg 0.2857143
NULL copyreg 0.1428571
elements copyreg 0.1428571
or since 0.1666667
since since 0.6666667
divide since 0.1666667
NULL 1,6 0.5000000
1,6 1,6 0.5000000
from SuspiciousOperation 0.1250000
SuspiciousOperation SuspiciousOperation 0.8750000
self.next. next 0.0096154
NULL next 0.1250000
element next 0.1634615
self.next next 0.0480769
tok.next next 0.0192308
next next 0.5576923
get next 0.0096154
parser.next next 0.0673077
statement exec 0.0909091
source exec 0.0909091
execute exec 0.1818182
code exec 0.0909091
exec exec 0.5454545
2 loadname 0.1666667
self.loadname loadname 0.3333333
self.dirs loadname 0.3333333
respectively loadname 0.1666667
content` content` 1.0000000
smtplib.SMTPException smtplib 0.3333333
true smtplib 0.1111111
is smtplib 0.1111111
smtplib.SMTPServerDisconnected smtplib 0.1111111
. smtplib 0.1111111
module smtplib 0.1111111
smtplib smtplib 0.1111111
FileBasedCache FileBasedCache 0.5000000
base FileBasedCache 0.2500000
FileBaseCache FileBasedCache 0.2500000
not any 0.0303030
element any 0.0606061
pattern. any 0.0303030
&quot; any 0.0303030
any any 0.4848485
NULL any 0.2121212
modulename.TestCase.test any 0.0303030
called any 0.0303030
visible any 0.0303030
if any 0.0606061
&quot; Specifies 0.3333333
Specifies Specifies 0.3333333
Restricts Specifies 0.3333333
done done 1.0000000
NULL / 0.3333333
floor / 0.0034722
3000 / 0.0034722
division / 0.0069444
divide / 0.0416667
floored / 0.0069444
by / 0.0486111
/ / 0.5381944
ANNOTATION / 0.0034722
offset.seconds / 0.0138889
return a-zA-Z0-9 0.5000000
NULL a-zA-Z0-9 0.5000000
usegmt usegmt 1.0000000
where s.sql 0.4000000
s s.sql 0.2000000
s.sql s.sql 0.4000000
NULL 428 1.0000000
--app --app 1.0000000
first 49 0.2500000
49 49 0.2500000
elements 49 0.2500000
append 49 0.2500000
ftps ftps 1.0000000
PC PC 1.0000000
elements -q 0.2000000
: -q 0.2000000
-q -q 0.2000000
with -q 0.2000000
strings -q 0.2000000
second relations 0.1666667
relations relations 0.8333333
manifest.items manifest 0.2142857
and manifest 0.0714286
manifest manifest 0.0714286
manifest.values manifest 0.0714286
function manifest 0.1428571
return manifest 0.2857143
value manifest 0.0714286
feed manifest 0.0714286
verbose MODULE 0.0833333
3 MODULE 0.0833333
very MODULE 0.0833333
NULL MODULE 0.1666667
MODULE MODULE 0.5000000
= MODULE 0.0833333
err err 0.8181818
NULL err 0.1818182
handler.endElement endElement 0.2333333
an endElement 0.0666667
with endElement 0.5000000
self.xml.endElement endElement 0.2000000
NULL green 0.9000000
green green 0.1000000
ascii ord 0.0384615
integer ord 0.2307692
representation ord 0.3076923
NULL ord 0.4230769
urlparse urlparse 0.3076923
method urlparse 0.0384615
NULL urlparse 0.3846154
results urlparse 0.0384615
result urlparse 0.0384615
call urlparse 0.0384615
function urlparse 0.1538462
converted PATHS 0.1111111
a PATHS 0.1111111
PATHS PATHS 0.5555556
into PATHS 0.2222222
the DefaultCacheProxy 0.3750000
function DefaultCacheProxy 0.1250000
from DefaultCacheProxy 0.1250000
DefaultCacheProxy DefaultCacheProxy 0.2500000
it DefaultCacheProxy 0.1250000
&apos; created&apos; 0.3333333
created created&apos; 0.3333333
. created&apos; 0.3333333
SELECT SELECT 1.0000000
NULL expression 0.0384615
expression expression 0.6538462
self.expression.resolve expression 0.0384615
concatenate expression 0.0384615
self.expression expression 0.0769231
parser.expression expression 0.0769231
expression.resolve expression 0.0769231
NULL sqlindexes 1.0000000
NULL separate 0.6250000
separate separate 0.3750000
2 package 0.0645161
package.rindex package 0.0322581
call package 0.0645161
package package 0.8387097
pulldom.parse parse 0.0074074
NULL parse 0.0888889
self.parse parse 0.0148148
parse parse 0.5629630
http.parse parse 0.0074074
termcolors.parse parse 0.0074074
function parse 0.0296296
MigrationAutodetector.parse parse 0.0074074
emethod parse 0.0074074
method parse 0.0074074
parser.parse parse 0.1703704
readline.parse parse 0.0074074
django.utils.six.moves.urllib.parse parse 0.0740741
cgi.parse parse 0.0074074
ADDRESS ADDRESS 1.0000000
contextlib contextlib 0.2000000
. contextlib 0.2000000
module contextlib 0.2000000
contextlib.contextmanager contextlib 0.4000000
NULL 308 1.0000000
--database --database 1.0000000
into int 0.0476190
an int 0.1000000
validators.MaxLengthValidator int 0.0047619
integer int 0.1190476
integers int 0.0095238
their int 0.0095238
a int 0.0190476
it int 0.1095238
match.groupdict int 0.0047619
to int 0.0619048
divisible int 0.0047619
type int 0.0095238
value.ljust int 0.0047619
int int 0.0904762
NULL int 0.0809524
self.literal. int 0.0047619
converted int 0.0761905
baseconv.base62.encode int 0.0047619
validators.MinLengthValidator int 0.0047619
self.orphans. int 0.0047619
convert int 0.2142857
value.rjust int 0.0047619
value.center int 0.0047619
and int 0.0047619
Checking Checking 1.0000000
NULL tkfiledialog 1.0000000
12 September 0.5000000
NULL September 0.5000000
for UnicodeError 0.1333333
netloc. UnicodeError 0.0666667
result UnicodeError 0.1333333
caught UnicodeError 0.1333333
domain. UnicodeError 0.0666667
is UnicodeError 0.1333333
UnicodeError UnicodeError 0.3333333
NULL logger 0.0666667
logger.handlers logger 0.0222222
3 logger 0.0222222
logger. logger 0.0222222
2 logger 0.0444444
elements logger 0.0222222
logging.NOTSET logger 0.0222222
substitute logger 0.1111111
logger logger 0.4000000
logger.removeHandler logger 0.0444444
logger.setLevel. logger 0.0222222
logger.addHandler logger 0.0444444
call logger 0.1555556
mapping dict 0.0073529
value dict 0.0036765
items dict 0.0036765
empty dict 0.0036765
type dict 0.0183824
dict.lists dict 0.0036765
NULL dict 0.0367647
dict.getlist dict 0.0073529
dict.setdefault dict 0.0073529
updates dict 0.0036765
dic dict 0.0036765
populated dict 0.0073529
dict.update dict 0.0036765
dict.items dict 0.0183824
dictionary dict 0.2463235
tuples dict 0.0073529
dict.keys dict 0.0036765
created dict 0.0330882
representation dict 0.0036765
pat dict 0.0036765
subcommands dict 0.0036765
object dict 0.0036765
self.dict dict 0.0220588
dict dict 0.5441176
Various Various 1.0000000
function getmtime 0.5000000
os.path.getmtime getmtime 0.5000000
acceptable acceptable 1.0000000
raise assert 0.0322581
an assert 0.0322581
, assert 0.0322581
if assert 0.5483871
error assert 0.0322581
assert assert 0.3225806
substitute command 0.0112360
command.stdout.write command 0.0112360
command.create command 0.0112360
elements command 0.0112360
call command 0.0112360
self.command command 0.0449438
command.use command 0.0112360
module.Command command 0.0112360
command.execute command 0.0112360
command.verbosity command 0.0224719
NULL command 0.1460674
all command 0.0112360
command command 0.6292135
3 command 0.0224719
command.extensions command 0.0337079
self.pubid. pubid 0.3000000
pubid pubid 0.7000000
NULL 408 1.0000000
list entry 0.1428571
entry entry 0.8571429
subdir subdir 1.0000000
self.vars vars 0.0625000
dictionary vars 0.2500000
vars vars 0.6250000
self.vars. vars 0.0625000
true true&apos; 0.2500000
is true&apos; 0.2500000
a true&apos; 0.2500000
string true&apos; 0.2500000
appended .. 1.0000000
natural &apos;s 0.1428571
&apos;s &apos;s 0.5714286
NULL &apos;s 0.2857143
consume consume 1.0000000
function strftime 0.2962963
value.strftime strftime 0.1481481
result strftime 0.0370370
strftime strftime 0.3333333
date.strftime strftime 0.0740741
time.strftime strftime 0.1111111
reload reload 0.6666667
NULL reload 0.3333333
data.replace replace 0.0065359
every replace 0.1764706
whitespaces replace 0.0130719
exp.replace replace 0.0065359
occurrences replace 0.0588235
replace replace 0.2810458
occurrence replace 0.1895425
rest.replace replace 0.0065359
first replace 0.0130719
now.replace replace 0.0196078
in replace 0.0196078
NULL replace 0.1045752
all replace 0.0653595
node.replace replace 0.0065359
value.replace replace 0.0130719
replaced replace 0.0065359
self.replace replace 0.0065359
unifunc.replace replace 0.0065359
NULL must 0.0512821
must must 0.9358974
node.must must 0.0128205
smaller &lt; 0.0761719
less &lt; 0.0039062
NULL &lt; 0.1562500
&lt; &lt; 0.2734375
lesser &lt; 0.0996094
left &lt; 0.0351562
is &lt; 0.1445312
or &lt; 0.0195312
037 &lt; 0.0019531
than &lt; 0.1718750
equal &lt; 0.0175781
kwargs kwargs 0.7173913
being kwargs 0.0021739
call kwargs 0.0065217
kwargs.items. kwargs 0.0021739
boolean kwargs 0.0021739
invalid kwargs 0.0021739
args kwargs 0.0217391
value kwargs 0.0065217
InlineForeignKeyField kwargs 0.0021739
function kwargs 0.0021739
of kwargs 0.0086957
type kwargs 0.0021739
NULL kwargs 0.0869565
kwarg kwargs 0.0021739
that kwargs 0.0021739
parsed.scheme. kwargs 0.0021739
kwargs. kwargs 0.0065217
localized kwargs 0.0021739
self.kwargs. kwargs 0.0086957
dictionary kwargs 0.1065217
False. kwargs 0.0043478
kwargs.update kwargs 0.0021739
csrfmiddlewaretoken csrfmiddlewaretoken 1.0000000
return permitted 0.0909091
permitted permitted 0.6363636
NULL permitted 0.2727273
directories makedirs 0.1081081
elements makedirs 0.1081081
make makedirs 0.0540541
os.makedirs makedirs 0.1081081
a makedirs 0.0810811
from makedirs 0.1081081
directory makedirs 0.1081081
in makedirs 0.1081081
create makedirs 0.1351351
function makedirs 0.0810811
django.contrib.auth contrib 1.0000000
passed passed 1.0000000
TEST TEST 0.6666667
set TEST 0.3333333
Reverse Reverse 1.0000000
instance RenderContext 0.1428571
from RenderContext 0.1428571
RenderContext RenderContext 0.2857143
a RenderContext 0.1428571
class RenderContext 0.1428571
of RenderContext 0.1428571
for SelectDateWidget 0.1666667
SelectDateWidget SelectDateWidget 0.6666667
containing SelectDateWidget 0.1666667
assign ModuleType 0.5000000
types.ModuleType ModuleType 0.5000000
bufsize bufsize 1.0000000
NULL unmigrated 0.1250000
executor.loader.unmigrated unmigrated 0.5000000
unmigrated unmigrated 0.3750000
exception RawPostDataException 0.1666667
RawPostDataException RawPostDataException 0.6666667
from RawPostDataException 0.1666667
prev prev 1.0000000
PVOID PVOID 1.0000000
InterBoundaryIter InterBoundaryIter 0.3333333
instance InterBoundaryIter 0.1666667
from InterBoundaryIter 0.1666667
created InterBoundaryIter 0.1666667
class InterBoundaryIter 0.1666667
2 dotted 0.1111111
dotted dotted 0.8888889
runserver runserver 1.0000000
culling culling 1.0000000
token.source. source 0.0129870
self.source source 0.0389610
3 source 0.0259740
NULL source 0.0259740
source source 0.7402597
a source 0.0259740
self.source. source 0.0259740
node.source. source 0.0129870
token.source source 0.0649351
source.is source 0.0129870
make source 0.0129870
striptags striptags 0.3333333
an striptags 0.3333333
the striptags 0.3333333
shutil.move the 0.0039841
Get the 0.0039841
used the 0.0039841
Tells the 0.0039841
determine the 0.0039841
more the 0.0039841
Installs the 0.0039841
Locales the 0.0039841
squashed the 0.0039841
be the 0.0079681
the the 0.5458167
synchronize the 0.0039841
dumped the 0.0039841
given the 0.0039841
Specifies the 0.0039841
threading the 0.0039841
Prints the 0.0318725
Please the 0.0119522
specified the 0.0039841
NULL the 0.3227092
entry the 0.0039841
posixpath.splitext the 0.0039841
Introspects the 0.0039841
.ModelName the 0.0039841
outside the 0.0039841
ENGINE ENGINE 0.6666667
NULL ENGINE 0.3333333
original original 0.9166667
NULL original 0.0833333
of export 1.0000000
boolean PY2 0.0606061
module PY2 0.0151515
False PY2 0.0151515
field PY2 0.0151515
otherwise PY2 0.0151515
is PY2 0.1363636
true PY2 0.2878788
True PY2 0.0454545
str. PY2 0.0151515
time PY2 0.0151515
PY2 PY2 0.0303030
if PY2 0.0151515
six.PY2 PY2 0.3333333
TEST live 1.0000000
flush zfile 0.0714286
stream zfile 0.2142857
zfile.close. zfile 0.0714286
zfile zfile 0.3571429
zbuf. zfile 0.0714286
zfile.write zfile 0.0714286
call zfile 0.1428571
ctypes.wintypes wintypes 1.0000000
idna idna 1.0000000
which loc 0.2000000
formated loc 0.2000000
is loc 0.2000000
loc loc 0.4000000
&apos; dev&apos; 0.3333333
. dev&apos; 0.3333333
dev dev&apos; 0.3333333
one python 0.0107527
dictionary python 0.0107527
getInnerText python 0.0107527
xml python 0.0107527
NULL python 0.0322581
django.core.serializers.python python 0.0430108
unpacked python 0.0107527
python python 0.8602151
kwargs. python 0.0107527
change change 0.8000000
id change 0.2000000
response.status 100 0.1000000
integer 100 0.3000000
NULL 100 0.1000000
100 100 0.5000000
NULL tkinter.filedialog 1.0000000
NULL HTTPDigestAuthHandler 1.0000000
reflected reflected 1.0000000
accessed accessed 1.0000000
CONTROL-C CTRL-BREAK 1.0000000
list validators 0.0487805
validators.EMPTY validators 0.0243902
self.validators validators 0.0731707
validators.MinLengthValidator validators 0.0487805
self.validators. validators 0.0243902
django.core.validators validators 0.0487805
NULL validators 0.0731707
validators validators 0.3902439
validators.MaxValueValidator validators 0.0487805
validators.validate validators 0.0731707
validators.MinValueValidator validators 0.0487805
validators.RegexValidator validators 0.0243902
result.validators. validators 0.0243902
validators.MaxLengthValidator validators 0.0487805
call Saturday 1.0000000
anonymous anonymous 1.0000000
v2 v2 1.0000000
from SubWidget 0.1428571
instance SubWidget 0.1428571
SubWidget SubWidget 0.4285714
5 SubWidget 0.1428571
created SubWidget 0.1428571
substitute location 0.0322581
self.location. location 0.0322581
None. location 0.0322581
and location 0.0322581
NULL location 0.0967742
location. location 0.0322581
self.location location 0.0322581
location location 0.7096774
form Node 0.0136986
class Node 0.0273973
base Node 0.3835616
Node Node 0.5342466
from Node 0.0410959
NULL splitquery 1.0000000
opname opname 1.0000000
class RegexValidator 0.1363636
RegexValidator RegexValidator 0.2727273
a RegexValidator 0.2272727
form RegexValidator 0.0454545
created RegexValidator 0.0909091
instance RegexValidator 0.1363636
validators.RegexValidator RegexValidator 0.0454545
3 RegexValidator 0.0454545
times times 0.3333333
NULL times 0.6666667
are are 0.4347826
initial are 0.0434783
NULL are 0.5217391
NULL either 0.5000000
either either 0.5000000
arguments args2 0.3333333
2 args2 0.3333333
args2 args2 0.3333333
NULL resent-to 1.0000000
free free 1.0000000
base64d base64d 0.4545455
NULL base64d 0.0909091
base64 base64d 0.1818182
with base64d 0.0909091
.&apos; base64d 0.0909091
first base64d 0.0909091
NULL accepted 0.5000000
accepted accepted 0.5000000
dictionary maxSpare 1.0000000
NULL uppercase 1.0000000
self.prepend prepend 0.3333333
prepend prepend 0.3333333
function prepend 0.3333333
empty TypedMultipleChoiceField 0.0833333
NULL TypedMultipleChoiceField 0.0833333
TypedMultipleChoiceField TypedMultipleChoiceField 0.2500000
if TypedMultipleChoiceField 0.0833333
not TypedMultipleChoiceField 0.0833333
self.empty TypedMultipleChoiceField 0.0833333
list. TypedMultipleChoiceField 0.0833333
class TypedMultipleChoiceField 0.2500000
exception DisallowedRedirect 0.2000000
DisallowedRedirect DisallowedRedirect 0.6000000
from DisallowedRedirect 0.2000000
NULL dbm.gnu 1.0000000
for DSTOFFSET 0.3333333
self.DSTOFFSET. DSTOFFSET 0.5000000
self.DSTOFFSET DSTOFFSET 0.1666667
OneToOneField OneToOneField 1.0000000
LocMemCache LocMemCache 0.6666667
from LocMemCache 0.3333333
Sign Sign 1.0000000
WAIT WAIT 1.0000000
if STORAGE 0.2500000
STORAGE STORAGE 0.2500000
NULL STORAGE 0.2500000
not STORAGE 0.2500000
NULL Tkinter 1.0000000
self.compression compression 1.0000000
containing behaving 1.0000000
argument Twister 1.0000000
-e -e 0.7500000
NULL -e 0.2500000
self.mutex. mutex 0.1111111
self.mutex mutex 0.4444444
perform mutex 0.4444444
UNIQUE UNIQUE 1.0000000
instances const 1.0000000
NULL mass 0.5000000
mass mass 0.5000000
additional additional 0.5000000
NULL additional 0.5000000
TextInput TextInput 0.7500000
called TextInput 0.0625000
from TextInput 0.1250000
class TextInput 0.0625000
Message-ID Message-ID 1.0000000
RadioSelect RadioSelect 0.3333333
strings RadioSelect 0.3333333
from RadioSelect 0.3333333
element endspaceless 0.5000000
endspaceless endspaceless 0.5000000
RemovedInDjango20Warning RemovedInDjango20Warning 0.5000000
NULL RemovedInDjango20Warning 0.5000000
djangoprojects djangoprojects 1.0000000
. bz2 0.1428571
bz2 bz2 0.7142857
2 bz2 0.1428571
instance Header 0.1724138
Header Header 0.3793103
created Header 0.1724138
class Header 0.2413793
instantiate Header 0.0344828
uffff uffff 0.5000000
&#93; uffff 0.5000000
CHARSET filepath 0.0833333
self.filepath.resolve filepath 0.0416667
filepath filepath 0.8333333
self.filepath. filepath 0.0416667
feed strings 0.0344828
NULL strings 0.2413793
onlys strings 0.0344828
author strings 0.0344828
string strings 0.1034483
or strings 0.0344828
None strings 0.0344828
strings strings 0.4827586
percent percent 1.0000000
self.absolute Please 0.0500000
NULL Please 0.3000000
Please Please 0.6500000
below below 1.0000000
serialized serialized 0.6666667
specified serialized 0.3333333
NULL msgmerge 0.2222222
self.msgmerge msgmerge 0.3333333
msgmerge msgmerge 0.4444444
class Library 0.1818182
instance Library 0.1818182
form Library 0.0454545
Library Library 0.4090909
an Library 0.1818182
self.program + 0.0026385
resultclasses + 0.0013193
append + 0.1583113
appended + 0.0013193
.moves.urllib.error + 0.0026385
units + 0.0013193
NULL + 0.0976253
string + 0.0039578
index + 0.0039578
self.quertset + 0.0013193
.moves.urllib + 0.0026385
increment + 0.0197889
to + 0.0540897
globalpath + 0.0013193
result + 0.0224274
subtraction + 0.0013193
concatenate + 0.0079156
the + 0.0131926
and + 0.0989446
character + 0.0092348
take + 0.0013193
+ + 0.0963061
prepend + 0.0013193
add + 0.0131926
, + 0.1543536
&apos; + 0.0013193
uppercase + 0.0013193
sum + 0.0263852
by + 0.1398417
timetuple + 0.0026385
it + 0.0250660
six.integer + 0.0026385
incremented + 0.0197889
django.http.cookies + 0.0013193
-th + 0.0026385
) + 0.0026385
create + 0.0026385
Http404 Http404 0.5000000
http.Http404 Http404 0.1666667
NULL Http404 0.3333333
NULL red 0.9000000
red red 0.1000000
MinLengthValidator MinLengthValidator 0.3333333
validators.MinLengthValidator MinLengthValidator 0.3333333
form MinLengthValidator 0.3333333
on by 0.0270270
NULL by 0.1891892
by by 0.7837838
iadd iadd 1.0000000
disabled disabled 0.5000000
logger.disabled disabled 0.5000000
result assigned 0.2857143
as assigned 0.1428571
of assigned 0.2857143
assigned assigned 0.2857143
elements bytearray 0.1666667
2 bytearray 0.1666667
a bytearray 0.1666667
bytearray bytearray 0.3333333
tuple bytearray 0.1666667
NULL able 1.0000000
for B 0.2500000
B B 0.7500000
exists query 0.0434783
call query 0.0434783
result query 0.0869565
query query 0.8260870
called ChoiceField 0.0434783
ChoiceField ChoiceField 0.4782609
NULL ChoiceField 0.0434783
7 ChoiceField 0.0434783
class ChoiceField 0.3478261
from ChoiceField 0.0434783
&apos; 0123456789ABCDEF&apos; 0.5000000
0123456789ABCDEF 0123456789ABCDEF&apos; 0.5000000
file fh 0.2307692
call fh 0.1538462
following fh 0.1538462
fh fh 0.4615385
QUERY QUERY 0.6666667
dictionary QUERY 0.3333333
NULL SplitHiddenDateTimeWidget 0.2857143
SplitHiddenDateTimeWidget SplitHiddenDateTimeWidget 0.4285714
class SplitHiddenDateTimeWidget 0.1428571
from SplitHiddenDateTimeWidget 0.1428571
exist exists 0.0408163
dirs. exists 0.0204082
exists exists 0.7346939
path. exists 0.0204082
doesnt exists 0.0408163
NULL exists 0.0612245
self.exists exists 0.0204082
os.path.exists exists 0.0612245
NULL Internal 0.3333333
Internal Internal 0.3333333
in Internal 0.3333333
move.name setattr 0.0250000
attribute setattr 0.2500000
attr.name setattr 0.1500000
setattr setattr 0.0500000
set setattr 0.5250000
variables global 0.0416667
variable global 0.2708333
NULL global 0.0208333
archive.getmembers global 0.0208333
global global 0.3541667
use global 0.2708333
declare global 0.0208333
alternate alternate 0.2500000
use alternate 0.2500000
a alternate 0.5000000
for ROOT 0.2500000
ROOT ROOT 0.2500000
. ROOT 0.2500000
location ROOT 0.2500000
181 334 1.0000000
NULL FTPHandler 1.0000000
blankout blankout 1.0000000
sort sort 0.5000000
ordering.sort sort 0.0714286
fields. sort 0.0714286
list sort 0.0714286
elements sort 0.2142857
on sort 0.0714286
dictConfigClass dictConfigClass 1.0000000
rights rights 1.0000000
NULL HTMLParser 0.0588235
call HTMLParser 0.1176471
parser.HTMLParser. HTMLParser 0.1176471
from HTMLParser 0.1176471
HTMLParser HTMLParser 0.5882353
beginning 0 0.0166028
element 0 0.1468710
EXCL 0 0.0012771
doomed 0 0.0012771
first 0 0.1724138
0 0 0.3065134
integers 0 0.0102171
firs 0 0.0012771
equal 0 0.0012771
3 0 0.0012771
integer 0 0.2324393
. 0 0.0025543
containing 0 0.0025543
zeros 0 0.0025543
zero 0 0.0102171
beggining 0 0.0012771
0&apos; 0 0.0012771
at 0 0.0038314
binary 0 0.0012771
than 0 0.0012771
output. 0 0.0012771
NULL 0 0.0791826
1 0 0.0012771
checkout checkout 1.0000000
NULL probably 0.5000000
probably probably 0.5000000
from CachedDnsName 0.1250000
instance CachedDnsName 0.1250000
a CachedDnsName 0.1250000
class CachedDnsName 0.1250000
CachedDnsName CachedDnsName 0.5000000
a-z0-9.- a-z0-9.- 1.0000000
NULL HTTPError 1.0000000
created PythonDeserializer 0.1000000
return PythonDeserializer 0.2000000
value PythonDeserializer 0.2000000
PythonDeserializer PythonDeserializer 0.4000000
called PythonDeserializer 0.1000000
j j 0.5172414
j-th j 0.1034483
the j 0.0344828
add j 0.0344828
. j 0.2068966
sum j 0.0344828
of j 0.0344828
NULL j 0.0344828
NUM NUM 0.8461538
NULL NUM 0.1538462
management management 0.0821918
django.core.management.color management 0.0821918
self.management management 0.0684932
django.core.management.sql management 0.1369863
django.core.management management 0.0547945
django.core.management.utils management 0.0410959
NULL management 0.0410959
django.core.management.base management 0.4520548
django.core.management.commands.check management 0.0136986
django.core.management.templates management 0.0273973
UTC UTC 0.8000000
from UTC 0.2000000
System System 0.6666667
in System 0.3333333
strfunc strfunc 1.0000000
Named Named 1.0000000
NULL commas 0.7500000
commas commas 0.2500000
--no-color --no-color 1.0000000
archive.printdir printdir 0.3333333
2 printdir 0.3333333
arguments printdir 0.3333333
tablenames tablenames 1.0000000
django.core.serializers.base serializers 0.0526316
serializers serializers 0.6140351
django.core.serializers.python serializers 0.0701754
call serializers 0.0526316
f serializers 0.0350877
django.core.serializers serializers 0.0350877
NULL serializers 0.0526316
serializers.serialize serializers 0.0175439
serializers.get serializers 0.0350877
serializers.deserialize serializers 0.0175439
return serializers 0.0175439
not unexpected 0.1250000
unexpected unexpected 0.6250000
are unexpected 0.1250000
they unexpected 0.1250000
fixtures label.ModelName 0.2500000
from label.ModelName 0.2500000
database label.ModelName 0.2500000
dump label.ModelName 0.2500000
Variable Variable 0.3500000
filed Variable 0.0500000
django.template. Variable 0.0250000
class Variable 0.1750000
a Variable 0.0500000
resolve Variable 0.0500000
NULL Variable 0.0250000
form Variable 0.0250000
instantiate Variable 0.0250000
instance Variable 0.1000000
created Variable 0.1000000
VariableDoesNotExist. Variable 0.0250000
NULL char 0.0833333
cahr char 0.0416667
char char 0.8750000
NULL TEAPOT 1.0000000
integer integer 0.5833333
six.integer integer 0.4166667
tuple unpickle 0.2500000
4 unpickle 0.2500000
unpickle unpickle 0.5000000
with second 0.0800000
self.data.second. second 0.0400000
second second 0.5200000
self.second second 0.1200000
5 second 0.0400000
NULL second 0.1600000
are second 0.0400000
pyinotify.ProcessEvent. ProcessEvent 0.2500000
class ProcessEvent 0.2500000
base ProcessEvent 0.2500000
from ProcessEvent 0.2500000
system system 0.8214286
NULL system 0.1785714
function pluralize 0.5000000
pluralize pluralize 0.5000000
NULL py.warnings 0.5000000
py.warnings py.warnings 0.5000000
NULL marked 1.0000000
NULL POST 0.5000000
POST POST 0.5000000
NULL IP 0.5000000
IP IP 0.5000000
includes includes 1.0000000
MinValueValidator MinValueValidator 0.5000000
validators.MinValueValidator MinValueValidator 0.5000000
form URLValidator 0.1111111
validators.URLValidator URLValidator 0.1111111
class URLValidator 0.3333333
URLValidator URLValidator 0.4444444
a isfile 0.3333333
is isfile 0.3333333
file isfile 0.3333333
Python Python 0.9333333
NULL Python 0.0666667
&apos; i 0.0075758
i i 0.6174242
subject. i 0.0113636
output. i 0.0037879
NULL i 0.0757576
replaced i 0.0037879
formatstr i 0.0037879
with i 0.0075758
href i 0.0037879
s i 0.0037879
% i 0.0037879
respectivley i 0.0037879
i-th i 0.1325758
where i 0.0037879
self.attrs.copy i 0.0037879
element i 0.0492424
increment i 0.0568182
re.I i 0.0075758
false autofield 0.5000000
autofield autofield 0.5000000
charref charref 1.0000000
from DummyCache 0.3333333
DummyCache DummyCache 0.6666667
empty glob-style 0.5000000
Follows glob-style 0.5000000
value consisting 1.0000000
nontext nontext 1.0000000
. mixed&apos; 0.3333333
mixed mixed&apos; 0.3333333
&apos; mixed&apos; 0.3333333
URLCONF URLCONF 0.5000000
for URLCONF 0.5000000
uncaught uncaught 1.0000000
transform transform 1.0000000
NULL ARGUMENT 0.6666667
ARGUMENT ARGUMENT 0.3333333
NULL REQUESTS 0.5000000
REQUESTS REQUESTS 0.5000000
self.block. blocks 0.0526316
self.blocks blocks 0.2631579
of blocks 0.0526316
get blocks 0.0526316
blocks blocks 0.5263158
NULL blocks 0.0526316
strings BaseForm 0.1250000
BaseForm BaseForm 0.6250000
from BaseForm 0.2500000
year year&apos; 0.2222222
return year&apos; 0.1111111
value year&apos; 0.1111111
as year&apos; 0.1111111
&apos; year&apos; 0.2222222
of year&apos; 0.1111111
an year&apos; 0.1111111
re-run re-run 1.0000000
name2 name2 1.0000000
next init 0.0028409
lazy init 0.0028409
render init 0.0028409
NULL init 0.0028409
init init 0.9772727
initialization init 0.0056818
called init 0.0028409
reload init 0.0028409
threading auto-reloader 1.0000000
to 16 0.2500000
number 16 0.1666667
converted 16 0.0833333
NULL 16 0.2500000
hexadecimal 16 0.2500000
lib2to3.fixer fixer 0.3333333
fixer fixer 0.6666667
yaml.load SafeLoader 0.3333333
SafeLoader SafeLoader 0.6666667
SyndicationFeed SyndicationFeed 0.8000000
from SyndicationFeed 0.2000000
fname fname 0.8518519
call fname 0.1111111
NULL fname 0.0370370
errno.ENOENT ENOENT 0.7500000
errno.EEXIST ENOENT 0.2500000
from Serializer 0.2380952
NULL Serializer 0.0952381
Serializer Serializer 0.5714286
base.Serializer Serializer 0.0952381
: modulename.TestCase 1.0000000
doseq doseq 0.3333333
NULL doseq 0.3333333
set doseq 0.3333333
SYSTEM SYSTEM 1.0000000
self.endChannelElement endChannelElement 0.5000000
endChannelElement endChannelElement 0.5000000
call calculate 0.1666667
function calculate 0.3333333
the calculate 0.1666667
calculate calculate 0.3333333
6 GROUPING 0.5000000
arguments GROUPING 0.5000000
an L 0.3333333
the L 0.3333333
L L 0.3333333
hhmm hhmm 1.0000000
10 Jan. 1.0000000
SystemExit SystemExit 1.0000000
members members 1.0000000
xef xef 1.0000000
nMETA nMETA 1.0000000
NULL final 0.0888889
base final 0.0222222
final final 0.6444444
path. final 0.0222222
attrs. final 0.0444444
2 final 0.0222222
flatatt final 0.0444444
call final 0.1111111
RFC RFC 1.0000000
self.cmd. called 0.0769231
back called 0.0769231
self.close called 0.2307692
False called 0.0769231
called called 0.5384615
function pformat 0.3333333
pformat pformat 0.4761905
NULL pformat 0.1904762
they bool 0.0263158
object bool 0.0263158
are bool 0.0263158
self.dict bool 0.0263158
a bool 0.0263158
value. bool 0.0263158
into bool 0.0789474
inverted bool 0.0263158
self.changed bool 0.0263158
program bool 0.0263158
boolean bool 0.1052632
convert bool 0.1842105
and bool 0.0263158
bool bool 0.3157895
self.name bool 0.0263158
value bool 0.0263158
06d 06d 0.5000000
formated 06d 0.5000000
sysid sysid 0.7000000
self.sysid sysid 0.1500000
self.sysid. sysid 0.1500000
NULL activity 1.0000000
&#91; x1b 0.5000000
x1b x1b 0.5000000
wish wish 1.0000000
squash until 0.0588235
NULL until 0.2352941
until until 0.7058824
substitute StreamHandler 0.3333333
logging.StreamHandler StreamHandler 0.3333333
result StreamHandler 0.3333333
NULL full 0.0400000
replace full 0.0400000
self.full full 0.1200000
full full 0.7600000
self.instance.full full 0.0400000
from RequireDebugFalse 0.2500000
base RequireDebugFalse 0.2500000
logging.Filter RequireDebugFalse 0.2500000
RequireDebugFalse RequireDebugFalse 0.2500000
SUBJECT SUBJECT 1.0000000
nt nt 0.8000000
NULL nt 0.2000000
first argv 0.0571429
self.argv. argv 0.0571429
two argv 0.0285714
self.argv argv 0.1714286
sys.argv argv 0.0285714
argv argv 0.4857143
without argv 0.0857143
NULL argv 0.0857143
Cleaning Cleaning 1.0000000
constructor constructor 0.3333333
a constructor 0.6666667
month month&apos; 0.2222222
&apos; month&apos; 0.2222222
return month&apos; 0.1111111
value month&apos; 0.1111111
as month&apos; 0.1111111
of month&apos; 0.1111111
an month&apos; 0.1111111
January November 0.2500000
for November 0.2500000
1 November 0.2500000
NULL November 0.2500000
django.db.migrations.autodetector migrations 0.0253165
django.db.migrations.optimizer migrations 0.0126582
during migrations 0.0126582
django.db.migrations.questioner migrations 0.0126582
django.db.migrations.writer migrations 0.0253165
django.db.migrations.loader migrations 0.0632911
migrations migrations 0.6582278
django.db.migrations migrations 0.0126582
argument migrations 0.0126582
NULL migrations 0.1645570
`request.POST` &apos;`request.POST` 1.0000000
HttpResponseNotFound HttpResponseNotFound 0.2500000
from HttpResponseNotFound 0.2500000
HttpResponsePermanentRedirect HttpResponseNotFound 0.2500000
NULL HttpResponseNotFound 0.2500000
function cleanup 0.5000000
cleanup cleanup 0.5000000
REASON REASON 1.0000000
`streaming `streaming 1.0000000
refto references 0.0322581
references.setdefault references 0.0645161
method references 0.1290323
model references 0.0322581
references.keys references 0.0322581
return references 0.0967742
called references 0.0322581
references references 0.5161290
references.items references 0.0645161
NULL achieve 0.3333333
tuple achieve 0.3333333
containing achieve 0.3333333
ustring ustring 0.6666667
method ustring 0.3333333
Unable Unable 1.0000000
rows rows 0.2500000
cols rows 0.2500000
for rows 0.5000000
1,8 1,8 1.0000000
an IfEqualNode 0.1428571
instance IfEqualNode 0.1428571
IfEqualNode IfEqualNode 0.4285714
created IfEqualNode 0.1428571
class IfEqualNode 0.1428571
meta.exclude construct 0.0666667
NULL construct 0.0666667
construct construct 0.8666667
return unclosed 0.1666667
result. unclosed 0.1666667
unclosed unclosed 0.3333333
the unclosed 0.3333333
NULL ifilter 1.0000000
evaluate WRONLY 1.0000000
perform netloc 0.0769231
info.netloc netloc 0.2307692
netloc netloc 0.3846154
call netloc 0.1538462
false netloc 0.0769231
netloc.encode netloc 0.0769231
relobj relobj 1.0000000
as emitting 0.1000000
. emitting 0.1000000
result emitting 0.1000000
of emitting 0.1000000
it emitting 0.1000000
generator emitting 0.1000000
emitting emitting 0.3000000
the emitting 0.1000000
iterable iterable 0.7692308
called iterable 0.0769231
iterables iterable 0.1538462
into w 0.0204082
integer. w 0.0204082
NULL w 0.1836735
w.media w 0.0204082
converted w 0.0204082
assign w 0.0204082
w.is w 0.0204082
os.W w 0.0204082
append w 0.0204082
w w 0.6530612
OverflowError OverflowError 0.4545455
caught OverflowError 0.0909091
exceptions OverflowError 0.0909091
exception OverflowError 0.0909091
or OverflowError 0.1818182
are OverflowError 0.0909091
config configs 0.1224490
NULL configs 0.1020408
results configs 0.0408163
defaulting configs 0.0612245
configs configs 0.6734694
and attrvalue 0.0434783
first attrvalue 0.0434783
character attrvalue 0.1304348
remove attrvalue 0.0434783
are attrvalue 0.0434783
on attrvalue 0.0434783
not attrvalue 0.0434783
last attrvalue 0.0869565
attrvalue attrvalue 0.3478261
set attrvalue 0.0434783
empty attrvalue 0.0434783
NULL attrvalue 0.0434783
an attrvalue 0.0434783
kind after 0.0625000
prompt after 0.1250000
NULL after 0.2500000
Nominates after 0.0625000
a after 0.0625000
obsolete after 0.0625000
after after 0.3750000
safeseq safeseq 0.3333333
the safeseq 0.3333333
an safeseq 0.3333333
smaller few 1.0000000
time.daylight daylight 0.5000000
true daylight 0.5000000
intrans intrans 1.0000000
CommandParser CommandParser 0.3684211
class CommandParser 0.2631579
created CommandParser 0.1052632
from CommandParser 0.0526316
instance CommandParser 0.1052632
3 CommandParser 0.1052632
u005C u005C 1.0000000
NULL 300 0.0909091
300 300 0.3636364
. 300 0.1818182
integer 300 0.3636364
fixing Create 0.2000000
Enable Create 0.2000000
conflicts Create 0.2000000
of Create 0.2000000
migration Create 0.2000000
NULL fqdn 0.2000000
fqdn fqdn 0.8000000
to which 0.0769231
wiht which 0.0769231
NULL which 0.4615385
which which 0.3076923
model which 0.0769231
NULL tkinter.scrolledtext 1.0000000
pat subs 0.1250000
norm subs 0.1250000
covert subs 0.1250000
formated subs 0.1250000
subs subs 0.5000000
DjangoUnicodeDecodeError DjangoUnicodeDecodeError 0.3333333
from DjangoUnicodeDecodeError 0.3333333
DjingoUnicodeDecodeError DjangoUnicodeDecodeError 0.3333333
call overlapped 0.3333333
overlapped overlapped 0.6666667
order order 0.5000000
qs.order order 0.0625000
NULL order 0.1875000
entries order 0.0625000
callback order 0.0625000
formfield order 0.0625000
texts order 0.0625000
th th&apos; 0.3333333
. th&apos; 0.3333333
&apos; th&apos; 0.3333333
Base36 Base36 1.0000000
&quot; &apos;localhost 1.0000000
from DictWrapper 0.1666667
class DictWrapper 0.3333333
DictWrapper DictWrapper 0.5000000
NULL requires 0.1071429
self.requires requires 0.1071429
&quot; requires 0.0357143
requires requires 0.7500000
email.mime.message mime 0.0476190
email.mime.text mime 0.0476190
NULL mime 0.2380952
email.mime.base mime 0.0476190
self.mime mime 0.0476190
mime mime 0.4761905
email.mime.multipart mime 0.0476190
self.length mime 0.0476190
formset.is is 0.0011834
and is 0.0011834
boolean is 0.0035503
source.is is 0.0011834
points is 0.0011834
function is 0.0011834
bf.is is 0.0011834
widget.is is 0.0047337
e.is is 0.0047337
w.is is 0.0011834
NULL is 0.0579882
to is 0.0035503
is is 0.8544379
equals is 0.0023669
func.is is 0.0011834
expression. is 0.0011834
evaluates is 0.0035503
self.field.widget.is is 0.0011834
are is 0.0023669
field.is is 0.0023669
settings.is is 0.0059172
form.is is 0.0059172
self.is is 0.0307692
if is 0.0011834
timezone.is is 0.0035503
_ is 0.0011834
contradiction contradiction 0.6666667
NULL contradiction 0.3333333
NULL 507 1.0000000
boolean deps 0.0526316
deps deps 0.6315789
to deps 0.0526316
a deps 0.0526316
True deps 0.0526316
NULL deps 0.0526316
add deps 0.0526316
in deps 0.0526316
self.exit exit 0.0238095
self.stderr. exit 0.0238095
process exit 0.0714286
sys.exit exit 0.1190476
exit exit 0.5238095
program exit 0.0952381
function exit 0.0952381
code exit 0.0476190
of COUNT 0.0588235
COUNT COUNT 0.7058824
NULL COUNT 0.2352941
CRITICALS INFOS 1.0000000
windll windll 0.3333333
windll.kernel32.UnlockFileEx windll 0.3333333
NULL windll 0.3333333
NULL 9&apos; 1.0000000
Nov Nov 1.0000000
binary binary 1.0000000
, https&apos; 0.1666667
https https&apos; 0.3333333
. https&apos; 0.1666667
&apos; https&apos; 0.3333333
NULL HTTPBasicAuthHandler 1.0000000
limited limited 0.3636364
return limited 0.1818182
value limited 0.1818182
limiter limited 0.0909091
into limited 0.0909091
store limited 0.0909091
rjust rjust 0.5000000
value.rjust rjust 0.5000000
6 6 0.5151515
result 6 0.0606061
eight 6 0.0303030
seventh 6 0.0606061
integer 6 0.1515152
of 6 0.0303030
Sat 6 0.0303030
NULL 6 0.1212121
NULL candidates 0.3333333
candidates candidates 0.6666667
call MIMEText 0.3750000
MIMEText MIMEText 0.6250000
NULL HttpRequest 0.2000000
HttpRequest HttpRequest 0.6000000
from HttpRequest 0.2000000
ModelFormOptions ModelFormOptions 0.5000000
class ModelFormOptions 0.2500000
instantiate ModelFormOptions 0.2500000
xgettext xgettext 0.4545455
NULL xgettext 0.3636364
self.xgettext xgettext 0.1818182
description description 0.6818182
called description 0.0454545
NULL description 0.2727273
NULL PERMANENTLY 1.0000000
defaulting on 0.0333333
on on 0.7000000
NULL on 0.2000000
--traceback on 0.0666667
Synchronize Synchronize 0.5000000
a Synchronize 0.5000000
multiple specify 0.3333333
--exclude specify 0.3333333
specify specify 0.3333333
slice slice 0.7500000
type slice 0.2500000
from SuspiciousFileOperation 0.2000000
SuspiciousFileOperation SuspiciousFileOperation 0.6000000
exception SuspiciousFileOperation 0.2000000
NULL p1 0.5000000
p2.scheme p1 0.2500000
return p1 0.2500000
NULL bypass 1.0000000
cull cull 0.9473684
NULL cull 0.0526316
entries u003E 1.0000000
reg-exp reg-exp 1.0000000
ipython ipython 0.9090909
self.shells ipython 0.0909091
element endwith 0.5000000
endwith endwith 0.5000000
NULL using 0.1190476
database using 0.0238095
self.using. using 0.0238095
self.database. using 0.0238095
objects.using using 0.0238095
using using 0.5714286
qs.using using 0.0238095
to using 0.0238095
self.using using 0.1666667
elements elements 0.9230769
NULL elements 0.0769231
result rfc3339 0.2142857
function rfc3339 0.2857143
rfc3339 rfc3339 0.2857143
of rfc3339 0.2142857
FAKED FAKED 0.5000000
as FAKED 0.5000000
of ALT 0.3333333
ALT ALT 0.6666667
words word 0.0588235
NULL word 0.0588235
self.WORD word 0.0588235
it word 0.0588235
word word 0.7058824
WORD word 0.0588235
self.tagtype. tagtype 0.2500000
tagtype tagtype 0.5000000
self.tagtype tagtype 0.2500000
kw kw 0.6800000
convert kw 0.0800000
dictionary. kw 0.0400000
six.iteritems kw 0.0200000
a kw 0.0200000
update kw 0.0400000
NULL kw 0.0600000
value kw 0.0600000
halt halt 1.0000000
2 strptime 0.2352941
arguments strptime 0.2352941
datetime.datetime.strptime strptime 0.2352941
strptime strptime 0.2352941
self.strptime strptime 0.0588235
opfunc opfunc 1.0000000
100 203 1.0000000
widget widget 0.5928571
widget.id widget 0.0142857
self.field.widget widget 0.0071429
bwidget widget 0.0071429
Select widget 0.0071429
self.field.widget.value widget 0.0071429
self.field.widget.subwidgets widget 0.0071429
required widget 0.0071429
widget.value widget 0.0142857
self.widget widget 0.0214286
NULL widget 0.0928571
result.widget. widget 0.0071429
widget.is widget 0.0214286
widget.attrs. widget 0.0071429
field.widget.value widget 0.0214286
widget.render widget 0.0214286
widget.attrs widget 0.0357143
self.widget.decompress widget 0.0071429
hidden widget 0.0071429
IntegerField widget 0.0071429
substitute widget 0.0714286
self.widget. widget 0.0071429
call widget 0.0071429
django.utils.synch synch 1.0000000
( MultiValueDict.update 0.5000000
MultiValueDict.update MultiValueDict.update 0.5000000
NULL LiveServerTestCase 1.0000000
7 Mon 0.5000000
Tuesday Mon 0.5000000
call etags 0.3333333
etags etags 0.6666667
get resolver 0.0256410
request.resolver resolver 0.0256410
resolver.namespace resolver 0.0256410
resolver.cache resolver 0.0512821
resolver.url resolver 0.0256410
respectively resolver 0.0256410
resolver.resolve resolver 0.0256410
call resolver 0.1025641
resolver.urlconf resolver 0.0256410
self.resolver resolver 0.0512821
resolver resolver 0.6153846
module decimal 0.0517241
otherwise decimal 0.0172414
self.decimal decimal 0.1551724
decimal.Decimal decimal 0.1034483
NULL decimal 0.1551724
decimal decimal 0.4827586
&apos; decimal 0.0172414
result. decimal 0.0172414
A-f0-9 A-f0-9 1.0000000
parser.endtagfind endtagfind 0.5000000
pattern endtagfind 0.5000000
django.utils.jslex jslex 1.0000000
po po 1.0000000
field.rel.through. through 1.0000000
NULL gunk 1.0000000
self.compare compare 0.0526316
compare compare 0.8947368
hmac.compare compare 0.0526316
instance SafeString 0.0526316
SafeString SafeString 0.1052632
SafeText SafeString 0.0526316
django.utils.safestring SafeString 0.7894737
re.sub re 0.0300300
re.split re 0.0060060
replaced re 0.0030030
t. re 0.0030030
re.error re 0.0030030
module re 0.0750751
substitute re 0.0120120
re.U re 0.0030030
norm re 0.0030030
PATTERN re 0.0030030
re.compile re 0.0120120
it re 0.0030030
re.search re 0.0210210
re re 0.2582583
re.I re 0.0090090
RE re 0.0030030
) re 0.0030030
re.S re 0.0030030
performed re 0.0060060
bitwise re 0.0030030
re.subn re 0.0030030
call re 0.1651652
project. re 0.0030030
? re 0.0030030
re. re 0.0150150
re.IGNORECASE re 0.0150150
re.finditer re 0.0090090
NULL re 0.1591592
regex. re 0.0030030
&#124; re 0.0060060
results re 0.0030030
re.UNICODE re 0.0090090
code. re 0.0030030
re.match re 0.0270270
result re 0.0180180
. re 0.0930931
tagfind re 0.0030030
types tuple 0.0674157
dir. tuple 0.0112360
or tuple 0.0337079
a tuple 0.1235955
it tuple 0.0112360
elements tuple 0.0224719
result.fields. tuple 0.0112360
formatted tuple 0.0112360
out tuple 0.0224719
tuple tuple 0.5505618
NULL tuple 0.0337079
into tuple 0.0224719
type tuple 0.0674157
data. tuple 0.0112360
NULL ProxyHandler 1.0000000
server server 0.7241379
server.WSGIRequestHandler server 0.0344828
server.WSGIServer server 0.0344828
NULL server 0.2068966
self.xml.endDocument endDocument 1.0000000
o.isoformat isoformat 0.6000000
result isoformat 0.2000000
self.data.isoformat isoformat 0.2000000
SWITCHING NON-AUTHORITATIVE 1.0000000
literal literal 0.6363636
self.literal. literal 0.0909091
self.literal literal 0.1818182
it literal 0.0909091
0,247 2,6 0.5000000
&quot; 2,6 0.5000000
colon colon 1.0000000
NULL expr 0.0454545
expr.resolve expr 0.1363636
self.val expr 0.0454545
WidthRatioNode expr 0.0454545
expr expr 0.6363636
expr.filters expr 0.0454545
respectively expr 0.0454545
in 39 1.0000000
silence silenced 0.1250000
NULL silenced 0.1250000
in silenced 0.1250000
issue silenced 0.1250000
settings.SILENCED silenced 0.1250000
silenced silenced 0.3750000
Singer Signer 0.1428571
from Signer 0.2857143
class Signer 0.1428571
Signer Signer 0.2857143
the Signer 0.1428571
failure failure 1.0000000
an addHandler 0.1666667
: addHandler 0.1666667
logger.addHandler addHandler 0.3333333
h-th addHandler 0.1666667
element addHandler 0.1666667
cookies.SimpleCookie SimpleCookie 0.0454545
cookies.SimpleCookie. SimpleCookie 0.0454545
from SimpleCookie 0.0454545
class SimpleCookie 0.1363636
SimpleCookie SimpleCookie 0.4545455
tc SimpleCookie 0.0454545
NULL SimpleCookie 0.0454545
instance SimpleCookie 0.1363636
created SimpleCookie 0.0454545
fileno fileno 0.1428571
sys.stdout.fileno. fileno 0.0714286
f.fileno fileno 0.0714286
define fileno 0.0714286
of fileno 0.0714286
so.fileno fileno 0.0714286
result fileno 0.4285714
in fileno 0.0714286
fist upper 0.0833333
to upper 0.0833333
upper upper 0.0833333
uppercase upper 0.4166667
languages upper 0.0833333
NULL upper 0.0833333
covert upper 0.0833333
letter upper 0.0833333
of SimplerXMLGenerator 0.1764706
SimplerXMLGenerator SimplerXMLGenerator 0.2941176
class SimplerXMLGenerator 0.1764706
created SimplerXMLGenerator 0.1764706
instance SimplerXMLGenerator 0.1764706
questioner questioner 0.4000000
call questioner 0.2000000
questioner.ask questioner 0.2000000
django.db.migrations.questioner questioner 0.2000000
in title 0.0645161
title title 0.8387097
NULL title 0.0967742
NULL TABLE 0.4285714
TABLE TABLE 0.5714286
endif endif 0.7500000
element endif 0.2500000
up ( 0.0000473
2 ( 0.0210452
string ( 0.0046820
7 ( 0.0000473
if ( 0.0000473
. ( 0.0052022
self.open. ( 0.0000473
self.autocomplete. ( 0.0000473
utility.execute. ( 0.0000473
fie ( 0.0000473
connection.client.runshell. ( 0.0000473
class ( 0.0071885
at ( 0.0009459
self.connection.ehlo. ( 0.0000946
elements ( 0.0004729
self.negate ( 0.0000946
instance ( 0.0000473
th ( 0.0000473
StopIteration ( 0.0002365
converted ( 0.0008986
doesnt ( 0.0005202
Whit ( 0.0000473
does ( 0.0004729
of ( 0.0758099
argument ( 0.1291558
releaseLock ( 0.0000473
point ( 0.0001419
integers ( 0.0007094
by ( 0.0032632
self.close. ( 0.0001419
self.file.close. ( 0.0000473
tuple ( 0.0071885
settings.configure. ( 0.0000946
self.form.error ( 0.0000473
self.pointer ( 0.0001419
iso ( 0.0000473
: ( 0.0318751
and ( 0.0003310
strings ( 0.0000946
iterable ( 0.0014188
between ( 0.0003783
the ( 0.0872547
zfile ( 0.0000473
together ( 0.0000946
connection.close ( 0.0000473
tmpdir ( 0.0001892
, ( 0.0030267
WSGIHandler ( 0.0000473
populate ( 0.0000473
to ( 0.0033105
HttpResponseBase ( 0.0000473
callable ( 0.0006621
acquireLock ( 0.0000473
strigs ( 0.0000473
regular ( 0.0000473
are ( 0.0001419
self.connection.close. ( 0.0000473
representation ( 0.0001892
statement ( 0.0000473
self.connection.quit. ( 0.0000473
case ( 0.0002365
an ( 0.1316623
extracted.close. ( 0.0000473
called ( 0.0013715
arguments ( 0.0288011
with ( 0.3114211
named ( 0.0002365
from ( 0.0067155
convert ( 0.0005202
divide ( 0.0001892
method ( 0.0075195
self.keyOrder. ( 0.0000473
handler.startDocument. ( 0.0000946
match.namespaces ( 0.0000473
NULL ( 0.0737763
attribute ( 0.0006148
or ( 0.0008986
a ( 0.0050603
it ( 0.0083235
on ( 0.0020336
list ( 0.0002365
object ( 0.0001892
self.reset. ( 0.0000473
3 ( 0.0000473
wiht ( 0.0001892
integer ( 0.0000946
return ( 0.0001419
iterator ( 0.0000946
created ( 0.0004256
words ( 0.0000473
directory ( 0.0007567
its ( 0.0003310
exception ( 0.0001892
exceptions ( 0.0002365
file ( 0.0018917
function ( 0.0062426
&apos; ( 0.0000946
sets ( 0.0000473
( ( 0.0202885
79 ( 0.0000946
NULL AbstractBasicAuthHandler 1.0000000
SyntaxWarning SyntaxWarning 1.0000000
is iterations 0.1000000
to iterations 0.2000000
5 iterations 0.1000000
converted iterations 0.1000000
iterations iterations 0.4000000
lesser iterations 0.1000000
--locale --locale 0.6666667
NULL --locale 0.3333333
SkipFile SkipFile 0.8000000
from SkipFile 0.2000000
is found 0.0256410
found found 0.8461538
substituted found 0.0256410
NULL found 0.1025641
newer newer 1.0000000
NULL UserString 1.0000000
datetime.date.today today 0.3333333
field today 0.3333333
function today 0.3333333
NULL https 0.1818182
info.scheme https 0.0909091
https https 0.6363636
or https 0.0909091
Prints Prints 1.0000000
value connections 0.0250000
NULL connections 0.0250000
access connections 0.0125000
connections connections 0.6875000
from connections 0.0875000
index connections 0.0125000
get connections 0.0750000
the connections 0.0625000
indexing connections 0.0125000
consisting t 0.0210526
t.led t 0.0105263
resulting t 0.0105263
t.nud t 0.0105263
list t 0.0105263
t.render t 0.0421053
. t 0.0842105
tuple t 0.0315789
tab t 0.0315789
decrement t 0.0105263
call t 0.0736842
t t 0.5473684
t.nodelist t 0.0105263
, t 0.0210526
value.title t 0.0105263
t.to t 0.0105263
funcname t 0.0105263
NULL t 0.0526316
KeyboardInterrupt KeyboardInterrupt 1.0000000
NULL django.contrib.messages.middleware.MessageMiddleware 1.0000000
email.mime.base base 0.0052632
django.core.management.base base 0.1736842
NULL base 0.0631579
primary base 0.0105263
base.BaseFix. base 0.0052632
self.base base 0.0526316
base base 0.4105263
apllying base 0.0052632
django.template.base base 0.0736842
django.core.serializers.base base 0.0157895
self.program base 0.0052632
base.Serializer base 0.0105263
.base base 0.0052632
django.core.cache.backends.base base 0.0315789
base.DeserializedObject base 0.0052632
os.path.splitext base 0.0052632
self.base. base 0.0105263
base.build base 0.0105263
django.core.files.base base 0.0105263
base.base base 0.0105263
django.core.mail.backends.base base 0.0210526
models.base.ModelBase base 0.0052632
base.declared base 0.0052632
settings.BASE base 0.0052632
base.SerializationError base 0.0052632
base.BaseHandler. base 0.0052632
class.base base 0.0105263
base.DeserializationError base 0.0210526
rb rb 0.5384615
reading rb 0.0769231
NULL rb 0.2307692
descriptor rb 0.1538462
--addrport --addrport 1.0000000
assign obj 0.0040161
. obj 0.0240964
obj.tzinfo obj 0.0040161
3 obj 0.0040161
Model obj 0.0040161
return obj 0.0200803
obj.save obj 0.0040161
an obj 0.0080321
m2m obj 0.0040161
obj.object. obj 0.0080321
2 obj 0.0040161
obj.save. obj 0.0040161
, obj 0.0080321
obj obj 0.6666667
value obj 0.0200803
self.obj. obj 0.0040161
obj.natural obj 0.0040161
of obj 0.0160643
NULL obj 0.0843373
obj.pk obj 0.0040161
call obj 0.0602410
with obj 0.0080321
self.obj obj 0.0120482
obj.delete. obj 0.0040161
field.rel.to. obj 0.0080321
elements obj 0.0080321
sy sy 1.0000000
method encode 0.2236842
netloc.encode encode 0.0263158
value.encode encode 0.0657895
path.encode encode 0.0131579
call encode 0.0131579
NULL encode 0.0394737
encode encode 0.3026316
val.encode encode 0.0263158
.encode encode 0.0131579
baseconv.base62.encode encode 0.0131579
boundary.encode encode 0.0131579
part.encode encode 0.0131579
on encode 0.0131579
domain.encode encode 0.0263158
name.encode encode 0.0131579
filename.encode encode 0.0263158
Encoders.encode encode 0.0131579
content.encode encode 0.0131579
e.encode encode 0.0263158
data.encode encode 0.0131579
called encode 0.0131579
text.encode encode 0.0131579
s.encode encode 0.0131579
result encode 0.0526316
NULL httplib 1.0000000
NULL minute 0.0800000
date.month minute 0.0400000
reminder minute 0.0800000
date.day minute 0.0400000
self.data.minute minute 0.1200000
time.second minute 0.0400000
d.microsecond minute 0.0400000
self.data.minute. minute 0.0400000
8 minute 0.0400000
time.minute minute 0.0400000
time.microsecond minute 0.0400000
time.hour minute 0.0400000
minute minute 0.2400000
d.second minute 0.0400000
d.tzinfo. minute 0.0400000
date.year minute 0.0400000
handler.feature feature 0.3333333
: feature 0.3333333
arguments feature 0.3333333
appended &apos;django.http.cookies 0.3333333
django.http.cookies &apos;django.http.cookies 0.3333333
to &apos;django.http.cookies 0.3333333
serializer serializer 0.7407407
value serializer 0.0370370
filed serializer 0.0370370
NULL serializer 0.1111111
Serializer serializer 0.0370370
base.Serializer serializer 0.0370370
function stringformat 0.5000000
stringformat stringformat 0.5000000
from InvalidPage 0.3333333
InvalidPage InvalidPage 0.5000000
the InvalidPage 0.1666667
NULL dependencies 0.2307692
dependencies dependencies 0.6923077
dependencies.reverse. dependencies 0.0769231
autoescape autoescape 0.5000000
true autoescape 0.0256410
None. autoescape 0.0128205
4 autoescape 0.0128205
self.autoescape. autoescape 0.0128205
if autoescape 0.0256410
context.autoescape. autoescape 0.0256410
use autoescape 0.0128205
context.autoescape autoescape 0.0512821
tz autoescape 0.0128205
NULL autoescape 0.0512821
set autoescape 0.2564103
flo flo 0.5000000
self.flo.read flo 0.2500000
self.flo. flo 0.2500000
NULL url 0.0800000
entries url 0.0066667
self.url. url 0.0066667
url url 0.7933333
url. url 0.0066667
2 url 0.0066667
self.url url 0.0333333
call url 0.0600000
resolver.url url 0.0066667
savepoint savepoint 0.5000000
set savepoint 0.5000000
--format --format 1.0000000
NULL 2,3 0.3333333
string 2,3 0.6666667
Starts Starts 1.0000000
errno.EACCES EADDRINUSE 1.0000000
Database Database 0.2500000
arguments. Database 0.2500000
database Database 0.2500000
as Database 0.2500000
NULL fromtimestamp 0.6000000
datetime.fromtimestamp fromtimestamp 0.2000000
function fromtimestamp 0.2000000
touch touch 0.6666667
function touch 0.3333333
Promise Promise 0.7500000
object Promise 0.1000000
class Promise 0.1500000
assertRaisesRegexp assertRaisesRegexp 1.0000000
httpd.set httpd 0.1250000
httpd httpd 0.2500000
httpd.daemon httpd 0.1250000
call httpd 0.5000000
NULL outlog 0.3333333
outlog outlog 0.6666667
call partial 0.1111111
object partial 0.1111111
function partial 0.1111111
name. partial 0.1111111
functools.partial partial 0.1111111
partial partial 0.2222222
NULL partial 0.1111111
8 partial 0.1111111
seemingly seemingly 1.0000000
--template --template 1.0000000
$ $ 0.7333333
&#124; $ 0.0222222
) $ 0.0444444
NULL $ 0.2000000
noreset noreset 1.0000000
take 255 0.1000000
NULL 255 0.1000000
elements 255 0.1000000
255 255 0.3000000
first 255 0.2000000
integer 255 0.2000000
NULL deactivate 0.0344828
method deactivate 0.1034483
trans.deactivate deactivate 0.0689655
function deactivate 0.2068966
deactivate deactivate 0.5172414
self.deactivate deactivate 0.0344828
self.deactivate. deactivate 0.0344828
bz2.BZ2File BZ2File 0.5000000
elements BZ2File 0.5000000
nThe nThe 1.0000000
non-iterable non-iterable 1.0000000
need need 1.0000000
time 1,2 0.0769231
1,2 1,2 0.6923077
NULL 1,2 0.2307692
strs.update strs 0.1666667
strs strs 0.5000000
strs.add strs 0.3333333
executor.loader.detect detect 0.5000000
loader.detect detect 0.5000000
function unregister 0.5000000
unregister unregister 0.5000000
is ModelFormMetaclass 0.1000000
None. ModelFormMetaclass 0.1000000
2 ModelFormMetaclass 0.1000000
not ModelFormMetaclass 0.1000000
ModelFormMetaclass ModelFormMetaclass 0.2000000
if ModelFormMetaclass 0.1000000
messages ModelFormMetaclass 0.1000000
self.error ModelFormMetaclass 0.1000000
_ ModelFormMetaclass 0.1000000
NULL TYPE 0.1538462
tuple TYPE 0.0769231
exist TYPE 0.0769231
TYPE TYPE 0.6923077
NULL PTR 0.2500000
PTR PTR 0.7500000
concrete concrete 0.3750000
opts.concrete concrete 0.2500000
concatenate concrete 0.2500000
NULL concrete 0.1250000
NULL simpledialog 1.0000000
HEAD HEAD 1.0000000
return mn 0.5000000
where mn 0.5000000
NULL prohibited 0.3333333
prohibited prohibited 0.3333333
None. prohibited 0.3333333
2 warn 0.0819672
warnings.warn warn 0.2868852
with warn 0.0327869
NULL warn 0.0163934
arguments warn 0.1967213
3 warn 0.1229508
function warn 0.2459016
warn warn 0.0163934
as while 0.0657895
long while 0.0394737
in while 0.0131579
endless while 0.1315789
NULL while 0.0131579
loop while 0.1315789
while while 0.6052632
only leading 0.0909091
leading leading 0.9090909
2005 2005 1.0000000
django.templatetags django.templatetags 1.0000000
NULL .tar.gz 1.0000000
another another 0.7500000
NULL another 0.2500000
surrogateescape surrogateescape 1.0000000
PyLibMCCache PyLibMCCache 0.6666667
class PyLibMCCache 0.3333333
self.total total 0.3043478
total total 0.5652174
NULL total 0.1304348
aAbBcdDeEfFgGhHiIjlLmMnNoOPrsStTUuwWyYzZ aAbBcdDeEfFgGhHiIjlLmMnNoOPrsStTUuwWyYzZ 1.0000000
ChunkIter ChunkIter 1.0000000
NULL ConfigParser 1.0000000
NULL medium 0.4000000
evaluates medium 0.1000000
medium medium 0.5000000
.tar .tar 1.0000000
self.mode mode 0.0196078
defaulting mode 0.0588235
NULL mode 0.0196078
file.mode mode 0.0196078
self.name mode 0.0196078
self.mode. mode 0.0196078
mode mode 0.8039216
instance mode 0.0196078
assign mode 0.0196078
function modelform 0.4285714
modelform modelform 0.5714286
illegal illegal 0.8333333
NULL illegal 0.1666667
varargs varargs 1.0000000
NULL BAD 0.7500000
BAD BAD 0.2500000
symbol -&apos; 0.0370370
NULL -&apos; 0.1111111
-&apos; -&apos; 0.7777778
in -&apos; 0.0740741
once once 1.0000000
zero backout 0.1111111
than backout 0.1111111
self.backout backout 0.3333333
greater backout 0.1111111
self.backout. backout 0.3333333
STATIC STATIC 1.0000000
NULL winreg 1.0000000
parseaddr parseaddr 0.5000000
value parseaddr 0.2500000
return parseaddr 0.2500000
NULL non-lazy 1.0000000
blocktrans blocktrans 1.0000000
: fresh 1.0000000
l10 l10n 0.0250000
as l10n 0.0250000
NULL l10n 0.3500000
l10n l10n 0.6000000
underscores underscores&apos; 0.5000000
&apos; underscores&apos; 0.5000000
underscore conceal 1.0000000
shell.mainloop. shell 0.0666667
call shell 0.0666667
with shell 0.0666667
shell shell 0.6666667
NULL shell 0.0666667
IPython.Shell shell 0.0666667
InputStreamExhausted InputStreamExhausted 0.7142857
from InputStreamExhausted 0.1428571
exception InputStreamExhausted 0.1428571
self.cyclevars cyclevars 0.2500000
cyclevars cyclevars 0.5000000
self.cyclevars. cyclevars 0.2500000
optional optional 1.0000000
149 149 1.0000000
return getpid 0.1428571
value getpid 0.1428571
function getpid 0.2857143
by getpid 0.1428571
os.getpid getpid 0.2857143
NULL Thu 0.3333333
Friday Thu 0.3333333
Wed Thu 0.3333333
from PageNotAnInteger 0.2500000
PageNotAnInteger PageNotAnInteger 0.5000000
exception PageNotAnInteger 0.2500000
ROOTS ROOTS 1.0000000
frequency frequency 1.0000000
Server Server 1.0000000
LazyStream LazyStream 0.3333333
instantiate LazyStream 0.4444444
class LazyStream 0.2222222
sysrandom sysrandom 1.0000000
NULL This 0.0833333
This This 0.9166667
3 addclosehook 1.0000000
pflen pflen 0.6666667
first pflen 0.3333333
--testrunner --testrunner 0.6666667
= --testrunner 0.3333333
call link 0.0200000
link link 0.6800000
NULL link 0.3000000
mask mask 0.3333333
as mask 0.3333333
NULL mask 0.3333333
urlconfs urlconfs 0.4000000
urlconfs.value. urlconfs 0.4000000
urlconf urlconfs 0.2000000
&apos; CacheEntry&apos; 0.3333333
. CacheEntry&apos; 0.3333333
CacheEntry CacheEntry&apos; 0.3333333
NULL between 0.2000000
between between 0.8000000
palette role 0.0909091
convert role 0.0909091
role role 0.7272727
key role 0.0909091
www.saddi.com www.saddi.com 1.0000000
FRAGMENT FRAGMENT 1.0000000
with slots 0.0833333
, slots 0.0833333
slots slots 0.8333333
quotes quotes 1.0000000
origin. try 0.0020367
NULL try 0.0061100
lookup try 0.0020367
self.urlconf try 0.0040733
label. try 0.0020367
val try 0.0020367
with try 0.0081466
2. try 0.0020367
node.nodeName try 0.0020367
absolute try 0.0020367
r try 0.0020367
result try 0.0081466
module. try 0.0020367
self.instance. try 0.0020367
startproject try 0.0020367
for try 0.0162933
&quot; try 0.0020367
&apos;startapp try 0.0020367
tr try 0.0020367
as try 0.0020367
taglib try 0.0020367
p try 0.0020367
module try 0.0040733
stacklevel try 0.0020367
attr. try 0.0020367
response. try 0.0020367
exp. try 0.0020367
substitute try 0.0040733
migrations. try 0.0020367
binary try 0.0020367
trym try 0.0020367
and try 0.0040733
exception try 0.0020367
replaced try 0.0101833
where try 0.0101833
migration try 0.0020367
RemovedInDjango19Warning try 0.0020367
integer try 0.0020367
every try 0.0020367
view. try 0.0020367
by try 0.0040733
merge try 0.0020367
try try 0.8533605
e. try 0.0020367
app try 0.0020367
gen gen 1.0000000
received received 1.0000000
NULL middleware 0.0277778
settings.MIDDLEWARE middleware 0.0277778
django.middleware.csrf middleware 0.0138889
middleware.process middleware 0.0833333
middleware middleware 0.8194444
tuple middleware 0.0138889
call middleware 0.0138889
NULL parsed 0.0714286
parsed. parsed 0.0714286
parsed.scheme parsed 0.1428571
self.parsed parsed 0.0714286
self.parsed. parsed 0.0714286
parsed parsed 0.5000000
call parsed 0.0714286
val val 0.6896552
call val 0.0413793
self.val val 0.0137931
are val 0.0137931
o val 0.0068966
self.coerce val 0.0275862
opts. val 0.0068966
result val 0.0068966
. val 0.0965517
NULL val 0.0758621
i val 0.0068966
val.encode val 0.0137931
to 36 0.1111111
36 36 0.2222222
the 36 0.2222222
bring 36 0.1111111
power 36 0.1111111
base 36 0.0555556
result 36 0.0555556
integer 36 0.1111111
if getdefaultlocale 0.2500000
function getdefaultlocale 0.2500000
from getdefaultlocale 0.2500000
getdefaultlocale getdefaultlocale 0.2500000
handlerList handlerList 1.0000000
--no-location --no-location 1.0000000
NULL nodetype 0.2500000
child.nodeType nodetype 0.1250000
nodetype nodetype 0.6250000
decimals decimals 0.8750000
grater decimals 0.1250000
NULL django.utils.log.RequireDebugFalse 1.0000000
PY3 PY3 0.1250000
it. PY3 0.0104167
True PY3 0.0625000
return PY3 0.0104167
False PY3 0.0104167
field PY3 0.0208333
boolean PY3 0.0729167
six.PY3 PY3 0.2395833
otherwise PY3 0.0104167
is PY3 0.1458333
true PY3 0.2812500
filed PY3 0.0104167
NULL issue 0.6666667
issue issue 0.3333333
squash squash 0.8333333
NULL squash 0.1666667
Found Found 1.0000000
NULL basename 0.1000000
applied basename 0.0500000
function basename 0.3000000
os.path.basename basename 0.5000000
was basename 0.0500000
Sep Sep 1.0000000
int64 int64 1.0000000
NULL ser 0.2727273
combo ser 0.0909091
ser ser 0.6363636
self.version. version 0.0032154
version version 0.5401929
otherwise. version 0.0032154
sys.version version 0.0289389
RemovedInDjango20Warning. version 0.0032154
self.version version 0.0064309
None version 0.0064309
defaulting version 0.0514469
NULL version 0.0225080
set version 0.2218650
arguments version 0.1093248
surrent version 0.0032154
exception EntitiesForbidden 0.2857143
EntitiesForbidden EntitiesForbidden 0.7142857
&apos; work 0.0833333
--exclude work 0.0833333
work work 0.6666667
NULL work 0.1666667
EmailMultiAlternatives EmailMultiAlternatives 0.6363636
function EmailMultiAlternatives 0.2727273
from EmailMultiAlternatives 0.0909091
decorated function 0.0428571
decorating function 0.0142857
self.tag function 0.0142857
function function 0.8285714
NULL function 0.0428571
method function 0.0571429
directory walk 0.0454545
from walk 0.0909091
at walk 0.0454545
tree walk 0.1818182
function walk 0.2272727
starting walk 0.1363636
base walk 0.0454545
os.walk walk 0.0454545
walk walk 0.1818182
NULL deprecated 0.1666667
deprecated deprecated 0.8333333
NULL sqlsequencereset 1.0000000
datatuple datatuple 0.5000000
password datatuple 0.5000000
30 32 0.2000000
NULL 32 0.2000000
append 32 0.2000000
32 32 0.4000000
class CacheInfo 0.2500000
CacheInfo CacheInfo 0.7500000
NULL .mo 0.3333333
.mo .mo 0.6666667
initial u0027 1.0000000
2 outfile 0.1818182
outfile outfile 0.8181818
bits 50 0.0833333
. 50 0.0833333
, 50 0.0833333
50 50 0.2500000
integer 50 0.1666667
for 50 0.0833333
substitute 50 0.0833333
2 50 0.0833333
16 50 0.0833333
Byte Byte 1.0000000
NULL dc 0.6666667
dc dc 0.3333333
Note Note 1.0000000
` ` 1.0000000
NULL minspare 1.0000000
NULL archive 0.0800000
archive.close. archive 0.1200000
archive.list. archive 0.0400000
archive.read archive 0.0400000
archive.extract archive 0.1200000
archive.extractfile archive 0.0400000
define archive 0.0400000
archive archive 0.3600000
archive.namelist archive 0.0400000
call archive 0.0800000
archive.printdir archive 0.0400000
django.conf.locale locale 0.0089286
/ locale 0.0089286
self.locale locale 0.1071429
NULL locale 0.1071429
module locale 0.0089286
locale locale 0.7142857
settings.LOCALE locale 0.0446429
from MultipleHiddenInput 0.1111111
NULL MultipleHiddenInput 0.1111111
called MultipleHiddenInput 0.1111111
MultipleHiddenInput MultipleHiddenInput 0.6666667
NULL URLopener 1.0000000
DJANGO DJANGO 0.8181818
NULL DJANGO 0.1818182
Invalid Invalid 1.0000000
RESET RESET 0.6666667
, RESET 0.3333333
iso-8859-1 iso-8859-1 1.0000000
outputs outputs 1.0000000
--no-optimize --no-optimize 1.0000000
NULL pseudo-random 1.0000000
LOCK LOCK 0.6666667
and LOCK 0.1666667
lock LOCK 0.1666667
s.count count 0.0102041
self.paginator.count. count 0.0102041
occurrence count 0.0612245
string.count count 0.0102041
itertools.count count 0.0102041
NULL count 0.1224490
occurrences count 0.0102041
list.count count 0.0102041
self.count count 0.0306122
self.paginator.count count 0.0102041
count count 0.7142857
meta.fields. . 0.0001344
self.username . 0.0001344
for . 0.0241263
self.data.hour. . 0.0002688
self.prefix. . 0.0000672
self.stderr. . 0.0001344
minimal . 0.0000672
operands . 0.0004032
if . 0.0004032
use . 0.0000672
self.text. . 0.0000672
% . 0.0000672
mod.register. . 0.0000672
self.fixture . 0.0002016
field . 0.0000672
call . 0.0073925
self.timezone. . 0.0001344
self.mode. . 0.0000672
socket.AF . 0.0000672
stream. . 0.0000672
&gt; . 0.0000672
self.interactive. . 0.0003360
self.fk.rel.to. . 0.0001344
self.data.second. . 0.0001344
args. . 0.0000672
self.active . 0.0004704
filed . 0.0005376
self.form.error . 0.0000672
boolean . 0.0000672
dictionary. . 0.0000672
substitute . 0.0008737
the . 0.1876344
options.pythonpath . 0.0001344
self.position. . 0.0000672
self.id. . 0.0001344
self.exception . 0.0000672
self.stderr . 0.0001344
statement. . 0.0000672
f.rel.to . 0.0000672
value.pk. . 0.0000672
self.hashvalue. . 0.0001344
None. . 0.0000672
is . 0.0136425
register.filter. . 0.0000672
submit . 0.0000672
self.waiting . 0.0003360
meta.pk.rel . 0.0001344
self.data.minute. . 0.0001344
_ . 0.0034274
self.warning. . 0.0001344
self.data.day. . 0.0002688
s . 0.0002016
exists . 0.0014785
self.keyOrder. . 0.0003360
with . 0.0024194
errno.EEXIST . 0.0002688
from . 0.0640457
self.file . 0.0004704
self.position . 0.0000672
smtplib.SMTPServerDisconnected . 0.0000672
list . 0.0004704
self.STDOFFSET. . 0.0000672
.. . 0.0001344
migration.replaces . 0.0001344
methof . 0.0000672
it . 0.0023522
into . 0.0182124
self.paginator.count. . 0.0001344
form.media. . 0.0000672
self.stdout. . 0.0017473
self.field.label . 0.0003360
date.day. . 0.0000672
self.token. . 0.0000672
file . 0.0004704
urlconfs.value. . 0.0001344
self.data.year. . 0.0001344
&apos; . 0.0000672
as . 0.0001344
self.tokens. . 0.0001344
self.model. . 0.0004032
self.var. . 0.0000672
lib.filters. . 0.0001344
settings.DEBUG. . 0.0000672
fie . 0.0001344
self.forms. . 0.0001344
result . 0.0008737
. . 0.1448925
self.DSTOFFSET. . 0.0001344
timezone.zone. . 0.0000672
files. . 0.0000672
self.context. . 0.0000672
self.source. . 0.0000672
does . 0.0000672
of . 0.0055780
self.file. . 0.0001344
token. . 0.0000672
fileobj . 0.0000672
meta.auto . 0.0002016
doesnt . 0.0021505
result.queryset. . 0.0000672
: . 0.0006048
bits. . 0.0000672
self.data.microsecond. . 0.0000672
self.size. . 0.0000672
/ . 0.0000672
self.DSTDIFF. . 0.0000672
self.file.closed. . 0.0001344
and . 0.0021505
self.vals. . 0.0001344
MARK . 0.0000672
self.instance.pk . 0.0002688
subtract . 0.0000672
context.dicts. . 0.0000672
self.file.size. . 0.0001344
, . 0.0190188
self.items. . 0.0002016
self.s. . 0.0000672
to . 0.0108871
self.validators. . 0.0000672
self.code. . 0.0003360
name . 0.0002016
migration.ancestry. . 0.0000672
dictionary . 0.0049731
method . 0.1553091
t.nodelist . 0.0000672
settings.MANAGERS . 0.0000672
self.dicts. . 0.0004032
NULL . 0.2973118
position . 0.0004032
self.backout. . 0.0004032
result.validators. . 0.0000672
value . 0.0015457
in . 0.0002688
starts . 0.0021505
At . 0.0000672
self.connection. . 0.0000672
self.objects. . 0.0000672
.&apos; . 0.0000672
self.object. . 0.0001344
Tags.compatibility. . 0.0001344
self.none . 0.0002016
lib.tags. . 0.0000672
self.errors. . 0.0000672
return . 0.0006048
self.file.name. . 0.0001344
self.data.month. . 0.0002688
self.fed. . 0.0002688
self.rendered . 0.0001344
self.paginator.num . 0.0002016
- . 0.0000672
resolver.urlconf . 0.0000672
field.queryset . 0.0001344
prefixes.values. . 0.0001344
function . 0.0058468
replaces . 0.0001344
366 366 0.3333333
integer 366 0.3333333
. 366 0.3333333
GET GET 0.8000000
NULL GET 0.2000000
alone alone 0.8571429
NULL alone 0.1428571
filed.name and 0.0014493
True and 0.0014493
NULL and 0.0608696
and and 0.5260870
represented and 0.0014493
field.rel and 0.0057971
both and 0.0072464
self.form and 0.0014493
false and 0.0144928
Mark and 0.0014493
or and 0.0014493
incremented and 0.0028986
is and 0.1826087
other.message and 0.0014493
to and 0.0086957
true and 0.1492754
only and 0.0014493
filename.rfind and 0.0014493
not and 0.0043478
self.shells and 0.0014493
response.render and 0.0043478
are and 0.0173913
but and 0.0014493
encoding encoding 0.5586854
encoding.setter encoding 0.0093897
django.utils.encoding encoding 0.2535211
fp.encoding encoding 0.0093897
params. encoding 0.0046948
message.encoding encoding 0.0093897
self.encoding encoding 0.0657277
boundary encoding 0.0046948
self.encoding. encoding 0.0234742
iri encoding 0.0046948
NULL encoding 0.0563380
Will Will 1.0000000
conflicts conflicts 0.7000000
conflicts.items conflicts 0.1000000
result conflicts 0.1000000
NULL conflicts 0.0500000
key conflicts 0.0500000
NULL 504 1.0000000
NULL Field 0.0645161
stacklevel Field 0.0322581
self.creation Field 0.0322581
Field.validate Field 0.0322581
Field Field 0.7096774
RemovedInDjango19Warning Field 0.0322581
class Field 0.0967742
NULL FloatField 0.1428571
FloatField FloatField 0.4285714
class FloatField 0.2857143
from FloatField 0.1428571
NULL hours 1.0000000
NULL 404 0.1111111
an 404 0.1111111
404 404 0.5555556
integer 404 0.2222222
sign sign 0.6785714
call sign 0.0357143
result. sign 0.0357143
defaulting sign 0.0357143
sum sign 0.1071429
self.sign. sign 0.0357143
self.sign sign 0.0714286
NULL exc 0.2112676
exc exc 0.5492958
n exc 0.0140845
exec exc 0.0563380
record.exc exc 0.0140845
sys.exc exc 0.0845070
sys.exec exc 0.0563380
request exc 0.0140845
object WSGIHandler 0.2500000
WSGIHandler WSGIHandler 0.7500000
inspection inspection 0.7500000
called inspection 0.2500000
an 500 0.0769231
NULL 500 0.1538462
integer 500 0.1538462
assign 500 0.0769231
tuple 500 0.0769231
elements 500 0.0769231
resulting 500 0.0769231
500 500 0.3076923
module yaml 0.1111111
NULL yaml 0.3333333
yaml yaml 0.4444444
. yaml 0.1111111
AUTO AUTO 1.0000000
dig2.digest dig2 0.1250000
dig2 dig2 0.1250000
substitute dig2 0.2500000
result dig2 0.2500000
call dig2 0.2500000
From From 1.0000000
boolean UTF16 0.5000000
NULL UTF16 0.5000000
RelatedObject RelatedObject 0.4000000
cls.fk.rel.to RelatedObject 0.2000000
instantiate RelatedObject 0.2000000
class RelatedObject 0.2000000
ur2 url2 0.2500000
for url2 0.2500000
url2 url2 0.2500000
p2 url2 0.2500000
INCLUDE INCLUDE 1.0000000
NULL Locale 1.0000000
result.utctimetuple timegm 0.3333333
use timegm 0.3333333
self.data.utctimetuple timegm 0.3333333
NFC NFC 0.2500000
arguments NFC 0.2500000
: NFC 0.2500000
2 NFC 0.2500000
NULL used 0.2258065
used used 0.7419355
verbose used 0.0322581
instance ExceptionReporter 0.1666667
3 ExceptionReporter 0.1666667
created ExceptionReporter 0.1666667
class ExceptionReporter 0.1666667
ExceptionReporter ExceptionReporter 0.3333333
respectively. constant 0.0416667
constant constant 0.6250000
Variable constant 0.0416667
NULL constant 0.2083333
i18n constant 0.0833333
an getAttribute 0.1250000
node.getAttribute getAttribute 0.3750000
method getAttribute 0.3750000
n.getAttribute getAttribute 0.1250000
`managed `managed 1.0000000
of urllib.parse 0.0588235
NULL urllib.parse 0.9411765
future future 1.0000000
NULL malicious 1.0000000
6 serialize 0.0588235
content serialize 0.0588235
s.serialize serialize 0.0588235
NULL serialize 0.0588235
field.serialize serialize 0.1176471
serialize serialize 0.4705882
serializer serialize 0.0588235
self.serialize serialize 0.0588235
serializers.serialize serialize 0.0588235
incomment incomment 1.0000000
true true 0.7031250
2&apos; true 0.0312500
2 true 0.0156250
boolean true 0.0468750
NULL true 0.1093750
True true 0.0468750
true.render true 0.0468750
ForNode ForNode 0.3333333
class ForNode 0.1666667
5 ForNode 0.1666667
created ForNode 0.1666667
instance ForNode 0.1666667
django.template.smartif smartif 1.0000000
function byref 0.1818182
value byref 0.1818182
return byref 0.1818182
byref byref 0.2727273
called byref 0.1818182
NULL INSUFFICIENT 1.0000000
module tarfile 0.2500000
tarfile tarfile 0.2500000
tarfile.open tarfile 0.2500000
. tarfile 0.2500000
as LocaleRegexProvider 0.2222222
LocaleRegexProvider LocaleRegexProvider 0.5555556
call LocaleRegexProvider 0.2222222
NULL ENTITY 1.0000000
is argtypes 1.0000000
-5 -5 1.0000000
In In 1.0000000
connection.introspection.django introspection 0.0357143
connection.introspection.get introspection 0.1428571
connection.introspection.table introspection 0.3928571
connection.introspection.sequence introspection 0.0357143
of introspection 0.1071429
function introspection 0.0714286
value introspection 0.1071429
return introspection 0.1071429
.moves .moves. 1.0000000
instance RequestContext 0.0909091
from RequestContext 0.0909091
created RequestContext 0.0909091
class RequestContext 0.0909091
RequestContext RequestContext 0.6363636
timeouts timeout 0.0104167
equals timeout 0.0104167
defaulting timeout 0.0208333
self.timeout. timeout 0.0208333
NULL timeout 0.0520833
timeout timeout 0.8750000
self.timeout timeout 0.0104167
class IfNode 0.1250000
created IfNode 0.1250000
instance IfNode 0.1250000
of IfNode 0.1250000
an IfNode 0.1250000
IfNode IfNode 0.3750000
NULL NAME 0.0869565
NAME NAME 0.8695652
NAME.get NAME 0.0434783
self.buffer. buffer 0.1612903
add buffer 0.0645161
truncate buffer 0.0322581
buffer buffer 0.3870968
self.buffer buffer 0.2903226
increment buffer 0.0322581
from buffer 0.0322581
previous previous 1.0000000
Included Included 1.0000000
this written 1.0000000
get state 0.0303030
state state 0.5454545
django.db.migrations.state state 0.0606061
element state 0.0303030
self.state. state 0.0606061
NULL state 0.2121212
state.db state 0.0303030
self.state state 0.0303030
utility.execute. utility 0.3333333
call utility 0.3333333
utility utility 0.3333333
hr hr 1.0000000
function CheckRegistry 0.1666667
call CheckRegistry 0.1666667
CheckRegistry CheckRegistry 0.3333333
the CheckRegistry 0.3333333
call ContentTooShortError 1.0000000
NULL yes 0.0833333
yes yes 0.8333333
. yes 0.0833333
StopUpload StopUpload 0.8571429
from StopUpload 0.1428571
atom href 0.1250000
href href 0.2500000
2 href 0.3750000
NULL href 0.2500000
NULL 302 0.2000000
an 302 0.2000000
302 302 0.2000000
. 302 0.2000000
integer 302 0.2000000
entries 207 1.0000000
120 243 0.5000000
181 243 0.5000000
in T 0.1250000
T T 0.8750000
NULL slug 0.2000000
slug slug 0.8000000
auto-generated auto-generated 1.0000000
RssFeed RssFeed 0.7500000
from RssFeed 0.2500000
package.rindex rindex 0.2500000
rindex rindex 0.2500000
3 rindex 0.2500000
callback.rindex rindex 0.2500000
--dry-run --dry-run 1.0000000
a returncode 1.0000000
NULL startproject 1.0000000
two two 1.0000000
if TypedChoiceField 0.1428571
TypedChoiceField TypedChoiceField 0.2857143
empty TypedChoiceField 0.1428571
sself.empty TypedChoiceField 0.1428571
not TypedChoiceField 0.1428571
NULL TypedChoiceField 0.1428571
--ignorenonexistent --ignorenonexistent 1.0000000
To To 0.5000000
NULL To 0.5000000
call substitutions 0.3333333
format substitutions 0.0666667
substitutions substitutions 0.4000000
dictionary. substitutions 0.2000000
instance Literal 0.1111111
created Literal 0.1111111
class Literal 0.1111111
Literal Literal 0.4444444
, Literal 0.1111111
argumen Literal 0.1111111
sm sm 1.0000000
4&apos; 4&apos; 0.4000000
NULL 4&apos; 0.6000000
getlist getlist 0.2000000
self.getlist getlist 0.1000000
dict.getlist getlist 0.2000000
.getlist getlist 0.1000000
data.getlist getlist 0.2000000
NULL getlist 0.1000000
called getlist 0.1000000
point float 0.2058824
it float 0.0882353
number float 0.2058824
float float 0.1176471
an float 0.0294118
NULL float 0.0294118
floating float 0.2058824
into float 0.1176471
NULL PERMANENT 1.0000000
instantiate .moves.urllib.response 0.5000000
.moves.urllib.response .moves.urllib.response 0.5000000
mix mix 1.0000000
it lasttag 0.5000000
self.lasttag. lasttag 0.5000000
singlets singlets 1.0000000
pickle.PickleError PickleError 0.5000000
caught PickleError 0.5000000
sent sent 0.8333333
. sent 0.1666667
NULL y 0.6388889
y y 0.3611111
resent-sender resent-sender 1.0000000
NULL ComboField 0.1250000
from ComboField 0.1250000
ComboField ComboField 0.3750000
class ComboField 0.3750000
the iriencode 0.3333333
an iriencode 0.3333333
iriencode iriencode 0.3333333
increment waiting 0.1176471
decrement waiting 0.1176471
self.waiting waiting 0.7647059
via via 1.0000000
problems problems 1.0000000
--name --name 1.0000000
NULL loads 0.0769231
result. loads 0.0769231
function loads 0.2307692
json.loads loads 0.0769231
base64.b64decode loads 0.0769231
loads loads 0.2307692
on loads 0.0769231
pickle.loads loads 0.1538462
value.astimezone astimezone 1.0000000
the phone2numeric 0.1538462
phone2numeric phone2numeric 0.5384615
call phone2numeric 0.0769231
function phone2numeric 0.2307692
bit tag 0.0057803
called tag 0.0173410
checks.tag tag 0.0115607
bits. tag 0.0057803
filter tag 0.0057803
register.tag tag 0.1387283
self.tag tag 0.0462428
is tag 0.0057803
tag tag 0.6647399
tag.match tag 0.0057803
chars. tag 0.0057803
NULL tag 0.0462428
in tag 0.0173410
tag.groups tag 0.0057803
instance tag 0.0057803
False tag 0.0057803
parser.compile tag 0.0057803
NULL xmlrpc 1.0000000
exception ImproperlyConfigured 0.2444444
ImproperlyConfigured ImproperlyConfigured 0.7555556
POINTER POINTER 1.0000000
operator.methodcaller methodcaller 0.3333333
arguments methodcaller 0.3333333
3 methodcaller 0.3333333
NULL starting 1.0000000
NULL b64encoded 0.4000000
b64encoded b64encoded 0.6000000
mil mil 1.0000000
NULL break 0.0097561
of break 0.0097561
execution break 0.1707317
from break 0.1219512
smallest break 0.0390244
and break 0.0048780
endless break 0.0048780
the break 0.1902439
iteration break 0.0048780
break break 0.1804878
use break 0.0048780
this break 0.0097561
breaks break 0.0097561
skip break 0.0048780
enclosing break 0.0390244
loop break 0.1951220
&apos; 0&apos; 0.1304348
0&apos; 0&apos; 0.6086957
. 0&apos; 0.1304348
NULL 0&apos; 0.0434783
0 0&apos; 0.0869565
chain.from chain 0.0769231
function chain 0.0769231
only chain 0.0769231
containing chain 0.0769231
chain chain 0.6153846
into chain 0.0769231
initialize initialize 0.6666667
app.initialize initialize 0.3333333
NULL binascii 0.2000000
module binascii 0.2000000
binascii.Error. binascii 0.1000000
. binascii 0.2000000
binascii binascii 0.3000000
off off 0.8000000
multiply off 0.2000000
NULL 305 1.0000000
settings.CACHES caches 0.0833333
setting.CACHES caches 0.0277778
caches.all. caches 0.0277778
caches caches 0.5277778
caches.caches caches 0.1111111
value caches 0.1666667
caches.setdefault caches 0.0277778
cache caches 0.0277778
IF IF 1.0000000
threads threads 1.0000000
Cannot Cannot 1.0000000
self.msguniq msguniq 0.3000000
append msguniq 0.1000000
msguniq msguniq 0.4000000
NULL msguniq 0.2000000
six.Iterator iterator 0.2307692
Iterator iterator 0.0384615
generated iterator 0.0384615
queryset.iterator iterator 0.0384615
pk iterator 0.0384615
iterator iterator 0.3846154
. iterator 0.1153846
dict iterator 0.0384615
from iterator 0.0769231
a NotImplementedError 0.0722892
exception NotImplementedError 0.3614458
NotImplementedError NotImplementedError 0.5662651
interactive load 0.0161290
self.load load 0.1129032
pickle.load load 0.0161290
NULL load 0.1451613
call load 0.0322581
function load 0.0967742
load load 0.5806452
Access Access 1.0000000
ix ix 1.0000000
the ReferenceLocalTimezone 0.2000000
ReferenceLocalTimezone ReferenceLocalTimezone 0.4000000
from ReferenceLocalTimezone 0.4000000
popitem popitem 1.0000000
6 &apos;-e 1.0000000
ip comma 0.1250000
3 comma 0.1250000
and comma 0.1250000
NULL comma 0.1250000
comma comma 0.3750000
validator comma 0.1250000
decr decr 0.6000000
cache.decr decr 0.4000000
NULL Mersenne 1.0000000
NULL removing 1.0000000
NULL PAYMENT 1.0000000
hex hex 1.0000000
BaseLoader BaseLoader 1.0000000
elements 7 0.0588235
integers 7 0.0294118
respectively 7 0.0294118
first 7 0.0294118
NULL 7 0.2941176
form 7 0.0294118
integer 7 0.1470588
7 7 0.3823529
NULL LOCKED 1.0000000
lib.filters filters 0.0217391
not filters 0.0217391
filter filters 0.0217391
self.filters. filters 0.0217391
NULL filters 0.1304348
self.filters filters 0.1521739
lib.filters. filters 0.0434783
name.filters filters 0.0217391
token. filters 0.0217391
filters filters 0.4347826
value filters 0.0434783
end filters 0.0217391
if filters 0.0217391
expr.filters filters 0.0217391
keys filtered 1.0000000
S S 0.3750000
NULL S 0.3125000
+ S 0.0625000
( S 0.0625000
# S 0.0625000
w S 0.0625000
&#124; S 0.0625000
Library.tag Library.tag 1.0000000
s decompress 0.1111111
self.decompress decompress 0.1111111
zlib.decompress decompress 0.2222222
self.widget.decompress decompress 0.1111111
decompress decompress 0.4444444
ExpatParser ExpatParser 0.8000000
ExpatParser.reset ExpatParser 0.2000000
NULL 037 1.0000000
byte2int byte2int 0.5000000
the byte2int 0.2500000
an byte2int 0.2500000
sanitize sanitize 0.3750000
formats.sanitize sanitize 0.1250000
the sanitize 0.0833333
function sanitize 0.2916667
call sanitize 0.1250000
created ChoiceFieldRenderer 0.1111111
class ChoiceFieldRenderer 0.1111111
4 ChoiceFieldRenderer 0.1111111
ChoiceFieldRenderer ChoiceFieldRenderer 0.3333333
instance ChoiceFieldRenderer 0.1111111
from ChoiceFieldRenderer 0.1111111
NULL ChoiceFieldRenderer 0.1111111
s.process s.process 1.0000000
argument monday 1.0000000
ones ones 1.0000000
call handler 0.3222749
handler.file.close. handler 0.0047393
handler.addQuickElement handler 0.2227488
handler.file handler 0.0047393
substitute handler 0.0047393
HANDLERS handler 0.0047393
self.setFeature handler 0.0094787
handler.endElement handler 0.0379147
handler.startDocument. handler 0.0094787
handler.receive handler 0.0047393
handler.startElement handler 0.0284360
NULL handler 0.0094787
handler handler 0.3033175
handler.new handler 0.0047393
2 handler 0.0094787
logging.Handler. handler 0.0047393
handler.handle handler 0.0047393
handler.upload handler 0.0047393
logging.Handler handler 0.0047393
NULL email.MIMEMultipart 1.0000000
call MIMEMessage 0.2500000
MIMEMessage MIMEMessage 0.7500000
COMMENT ) 0.0000515
same ) 0.0003092
as ) 0.0397279
function ) 0.0019065
&apos; ) 0.0003092
date.day. ) 0.0000515
file ) 0.0000515
wasn ) 0.0000515
equalt ) 0.0001031
directory ) 0.0006699
its ) 0.0001031
character ) 0.0006183
p.returncode. ) 0.0000515
exceptions ) 0.0017004
max ) 0.0000515
ilst ) 0.0000515
self.stdout. ) 0.0000515
return ) 0.0204050
self.reset. ) 0.0000515
self.data.month. ) 0.0000515
created ) 0.0000515
on ) 0.0009275
setter ) 0.0003092
e.strerror. ) 0.0002061
object ) 0.0022672
or ) 0.0003092
types ) 0.0021642
it ) 0.0097388
date ) 0.0000515
a ) 0.0002576
mapped ) 0.0000515
NULL ) 0.0977482
attribute ) 0.0032978
value ) 0.0008244
in ) 0.0001546
method ) 0.0002576
exists ) 0.0015458
self.keyOrder. ) 0.0000515
classes ) 0.0002576
lambda ) 0.0001031
included ) 0.0001546
joined ) 0.0003092
an ) 0.0012882
_ ) 0.0000515
arguments ) 0.0064410
assign ) 0.0000515
their ) 0.0001031
params.1 ) 0.0000515
are ) 0.0002061
self.items. ) 0.0000515
self.code. ) 0.0002576
self.validators. ) 0.0001546
is ) 0.0039161
to ) 0.0096872
h ) 0.0000515
type ) 0.0018035
, ) 0.1985366
the ) 0.1127428
substitute ) 0.0544134
iterable ) 0.0000515
validate ) 0.0000515
and ) 0.0012882
: ) 0.0002061
self.close. ) 0.0001546
tuple ) 0.0007729
) ) 0.0213840
evaluates ) 0.0039676
respectively ) 0.0007214
argument ) 0.0071624
of ) 0.0046375
self.domain. ) 0.0000515
self.bcc. ) 0.0000515
instance ) 0.0003092
self.style.ERROR. ) 0.0000515
configured ) 0.0000515
base ) 0.0179317
converted ) 0.0020096
doesnt ) 0.0000515
less ) 0.0000515
match.groupdict. ) 0.0000515
elements ) 0.0001031
than ) 0.0001031
natural&apos; ) 0.0000515
001- ) 0.0000515
bitwise ) 0.0000515
call ) 0.0031947
class ) 0.0021642
types.ClassType. ) 0.0000515
self.autocomplete. ) 0.0000515
zero ) 0.0000515
result ) 0.0911527
self.open. ) 0.0000515
use ) 0.0052558
. ) 0.2220848
string ) 0.0000515
self.prefix. ) 0.0001031
for ) 0.0371000
ascii&apos; ) 0.0000515
exist ) 0.0000515
from SerializationError 0.2500000
base.SerializationError SerializationError 0.2500000
SerializationError SerializationError 0.2500000
exception SerializationError 0.2500000
PM PM 1.0000000
NULL UnknownHandler 1.0000000
include include 0.6111111
self.include include 0.1111111
router.get include 0.0555556
reporter.get include 0.0555556
NULL include 0.1666667
createsuperuser createsuperuser 1.0000000
call trimmed 0.2500000
result trimmed 0.1250000
trimmed trimmed 0.5000000
trail. trimmed 0.1250000
as FAILURE 0.1666667
arguments FAILURE 0.1666667
FAILURE FAILURE 0.1666667
NULL FAILURE 0.5000000
Tue tuesday 1.0000000
ContentFile ContentFile 0.6666667
from ContentFile 0.3333333
lastBuildDate lastBuildDate 1.0000000
1035 1035 1.0000000
&apos; Extracting 0.3333333
Extracting Extracting 0.3333333
in Extracting 0.3333333
NULL Select 0.2777778
created Select 0.0555556
return Select 0.0555556
instance Select 0.0555556
Select Select 0.3888889
boolean Select 0.0555556
class Select 0.0555556
from Select 0.0555556
. calendar 0.1538462
call calendar 0.1538462
to calendar 0.0769231
calendar calendar 0.1538462
the calendar 0.3076923
module calendar 0.1538462
class ImageField 0.2500000
from ImageField 0.1250000
ImageField ImageField 0.2500000
the ImageField 0.2500000
NULL ImageField 0.1250000
regular regular 1.0000000
NULL shutdown 0.2857143
shutdown shutdown 0.7142857
NULL sorted 0.1428571
elements sorted 0.0857143
list sorted 0.1714286
sorted sorted 0.3714286
sort sorted 0.2285714
plist plist 0.7500000
. plist 0.1250000
from plist 0.1250000
NULL end 0.0095238
position end 0.0190476
even end 0.0095238
m.end end 0.0285714
connection.ops.end end 0.0095238
expression end 0.0285714
argument. end 0.0095238
start end 0.0095238
number end 0.0095238
match.end end 0.0095238
decrement end 0.0190476
end end 0.7333333
regular end 0.0285714
index end 0.0285714
self.end end 0.0190476
element end 0.0095238
ending end 0.0190476
011 011 0.6666667
NULL 011 0.3333333
timezone.zone. timezone 0.0076923
the timezone 0.0384615
timezone.normalize timezone 0.0153846
self.timezone. timezone 0.0307692
call timezone 0.0846154
NULL timezone 0.0461538
function timezone 0.0076923
self.timezone.utcoffset timezone 0.0076923
timezone.get timezone 0.0153846
django.utils.timezone timezone 0.0615385
time.timezone timezone 0.0076923
exist timezone 0.0076923
timezone.utc timezone 0.0076923
timezone.make timezone 0.0076923
self.timezone timezone 0.0615385
timezone.is timezone 0.0076923
pytz.timezone timezone 0.0153846
self.timezone.tzname timezone 0.0076923
timezone timezone 0.5461538
result timezone 0.0153846
SINGLE SINGLE 0.2500000
NULL SINGLE 0.7500000
startup interface 0.2500000
interface interface 0.2500000
variable interface 0.2500000
no interface 0.2500000
os.path.getctime getctime 0.5000000
function getctime 0.5000000
the SimpleTemplateResponse 0.2000000
rendering SimpleTemplateResponse 0.0666667
SimpleTemplateResponse SimpleTemplateResponse 0.4000000
class SimpleTemplateResponse 0.3333333
containing maxrequests 0.5000000
NULL maxrequests 0.5000000
checks.INFO checks 0.0285714
checks checks 0.6857143
checks.run checks 0.0142857
checks.append checks 0.0142857
checks.WARNING checks 0.0428571
checks.ERROR checks 0.0142857
checks.tag checks 0.0285714
checks.CRITICAL checks 0.0142857
NULL checks 0.1428571
django.core.checks.registry checks 0.0142857
# # 0.5108696
NULL # 0.4891304
NULL cookiejar 1.0000000
Yy Yy 1.0000000
executor.loader.graph.leaf graph 0.1034483
contained graph 0.0344828
executor.loader.graph graph 0.0344828
substitute graph 0.0344828
vale graph 0.0344828
of graph 0.1724138
graph graph 0.1379310
loader.graph.forwards graph 0.0344828
replaces graph 0.0689655
return graph 0.1379310
value graph 0.1034483
loader.graph graph 0.1034483
not MultiValueField 0.0769231
NULL MultiValueField 0.0769231
if MultiValueField 0.0769231
MultiValueField MultiValueField 0.3076923
class MultiValueField 0.3076923
from MultiValueField 0.0769231
self.require MultiValueField 0.0769231
NULL February 0.5000000
March February 0.5000000
extends extends 0.8000000
NULL extends 0.2000000
NULL logging.NullHandler 1.0000000
-n -n 1.0000000
termios.ECHO echo 0.2000000
both echo 0.2000000
store echo 0.2000000
echo echo 0.4000000
SQL SQL 0.4523810
on SQL 0.0238095
NULL SQL 0.5000000
parser SQL 0.0238095
BRACE BRACE 0.2500000
NULL BRACE 0.7500000
ampersands ampersands 1.0000000
django.core.management.templates templates 0.3333333
templates templates 0.5000000
NULL templates 0.1666667
Multiple Multiple 0.5000000
NULL Multiple 0.5000000
result verbatim 0.1000000
self.verbatim. verbatim 0.1000000
verbatim verbatim 0.3000000
self.verbatim verbatim 0.5000000
s.management.commands. s.management.commands. 1.0000000
NULL excluding 1.0000000
NULL maxChildren 1.0000000
LocaleRegexURLResolver LocaleRegexURLResolver 0.5000000
NULL LocaleRegexURLResolver 0.5000000
ModelMultipleChoiceField ModelMultipleChoiceField 0.5555556
NULL ModelMultipleChoiceField 0.1111111
boolean ModelMultipleChoiceField 0.1111111
False. ModelMultipleChoiceField 0.1111111
class ModelMultipleChoiceField 0.1111111
NULL email.MIMEBase 1.0000000
call res 0.0454545
. res 0.2727273
increment res 0.0454545
res res 0.6363636
incremental incremental 1.0000000
PACKAGE PACKAGE 1.0000000
up round 0.2500000
ROUND round 0.2500000
radio round 0.2500000
NULL round 0.2500000
return age 0.0400000
NULL age 0.4000000
age age 0.5600000
Port Port 1.0000000
. ManyToManyField 0.3333333
ManyToManyField ManyToManyField 0.6666667
NULL django.contrib.sessions.middleware.SessionMiddleware 1.0000000
modulename Tells 0.0588235
Do Tells 0.0588235
NULL Tells 0.5294118
Tells Tells 0.3529412
default docs.djangoproject.com 0.3333333
NULL docs.djangoproject.com 0.6666667
exclusive exclusive 1.0000000
VAR VAR 0.8000000
NULL VAR 0.2000000
metavar metavar 0.4736842
set metavar 0.4736842
templates metavar 0.0526316
uri uri 0.7878788
NULL uri 0.2121212
NULL .e 1.0000000
locale noop 0.1666667
NULL noop 0.4166667
noop noop 0.4166667
so so 0.8571429
result so 0.1428571
HELP HELP 0.7500000
. HELP 0.2500000
put readlines 0.1111111
define readlines 0.1111111
in readlines 0.1111111
readlines readlines 0.1111111
init readlines 0.1111111
_ readlines 0.4444444
concatenate guts 0.2500000
guts. guts 0.2500000
call guts 0.2500000
guts guts 0.2500000
1.6.1 1.6.1 1.0000000
NULL &apos;M 1.0000000
values values 0.7835052
NULL values 0.1340206
if values 0.0103093
value values 0.0103093
qs.values values 0.0103093
self.fields.values values 0.0206186
None values 0.0103093
sys.modules.values values 0.0103093
parser.compile values 0.0103093
NULL yellow 0.8000000
yellow yellow 0.2000000
label.ModelName. fixtures 0.0714286
when fixtures 0.0714286
called fixtures 0.0714286
Fixture fixtures 0.0714286
fixtures fixtures 0.7142857
logging.handlers.SMTPHandler SMTPHandler 1.0000000
DNS DNS 1.0000000
on INotifyWrapper 0.2500000
pyinotify.INotifyWrapper.create INotifyWrapper 0.2500000
return INotifyWrapper 0.2500000
value INotifyWrapper 0.2500000
from Command 0.3595506
Command Command 0.5505618
false. Command 0.0112360
class Command 0.0337079
the Command 0.0337079
form Command 0.0112360
NULL 418 1.0000000
enclosure enclosure 0.1538462
NULL enclosure 0.6153846
4 enclosure 0.0769231
title enclosure 0.0769231
with enclosure 0.0769231
ForeignKey ForeignKey 0.8333333
( ForeignKey 0.1666667
ContentNotRenderedError ContentNotRenderedError 0.4444444
from ContentNotRenderedError 0.1111111
exception ContentNotRenderedError 0.3333333
sring ContentNotRenderedError 0.1111111
. Operator 0.2500000
from Operator 0.2500000
Operator Operator 0.5000000
arguments. mkstemp 0.2000000
None mkstemp 0.2000000
tmpfile.mkstemp mkstemp 0.2000000
tempfile.mkstemp mkstemp 0.2000000
as mkstemp 0.2000000
a At 1.0000000
and rhs 0.1578947
rhs rhs 0.8421053
Only Ignores 0.5000000
look Ignores 0.5000000
return invalid 0.0200000
invalid invalid 0.6200000
self.invalid invalid 0.0100000
parser.invalid invalid 0.0100000
NULL invalid 0.3300000
entry invalid 0.0100000
list MovedAttribute 0.0533333
NULL MovedAttribute 0.7866667
results MovedAttribute 0.0133333
33 MovedAttribute 0.0133333
function MovedAttribute 0.0533333
MovedAttribute MovedAttribute 0.0800000
NameError NameError 1.0000000
match.groups groups 0.2857143
groups groups 0.2142857
tag.groups groups 0.0714286
assign groups 0.1428571
m.groups groups 0.2857143
name callable 0.0250000
NULL callable 0.0125000
callable.cache callable 0.0125000
substitute callable 0.0250000
object callable 0.1875000
response.render callable 0.0250000
not callable 0.0125000
replaced callable 0.0125000
a callable 0.0500000
callable callable 0.4250000
is callable 0.2000000
current. callable 0.0125000
NULL Display 1.0000000
function local 0.1724138
threading.local local 0.0344828
assign local 0.0344828
NULL local 0.0344828
meta.local local 0.0344828
local local 0.5862069
method local 0.0344828
opts.local local 0.0689655
our our 0.5000000
4 our 0.2000000
: our 0.3000000
14 debugger 1.0000000
list headerlist 0.1538462
headerlist headerlist 0.6923077
header headerlist 0.0769231
call headerlist 0.0769231
RUNNER 8081 1.0000000
elements colors 0.1000000
colors colors 0.6000000
first colors 0.1000000
from colors 0.1000000
element colors 0.1000000
nNote nNote 1.0000000
PROTOCOL PROTOCOL 0.5000000
arguments PROTOCOL 0.5000000
u002D js 0.0588235
js js 0.7058824
getitem js 0.0588235
NULL js 0.1764706
paths paths 0.7500000
NULL paths 0.0714286
self.self.paths paths 0.0357143
self.paths paths 0.1428571
WRAPPING WRAPPING 1.0000000
popen popen 0.6153846
function popen 0.3846154
argset argset 0.3333333
2 argset 0.1666667
arguments argset 0.1666667
: argset 0.1666667
set argset 0.1666667
NULL 423 1.0000000
.CMD .CMD 1.0000000
3 quantize 0.3333333
arguments quantize 0.3333333
d.quantize quantize 0.3333333
truncatechars truncatechars 0.5000000
function truncatechars 0.5000000
NULL loading 0.0625000
loading loading 0.9375000
django.template.defaulttags django.template.defaulttags 1.0000000
NULL 417 1.0000000
NoArgsCommand NoArgsCommand 0.8000000
from NoArgsCommand 0.2000000
relation relation 0.8333333
assign relation 0.1666667
inotify inotify 1.0000000
called objects 0.0212766
NULL objects 0.0212766
objects objects 0.7446809
substitute objects 0.0212766
self.objects.append objects 0.0212766
objects.using objects 0.0212766
list objects 0.0638298
self.objects objects 0.0425532
self.objects. objects 0.0212766
increment objects 0.0212766
slugify slugify 0.6000000
mark slugify 0.1000000
function slugify 0.3000000
my mw 0.0714286
mw mw 0.8571429
end mw 0.0714286
pass pass 0.0030675
and pass 0.0030675
ModelFormMetaclass pass 0.0030675
nothig pass 0.0030675
do pass 0.4938650
nothing pass 0.4907975
BaseModelForm. pass 0.0030675
NULL MANY 1.0000000
NumberAwareString NumberAwareString 0.5000000
from NumberAwareString 0.1666667
return NumberAwareString 0.1666667
class NumberAwareString 0.1666667
prec prec 1.0000000
13 ifilterfalse 1.0000000
changed changed&apos; 0.2500000
string changed&apos; 0.2500000
a changed&apos; 0.2500000
. changed&apos; 0.2500000
label&apos; label&apos; 0.3333333
a label&apos; 0.3333333
string label&apos; 0.3333333
CommandError overlaying 1.0000000
function restart 0.5000000
restart restart 0.5000000
self.dicts dicts 0.4750000
integer dicts 0.0250000
self.dicts.pop dicts 0.0250000
context.dicts. dicts 0.0250000
RemovedInDjango19Warning dicts 0.0250000
duplicate.dicts. dicts 0.0250000
2. dicts 0.0250000
dicts dicts 0.1250000
self.dicts. dicts 0.1500000
list dicts 0.1000000
NULL applied 0.3333333
loader.applied applied 0.1666667
applied applied 0.5000000
NULL see 0.8000000
evaluates see 0.2000000
debugs debugs 0.2500000
list debugs 0.2500000
NULL debugs 0.5000000
false x 0.0068966
parser.option x 0.0068966
striped x 0.0068966
return x 0.0275862
many x 0.0068966
. x 0.0068966
2 x 0.0137931
parameter x 0.0068966
by x 0.0068966
for x 0.0068966
pax x 0.0068966
NULL x 0.2620690
value x 0.0275862
identity x 0.0206897
maximum x 0.0206897
append x 0.0206897
x x 0.5172414
elements x 0.0137931
x.split x 0.0068966
input x 0.0068966
MAIN MAIN 0.5000000
of MAIN 0.2500000
key MAIN 0.2500000
to DIRS 0.2500000
DIRS DIRS 0.7500000
NULL permalink 0.5000000
permalink permalink 0.3333333
key permalink 0.1666667
4 Fixture 1.0000000
model problem 0.3333333
NULL problem 0.3333333
meta.local problem 0.3333333
character iglob 0.2000000
a iglob 0.2000000
appended iglob 0.2000000
into iglob 0.2000000
valid iglob 0.2000000
2 val1 0.1875000
val2 val1 0.0625000
val1 val1 0.6250000
5 val1 0.0625000
and val1 0.0625000
arguments rmtree 0.1250000
shutil.rmtree rmtree 0.1250000
2 rmtree 0.1250000
rmtree rmtree 0.3750000
function rmtree 0.2500000
chunk.find chunk 0.0121951
call chunk 0.0243902
chunks chunk 0.0121951
first chunk 0.0121951
self.chunk chunk 0.0243902
increment chunk 0.0121951
x.chunk chunk 0.0243902
empty chunk 0.0121951
NULL chunk 0.0121951
chunk chunk 0.8414634
hunk chunk 0.0121951
11 bcc 0.0769231
self.bcc bcc 0.1538462
self.bcc. bcc 0.0769231
bcc bcc 0.3846154
10 bcc 0.0769231
put bcc 0.0769231
NULL bcc 0.0769231
into bcc 0.0769231
TimeFormat TimeFormat 0.4285714
created TimeFormat 0.1428571
class TimeFormat 0.1428571
from TimeFormat 0.1428571
instance TimeFormat 0.1428571
.upload .upload 1.0000000
django.http django 0.0040161
django.utils.xmlutils django 0.0026774
django.http.utils django 0.0013387
django.utils.translation django 0.0294511
django.core.mail.message django 0.0026774
django.dispatch django 0.0026774
django.core.urlresolvers django 0.0026774
django.utils.synch django 0.0013387
django.template.smartif django 0.0013387
django.db.migrations django 0.0013387
django.utils. django 0.0093708
django.core.cache django 0.0026774
django.core.servers.basehttp django 0.0026774
