Bad Bad 1.0000000
August NULL 0.0000650
counter filed 0.0833333
counter counter 1.0000000
BytesIO io.BytesIO 0.5000000
BytesIO created 0.0144928
BytesIO instance 0.0080214
BytesIO of 0.0004515
BytesIO an 0.0009230
BytesIO BytesIO 1.0000000
BytesIO a 0.0005420
BytesIO class 0.0027972
BytesIO six.BytesIO. 1.0000000
unencoded unencoded 1.0000000
jan1 NULL 0.0000325
jan1 jan1 0.8571429
hexlify function 0.0003473
hexlify binascii.hexlify 1.0000000
urllib.request of 0.0002257
urllib.request NULL 0.0010404
.0 .0 1.0000000
appear appear 1.0000000
plat plat 0.7500000
plat does 0.0434783
EACCES initial 0.0051282
EACCES entries 0.0102041
new-test-runner NULL 0.0000325
negate negate 1.0000000
negate self.negate. 1.0000000
negate self.negate 0.3333333
wt&apos; string 0.0003038
wt&apos; wt 1.0000000
wt&apos; is 0.0001881
wt&apos; mode 0.0135135
wt&apos; a 0.0005420
addQuickElement 2 0.0252809
addQuickElement arguments 0.0156406
addQuickElement 3 0.0158501
addQuickElement handler.addQuickElement 0.5000000
addQuickElement self.xml.addQuickElement 0.4000000
escaping escaping 1.0000000
COMMENT comment 0.4444444
COMMENT COMMENT 0.6086957
COMMENT NULL 0.0003251
COMMENT extend 0.0350877
sizeof size 0.0200000
sizeof sizeof 1.0000000
mail funtion 0.3333333
mail EmailMultiAlternatives 0.2222222
mail django.core.mail 0.3333333
mail django.core.mail.backends.console 0.2000000
mail mail.outbox.extend 0.3333333
mail NULL 0.0003251
mail mail.mail 1.0000000
mail mail 0.6666667
mail call 0.0025374
mail None. 0.0370370
mail django.core.mail.utils 0.2500000
mail mail.send 0.2500000
mail default 0.0018018
mail django.core.mail.message 0.2500000
pre-migrate pre-migrate 1.0000000
ContextDict from 0.0003373
ContextDict class 0.0009324
ContextDict instantiate 0.0232558
ContextDict ContextDict 1.0000000
urllib django.utils.six.moves.urllib.request 0.2000000
urllib urllib 0.8409091
urllib NULL 0.0008128
urllib django.utils.six.moves.urllib.parse 0.1538462
mark mark 0.7746479
mark function 0.0125043
mark NULL 0.0001951
mark conditional 0.0555556
mark separated 0.0087719
mark CONTEXT 0.0769231
mark the 0.0003279
mark BLOCK 0.0454545
unbound . 0.0000620
unbound unbound 1.0000000
unbound unbound.im 0.5000000
Removes Removes 1.0000000
phrase phrase 0.8333333
create id 0.0059880
create pyinotify.INotifyWrapper.create 0.3333333
create NULL 0.0001301
create create 0.5421687
create self.create 1.0000000
create command.create 0.5000000
create connection.creation.create 0.3333333
create cls.create 0.3333333
no value 0.0007427
no return 0.0008026
no 4 0.0041667
no NULL 0.0003251
no no 0.7500000
no self.no 0.6666667
globals globals 1.0000000
fed self.fed 0.6666667
fed self.fed. 0.3000000
jun NULL 0.0000325
jun jun 0.5000000
timezone-aware timezone-aware 1.0000000
iterkeys iterkeys 0.8750000
iterkeys . 0.0001240
iterkeys for 0.0009555
iterkeys substitute 0.0005688
iterkeys self.iterkeys 1.0000000
html .html 1.0000000
html respectively. 0.0185185
html substitute 0.0002844
html self.html 0.8333333
html val 0.0087719
html 4 0.0083333
html call 0.0007612
html html 0.8139535
html NULL 0.0008128
html tml 1.0000000
html as 0.0006614
html mail. 1.0000000
html django.utils.html 0.3333333
html 2 0.0070225
html Updates 0.5000000
html called 0.0026042
html arguments 0.0056572
html 3 0.0086455
html hmtl 1.0000000
414 NULL 0.0000325
etag ETAG 0.5000000
etag with 0.0005008
etag etag 1.0000000
etag argument 0.0008163
etag an 0.0001846
EscapeBytes an 0.0007384
EscapeBytes EscapeBytes 1.0000000
EscapeBytes of 0.0004515
EscapeBytes instance 0.0026738
EscapeBytes created 0.0072464
context&apos; &apos; 0.0001087
context&apos; a 0.0005420
context&apos; strign 0.5000000
context&apos; context 0.0031250
Downloading &apos; 0.0002173
Downloading in 0.0006671
Downloading replace 0.0066225
Downloading Downloading 1.0000000
numberformat numberformat 1.0000000
numberformat NULL 0.0000325
foreground foreground 1.0000000
-x -x 1.0000000
copyreg tuple 0.0025189
copyreg 3 0.0014409
copyreg : 0.0003596
copyreg copyreg 1.0000000
copyreg NULL 0.0000325
copyreg elements 0.0018215
since or 0.0018149
since since 1.0000000
since divide 0.0344828
1,6 NULL 0.0000325
1,6 1,6 0.5000000
SuspiciousOperation from 0.0003373
SuspiciousOperation SuspiciousOperation 1.0000000
next self.next. 1.0000000
next NULL 0.0004227
next element 0.0166016
next self.next 1.0000000
next tok.next 0.5000000
next next 0.8285714
next get 0.0012755
next parser.next 0.5000000
exec statement 0.0625000
exec source 0.0163934
exec execute 0.2222222
exec code 0.0048309
exec exec 0.6000000
loadname 2 0.0007022
loadname self.loadname 0.6666667
loadname self.dirs 0.4000000
loadname respectively 0.0050761
content` content` 1.0000000
smtplib smtplib.SMTPException 1.0000000
smtplib true 0.0010858
smtplib is 0.0001881
smtplib smtplib.SMTPServerDisconnected 0.2500000
smtplib . 0.0000620
smtplib module 0.0021930
smtplib smtplib 1.0000000
FileBasedCache FileBasedCache 1.0000000
FileBasedCache base 0.0012674
FileBasedCache FileBaseCache 0.5000000
any not 0.0006609
any element 0.0019531
any pattern. 1.0000000
any &quot; 0.0004866
any any 0.4848485
any NULL 0.0002276
any modulename.TestCase.test 0.3333333
any called 0.0026042
any visible 0.1250000
any if 0.0004611
Specifies &quot; 0.0004866
Specifies Specifies 0.1666667
Specifies Restricts 0.3333333
done done 1.0000000
/ NULL 0.0031212
/ floor 0.2000000
/ 3000 0.5000000
/ division 0.0909091
/ divide 0.4137931
/ floored 0.2500000
/ by 0.0279441
/ / 0.6709957
/ ANNOTATION 1.0000000
/ offset.seconds 0.3333333
a-zA-Z0-9 return 0.0004013
a-zA-Z0-9 NULL 0.0000325
usegmt usegmt 1.0000000
s.sql where 0.0099010
s.sql s 0.0007138
s.sql s.sql 1.0000000
428 NULL 0.0000325
--app --app 1.0000000
49 first 0.0028490
49 49 1.0000000
49 elements 0.0018215
49 append 0.0019305
ftps ftps 1.0000000
PC PC 1.0000000
-q elements 0.0018215
-q : 0.0003596
-q -q 1.0000000
-q with 0.0001252
-q strings 0.0083333
relations second 0.0086207
relations relations 0.7142857
manifest manifest.items 0.5000000
manifest and 0.0002032
manifest manifest 1.0000000
manifest manifest.values 1.0000000
manifest function 0.0006947
manifest return 0.0016051
manifest value 0.0003713
manifest feed 0.0500000
MODULE verbose 0.2000000
MODULE 3 0.0014409
MODULE very 0.3333333
MODULE NULL 0.0000650
MODULE MODULE 0.6000000
MODULE = 0.0063694
err err 0.8181818
err NULL 0.0000650
endElement handler.endElement 0.4375000
endElement an 0.0003692
endElement with 0.0018781
endElement self.xml.endElement 1.0000000
green NULL 0.0002926
green green 1.0000000
ord ascii 0.0384615
ord integer 0.0077519
ord representation 0.2162162
ord NULL 0.0003576
urlparse urlparse 1.0000000
urlparse method 0.0002189
urlparse NULL 0.0003251
urlparse results 0.0109890
urlparse result 0.0002939
urlparse call 0.0002537
urlparse function 0.0013894
PATHS converted 0.0067114
PATHS a 0.0005420
PATHS PATHS 1.0000000
PATHS into 0.0016077
DefaultCacheProxy the 0.0001967
DefaultCacheProxy function 0.0003473
DefaultCacheProxy from 0.0003373
DefaultCacheProxy DefaultCacheProxy 1.0000000
DefaultCacheProxy it 0.0006725
created&apos; &apos; 0.0001087
created&apos; created 0.0036232
created&apos; . 0.0000620
SELECT SELECT 1.0000000
expression NULL 0.0000325
expression expression 0.4473684
expression self.expression.resolve 0.5000000
expression concatenate 0.0322581
expression self.expression 1.0000000
expression parser.expression 1.0000000
expression expression.resolve 0.5000000
sqlindexes NULL 0.0000325
separate NULL 0.0001626
separate separate 0.3000000
package 2 0.0014045
package package.rindex 0.5000000
package call 0.0005075
package package 0.9629630
parse pulldom.parse 0.3333333
parse NULL 0.0003902
parse self.parse 0.6666667
parse parse 0.9047619
parse http.parse 1.0000000
parse termcolors.parse 0.5000000
parse function 0.0013894
parse MigrationAutodetector.parse 0.5000000
parse emethod 1.0000000
parse method 0.0002189
parse parser.parse 0.5111111
parse readline.parse 0.5000000
parse django.utils.six.moves.urllib.parse 0.1923077
parse cgi.parse 0.3333333
ADDRESS ADDRESS 1.0000000
contextlib contextlib 1.0000000
contextlib . 0.0000620
contextlib module 0.0021930
contextlib contextlib.contextmanager 0.5000000
308 NULL 0.0000325
--database --database 1.0000000
int into 0.0080386
int an 0.0038767
int validators.MaxLengthValidator 0.2000000
int integer 0.0322997
int integers 0.0400000
int their 0.3333333
int a 0.0021680
int it 0.0154674
int match.groupdict 0.1000000
int to 0.0031816
int divisible 0.2500000
int type 0.0054201
int value.ljust 0.3333333
int int 0.9047619
int NULL 0.0005527
int self.literal. 0.2500000
int converted 0.1073826
int baseconv.base62.encode 0.2500000
int validators.MinLengthValidator 0.2000000
int self.orphans. 0.5000000
int convert 0.1691729
int value.rjust 0.3333333
int value.center 0.3333333
int and 0.0002032
Checking Checking 1.0000000
tkfiledialog NULL 0.0000325
September 12 0.0526316
September NULL 0.0000325
UnicodeError for 0.0003822
UnicodeError netloc. 1.0000000
UnicodeError result 0.0005879
UnicodeError caught 0.0049751
UnicodeError domain. 1.0000000
UnicodeError is 0.0003762
UnicodeError UnicodeError 1.0000000
logger NULL 0.0000975
logger logger.handlers 0.3333333
logger 3 0.0014409
logger logger. 0.5000000
logger 2 0.0014045
logger elements 0.0018215
logger logging.NOTSET 0.5000000
logger substitute 0.0014221
logger logger 0.9000000
logger logger.removeHandler 0.5000000
logger logger.setLevel. 0.5000000
logger logger.addHandler 0.5000000
logger call 0.0017762
dict mapping 0.1250000
dict value 0.0003713
dict items 0.0333333
dict empty 0.0012240
dict type 0.0135501
dict dict.lists 0.5000000
dict NULL 0.0003251
dict dict.getlist 0.5000000
dict dict.setdefault 0.5000000
dict updates 0.1666667
dict dic 1.0000000
dict populated 0.3333333
dict dict.update 0.5000000
dict dict.items 0.5000000
dict dictionary 0.0372844
dict tuples 0.0689655
dict dict.keys 0.3333333
dict created 0.0326087
dict representation 0.0270270
dict pat 0.0833333
dict subcommands 0.2000000
dict object 0.0022422
dict self.dict 0.6000000
dict dict 0.9487179
Various Various 1.0000000
getmtime function 0.0003473
getmtime os.path.getmtime 1.0000000
acceptable acceptable 1.0000000
assert raise 0.0020080
assert an 0.0001846
assert , 0.0000595
assert if 0.0039198
assert error 0.0051020
assert assert 0.8333333
command substitute 0.0002844
command command.stdout.write 0.3333333
command command.create 0.5000000
command elements 0.0018215
command call 0.0002537
command self.command 1.0000000
command command.use 0.5000000
command module.Command 1.0000000
command command.execute 0.5000000
command command.verbosity 0.5000000
command NULL 0.0004227
command all 0.0055249
command command 0.8115942
command 3 0.0028818
command command.extensions 0.5000000
pubid self.pubid. 0.6666667
pubid pubid 1.0000000
408 NULL 0.0000325
entry list 0.0015117
entry entry 0.1081081
subdir subdir 1.0000000
vars self.vars 0.5000000
vars dictionary 0.0022259
vars vars 1.0000000
vars self.vars. 1.0000000
true&apos; true 0.0010858
true&apos; is 0.0001881
true&apos; a 0.0005420
true&apos; string 0.0003038
.. appended 0.0212766
&apos;s natural 0.0153846
&apos;s &apos;s 0.6666667
&apos;s NULL 0.0000650
consume consume 1.0000000
strftime function 0.0027787
strftime value.strftime 0.8000000
strftime result 0.0002939
strftime strftime 0.9000000
strftime date.strftime 1.0000000
strftime time.strftime 1.0000000
reload reload 0.2857143
reload NULL 0.0000650
replace data.replace 1.0000000
replace every 0.0381895
replace whitespaces 0.0465116
replace exp.replace 1.0000000
replace occurrences 0.3103448
replace replace 0.2847682
replace occurrence 0.5471698
replace rest.replace 0.5000000
replace first 0.0056980
replace now.replace 1.0000000
replace in 0.0020013
replace NULL 0.0005202
replace all 0.0552486
replace node.replace 1.0000000
replace value.replace 0.5000000
replace replaced 0.0038462
replace self.replace 1.0000000
replace unifunc.replace 0.5000000
must NULL 0.0001301
must must 0.9733333
must node.must 0.5000000
&lt; smaller 0.8666667
&lt; less 0.4000000
&lt; NULL 0.0026010
&lt; &lt; 0.6763285
&lt; lesser 0.8644068
&lt; left 0.5806452
&lt; is 0.0139202
&lt; or 0.0181488
&lt; 037 1.0000000
&lt; than 0.3450980
&lt; equal 0.0354331
kwargs kwargs 0.9295775
kwargs being 0.2000000
kwargs call 0.0007612
kwargs kwargs.items. 1.0000000
kwargs boolean 0.0010846
kwargs invalid 0.0102041
kwargs args 0.0230415
kwargs value 0.0011140
kwargs InlineForeignKeyField 0.1428571
kwargs function 0.0003473
kwargs of 0.0009029
kwargs type 0.0027100
kwargs NULL 0.0013005
kwargs kwarg 0.0833333
kwargs that 0.0156250
kwargs parsed.scheme. 1.0000000
kwargs kwargs. 0.0833333
kwargs localized 0.0526316
kwargs self.kwargs. 0.8000000
kwargs dictionary 0.0272677
kwargs False. 0.0645161
kwargs kwargs.update 0.5000000
csrfmiddlewaretoken csrfmiddlewaretoken 1.0000000
permitted return 0.0004013
permitted permitted 0.7000000
permitted NULL 0.0000975
makedirs directories 0.4000000
makedirs elements 0.0072860
makedirs make 0.0384615
makedirs os.makedirs 1.0000000
makedirs a 0.0016260
makedirs from 0.0013491
makedirs directory 0.0350877
makedirs in 0.0026684
makedirs create 0.0602410
makedirs function 0.0010420
contrib django.contrib.auth 0.3333333
passed passed 1.0000000
TEST TEST 0.6666667
TEST set 0.0005362
Reverse Reverse 1.0000000
RenderContext instance 0.0013369
RenderContext from 0.0003373
RenderContext RenderContext 1.0000000
RenderContext a 0.0005420
RenderContext class 0.0004662
RenderContext of 0.0002257
SelectDateWidget for 0.0001911
SelectDateWidget SelectDateWidget 1.0000000
SelectDateWidget containing 0.0032787
ModuleType assign 0.0064516
ModuleType types.ModuleType 0.3333333
bufsize bufsize 1.0000000
unmigrated NULL 0.0000325
unmigrated executor.loader.unmigrated 0.4444444
unmigrated unmigrated 0.7500000
RawPostDataException exception 0.0009709
RawPostDataException RawPostDataException 1.0000000
RawPostDataException from 0.0003373
prev prev 0.8000000
PVOID PVOID 0.6666667
InterBoundaryIter InterBoundaryIter 1.0000000
InterBoundaryIter instance 0.0013369
InterBoundaryIter from 0.0003373
InterBoundaryIter created 0.0036232
InterBoundaryIter class 0.0004662
dotted 2 0.0007022
dotted dotted 1.0000000
runserver runserver 1.0000000
culling culling 1.0000000
source token.source. 0.5000000
source self.source 0.7500000
source 3 0.0028818
source NULL 0.0000650
source source 0.9344262
source a 0.0010840
source self.source. 0.5000000
source node.source. 1.0000000
source token.source 0.8333333
source source.is 0.5000000
source make 0.0192308
striptags striptags 1.0000000
striptags an 0.0001846
striptags the 0.0000656
the shutil.move 0.3333333
the Get 0.5000000
the used 0.0333333
the Tells 0.0526316
the determine 0.5000000
the more 0.0476190
the Installs 0.5000000
the Locales 0.1428571
the squashed 0.1666667
the be 0.0219780
the the 0.0089836
the synchronize 0.2500000
the dumped 0.3333333
the given 0.0588235
the Specifies 0.1666667
the threading 0.0434783
the Prints 0.5000000
the Please 0.1304348
the specified 0.0625000
the NULL 0.0026335
the entry 0.0090090
the posixpath.splitext 0.3333333
the Introspects 0.5000000
the .ModelName 0.1666667
the outside 0.3333333
ENGINE ENGINE 0.6666667
ENGINE NULL 0.0000325
original original 0.9166667
original NULL 0.0000325
export of 0.0002257
PY2 boolean 0.0043384
PY2 module 0.0021930
PY2 False 0.0022124
PY2 field 0.0023310
PY2 otherwise 0.0031348
PY2 is 0.0016930
PY2 true 0.0206298
PY2 True 0.0061728
PY2 str. 0.3333333
PY2 time 0.0151515
PY2 PY2 1.0000000
PY2 if 0.0002306
PY2 six.PY2 0.5000000
live TEST 0.3333333
zfile flush 0.0588235
zfile stream 0.0252101
zfile zfile.close. 0.5000000
zfile zfile 0.8333333
zfile zbuf. 1.0000000
zfile zfile.write 0.5000000
zfile call 0.0005075
wintypes ctypes.wintypes 0.5000000
idna idna 1.0000000
loc which 0.0384615
loc formated 0.0116279
loc is 0.0001881
loc loc 1.0000000
dev&apos; &apos; 0.0001087
dev&apos; . 0.0000620
dev&apos; dev 0.2000000
python one 0.0104167
python dictionary 0.0005565
python getInnerText 0.1111111
python xml 0.2000000
python NULL 0.0000975
python django.core.serializers.python 0.2352941
python unpacked 0.0016835
python python 0.9302326
python kwargs. 0.0277778
change change 0.6666667
change id 0.0059880
100 response.status 0.1666667
100 integer 0.0038760
100 NULL 0.0000325
100 100 0.7142857
tkinter.filedialog NULL 0.0000650
HTTPDigestAuthHandler NULL 0.0000325
reflected reflected 1.0000000
accessed accessed 1.0000000
CTRL-BREAK CONTROL-C 1.0000000
validators list 0.0015117
validators validators.EMPTY 0.5000000
validators self.validators 0.6000000
validators validators.MinLengthValidator 0.4000000
validators self.validators. 0.1000000
validators django.core.validators 0.3333333
validators NULL 0.0000975
validators validators 0.9411765
validators validators.MaxValueValidator 0.5000000
validators validators.validate 0.5000000
validators validators.MinValueValidator 0.5000000
validators validators.RegexValidator 0.5000000
validators result.validators. 0.3333333
validators validators.MaxLengthValidator 0.4000000
Saturday call 0.0002537
anonymous anonymous 1.0000000
v2 v2 1.0000000
SubWidget from 0.0003373
SubWidget instance 0.0013369
SubWidget SubWidget 1.0000000
SubWidget 5 0.0071429
SubWidget created 0.0036232
location substitute 0.0002844
location self.location. 1.0000000
location None. 0.0370370
location and 0.0002032
location NULL 0.0000975
location location. 0.5000000
location self.location 0.5000000
location location 0.9166667
Node form 0.0046948
Node class 0.0009324
Node base 0.0354880
Node Node 1.0000000
Node from 0.0010118
splitquery NULL 0.0000325
opname opname 1.0000000
RegexValidator class 0.0013986
RegexValidator RegexValidator 1.0000000
RegexValidator a 0.0027100
RegexValidator form 0.0046948
RegexValidator created 0.0072464
RegexValidator instance 0.0040107
RegexValidator validators.RegexValidator 0.5000000
RegexValidator 3 0.0014409
times times 0.4000000
times NULL 0.0002601
are are 0.0636943
are initial 0.0051282
are NULL 0.0003902
either NULL 0.0000975
either either 0.5000000
args2 arguments 0.0003328
args2 2 0.0007022
args2 args2 0.5000000
resent-to NULL 0.0000325
free free 1.0000000
base64d base64d 0.8333333
base64d NULL 0.0000325
base64d base64 0.1428571
base64d with 0.0001252
base64d .&apos; 0.0158730
base64d first 0.0028490
accepted NULL 0.0000325
accepted accepted 1.0000000
maxSpare dictionary 0.0011130
uppercase NULL 0.0000325
prepend self.prepend 1.0000000
prepend prepend 0.2500000
prepend function 0.0003473
TypedMultipleChoiceField empty 0.0012240
TypedMultipleChoiceField NULL 0.0000325
TypedMultipleChoiceField TypedMultipleChoiceField 0.7500000
TypedMultipleChoiceField if 0.0002306
TypedMultipleChoiceField not 0.0006609
TypedMultipleChoiceField self.empty 0.0136986
TypedMultipleChoiceField list. 0.0588235
TypedMultipleChoiceField class 0.0013986
DisallowedRedirect exception 0.0009709
DisallowedRedirect DisallowedRedirect 1.0000000
DisallowedRedirect from 0.0003373
dbm.gnu NULL 0.0000325
DSTOFFSET for 0.0003822
DSTOFFSET self.DSTOFFSET. 0.5000000
DSTOFFSET self.DSTOFFSET 1.0000000
OneToOneField OneToOneField 0.6666667
LocMemCache LocMemCache 1.0000000
LocMemCache from 0.0003373
Sign Sign 1.0000000
WAIT WAIT 1.0000000
STORAGE if 0.0002306
STORAGE STORAGE 0.5000000
STORAGE NULL 0.0000325
STORAGE not 0.0006609
Tkinter NULL 0.0000325
compression self.compression 0.8333333
behaving containing 0.0032787
Twister argument 0.0002721
-e -e 0.6000000
-e NULL 0.0000325
mutex self.mutex. 1.0000000
mutex self.mutex 0.5000000
mutex perform 0.0412371
UNIQUE UNIQUE 1.0000000
const instances 0.1428571
mass NULL 0.0000325
mass mass 0.5000000
additional additional 0.3333333
additional NULL 0.0000325
TextInput TextInput 1.0000000
TextInput called 0.0026042
TextInput from 0.0006745
TextInput class 0.0004662
Message-ID Message-ID 1.0000000
RadioSelect RadioSelect 0.5000000
RadioSelect strings 0.0083333
RadioSelect from 0.0003373
endspaceless element 0.0009766
endspaceless endspaceless 1.0000000
RemovedInDjango20Warning RemovedInDjango20Warning 0.7142857
RemovedInDjango20Warning NULL 0.0001626
djangoprojects djangoprojects 1.0000000
bz2 . 0.0000620
bz2 bz2 1.0000000
bz2 2 0.0007022
Header instance 0.0066845
Header Header 1.0000000
Header created 0.0181159
Header class 0.0032634
Header instantiate 0.0232558
uffff uffff 1.0000000
uffff &#93; 0.0071429
filepath CHARSET 0.0952381
filepath self.filepath.resolve 0.5000000
filepath filepath 1.0000000
filepath self.filepath. 1.0000000
strings feed 0.0500000
strings NULL 0.0002276
strings onlys 0.5000000
strings author 0.0217391
strings string 0.0009113
strings or 0.0018149
strings None 0.0007880
strings strings 0.1166667
percent percent 1.0000000
Please self.absolute 0.1666667
Please NULL 0.0001951
Please Please 0.5652174
below below 1.0000000
serialized serialized 0.6666667
serialized specified 0.0625000
msgmerge NULL 0.0000650
msgmerge self.msgmerge 0.5000000
msgmerge msgmerge 1.0000000
Library class 0.0018648
Library instance 0.0053476
Library form 0.0046948
Library Library 1.0000000
Library an 0.0007384
+ self.program 0.1818182
+ resultclasses 0.1000000
+ append 0.2316602
+ appended 0.0212766
+ .moves.urllib.error 0.4000000
+ units 0.3333333
+ NULL 0.0024060
+ string 0.0009113
+ index 0.0171429
+ self.quertset 0.5000000
+ .moves.urllib 0.1333333
+ increment 0.1562500
+ to 0.0100343
+ globalpath 0.5000000
+ result 0.0049971
+ subtraction 0.2000000
+ concatenate 0.1935484
+ the 0.0006557
+ and 0.0152408
+ character 0.0492958
+ take 0.0625000
+ + 0.7684211
+ prepend 0.2500000
+ add 0.0598802
+ , 0.0069614
+ &apos; 0.0001087
+ uppercase 0.1111111
+ sum 0.3846154
+ by 0.2115768
+ timetuple 0.3333333
+ it 0.0127774
+ six.integer 0.2222222
+ incremented 0.6250000
+ django.http.cookies 0.5000000
+ -th 0.2000000
+ ) 0.0033784
+ create 0.0240964
Http404 Http404 0.7500000
Http404 http.Http404 1.0000000
Http404 NULL 0.0000650
red NULL 0.0002926
red red 1.0000000
MinLengthValidator MinLengthValidator 1.0000000
MinLengthValidator validators.MinLengthValidator 0.2000000
MinLengthValidator form 0.0046948
by on 0.0051282
by NULL 0.0002276
by by 0.0578842
iadd iadd 1.0000000
disabled disabled 1.0000000
disabled logger.disabled 1.0000000
assigned result 0.0005879
assigned as 0.0006614
assigned of 0.0004515
assigned assigned 0.6666667
bytearray elements 0.0018215
bytearray 2 0.0007022
bytearray a 0.0005420
bytearray bytearray 1.0000000
bytearray tuple 0.0025189
able NULL 0.0000325
B for 0.0001911
B B 1.0000000
query exists 0.0033445
query call 0.0002537
query result 0.0005879
query query 0.8260870
ChoiceField called 0.0026042
ChoiceField ChoiceField 0.9166667
ChoiceField NULL 0.0000325
ChoiceField 7 0.0238095
ChoiceField class 0.0037296
ChoiceField from 0.0003373
0123456789ABCDEF&apos; &apos; 0.0001087
0123456789ABCDEF&apos; 0123456789ABCDEF 1.0000000
fh file 0.0066079
fh call 0.0005075
fh following 0.0540541
fh fh 0.8571429
QUERY QUERY 0.5000000
QUERY dictionary 0.0005565
SplitHiddenDateTimeWidget NULL 0.0000650
SplitHiddenDateTimeWidget SplitHiddenDateTimeWidget 0.6000000
SplitHiddenDateTimeWidget class 0.0004662
SplitHiddenDateTimeWidget from 0.0003373
exists exist 0.0645161
exists dirs. 0.2000000
exists exists 0.1204013
exists path. 0.2000000
exists doesnt 0.0114943
exists NULL 0.0000975
exists self.exists 0.5000000
exists os.path.exists 0.5000000
Internal NULL 0.0000325
Internal Internal 0.5000000
Internal in 0.0006671
setattr move.name 1.0000000
setattr attribute 0.0229358
setattr attr.name 0.6666667
setattr setattr 1.0000000
setattr set 0.0112601
global variables 0.3333333
global variable 0.3421053
global NULL 0.0000325
global archive.getmembers 0.3333333
global global 0.8500000
global use 0.0269710
global declare 1.0000000
alternate alternate 0.5000000
alternate use 0.0020747
alternate a 0.0010840
ROOT for 0.0001911
ROOT ROOT 1.0000000
ROOT . 0.0000620
ROOT location 0.0416667
334 181 0.1428571
FTPHandler NULL 0.0000325
blankout blankout 1.0000000
sort sort 0.3684211
sort ordering.sort 0.5000000
sort fields. 0.2000000
sort list 0.0007559
sort elements 0.0054645
sort on 0.0051282
dictConfigClass dictConfigClass 0.6666667
rights rights 1.0000000
HTMLParser NULL 0.0000325
HTMLParser call 0.0005075
HTMLParser parser.HTMLParser. 0.5000000
HTMLParser from 0.0006745
HTMLParser HTMLParser 1.0000000
0 beginning 0.4062500
0 element 0.1123047
0 EXCL 0.2500000
0 doomed 0.3333333
0 first 0.3846154
0 0 0.8695652
0 integers 0.1600000
0 firs 0.3333333
0 equal 0.0039370
0 3 0.0014409
0 integer 0.2351421
0 . 0.0001240
0 containing 0.0065574
0 zeros 1.0000000
0 zero 0.4705882
0 beggining 0.5000000
0 0&apos; 0.0526316
0 at 0.0245902
0 binary 0.0769231
0 than 0.0039216
0 output. 0.1111111
0 NULL 0.0020158
0 1 0.0034965
checkout checkout 0.5000000
probably NULL 0.0000325
probably probably 0.3333333
CachedDnsName from 0.0003373
CachedDnsName instance 0.0013369
CachedDnsName a 0.0005420
CachedDnsName class 0.0004662
CachedDnsName CachedDnsName 1.0000000
a-z0-9.- a-z0-9.- 1.0000000
HTTPError NULL 0.0000325
PythonDeserializer created 0.0036232
PythonDeserializer return 0.0008026
PythonDeserializer value 0.0007427
PythonDeserializer PythonDeserializer 1.0000000
PythonDeserializer called 0.0026042
j j 0.9375000
j j-th 1.0000000
j the 0.0000656
j add 0.0059880
j . 0.0003719
j sum 0.0192308
j of 0.0002257
j NULL 0.0000325
NUM NUM 0.8461538
NUM NULL 0.0000650
management management 0.7500000
management django.core.management.color 0.2500000
management self.management 0.8333333
management django.core.management.sql 0.2500000
management django.core.management 0.2500000
management django.core.management.utils 0.2500000
management NULL 0.0000975
management django.core.management.base 0.2500000
management django.core.management.commands.check 0.2000000
management django.core.management.templates 0.2500000
UTC UTC 1.0000000
UTC from 0.0003373
System System 1.0000000
System in 0.0006671
strfunc strfunc 1.0000000
Named Named 1.0000000
commas NULL 0.0000975
commas commas 0.2000000
--no-color --no-color 1.0000000
printdir archive.printdir 0.5000000
printdir 2 0.0007022
printdir arguments 0.0003328
tablenames tablenames 1.0000000
serializers django.core.serializers.base 0.2500000
serializers serializers 0.9722222
serializers django.core.serializers.python 0.2352941
serializers call 0.0007612
serializers f 0.0170940
serializers django.core.serializers 0.3333333
serializers NULL 0.0000975
serializers serializers.serialize 0.5000000
serializers serializers.get 0.3333333
serializers serializers.deserialize 0.5000000
serializers return 0.0004013
unexpected not 0.0006609
unexpected unexpected 0.8333333
unexpected are 0.0063694
unexpected they 0.0833333
label.ModelName fixtures 0.0769231
label.ModelName from 0.0003373
label.ModelName database 0.0095238
label.ModelName dump 0.2500000
Variable Variable 0.8235294
Variable filed 0.0833333
Variable django.template. 0.5000000
Variable class 0.0032634
Variable a 0.0010840
Variable resolve 0.0625000
Variable NULL 0.0000325
Variable form 0.0046948
Variable instantiate 0.0232558
Variable instance 0.0053476
Variable created 0.0144928
Variable VariableDoesNotExist. 0.3333333
char NULL 0.0000650
char cahr 1.0000000
char char 0.9545455
TEAPOT NULL 0.0000325
integer integer 0.0090439
integer six.integer 0.5555556
unpickle tuple 0.0025189
unpickle 4 0.0041667
unpickle unpickle 1.0000000
second with 0.0002504
second self.data.second. 0.2000000
second second 0.1120690
second self.second 0.6000000
second 5 0.0071429
second NULL 0.0001301
second are 0.0063694
ProcessEvent pyinotify.ProcessEvent. 1.0000000
ProcessEvent class 0.0004662
ProcessEvent base 0.0012674
ProcessEvent from 0.0003373
system system 0.7419355
system NULL 0.0001626
pluralize function 0.0003473
pluralize pluralize 1.0000000
py.warnings NULL 0.0000325
py.warnings py.warnings 1.0000000
marked NULL 0.0000325
POST NULL 0.0000650
POST POST 0.5000000
IP NULL 0.0000325
IP IP 0.5000000
includes includes 1.0000000
MinValueValidator MinValueValidator 1.0000000
MinValueValidator validators.MinValueValidator 0.2500000
URLValidator form 0.0046948
URLValidator validators.URLValidator 1.0000000
URLValidator class 0.0013986
URLValidator URLValidator 1.0000000
isfile a 0.0021680
isfile is 0.0007524
isfile file 0.0088106
Python Python 0.9333333
Python NULL 0.0000325
i &apos; 0.0002173
i i 0.9005525
i subject. 0.6000000
i output. 0.1111111
i NULL 0.0006503
i replaced 0.0038462
i formatstr 0.1666667
i with 0.0002504
i href 0.0909091
i s 0.0007138
i % 0.0006789
i respectivley 0.5000000
i i-th 0.6862745
i where 0.0049505
i self.attrs.copy 0.1111111
i element 0.0126953
i increment 0.1562500
i re.I 0.3333333
autofield false 0.0033557
autofield autofield 1.0000000
charref charref 1.0000000
DummyCache from 0.0003373
DummyCache DummyCache 1.0000000
glob-style empty 0.0012240
glob-style Follows 0.2500000
consisting value 0.0003713
nontext nontext 1.0000000
mixed&apos; . 0.0000620
mixed&apos; mixed 0.3333333
mixed&apos; &apos; 0.0001087
URLCONF URLCONF 1.0000000
URLCONF for 0.0003822
uncaught uncaught 1.0000000
transform transform 1.0000000
ARGUMENT NULL 0.0000650
ARGUMENT ARGUMENT 0.3333333
REQUESTS NULL 0.0000325
REQUESTS REQUESTS 0.3333333
blocks self.block. 0.5000000
blocks self.blocks 1.0000000
blocks of 0.0002257
blocks get 0.0012755
blocks blocks 1.0000000
blocks NULL 0.0000325
BaseForm strings 0.0083333
BaseForm BaseForm 1.0000000
BaseForm from 0.0006745
year&apos; year 0.0500000
year&apos; return 0.0004013
year&apos; value 0.0003713
year&apos; as 0.0006614
year&apos; &apos; 0.0002173
year&apos; of 0.0002257
year&apos; an 0.0001846
re-run re-run 1.0000000
name2 name2 1.0000000
init next 0.0142857
init lazy 0.0077519
init render 0.0102041
init NULL 0.0000325
init init 0.9800570
init initialization 0.0625000
init called 0.0026042
init reload 0.0714286
auto-reloader threading 0.0434783
16 to 0.0007342
16 number 0.0136054
16 converted 0.0067114
16 NULL 0.0000975
16 hexadecimal 0.2000000
fixer lib2to3.fixer 0.5000000
fixer fixer 1.0000000
SafeLoader yaml.load 0.2500000
SafeLoader SafeLoader 0.6666667
SyndicationFeed SyndicationFeed 1.0000000
SyndicationFeed from 0.0003373
fname fname 0.9200000
fname call 0.0007612
fname NULL 0.0000325
ENOENT errno.ENOENT 0.5000000
ENOENT errno.EEXIST 0.0833333
Serializer from 0.0016863
Serializer NULL 0.0000650
Serializer Serializer 0.9230769
Serializer base.Serializer 0.4000000
modulename.TestCase : 0.0003596
doseq doseq 0.5000000
doseq NULL 0.0000325
doseq set 0.0005362
SYSTEM SYSTEM 1.0000000
endChannelElement self.endChannelElement 1.0000000
endChannelElement endChannelElement 1.0000000
calculate call 0.0002537
calculate function 0.0006947
calculate the 0.0000656
calculate calculate 0.2000000
GROUPING 6 0.0135135
GROUPING arguments 0.0003328
L an 0.0001846
L the 0.0000656
L L 1.0000000
hhmm hhmm 1.0000000
Jan. 10 0.0263158
SystemExit SystemExit 1.0000000
members members 1.0000000
xef xef 1.0000000
nMETA nMETA 1.0000000
final NULL 0.0001301
final base 0.0012674
final final 0.7073171
final path. 0.2000000
final attrs. 0.1818182
final 2 0.0007022
final flatatt 0.1250000
final call 0.0012687
RFC RFC 1.0000000
called self.cmd. 0.2500000
called back 0.2500000
called self.close 0.3333333
called False 0.0022124
called called 0.0182292
pformat function 0.0024314
pformat pformat 0.7142857
pformat NULL 0.0001301
bool they 0.0833333
bool object 0.0022422
bool are 0.0063694
bool self.dict 0.1000000
bool a 0.0005420
bool value. 0.0333333
bool into 0.0024116
bool inverted 0.5000000
bool self.changed 0.2500000
bool program 0.0909091
bool boolean 0.0043384
bool convert 0.0263158
bool and 0.0002032
bool bool 0.9230769
bool self.name 0.0227273
bool value 0.0003713
06d 06d 1.0000000
06d formated 0.0116279
sysid sysid 1.0000000
sysid self.sysid 1.0000000
sysid self.sysid. 1.0000000
activity NULL 0.0000325
x1b &#91; 0.0206897
x1b x1b 1.0000000
wish wish 1.0000000
until squash 0.1000000
until NULL 0.0001301
until until 0.6666667
StreamHandler substitute 0.0002844
StreamHandler logging.StreamHandler 0.5000000
StreamHandler result 0.0002939
full NULL 0.0000325
full replace 0.0066225
full self.full 1.0000000
full full 0.9047619
full self.instance.full 0.5000000
RequireDebugFalse from 0.0003373
RequireDebugFalse base 0.0012674
RequireDebugFalse logging.Filter 0.1250000
RequireDebugFalse RequireDebugFalse 0.5000000
SUBJECT SUBJECT 1.0000000
nt nt 0.8000000
nt NULL 0.0000325
argv first 0.0056980
argv self.argv. 0.6666667
argv two 0.0285714
argv self.argv 0.7500000
argv sys.argv 0.2500000
argv argv 0.9444444
argv without 0.0500000
argv NULL 0.0000975
Cleaning Cleaning 1.0000000
constructor constructor 0.3333333
constructor a 0.0010840
month&apos; month 0.0606061
month&apos; &apos; 0.0002173
month&apos; return 0.0004013
month&apos; value 0.0003713
month&apos; as 0.0006614
month&apos; of 0.0002257
month&apos; an 0.0001846
November January 0.5000000
November for 0.0001911
November 1 0.0034965
November NULL 0.0000325
migrations django.db.migrations.autodetector 0.2500000
migrations django.db.migrations.optimizer 0.2500000
migrations during 0.3333333
migrations django.db.migrations.questioner 0.2500000
migrations django.db.migrations.writer 0.2500000
migrations django.db.migrations.loader 0.2500000
migrations migrations 0.9122807
migrations django.db.migrations 0.3333333
migrations argument 0.0002721
migrations NULL 0.0004227
&apos;`request.POST` `request.POST` 0.5000000
HttpResponseNotFound HttpResponseNotFound 0.5000000
HttpResponseNotFound from 0.0003373
HttpResponseNotFound HttpResponsePermanentRedirect 0.1250000
HttpResponseNotFound NULL 0.0000325
cleanup function 0.0006947
cleanup cleanup 1.0000000
REASON REASON 1.0000000
`streaming `streaming 1.0000000
references refto 0.1111111
references references.setdefault 0.5000000
references method 0.0008757
references model 0.0042017
references references.keys 1.0000000
references return 0.0012039
references called 0.0026042
references references 0.8888889
references references.items 0.4000000
achieve NULL 0.0000325
achieve tuple 0.0025189
achieve containing 0.0032787
ustring ustring 1.0000000
ustring method 0.0002189
Unable Unable 1.0000000
rows rows 1.0000000
rows cols 1.0000000
rows for 0.0003822
1,8 1,8 1.0000000
IfEqualNode an 0.0001846
IfEqualNode instance 0.0013369
IfEqualNode IfEqualNode 1.0000000
IfEqualNode created 0.0036232
IfEqualNode class 0.0004662
construct meta.exclude 0.1428571
construct NULL 0.0000325
construct construct 0.9285714
unclosed return 0.0004013
unclosed result. 0.0075758
unclosed unclosed 1.0000000
unclosed the 0.0001311
ifilter NULL 0.0000325
WRONLY evaluate 0.0307692
netloc perform 0.0103093
netloc info.netloc 0.7500000
netloc netloc 1.0000000
netloc call 0.0005075
netloc false 0.0033557
netloc netloc.encode 0.3333333
relobj relobj 1.0000000
emitting as 0.0006614
emitting . 0.0000620
emitting result 0.0002939
emitting of 0.0002257
emitting it 0.0006725
emitting generator 0.0434783
emitting emitting 1.0000000
emitting the 0.0000656
iterable iterable 0.1428571
iterable called 0.0026042
iterable iterables 0.3333333
w into 0.0008039
w integer. 0.2500000
w NULL 0.0002926
w w.media 1.0000000
w converted 0.0067114
w assign 0.0064516
w w.is 0.5000000
w os.W 0.5000000
w append 0.0019305
w w 0.8205128
OverflowError OverflowError 0.8333333
OverflowError caught 0.0024876
OverflowError exceptions 0.0149254
OverflowError exception 0.0009709
OverflowError or 0.0036298
OverflowError are 0.0063694
configs config 0.0329670
configs NULL 0.0001626
configs results 0.0219780
configs defaulting 0.0322581
configs configs 0.8684211
attrvalue and 0.0002032
attrvalue first 0.0028490
attrvalue character 0.0211268
attrvalue remove 0.0080645
attrvalue are 0.0063694
attrvalue on 0.0051282
attrvalue not 0.0006609
attrvalue last 0.0117647
attrvalue attrvalue 0.8000000
attrvalue set 0.0005362
attrvalue empty 0.0012240
attrvalue NULL 0.0000325
attrvalue an 0.0001846
after kind 0.1428571
after prompt 0.2222222
after NULL 0.0001301
after Nominates 0.0625000
after a 0.0005420
after obsolete 0.1666667
after after 0.4000000
safeseq safeseq 1.0000000
safeseq the 0.0000656
safeseq an 0.0001846
few smaller 0.0222222
daylight time.daylight 0.5000000
daylight true 0.0010858
intrans intrans 1.0000000
CommandParser CommandParser 1.0000000
CommandParser class 0.0023310
CommandParser created 0.0072464
CommandParser from 0.0003373
CommandParser instance 0.0026738
CommandParser 3 0.0028818
u005C u005C 1.0000000
300 NULL 0.0000325
300 300 0.8000000
300 . 0.0001240
300 integer 0.0051680
Create fixing 0.5000000
Create Enable 0.5000000
Create conflicts 0.0625000
Create of 0.0002257
Create migration 0.0128205
fqdn NULL 0.0000650
fqdn fqdn 0.8888889
which to 0.0002447
which wiht 0.1111111
which NULL 0.0001951
which which 0.1538462
which model 0.0042017
tkinter.scrolledtext NULL 0.0000325
subs pat 0.0833333
subs norm 0.1428571
subs covert 0.1428571
subs formated 0.0116279
subs subs 1.0000000
DjangoUnicodeDecodeError DjangoUnicodeDecodeError 1.0000000
DjangoUnicodeDecodeError from 0.0003373
DjangoUnicodeDecodeError DjingoUnicodeDecodeError 1.0000000
overlapped call 0.0005075
overlapped overlapped 1.0000000
order order 0.2500000
order qs.order 1.0000000
order NULL 0.0000975
order entries 0.0102041
order callback 0.0111111
order formfield 0.0476190
order texts 0.0714286
th&apos; th 0.3333333
th&apos; . 0.0001240
th&apos; &apos; 0.0002173
Base36 Base36 1.0000000
&apos;localhost &quot; 0.0004866
DictWrapper from 0.0003373
DictWrapper class 0.0009324
DictWrapper DictWrapper 1.0000000
requires NULL 0.0000975
requires self.requires 0.5000000
requires &quot; 0.0004866
requires requires 0.8750000
mime email.mime.message 0.3333333
mime email.mime.text 0.3333333
mime NULL 0.0001626
mime email.mime.base 0.3333333
mime self.mime 1.0000000
mime mime 0.8333333
mime email.mime.multipart 0.3333333
mime self.length 0.5000000
is formset.is 0.5000000
is and 0.0002032
is boolean 0.0032538
is source.is 0.5000000
is points 0.2000000
is function 0.0003473
is bf.is 1.0000000
is widget.is 0.5714286
is e.is 0.5714286
is w.is 0.5000000
is NULL 0.0015931
is to 0.0007342
is is 0.1358164
is equals 0.0036969
is func.is 0.5000000
is expression. 0.5000000
is evaluates 0.0205479
is self.field.widget.is 0.5000000
is are 0.0127389
is field.is 0.6666667
is settings.is 0.7142857
is form.is 0.5000000
is self.is 0.7027027
is if 0.0002306
is timezone.is 0.7500000
is _ 0.0000483
contradiction contradiction 0.6666667
contradiction NULL 0.0000325
507 NULL 0.0000325
deps boolean 0.0010846
deps deps 0.9230769
deps to 0.0002447
deps a 0.0005420
deps True 0.0020576
deps NULL 0.0000325
deps add 0.0059880
deps in 0.0006671
exit self.exit 1.0000000
exit self.stderr. 0.2000000
exit process 0.1153846
exit sys.exit 1.0000000
exit exit 0.9565217
exit program 0.3636364
exit function 0.0013894
exit code 0.0096618
COUNT of 0.0002257
COUNT COUNT 0.7500000
COUNT NULL 0.0001301
INFOS CRITICALS 0.5000000
windll windll 1.0000000
windll windll.kernel32.UnlockFileEx 1.0000000
windll NULL 0.0000325
9&apos; NULL 0.0001301
Nov Nov 1.0000000
binary binary 0.1538462
https&apos; , 0.0000595
https&apos; https 0.1818182
https&apos; . 0.0000620
https&apos; &apos; 0.0002173
HTTPBasicAuthHandler NULL 0.0000325
limited limited 1.0000000
limited return 0.0008026
limited value 0.0007427
limited limiter 1.0000000
limited into 0.0008039
limited store 0.0101010
rjust rjust 1.0000000
rjust value.rjust 0.3333333
6 6 0.2297297
6 result 0.0005879
6 eight 0.5000000
6 seventh 0.6666667
6 integer 0.0064599
6 of 0.0002257
6 Sat 0.5000000
6 NULL 0.0001301
candidates NULL 0.0000325
candidates candidates 1.0000000
MIMEText call 0.0007612
MIMEText MIMEText 1.0000000
HttpRequest NULL 0.0000325
HttpRequest HttpRequest 1.0000000
HttpRequest from 0.0003373
ModelFormOptions ModelFormOptions 0.6666667
ModelFormOptions class 0.0004662
ModelFormOptions instantiate 0.0232558
xgettext xgettext 1.0000000
xgettext NULL 0.0001301
xgettext self.xgettext 0.5000000
description description 0.6818182
description called 0.0026042
description NULL 0.0001951
PERMANENTLY NULL 0.0000325
on defaulting 0.0107527
on on 0.1076923
on NULL 0.0001951
on --traceback 0.2500000
Synchronize Synchronize 1.0000000
Synchronize a 0.0005420
specify multiple 0.0344828
specify --exclude 0.1000000
specify specify 0.5000000
slice slice 0.1304348
slice type 0.0027100
SuspiciousFileOperation from 0.0003373
SuspiciousFileOperation SuspiciousFileOperation 1.0000000
SuspiciousFileOperation exception 0.0009709
p1 NULL 0.0000650
p1 p2.scheme 1.0000000
p1 return 0.0004013
bypass NULL 0.0000325
cull cull 0.9473684
cull NULL 0.0000325
u003E entries 0.0102041
reg-exp reg-exp 1.0000000
ipython ipython 0.9090909
ipython self.shells 0.2000000
endwith element 0.0009766
endwith endwith 1.0000000
using NULL 0.0001626
using database 0.0095238
using self.using. 0.5000000
using self.database. 1.0000000
using objects.using 0.5000000
using using 0.7058824
using qs.using 1.0000000
using to 0.0002447
using self.using 1.0000000
elements elements 0.0218579
elements NULL 0.0000325
rfc3339 result 0.0008818
rfc3339 function 0.0013894
rfc3339 rfc3339 1.0000000
rfc3339 of 0.0006772
FAKED FAKED 1.0000000
FAKED as 0.0013228
ALT of 0.0002257
ALT ALT 0.6666667
word words 0.0294118
word NULL 0.0000325
word self.WORD 1.0000000
word it 0.0006725
word word 0.9230769
word WORD 1.0000000
tagtype self.tagtype. 1.0000000
tagtype tagtype 0.6666667
tagtype self.tagtype 1.0000000
kw kw 0.8947368
kw convert 0.0150376
kw dictionary. 0.0384615
kw six.iteritems 0.0357143
kw a 0.0005420
kw update 0.0425532
kw NULL 0.0000975
kw value 0.0011140
halt halt 1.0000000
strptime 2 0.0028090
strptime arguments 0.0013311
strptime datetime.datetime.strptime 0.3076923
strptime strptime 1.0000000
strptime self.strptime 1.0000000
opfunc opfunc 1.0000000
203 100 0.1428571
widget widget 0.8645833
widget widget.id 0.5000000
widget self.field.widget 0.2000000
widget bwidget 1.0000000
widget Select 0.0769231
widget self.field.widget.value 0.3333333
widget self.field.widget.subwidgets 0.3333333
widget required 0.0217391
widget widget.value 0.5000000
widget self.widget 0.7500000
widget NULL 0.0004227
widget result.widget. 1.0000000
widget widget.is 0.4285714
widget widget.attrs. 1.0000000
widget field.widget.value 0.3333333
widget widget.render 0.5000000
widget widget.attrs 0.7142857
widget self.widget.decompress 0.5000000
widget hidden 0.0303030
widget IntegerField 0.0555556
widget substitute 0.0028441
widget self.widget. 1.0000000
widget call 0.0002537
synch django.utils.synch 0.3333333
MultiValueDict.update ( 0.0016447
MultiValueDict.update MultiValueDict.update 1.0000000
LiveServerTestCase NULL 0.0000325
Mon 7 0.0238095
Mon Tuesday 1.0000000
etags call 0.0005075
etags etags 0.8000000
resolver get 0.0012755
resolver request.resolver 1.0000000
resolver resolver.namespace 0.5000000
resolver resolver.cache 0.5000000
resolver resolver.url 0.5000000
resolver respectively 0.0050761
resolver resolver.resolve 0.2500000
resolver call 0.0010150
resolver resolver.urlconf 0.3333333
resolver self.resolver 1.0000000
resolver resolver 0.9600000
decimal module 0.0065789
decimal otherwise 0.0031348
decimal self.decimal 0.4500000
decimal decimal.Decimal 1.0000000
decimal NULL 0.0002926
decimal decimal 0.7368421
decimal &apos; 0.0001087
decimal result. 0.0075758
A-f0-9 A-f0-9 1.0000000
endtagfind parser.endtagfind 0.5000000
endtagfind pattern 0.0135135
jslex django.utils.jslex 0.3333333
po po 1.0000000
through field.rel.through. 0.5000000
gunk NULL 0.0000325
compare self.compare 0.5000000
compare compare 0.9444444
compare hmac.compare 0.5000000
SafeString instance 0.0013369
SafeString SafeString 1.0000000
SafeString SafeText 0.0833333
SafeString django.utils.safestring 0.3333333
re re.sub 0.4000000
re re.split 0.5000000
re replaced 0.0038462
re t. 1.0000000
re re.error 0.5000000
re module 0.0548246
re substitute 0.0011377
re re.U 0.2000000
re norm 0.1428571
re PATTERN 0.0833333
re re.compile 0.0666667
re it 0.0006725
re re.search 0.4117647
re re 0.9347826
re re.I 0.5000000
re RE 0.5000000
re ) 0.0016892
re re.S 0.3333333
re performed 0.2857143
re bitwise 0.0526316
re re.subn 0.5000000
re call 0.0139558
re project. 1.0000000
re ? 0.0049020
re re. 0.3333333
re re.IGNORECASE 0.4166667
re re.finditer 0.5000000
re NULL 0.0017232
re regex. 0.3333333
re &#124; 0.0212766
re results 0.0109890
re re.UNICODE 0.6000000
re code. 1.0000000
re re.match 0.5000000
re result 0.0017637
re . 0.0019216
re tagfind 0.3333333
tuple types 0.0588235
tuple dir. 0.1666667
tuple or 0.0054446
tuple a 0.0059621
tuple it 0.0006725
tuple elements 0.0036430
tuple result.fields. 1.0000000
tuple formatted 0.1000000
tuple out 0.0400000
tuple tuple 0.1234257
tuple NULL 0.0000975
tuple into 0.0016077
tuple type 0.0162602
tuple data. 0.1428571
ProxyHandler NULL 0.0000325
server server 0.8076923
server server.WSGIRequestHandler 0.5000000
server server.WSGIServer 0.5000000
server NULL 0.0001951
endDocument self.xml.endDocument 0.5000000
isoformat o.isoformat 0.5000000
isoformat result 0.0002939
isoformat self.data.isoformat 0.5000000
NON-AUTHORITATIVE SWITCHING 1.0000000
literal literal 0.8750000
literal self.literal. 0.5000000
literal self.literal 0.8000000
literal it 0.0013450
2,6 0,247 0.5000000
2,6 &quot; 0.0004866
colon colon 1.0000000
expr NULL 0.0000325
expr expr.resolve 0.5000000
expr self.val 0.3333333
expr WidthRatioNode 0.3333333
expr expr 0.8235294
expr expr.filters 0.5000000
expr respectively 0.0050761
39 in 0.0006671
silenced silence 1.0000000
silenced NULL 0.0000325
silenced in 0.0006671
silenced issue 0.1111111
silenced settings.SILENCED 0.5000000
silenced silenced 0.6000000
Signer Singer 1.0000000
Signer from 0.0006745
Signer class 0.0004662
Signer Signer 0.6666667
Signer the 0.0000656
failure failure 1.0000000
addHandler an 0.0001846
addHandler : 0.0003596
addHandler logger.addHandler 0.5000000
addHandler h-th 1.0000000
addHandler element 0.0009766
SimpleCookie cookies.SimpleCookie 0.2500000
SimpleCookie cookies.SimpleCookie. 0.5000000
SimpleCookie from 0.0003373
SimpleCookie class 0.0013986
SimpleCookie SimpleCookie 1.0000000
SimpleCookie tc 0.5000000
SimpleCookie NULL 0.0000325
SimpleCookie instance 0.0040107
SimpleCookie created 0.0036232
fileno fileno 1.0000000
fileno sys.stdout.fileno. 0.3333333
fileno f.fileno 1.0000000
fileno define 0.0004649
fileno of 0.0002257
fileno so.fileno 1.0000000
fileno result 0.0017637
fileno in 0.0006671
upper fist 0.0833333
upper to 0.0002447
upper upper 1.0000000
upper uppercase 0.5555556
upper languages 1.0000000
upper NULL 0.0000325
upper covert 0.1428571
upper letter 0.3333333
SimplerXMLGenerator of 0.0006772
SimplerXMLGenerator SimplerXMLGenerator 1.0000000
SimplerXMLGenerator class 0.0013986
SimplerXMLGenerator created 0.0108696
SimplerXMLGenerator instance 0.0040107
questioner questioner 1.0000000
questioner call 0.0002537
questioner questioner.ask 0.5000000
questioner django.db.migrations.questioner 0.2500000
title in 0.0013342
title title 0.8666667
title NULL 0.0000975
TABLE NULL 0.0000975
TABLE TABLE 1.0000000
endif endif 0.7500000
endif element 0.0009766
( up 0.1111111
( 2 0.3125000
( string 0.0300729
( 7 0.0238095
( if 0.0002306
( . 0.0068187
( self.open. 0.3333333
( self.autocomplete. 0.3333333
( utility.execute. 0.5000000
( fie 0.2500000
( connection.client.runshell. 0.2500000
( class 0.0708625
( at 0.1639344
( self.connection.ehlo. 0.3333333
( elements 0.0182149
( self.negate 0.3333333
( instance 0.0013369
( th 0.1666667
( StopIteration 0.2631579
( converted 0.1275168
( doesnt 0.0632184
( Whit 1.0000000
( does 0.2173913
( of 0.3618510
( argument 0.7431293
( releaseLock 0.5000000
( point 0.2000000
( integers 0.3000000
( by 0.1377246
( self.close. 0.3333333
( self.file.close. 0.3333333
( tuple 0.3828715
( settings.configure. 0.3333333
( self.form.error 0.1666667
( self.pointer 0.2500000
( iso 0.1250000
( : 0.2423589
( and 0.0014225
( strings 0.0166667
( iterable 0.4285714
( between 0.4444444
( the 0.1209836
( zfile 0.1666667
( together 0.1538462
( connection.close 0.3333333
( tmpdir 0.4444444
( , 0.0038079
( WSGIHandler 0.2500000
( populate 0.1666667
( to 0.0171317
( HttpResponseBase 0.2500000
( callable 0.2857143
( acquireLock 0.5000000
( strigs 1.0000000
( regular 0.1000000
( are 0.0191083
( self.connection.close. 0.3333333
( representation 0.1081081
( statement 0.0625000
( self.connection.quit. 0.3333333
( case 0.3846154
( an 0.5139376
( extracted.close. 0.5000000
( called 0.0755208
( arguments 0.2026622
( with 0.8244648
( named 0.1136364
( from 0.0478921
( convert 0.0413534
( divide 0.1379310
( method 0.0348074
( self.keyOrder. 0.0769231
( handler.startDocument. 0.3333333
( match.namespaces 1.0000000
( NULL 0.0507202
( attribute 0.0298165
( or 0.0344828
( a 0.0579946
( it 0.1183591
( on 0.2205128
( list 0.0037793
( object 0.0089686
( self.reset. 0.3333333
( 3 0.0014409
( wiht 0.4444444
( integer 0.0025840
( return 0.0012039
( iterator 0.0952381
( created 0.0326087
( words 0.0294118
( directory 0.1403509
( its 0.1944444
( exception 0.0038835
( exceptions 0.0746269
( file 0.0881057
( function 0.0458493
( &apos; 0.0002173
( sets 0.1666667
( ( 0.7055921
( 79 0.2500000
AbstractBasicAuthHandler NULL 0.0000325
SyntaxWarning SyntaxWarning 1.0000000
iterations is 0.0001881
iterations to 0.0004895
iterations 5 0.0071429
iterations converted 0.0067114
iterations iterations 0.8000000
iterations lesser 0.0169492
--locale --locale 0.6666667
--locale NULL 0.0000325
SkipFile SkipFile 1.0000000
SkipFile from 0.0003373
found is 0.0001881
found found 0.9166667
found substituted 0.1000000
found NULL 0.0001301
newer newer 1.0000000
UserString NULL 0.0000650
today datetime.date.today 1.0000000
today field 0.0023310
today function 0.0003473
https NULL 0.0000650
https info.scheme 0.2500000
https https 0.6363636
https or 0.0018149
Prints Prints 0.5000000
connections value 0.0007427
connections NULL 0.0000650
connections access 0.2000000
connections connections 0.9166667
connections from 0.0023609
connections index 0.0057143
connections get 0.0076531
connections the 0.0003279
connections indexing 1.0000000
t consisting 0.6666667
t t.led 0.5000000
t resulting 0.0126582
t t.nud 0.5000000
t list 0.0007559
t t.render 0.5000000
t . 0.0004959
t tuple 0.0075567
t tab 0.2307692
t decrement 0.0285714
t call 0.0017762
t t 0.7878788
t t.nodelist 0.5000000
t , 0.0001190
t value.title 1.0000000
t t.to 0.5000000
t funcname 0.2500000
t NULL 0.0001626
KeyboardInterrupt KeyboardInterrupt 1.0000000
django.contrib.messages.middleware.MessageMiddleware NULL 0.0000325
base email.mime.base 0.3333333
base django.core.management.base 0.2500000
base NULL 0.0003902
base primary 0.0645161
base base.BaseFix. 0.5000000
base self.base 0.5555556
base base 0.0988593
base apllying 1.0000000
base django.template.base 0.3500000
base django.core.serializers.base 0.2500000
base self.program 0.0909091
base base.Serializer 0.4000000
base .base 1.0000000
base django.core.cache.backends.base 0.2000000
base base.DeserializedObject 0.3333333
base os.path.splitext 0.0769231
base self.base. 1.0000000
base base.build 0.5000000
base django.core.files.base 0.2500000
base base.base 1.0000000
base django.core.mail.backends.base 0.3333333
base models.base.ModelBase 0.5000000
base base.declared 0.3333333
base settings.BASE 1.0000000
base base.SerializationError 0.5000000
base base.BaseHandler. 1.0000000
base class.base 0.5000000
base base.DeserializationError 0.4444444
rb rb 0.7000000
rb reading 0.2500000
rb NULL 0.0000975
rb descriptor 0.0833333
--addrport --addrport 1.0000000
obj assign 0.0064516
obj . 0.0003719
obj obj.tzinfo 0.5000000
obj 3 0.0014409
obj Model 0.0588235
obj return 0.0020064
obj obj.save 0.5000000
obj an 0.0003692
obj m2m 0.0250000
obj obj.object. 0.5000000
obj 2 0.0007022
obj obj.save. 0.5000000
obj , 0.0001190
obj obj 0.8877005
obj value 0.0018567
obj self.obj. 1.0000000
obj obj.natural 0.5000000
obj of 0.0009029
obj NULL 0.0006828
obj obj.pk 0.3333333
obj call 0.0038061
obj with 0.0002504
obj self.obj 0.3750000
obj obj.delete. 0.5000000
obj field.rel.to. 0.0476190
obj elements 0.0036430
sy sy 1.0000000
encode method 0.0037215
encode netloc.encode 0.6666667
encode value.encode 0.8333333
encode path.encode 1.0000000
encode call 0.0002537
encode NULL 0.0000975
encode encode 0.7419355
encode val.encode 0.5000000
encode .encode 0.5000000
encode baseconv.base62.encode 0.2500000
encode boundary.encode 1.0000000
encode part.encode 0.5000000
encode on 0.0051282
encode domain.encode 1.0000000
encode name.encode 1.0000000
encode filename.encode 0.6666667
encode Encoders.encode 0.5000000
encode content.encode 1.0000000
encode e.encode 0.6666667
encode data.encode 1.0000000
encode called 0.0026042
encode text.encode 1.0000000
encode s.encode 1.0000000
encode result 0.0011758
httplib NULL 0.0000325
minute NULL 0.0000650
minute date.month 0.3333333
minute reminder 0.1818182
minute date.day 1.0000000
minute self.data.minute 0.5000000
minute time.second 1.0000000
minute d.microsecond 1.0000000
minute self.data.minute. 0.2000000
minute 8 0.0333333
minute time.minute 1.0000000
minute time.microsecond 0.5000000
minute time.hour 1.0000000
minute minute 1.0000000
minute d.second 1.0000000
minute d.tzinfo. 0.5000000
minute date.year 0.5000000
feature handler.feature 1.0000000
feature : 0.0007192
feature arguments 0.0006656
&apos;django.http.cookies appended 0.0212766
&apos;django.http.cookies django.http.cookies 0.5000000
&apos;django.http.cookies to 0.0002447
serializer serializer 0.9523810
serializer value 0.0003713
serializer filed 0.0416667
serializer NULL 0.0000975
serializer Serializer 0.0769231
serializer base.Serializer 0.2000000
stringformat function 0.0003473
stringformat stringformat 1.0000000
InvalidPage from 0.0006745
InvalidPage InvalidPage 1.0000000
InvalidPage the 0.0000656
dependencies NULL 0.0000975
dependencies dependencies 0.6923077
dependencies dependencies.reverse. 1.0000000
autoescape autoescape 0.9069767
autoescape true 0.0021716
autoescape None. 0.0370370
autoescape 4 0.0041667
autoescape self.autoescape. 1.0000000
autoescape if 0.0004611
autoescape context.autoescape. 0.5000000
autoescape use 0.0020747
autoescape context.autoescape 0.5714286
autoescape tz 0.0500000
autoescape NULL 0.0001301
autoescape set 0.0107239
flo flo 1.0000000
flo self.flo.read 0.5000000
flo self.flo. 1.0000000
url NULL 0.0003902
url entries 0.0102041
url self.url. 1.0000000
url url 0.9083969
url url. 0.2500000
url 2 0.0007022
url self.url 0.5555556
url call 0.0022837
url resolver.url 0.5000000
savepoint savepoint 1.0000000
savepoint set 0.0021448
--format --format 1.0000000
2,3 NULL 0.0000325
2,3 string 0.0006075
Starts Starts 1.0000000
EADDRINUSE errno.EACCES 0.5000000
Database Database 1.0000000
Database arguments. 0.0384615
Database database 0.0095238
Database as 0.0006614
fromtimestamp NULL 0.0000975
fromtimestamp datetime.fromtimestamp 0.2500000
fromtimestamp function 0.0003473
touch touch 1.0000000
touch function 0.0003473
Promise Promise 1.0000000
Promise object 0.0044843
Promise class 0.0013986
assertRaisesRegexp assertRaisesRegexp 1.0000000
httpd httpd.set 0.5000000
httpd httpd 0.5000000
httpd httpd.daemon 0.5000000
httpd call 0.0010150
outlog NULL 0.0000325
outlog outlog 1.0000000
partial call 0.0002537
partial object 0.0022422
partial function 0.0003473
partial name. 0.0454545
partial functools.partial 1.0000000
partial partial 1.0000000
partial NULL 0.0000325
partial 8 0.0333333
seemingly seemingly 1.0000000
--template --template 1.0000000
$ $ 0.8461538
$ &#124; 0.0106383
$ ) 0.0033784
$ NULL 0.0002926
noreset noreset 1.0000000
255 take 0.0625000
255 NULL 0.0000325
255 elements 0.0018215
255 255 0.7500000
255 first 0.0056980
255 integer 0.0025840
deactivate NULL 0.0000325
deactivate method 0.0006567
deactivate trans.deactivate 0.5000000
deactivate function 0.0020841
deactivate deactivate 0.9375000
deactivate self.deactivate 0.5000000
deactivate self.deactivate. 1.0000000
BZ2File bz2.BZ2File 1.0000000
BZ2File elements 0.0018215
nThe nThe 1.0000000
non-iterable non-iterable 1.0000000
need need 1.0000000
1,2 time 0.0151515
1,2 1,2 0.6923077
1,2 NULL 0.0000975
strs strs.update 0.5000000
strs strs 1.0000000
strs strs.add 0.5000000
detect executor.loader.detect 1.0000000
detect loader.detect 0.5000000
unregister function 0.0003473
unregister unregister 1.0000000
ModelFormMetaclass is 0.0001881
ModelFormMetaclass None. 0.0370370
ModelFormMetaclass 2 0.0007022
ModelFormMetaclass not 0.0006609
ModelFormMetaclass ModelFormMetaclass 0.6666667
ModelFormMetaclass if 0.0002306
ModelFormMetaclass messages 0.0074627
ModelFormMetaclass self.error 0.0117647
ModelFormMetaclass _ 0.0000483
TYPE NULL 0.0000650
TYPE tuple 0.0025189
TYPE exist 0.0322581
TYPE TYPE 0.6000000
PTR NULL 0.0000325
PTR PTR 0.7500000
concrete concrete 1.0000000
concrete opts.concrete 1.0000000
concrete concatenate 0.0645161
concrete NULL 0.0000325
simpledialog NULL 0.0000325
HEAD HEAD 1.0000000
mn return 0.0004013
mn where 0.0049505
prohibited NULL 0.0000325
prohibited prohibited 0.3333333
prohibited None. 0.0370370
warn 2 0.0070225
warn warnings.warn 0.8333333
warn with 0.0005008
warn NULL 0.0000650
warn arguments 0.0079867
warn 3 0.0216138
warn function 0.0104203
warn warn 1.0000000
while as 0.0033069
while long 0.3333333
while in 0.0006671
while endless 0.9090909
while NULL 0.0000325
while loop 0.0657895
while while 1.0000000
leading only 0.0112360
leading leading 0.7692308
2005 2005 1.0000000
django.templatetags django.templatetags 0.5000000
.tar.gz NULL 0.0000325
another another 0.7500000
another NULL 0.0000325
surrogateescape surrogateescape 1.0000000
PyLibMCCache PyLibMCCache 1.0000000
PyLibMCCache class 0.0004662
total self.total 0.8750000
total total 0.8125000
total NULL 0.0000975
aAbBcdDeEfFgGhHiIjlLmMnNoOPrsStTUuwWyYzZ aAbBcdDeEfFgGhHiIjlLmMnNoOPrsStTUuwWyYzZ 1.0000000
ChunkIter ChunkIter 1.0000000
ConfigParser NULL 0.0000325
medium NULL 0.0001301
medium evaluates 0.0068493
medium medium 0.4545455
.tar .tar 1.0000000
mode self.mode 0.5000000
mode defaulting 0.0322581
mode NULL 0.0000325
mode file.mode 1.0000000
mode self.name 0.0227273
mode self.mode. 0.3333333
mode mode 0.5540541
mode instance 0.0013369
mode assign 0.0064516
modelform function 0.0010420
modelform modelform 1.0000000
illegal illegal 0.7142857
illegal NULL 0.0000325
varargs varargs 1.0000000
BAD NULL 0.0000975
BAD BAD 0.3333333
-&apos; symbol 0.3333333
-&apos; NULL 0.0000975
-&apos; -&apos; 0.8400000
-&apos; in 0.0013342
once once 0.6000000
backout zero 0.0588235
backout than 0.0039216
backout self.backout 0.7500000
backout greater 0.0061728
backout self.backout. 0.2500000
STATIC STATIC 1.0000000
winreg NULL 0.0000650
parseaddr parseaddr 1.0000000
parseaddr value 0.0003713
parseaddr return 0.0004013
non-lazy NULL 0.0000325
blocktrans blocktrans 1.0000000
fresh : 0.0003596
l10n l10 1.0000000
l10n as 0.0006614
l10n NULL 0.0004552
l10n l10n 0.6315789
underscores&apos; underscores 0.3333333
underscores&apos; &apos; 0.0001087
conceal underscore 0.5000000
shell shell.mainloop. 0.5000000
shell call 0.0002537
shell with 0.0001252
shell shell 0.9090909
shell NULL 0.0000325
shell IPython.Shell 0.5000000
InputStreamExhausted InputStreamExhausted 1.0000000
InputStreamExhausted from 0.0003373
InputStreamExhausted exception 0.0009709
cyclevars self.cyclevars 1.0000000
cyclevars cyclevars 1.0000000
cyclevars self.cyclevars. 1.0000000
optional optional 1.0000000
149 149 1.0000000
getpid return 0.0004013
getpid value 0.0003713
getpid function 0.0006947
getpid by 0.0019960
getpid os.getpid 0.5000000
Thu NULL 0.0000325
Thu Friday 1.0000000
Thu Wed 0.5000000
PageNotAnInteger from 0.0003373
PageNotAnInteger PageNotAnInteger 1.0000000
PageNotAnInteger exception 0.0009709
ROOTS ROOTS 1.0000000
frequency frequency 1.0000000
Server Server 1.0000000
LazyStream LazyStream 1.0000000
LazyStream instantiate 0.0930233
LazyStream class 0.0009324
sysrandom sysrandom 1.0000000
This NULL 0.0000325
This This 1.0000000
addclosehook 3 0.0014409
pflen pflen 1.0000000
pflen first 0.0028490
--testrunner --testrunner 1.0000000
--testrunner = 0.0063694
link call 0.0002537
link link 0.6800000
link NULL 0.0004877
mask mask 1.0000000
mask as 0.0006614
mask NULL 0.0000325
urlconfs urlconfs 1.0000000
urlconfs urlconfs.value. 0.3333333
urlconfs urlconf 0.0227273
CacheEntry&apos; &apos; 0.0001087
CacheEntry&apos; . 0.0000620
CacheEntry&apos; CacheEntry 0.3333333
between NULL 0.0000325
between between 0.2222222
role palette 0.2000000
role convert 0.0037594
role role 1.0000000
role key 0.0005731
www.saddi.com www.saddi.com 1.0000000
FRAGMENT FRAGMENT 1.0000000
slots with 0.0001252
slots , 0.0000595
slots slots 1.0000000
quotes quotes 0.5000000
try origin. 1.0000000
try NULL 0.0000975
try lookup 0.0238095
try self.urlconf 0.1250000
try label. 0.2000000
try val 0.0087719
try with 0.0005008
try 2. 0.0666667
try node.nodeName 0.2500000
try absolute 0.0277778
try r 0.0066225
try result 0.0011758
try module. 0.3333333
try self.instance. 0.1250000
try startproject 1.0000000
try for 0.0015288
try &quot; 0.0004866
try &apos;startapp 1.0000000
try tr 0.1666667
try as 0.0006614
try taglib 0.0714286
try p 0.0085470
try module 0.0043860
try stacklevel 0.0666667
try attr. 0.3333333
try response. 0.2000000
try exp. 1.0000000
try substitute 0.0005688
try migrations. 0.5000000
try binary 0.0769231
try trym 0.5000000
try and 0.0004064
try exception 0.0009709
try replaced 0.0192308
try where 0.0247525
try migration 0.0128205
try RemovedInDjango19Warning 0.0232558
try integer 0.0012920
try every 0.0014144
try view. 0.5000000
try by 0.0039920
try merge 0.0588235
try try 0.9812646
try e. 0.1250000
try app 0.0020450
gen gen 1.0000000
received received 1.0000000
middleware NULL 0.0000650
middleware settings.MIDDLEWARE 0.5000000
middleware django.middleware.csrf 0.3333333
middleware middleware.process 0.5000000
middleware middleware 0.9516129
middleware tuple 0.0025189
middleware call 0.0002537
parsed NULL 0.0000325
parsed parsed. 1.0000000
parsed parsed.scheme 0.5000000
parsed self.parsed 0.5000000
parsed self.parsed. 1.0000000
parsed parsed 1.0000000
parsed call 0.0002537
val val 0.8771930
val call 0.0015225
val self.val 0.6666667
val are 0.0127389
val o 0.0526316
val self.coerce 0.3333333
val opts. 0.5000000
val result 0.0002939
val . 0.0008678
val NULL 0.0003576
val i 0.0055249
val val.encode 0.5000000
36 to 0.0004895
36 36 1.0000000
36 the 0.0002623
36 bring 0.2500000
36 power 0.0952381
36 base 0.0012674
36 result 0.0002939
36 integer 0.0025840
getdefaultlocale if 0.0002306
getdefaultlocale function 0.0003473
getdefaultlocale from 0.0003373
getdefaultlocale getdefaultlocale 1.0000000
handlerList handlerList 1.0000000
--no-location --no-location 0.5555556
nodetype NULL 0.0000650
nodetype child.nodeType 0.2500000
nodetype nodetype 1.0000000
decimals decimals 1.0000000
decimals grater 0.0714286
django.utils.log.RequireDebugFalse NULL 0.0000325
PY3 PY3 1.0000000
PY3 it. 0.0454545
PY3 True 0.0123457
PY3 return 0.0004013
PY3 False 0.0022124
PY3 field 0.0046620
PY3 boolean 0.0075922
PY3 six.PY3 0.5111111
PY3 otherwise 0.0031348
PY3 is 0.0026336
PY3 true 0.0293160
PY3 filed 0.0416667
issue NULL 0.0001951
issue issue 0.3333333
squash squash 0.5000000
squash NULL 0.0000325
Found Found 1.0000000
basename NULL 0.0000650
basename applied 0.1666667
basename function 0.0020841
basename os.path.basename 0.5882353
basename was 0.0666667
Sep Sep 1.0000000
int64 int64 1.0000000
ser NULL 0.0000975
ser combo 0.1666667
ser ser 0.5833333
version self.version. 1.0000000
version version 0.9600000
version otherwise. 0.5000000
version sys.version 0.6923077
version RemovedInDjango20Warning. 0.3333333
version self.version 0.5000000
version None 0.0015760
version defaulting 0.1720430
version NULL 0.0002276
version set 0.0369973
version arguments 0.0113145
version surrent 0.5000000
EntitiesForbidden exception 0.0019417
EntitiesForbidden EntitiesForbidden 1.0000000
work &apos; 0.0001087
work --exclude 0.1000000
work work 0.6666667
work NULL 0.0000650
EmailMultiAlternatives EmailMultiAlternatives 0.7777778
EmailMultiAlternatives function 0.0010420
EmailMultiAlternatives from 0.0003373
function decorated 0.1578947
function decorating 0.3333333
function self.tag 0.0909091
function function 0.0201459
function NULL 0.0000975
function method 0.0008757
walk directory 0.0087719
walk from 0.0006745
walk at 0.0081967
walk tree 0.5714286
walk function 0.0017367
walk starting 0.2500000
walk base 0.0012674
walk os.walk 1.0000000
walk walk 1.0000000
deprecated NULL 0.0001301
deprecated deprecated 0.8000000
sqlsequencereset NULL 0.0000325
datatuple datatuple 0.5000000
datatuple password 0.0500000
32 30 0.3333333
32 NULL 0.0000325
32 append 0.0019305
32 32 1.0000000
CacheInfo class 0.0004662
CacheInfo CacheInfo 1.0000000
.mo NULL 0.0000650
.mo .mo 0.8000000
u0027 initial 0.0051282
outfile 2 0.0014045
outfile outfile 1.0000000
50 bits 0.0072464
50 . 0.0000620
50 , 0.0000595
50 50 1.0000000
50 integer 0.0025840
50 for 0.0001911
50 substitute 0.0002844
50 2 0.0007022
50 16 0.3333333
Byte Byte 1.0000000
dc NULL 0.0000650
dc dc 0.3333333
Note Note 1.0000000
` ` 1.0000000
minspare NULL 0.0000975
archive NULL 0.0000650
archive archive.close. 1.0000000
archive archive.list. 1.0000000
archive archive.read 0.5000000
archive archive.extract 0.5000000
archive archive.extractfile 0.5000000
archive define 0.0004649
archive archive 1.0000000
archive archive.namelist 1.0000000
archive call 0.0005075
archive archive.printdir 0.5000000
locale django.conf.locale 0.3333333
locale / 0.0043290
locale self.locale 0.7058824
locale NULL 0.0003902
locale module 0.0021930
locale locale 0.8333333
locale settings.LOCALE 0.7142857
MultipleHiddenInput from 0.0003373
MultipleHiddenInput NULL 0.0000325
MultipleHiddenInput called 0.0026042
MultipleHiddenInput MultipleHiddenInput 0.8571429
URLopener NULL 0.0000325
DJANGO DJANGO 0.7500000
DJANGO NULL 0.0000650
Invalid Invalid 1.0000000
RESET RESET 0.5000000
RESET , 0.0000595
iso-8859-1 iso-8859-1 1.0000000
outputs outputs 0.5000000
--no-optimize --no-optimize 1.0000000
pseudo-random NULL 0.0000325
LOCK LOCK 0.5714286
LOCK and 0.0002032
LOCK lock 0.0526316
count s.count 0.5000000
count self.paginator.count. 0.2000000
count occurrence 0.1132075
count string.count 0.5000000
count itertools.count 0.5000000
count NULL 0.0003902
count occurrences 0.0344828
count list.count 1.0000000
count self.count 0.4285714
count self.paginator.count 0.3333333
count count 0.8536585
. meta.fields. 0.5000000
. self.username 0.2222222
. for 0.0686031
. self.data.hour. 0.4000000
. self.prefix. 0.0909091
. self.stderr. 0.4000000
. minimal 0.3333333
. operands 0.3157895
. if 0.0013834
. use 0.0020747
. self.text. 0.2500000
. % 0.0006789
. mod.register. 0.3333333
. self.fixture 0.2000000
. field 0.0023310
. call 0.0279117
. self.timezone. 0.3333333
. self.mode. 0.3333333
. socket.AF 0.5000000
. stream. 0.1666667
. &gt; 0.0048544
. self.interactive. 0.5555556
. self.fk.rel.to. 0.5000000
. self.data.second. 0.4000000
. args. 0.1111111
. self.active 0.2916667
. filed 0.3333333
. self.form.error 0.1666667
. boolean 0.0010846
. dictionary. 0.0192308
. substitute 0.0036974
. the 0.1830820
. options.pythonpath 0.5000000
. self.position. 0.3333333
. self.id. 0.2500000
. self.exception 0.5000000
. self.stderr 0.2857143
. statement. 0.5000000
. f.rel.to 0.3333333
. value.pk. 0.3333333
. self.hashvalue. 0.3333333
. None. 0.0370370
. is 0.0381866
. register.filter. 0.3333333
. submit 0.2000000
. self.waiting 0.2173913
. meta.pk.rel 0.2500000
. self.data.minute. 0.4000000
. _ 0.0024614
. self.warning. 0.2857143
. self.data.day. 0.4000000
. s 0.0021413
. exists 0.0735786
. self.keyOrder. 0.3846154
. with 0.0045073
. errno.EEXIST 0.3333333
. from 0.3214165
. self.file 0.0945946
. self.position 0.2500000
. smtplib.SMTPServerDisconnected 0.2500000
. list 0.0052910
. self.STDOFFSET. 0.2500000
. .. 0.5000000
. migration.replaces 0.3333333
. methof 0.5000000
. it 0.0235373
. into 0.2178457
. self.paginator.count. 0.4000000
. form.media. 0.3333333
. self.stdout. 0.4727273
. self.field.label 0.3125000
. date.day. 0.2500000
. self.token. 0.2500000
. file 0.0154185
. urlconfs.value. 0.3333333
. self.data.year. 0.4000000
. &apos; 0.0001087
. as 0.0013228
. self.tokens. 0.3333333
. self.model. 0.4615385
. self.var. 0.2000000
. lib.filters. 0.2857143
. settings.DEBUG. 0.3333333
. fie 0.5000000
. self.forms. 0.5000000
. result 0.0038213
. . 0.1336474
. self.DSTOFFSET. 0.3333333
. timezone.zone. 0.3333333
. files. 1.0000000
. self.context. 0.2500000
. self.source. 0.2500000
. does 0.0217391
. of 0.0187359
. self.file. 0.2222222
. token. 0.3333333
. fileobj 0.5000000
. meta.auto 0.3333333
. doesnt 0.1839080
. result.queryset. 0.2500000
. : 0.0032362
. bits. 0.0909091
. self.data.microsecond. 0.3333333
. self.size. 0.2000000
. / 0.0043290
. self.DSTDIFF. 0.1666667
. self.file.closed. 0.4000000
. and 0.0065027
. self.vals. 0.5000000
. MARK 0.2500000
. self.instance.pk 0.4000000
. subtract 0.0454545
. context.dicts. 0.5000000
. self.file.size. 0.2857143
. , 0.0168382
. self.items. 0.3750000
. self.s. 0.2500000
. to 0.0396476
. self.validators. 0.1000000
. self.code. 0.2777778
. name 0.0013953
. migration.ancestry. 1.0000000
. dictionary 0.0411797
. method 0.5059107
. t.nodelist 0.5000000
. settings.MANAGERS 0.3333333
. self.dicts. 0.3529412
. NULL 0.1438372
. position 0.2307692
. self.backout. 0.5000000
. result.validators. 0.3333333
. value 0.0085407
. in 0.0026684
. starts 0.4571429
. At 1.0000000
. self.connection. 0.1666667
. self.objects. 0.3333333
. .&apos; 0.0158730
. self.object. 0.3333333
. Tags.compatibility. 0.3333333
. self.none 0.7500000
. lib.tags. 0.5000000
. self.errors. 0.5000000
. return 0.0036116
. self.file.name. 0.4000000
. self.data.month. 0.2857143
. self.fed. 0.4000000
. self.rendered 0.6666667
. self.paginator.num 0.3333333
. - 0.0263158
. resolver.urlconf 0.3333333
. field.queryset 0.5000000
. prefixes.values. 0.3333333
. function 0.0302188
. replaces 0.2000000
366 366 1.0000000
366 integer 0.0012920
366 . 0.0000620
GET GET 0.8000000
GET NULL 0.0000325
alone alone 0.7500000
alone NULL 0.0000325
and filed.name 0.5000000
and True 0.0020576
and NULL 0.0013655
and and 0.0737655
and represented 1.0000000
and field.rel 0.2500000
and both 0.1136364
and self.form 0.2000000
and false 0.0335570
and Mark 0.2000000
and or 0.0018149
and incremented 0.0833333
and is 0.0237020
and other.message 0.2500000
and to 0.0014684
and true 0.1118350
and only 0.0112360
and filename.rfind 0.1666667
and not 0.0019828
and self.shells 0.2000000
and response.render 0.5000000
and are 0.0764331
and but 0.0769231
encoding encoding 0.9015152
encoding encoding.setter 0.5000000
encoding django.utils.encoding 0.3312883
encoding fp.encoding 0.5000000
encoding params. 0.5000000
encoding message.encoding 0.5000000
encoding self.encoding 0.6666667
encoding boundary 0.0270270
encoding self.encoding. 0.7142857
encoding iri 0.0400000
encoding NULL 0.0003902
Will Will 1.0000000
conflicts conflicts 0.8750000
conflicts conflicts.items 0.5000000
conflicts result 0.0005879
conflicts NULL 0.0000325
conflicts key 0.0005731
504 NULL 0.0000325
Field NULL 0.0000650
Field stacklevel 0.0666667
Field self.creation 1.0000000
Field Field.validate 0.5000000
Field Field 0.8800000
Field RemovedInDjango19Warning 0.0232558
Field class 0.0013986
FloatField NULL 0.0000325
FloatField FloatField 0.7500000
FloatField class 0.0009324
FloatField from 0.0003373
hours NULL 0.0000325
404 NULL 0.0000325
404 an 0.0001846
404 404 0.8333333
404 integer 0.0025840
sign sign 0.7916667
sign call 0.0002537
sign result. 0.0075758
sign defaulting 0.0107527
sign sum 0.0576923
sign self.sign. 1.0000000
sign self.sign 0.6666667
exc NULL 0.0004877
exc exc 0.9512195
exc n 0.0085470
exc exec 0.4000000
exc record.exc 0.3333333
exc sys.exc 0.2608696
exc sys.exec 0.8000000
exc request 0.0064935
WSGIHandler object 0.0022422
WSGIHandler WSGIHandler 0.7500000
inspection inspection 1.0000000
inspection called 0.0026042
500 an 0.0001846
500 NULL 0.0000650
500 integer 0.0025840
500 assign 0.0064516
500 tuple 0.0025189
500 elements 0.0018215
500 resulting 0.0126582
500 500 0.6666667
yaml module 0.0021930
yaml NULL 0.0000975
yaml yaml 0.6666667
yaml . 0.0000620
AUTO AUTO 1.0000000
dig2 dig2.digest 0.5000000
dig2 dig2 0.3333333
dig2 substitute 0.0005688
dig2 result 0.0005879
dig2 call 0.0005075
From From 1.0000000
UTF16 boolean 0.0010846
UTF16 NULL 0.0000325
RelatedObject RelatedObject 1.0000000
RelatedObject cls.fk.rel.to 1.0000000
RelatedObject instantiate 0.0232558
RelatedObject class 0.0004662
url2 ur2 1.0000000
url2 for 0.0001911
url2 url2 1.0000000
url2 p2 1.0000000
INCLUDE INCLUDE 1.0000000
Locale NULL 0.0000325
timegm result.utctimetuple 1.0000000
timegm use 0.0020747
timegm self.data.utctimetuple 1.0000000
NFC NFC 1.0000000
NFC arguments 0.0003328
NFC : 0.0003596
NFC 2 0.0007022
used NULL 0.0002276
used used 0.7666667
used verbose 0.2000000
ExceptionReporter instance 0.0013369
ExceptionReporter 3 0.0014409
ExceptionReporter created 0.0036232
ExceptionReporter class 0.0004662
ExceptionReporter ExceptionReporter 1.0000000
constant respectively. 0.0185185
constant constant 0.6250000
constant Variable 0.0588235
constant NULL 0.0001626
constant i18n 0.1538462
getAttribute an 0.0001846
getAttribute node.getAttribute 0.7500000
getAttribute method 0.0006567
getAttribute n.getAttribute 0.2500000
`managed `managed 1.0000000
urllib.parse of 0.0002257
urllib.parse NULL 0.0005202
future future 1.0000000
malicious NULL 0.0000325
serialize 6 0.0135135
serialize content 0.0060606
serialize s.serialize 0.5000000
serialize NULL 0.0000325
serialize field.serialize 0.5000000
serialize serialize 0.7272727
serialize serializer 0.0476190
serialize self.serialize 1.0000000
serialize serializers.serialize 0.5000000
incomment incomment 1.0000000
true true 0.0488599
true 2&apos; 0.1666667
true 2 0.0007022
true boolean 0.0032538
true NULL 0.0002276
true True 0.0061728
true true.render 0.5000000
ForNode ForNode 1.0000000
ForNode class 0.0004662
ForNode 5 0.0071429
ForNode created 0.0036232
ForNode instance 0.0013369
smartif django.template.smartif 0.5000000
byref function 0.0006947
byref value 0.0007427
byref return 0.0008026
byref byref 1.0000000
byref called 0.0052083
INSUFFICIENT NULL 0.0000325
tarfile module 0.0021930
tarfile tarfile 1.0000000
tarfile tarfile.open 0.5000000
tarfile . 0.0000620
LocaleRegexProvider as 0.0013228
LocaleRegexProvider LocaleRegexProvider 1.0000000
LocaleRegexProvider call 0.0005075
ENTITY NULL 0.0000650
argtypes is 0.0003762
-5 -5 1.0000000
In In 1.0000000
introspection connection.introspection.django 0.5000000
introspection connection.introspection.get 0.3636364
introspection connection.introspection.table 0.3793103
introspection connection.introspection.sequence 0.5000000
introspection of 0.0006772
introspection function 0.0006947
introspection value 0.0011140
introspection return 0.0012039
.moves. .moves 0.2500000
RequestContext instance 0.0013369
RequestContext from 0.0003373
RequestContext created 0.0036232
RequestContext class 0.0004662
RequestContext RequestContext 1.0000000
timeout timeouts 1.0000000
timeout equals 0.0018484
timeout defaulting 0.0215054
timeout self.timeout. 1.0000000
timeout NULL 0.0001626
timeout timeout 0.9882353
timeout self.timeout 0.5000000
IfNode class 0.0004662
IfNode created 0.0036232
IfNode instance 0.0013369
IfNode of 0.0002257
IfNode an 0.0001846
IfNode IfNode 1.0000000
NAME NULL 0.0000650
NAME NAME 0.8695652
NAME NAME.get 0.5000000
buffer self.buffer. 0.3571429
buffer add 0.0119760
buffer truncate 0.0212766
buffer buffer 0.6315789
buffer self.buffer 0.5294118
buffer increment 0.0104167
buffer from 0.0003373
previous previous 0.0476190
Included Included 1.0000000
written this 0.0074074
state get 0.0012755
state state 0.7200000
state django.db.migrations.state 0.5000000
state element 0.0009766
state self.state. 0.6666667
state NULL 0.0002276
state state.db 0.5000000
state self.state 0.5000000
utility utility.execute. 0.5000000
utility call 0.0002537
utility utility 1.0000000
hr hr 1.0000000
CheckRegistry function 0.0003473
CheckRegistry call 0.0002537
CheckRegistry CheckRegistry 1.0000000
CheckRegistry the 0.0001311
ContentTooShortError call 0.0002537
yes NULL 0.0000325
yes yes 0.8333333
yes . 0.0000620
StopUpload StopUpload 1.0000000
StopUpload from 0.0003373
href atom 0.2000000
href href 0.1818182
href 2 0.0021067
href NULL 0.0000650
302 NULL 0.0000325
302 an 0.0001846
302 302 0.5000000
302 . 0.0000620
302 integer 0.0012920
207 entries 0.0102041
243 120 1.0000000
243 181 0.1428571
T in 0.0006671
T T 1.0000000
slug NULL 0.0000325
slug slug 0.8000000
auto-generated auto-generated 1.0000000
RssFeed RssFeed 1.0000000
RssFeed from 0.0003373
rindex package.rindex 0.5000000
rindex rindex 1.0000000
rindex 3 0.0014409
rindex callback.rindex 0.5000000
--dry-run --dry-run 1.0000000
returncode a 0.0005420
startproject NULL 0.0000325
two two 0.0857143
TypedChoiceField if 0.0002306
TypedChoiceField TypedChoiceField 0.6666667
TypedChoiceField empty 0.0012240
TypedChoiceField sself.empty 1.0000000
TypedChoiceField not 0.0006609
TypedChoiceField NULL 0.0000325
--ignorenonexistent --ignorenonexistent 1.0000000
To To 0.5000000
To NULL 0.0000325
substitutions call 0.0012687
substitutions format 0.0036364
substitutions substitutions 0.6666667
substitutions dictionary. 0.0576923
Literal instance 0.0013369
Literal created 0.0036232
Literal class 0.0004662
Literal Literal 1.0000000
Literal , 0.0000595
Literal argumen 0.5000000
sm sm 1.0000000
4&apos; 4&apos; 0.6666667
4&apos; NULL 0.0000975
getlist getlist 1.0000000
getlist self.getlist 0.5000000
getlist dict.getlist 0.5000000
getlist .getlist 1.0000000
getlist data.getlist 0.5000000
getlist NULL 0.0000325
getlist called 0.0026042
float point 0.4666667
float it 0.0020175
float number 0.0476190
float float 1.0000000
float an 0.0001846
float NULL 0.0000325
float floating 0.8750000
float into 0.0032154
PERMANENT NULL 0.0000325
.moves.urllib.response instantiate 0.0232558
.moves.urllib.response .moves.urllib.response 0.5000000
mix mix 1.0000000
lasttag it 0.0006725
lasttag self.lasttag. 1.0000000
singlets singlets 1.0000000
PickleError pickle.PickleError 1.0000000
PickleError caught 0.0024876
sent sent 1.0000000
sent . 0.0000620
y NULL 0.0007478
y y 0.5652174
resent-sender resent-sender 1.0000000
ComboField NULL 0.0000325
ComboField from 0.0003373
ComboField ComboField 0.7500000
ComboField class 0.0013986
iriencode the 0.0000656
iriencode an 0.0001846
iriencode iriencode 1.0000000
waiting increment 0.0208333
waiting decrement 0.0571429
waiting self.waiting 0.5652174
via via 1.0000000
problems problems 1.0000000
--name --name 1.0000000
loads NULL 0.0000325
loads result. 0.0075758
loads function 0.0010420
loads json.loads 1.0000000
loads base64.b64decode 0.1428571
loads loads 1.0000000
loads on 0.0051282
loads pickle.loads 0.5000000
astimezone value.astimezone 1.0000000
phone2numeric the 0.0001311
phone2numeric phone2numeric 1.0000000
phone2numeric call 0.0002537
phone2numeric function 0.0010420
tag bit 0.0270270
tag called 0.0078125
tag checks.tag 0.4000000
tag bits. 0.0909091
tag filter 0.0086957
tag register.tag 0.4800000
tag self.tag 0.7272727
tag is 0.0001881
tag tag 0.9426230
tag tag.match 1.0000000
tag chars. 0.5000000
tag NULL 0.0002601
tag in 0.0020013
tag tag.groups 0.5000000
tag instance 0.0013369
tag False 0.0022124
tag parser.compile 0.0238095
xmlrpc NULL 0.0000650
ImproperlyConfigured exception 0.0106796
ImproperlyConfigured ImproperlyConfigured 1.0000000
POINTER POINTER 1.0000000
methodcaller operator.methodcaller 0.5000000
methodcaller arguments 0.0003328
methodcaller 3 0.0014409
starting NULL 0.0000325
b64encoded NULL 0.0000650
b64encoded b64encoded 0.6000000
mil mil 1.0000000
break NULL 0.0000650
break of 0.0004515
break execution 0.8536585
break from 0.0084317
break smallest 0.8888889
break and 0.0002032
break endless 0.0909091
break the 0.0025574
break iteration 0.0142857
break break 0.9250000
break use 0.0020747
break this 0.0148148
break breaks 1.0000000
break skip 0.0131579
break enclosing 0.8888889
break loop 0.2631579
0&apos; &apos; 0.0003260
0&apos; 0&apos; 0.7368421
0&apos; . 0.0001860
0&apos; NULL 0.0000325
0&apos; 0 0.0072464
chain chain.from 0.3333333
chain function 0.0003473
chain only 0.0112360
chain containing 0.0032787
chain chain 0.7272727
chain into 0.0008039
initialize initialize 0.6666667
initialize app.initialize 0.5000000
binascii NULL 0.0000650
binascii module 0.0043860
binascii binascii.Error. 1.0000000
binascii . 0.0001240
binascii binascii 1.0000000
off off 1.0000000
off multiply 0.0344828
305 NULL 0.0000325
caches settings.CACHES 0.4285714
caches setting.CACHES 0.5000000
caches caches.all. 0.5000000
caches caches 1.0000000
caches caches.caches 1.0000000
caches value 0.0022280
caches caches.setdefault 0.5000000
caches cache 0.0056180
IF IF 1.0000000
threads threads 1.0000000
Cannot Cannot 1.0000000
msguniq self.msguniq 0.6000000
msguniq append 0.0019305
msguniq msguniq 1.0000000
msguniq NULL 0.0000650
iterator six.Iterator 0.6666667
iterator Iterator 0.3333333
iterator generated 0.0625000
iterator queryset.iterator 1.0000000
iterator pk 0.0125000
iterator iterator 0.4761905
iterator . 0.0001860
iterator dict 0.0064103
iterator from 0.0006745
NotImplementedError a 0.0032520
NotImplementedError exception 0.0291262
NotImplementedError NotImplementedError 1.0000000
load interactive 0.0312500
load self.load 0.7777778
load pickle.load 0.5000000
load NULL 0.0002926
load call 0.0005075
load function 0.0020841
load load 0.8181818
Access Access 1.0000000
ix ix 1.0000000
ReferenceLocalTimezone the 0.0000656
ReferenceLocalTimezone ReferenceLocalTimezone 1.0000000
ReferenceLocalTimezone from 0.0006745
popitem popitem 1.0000000
&apos;-e 6 0.0135135
comma ip 0.0161290
comma 3 0.0014409
comma and 0.0002032
comma NULL 0.0000325
comma comma 0.3750000
comma validator 0.1250000
decr decr 1.0000000
decr cache.decr 0.5000000
Mersenne NULL 0.0000325
removing NULL 0.0000325
PAYMENT NULL 0.0000325
hex hex 1.0000000
BaseLoader BaseLoader 1.0000000
7 elements 0.0036430
7 integers 0.0200000
7 respectively 0.0050761
7 first 0.0028490
7 NULL 0.0003251
7 form 0.0046948
7 integer 0.0064599
7 7 0.3095238
LOCKED NULL 0.0000325
filters lib.filters 0.1666667
filters not 0.0006609
filters filter 0.0086957
filters self.filters. 1.0000000
filters NULL 0.0001951
filters self.filters 0.7000000
filters lib.filters. 0.2857143
filters name.filters 0.5000000
filters token. 0.3333333
filters filters 0.8333333
filters value 0.0007427
filters end 0.0078125
filters if 0.0002306
filters expr.filters 0.5000000
filtered keys 0.0105263
S S 0.6000000
S NULL 0.0001626
S + 0.0105263
S ( 0.0016447
S # 0.0169492
S w 0.0256410
S &#124; 0.0106383
Library.tag Library.tag 1.0000000
decompress s 0.0007138
decompress self.decompress 1.0000000
decompress zlib.decompress 1.0000000
decompress self.widget.decompress 0.5000000
decompress decompress 0.8000000
ExpatParser ExpatParser 1.0000000
ExpatParser ExpatParser.reset 0.5000000
037 NULL 0.0000325
byte2int byte2int 0.6666667
byte2int the 0.0000656
byte2int an 0.0001846
sanitize sanitize 1.0000000
sanitize formats.sanitize 0.5000000
sanitize the 0.0001311
sanitize function 0.0024314
sanitize call 0.0007612
ChoiceFieldRenderer created 0.0036232
ChoiceFieldRenderer class 0.0004662
ChoiceFieldRenderer 4 0.0041667
ChoiceFieldRenderer ChoiceFieldRenderer 0.7500000
ChoiceFieldRenderer instance 0.0013369
ChoiceFieldRenderer from 0.0003373
ChoiceFieldRenderer NULL 0.0000325
s.process s.process 0.5000000
monday argument 0.0002721
ones ones 1.0000000
handler call 0.0172545
handler handler.file.close. 0.3333333
handler handler.addQuickElement 0.5000000
handler handler.file 0.5000000
handler substitute 0.0002844
handler HANDLERS 0.2000000
handler self.setFeature 0.5000000
handler handler.endElement 0.5000000
handler handler.startDocument. 0.3333333
handler handler.receive 0.5000000
handler handler.startElement 0.5000000
handler NULL 0.0000650
handler handler 0.9411765
handler handler.new 0.5000000
handler 2 0.0014045
handler logging.Handler. 0.5000000
handler handler.handle 0.5000000
handler handler.upload 0.5000000
handler logging.Handler 0.5000000
email.MIMEMultipart NULL 0.0000325
MIMEMessage call 0.0002537
MIMEMessage MIMEMessage 1.0000000
) COMMENT 0.0434783
) same 0.3750000
) as 0.5099206
) function 0.0128517
) &apos; 0.0006520
) date.day. 0.2500000
) file 0.0022026
) wasn 0.5000000
) equalt 0.6666667
) directory 0.1140351
) its 0.0555556
) character 0.0845070
) p.returncode. 1.0000000
) exceptions 0.4925373
) max 0.0078740
) ilst 0.5000000
) self.stdout. 0.0181818
) return 0.1589085
) self.reset. 0.3333333
) self.data.month. 0.0714286
) created 0.0036232
) on 0.0923077
) setter 0.7500000
) e.strerror. 0.5000000
) object 0.0986547
) or 0.0108893
) types 0.4117647
) it 0.1271015
) date 0.0086957
) a 0.0027100
) mapped 0.1250000
) NULL 0.0616770
) attribute 0.1467890
) value 0.0059413
) in 0.0020013
) method 0.0010946
) exists 0.1003344
) self.keyOrder. 0.0769231
) classes 0.1428571
) lambda 0.0219780
) included 0.3750000
) joined 0.2000000
) an 0.0046151
) _ 0.0000483
) arguments 0.0415973
) assign 0.0064516
) their 0.3333333
) params.1 0.5000000
) are 0.0254777
) self.items. 0.1250000
) self.code. 0.2777778
) self.validators. 0.3000000
) is 0.0142965
) to 0.0460108
) h 0.1666667
) type 0.0948509
) , 0.2292497
) the 0.1434754
) substitute 0.3003413
) iterable 0.0142857
) validate 0.0185185
) and 0.0050803
) : 0.0014383
) self.close. 0.3333333
) tuple 0.0377834
) ) 0.7010135
) evaluates 0.5273973
) respectively 0.0710660
) argument 0.0378231
) of 0.0203160
) self.domain. 0.3333333
) self.bcc. 0.5000000
) instance 0.0080214
) self.style.ERROR. 0.3333333
) configured 0.5000000
) base 0.4410646
) converted 0.2617450
) doesnt 0.0057471
) less 0.2000000
) match.groupdict. 0.2500000
) elements 0.0036430
) than 0.0078431
) natural&apos; 0.3333333
) 001- 0.5000000
) bitwise 0.0526316
) call 0.0157320
) class 0.0195804
) types.ClassType. 0.3333333
) self.autocomplete. 0.3333333
) zero 0.0588235
) result 0.5199882
) self.open. 0.3333333
) use 0.2116183
) . 0.2671708
) string 0.0003038
) self.prefix. 0.1818182
) for 0.1375884
) ascii&apos; 0.5000000
) exist 0.0322581
SerializationError from 0.0003373
SerializationError base.SerializationError 0.5000000
SerializationError SerializationError 1.0000000
SerializationError exception 0.0009709
PM PM 1.0000000
UnknownHandler NULL 0.0000325
include include 0.7333333
include self.include 1.0000000
include router.get 0.0625000
include reporter.get 0.5000000
include NULL 0.0000975
createsuperuser createsuperuser 1.0000000
trimmed call 0.0005075
trimmed result 0.0002939
trimmed trimmed 1.0000000
trimmed trail. 1.0000000
FAILURE as 0.0006614
FAILURE arguments 0.0003328
FAILURE FAILURE 1.0000000
FAILURE NULL 0.0000975
tuesday Tue 0.5000000
ContentFile ContentFile 1.0000000
ContentFile from 0.0003373
lastBuildDate lastBuildDate 1.0000000
1035 1035 1.0000000
Extracting &apos; 0.0001087
Extracting Extracting 1.0000000
Extracting in 0.0006671
Select NULL 0.0001626
Select created 0.0036232
Select return 0.0004013
Select instance 0.0013369
Select Select 0.5384615
Select boolean 0.0010846
Select class 0.0004662
Select from 0.0003373
calendar . 0.0001240
calendar call 0.0005075
calendar to 0.0002447
calendar calendar 1.0000000
calendar the 0.0002623
calendar module 0.0043860
ImageField class 0.0009324
ImageField from 0.0003373
ImageField ImageField 0.6666667
ImageField the 0.0001311
ImageField NULL 0.0000325
regular regular 0.2000000
shutdown NULL 0.0000650
shutdown shutdown 0.8333333
sorted NULL 0.0001626
sorted elements 0.0054645
sorted list 0.0045351
sorted sorted 0.7647059
sorted sort 0.4210526
plist plist 1.0000000
plist . 0.0000620
plist from 0.0003373
end NULL 0.0000325
end position 0.0769231
end even 0.3333333
end m.end 0.5000000
end connection.ops.end 1.0000000
end expression 0.0789474
end argument. 0.0909091
end start 0.0136986
end number 0.0068027
end match.end 0.3333333
end decrement 0.0571429
end end 0.6015625
end regular 0.3000000
end index 0.0171429
end self.end 1.0000000
end element 0.0009766
end ending 0.1538462
011 011 0.6666667
011 NULL 0.0000325
timezone timezone.zone. 0.3333333
timezone the 0.0003279
timezone timezone.normalize 0.5000000
timezone self.timezone. 0.6666667
timezone call 0.0027912
timezone NULL 0.0001951
timezone function 0.0003473
timezone self.timezone.utcoffset 0.5000000
timezone timezone.get 0.3333333
timezone django.utils.timezone 0.3333333
timezone time.timezone 0.5000000
timezone exist 0.0322581
timezone timezone.utc 0.5000000
timezone timezone.make 0.2500000
timezone self.timezone 0.4705882
timezone timezone.is 0.2500000
timezone pytz.timezone 0.5000000
timezone self.timezone.tzname 0.5000000
timezone timezone 0.9342105
timezone result 0.0005879
SINGLE SINGLE 0.2500000
SINGLE NULL 0.0001951
interface startup 0.5000000
interface interface 0.3333333
interface variable 0.0263158
interface no 0.0156250
getctime os.path.getctime 1.0000000
getctime function 0.0003473
SimpleTemplateResponse the 0.0001967
SimpleTemplateResponse rendering 0.5000000
SimpleTemplateResponse SimpleTemplateResponse 1.0000000
SimpleTemplateResponse class 0.0023310
maxrequests containing 0.0032787
maxrequests NULL 0.0000325
checks checks.INFO 1.0000000
checks checks 0.9056604
checks checks.run 0.5000000
checks checks.append 0.5000000
checks checks.WARNING 0.6000000
checks checks.ERROR 0.5000000
checks checks.tag 0.4000000
checks checks.CRITICAL 0.5000000
checks NULL 0.0003251
checks django.core.checks.registry 0.2500000
# # 0.7966102
# NULL 0.0014631
cookiejar NULL 0.0000325
Yy Yy 1.0000000
graph executor.loader.graph.leaf 0.2500000
graph contained 0.0031153
graph executor.loader.graph 0.5000000
graph substitute 0.0002844
graph vale 0.1000000
graph of 0.0011287
graph graph 1.0000000
graph loader.graph.forwards 0.2500000
graph replaces 0.2000000
graph return 0.0016051
graph value 0.0011140
graph loader.graph 0.5000000
MultiValueField not 0.0006609
MultiValueField NULL 0.0000325
MultiValueField if 0.0002306
MultiValueField MultiValueField 0.8000000
MultiValueField class 0.0018648
MultiValueField from 0.0003373
MultiValueField self.require 0.1428571
February NULL 0.0000325
February March 0.5000000
extends extends 1.0000000
extends NULL 0.0000325
logging.NullHandler NULL 0.0000325
-n -n 0.6666667
echo termios.ECHO 0.2500000
echo both 0.0227273
echo store 0.0101010
echo echo 1.0000000
SQL SQL 0.6333333
SQL on 0.0051282
SQL NULL 0.0006828
SQL parser 0.0073529
BRACE BRACE 0.2500000
BRACE NULL 0.0001951
ampersands ampersands 1.0000000
templates django.core.management.templates 0.2500000
templates templates 0.7500000
templates NULL 0.0000325
Multiple Multiple 1.0000000
Multiple NULL 0.0000325
verbatim result 0.0002939
verbatim self.verbatim. 1.0000000
verbatim verbatim 1.0000000
verbatim self.verbatim 0.7142857
s.management.commands. s.management.commands. 1.0000000
excluding NULL 0.0000325
maxChildren NULL 0.0000325
LocaleRegexURLResolver LocaleRegexURLResolver 0.5000000
LocaleRegexURLResolver NULL 0.0000325
ModelMultipleChoiceField ModelMultipleChoiceField 0.8333333
ModelMultipleChoiceField NULL 0.0000325
ModelMultipleChoiceField boolean 0.0010846
ModelMultipleChoiceField False. 0.0322581
ModelMultipleChoiceField class 0.0004662
email.MIMEBase NULL 0.0000325
res call 0.0002537
res . 0.0003719
res increment 0.0104167
res res 1.0000000
incremental incremental 0.8181818
PACKAGE PACKAGE 1.0000000
round up 0.1111111
round ROUND 0.3333333
round radio 0.3333333
round NULL 0.0000325
age return 0.0004013
age NULL 0.0003251
age age 0.6666667
Port Port 1.0000000
ManyToManyField . 0.0000620
ManyToManyField ManyToManyField 1.0000000
django.contrib.sessions.middleware.SessionMiddleware NULL 0.0000325
Tells modulename 1.0000000
Tells Do 0.3333333
Tells NULL 0.0002926
Tells Tells 0.3157895
docs.djangoproject.com default 0.0009009
docs.djangoproject.com NULL 0.0000650
exclusive exclusive 0.2500000
VAR VAR 0.4000000
VAR NULL 0.0000325
metavar metavar 0.9000000
metavar set 0.0048257
metavar templates 0.2500000
uri uri 0.8125000
uri NULL 0.0002276
.e NULL 0.0000325
noop locale 0.0208333
noop NULL 0.0001626
noop noop 0.4166667
so so 1.0000000
so result 0.0002939
HELP HELP 1.0000000
HELP . 0.0000620
readlines put 0.0181818
readlines define 0.0004649
readlines in 0.0006671
readlines readlines 1.0000000
readlines init 0.0028490
readlines _ 0.0001931
guts concatenate 0.0322581
guts guts. 1.0000000
guts call 0.0002537
guts guts 1.0000000
1.6.1 1.6.1 1.0000000
&apos;M NULL 0.0000325
values values 0.6846847
values NULL 0.0004227
values if 0.0002306
values value 0.0003713
values qs.values 0.5000000
values self.fields.values 0.5000000
values None 0.0007880
values sys.modules.values 0.3333333
values parser.compile 0.0238095
yellow NULL 0.0001301
yellow yellow 1.0000000
fixtures label.ModelName. 1.0000000
fixtures when 0.1000000
fixtures called 0.0026042
fixtures Fixture 0.5000000
fixtures fixtures 0.7692308
SMTPHandler logging.handlers.SMTPHandler 1.0000000
DNS DNS 1.0000000
INotifyWrapper on 0.0051282
INotifyWrapper pyinotify.INotifyWrapper.create 0.3333333
INotifyWrapper return 0.0004013
INotifyWrapper value 0.0003713
Command from 0.0107926
Command Command 1.0000000
Command false. 0.2500000
Command class 0.0013986
Command the 0.0001967
Command form 0.0046948
418 NULL 0.0000325
enclosure enclosure 0.1818182
enclosure NULL 0.0002601
enclosure 4 0.0041667
enclosure title 0.0333333
enclosure with 0.0001252
ForeignKey ForeignKey 1.0000000
ForeignKey ( 0.0032895
ContentNotRenderedError ContentNotRenderedError 1.0000000
ContentNotRenderedError from 0.0003373
ContentNotRenderedError exception 0.0029126
ContentNotRenderedError sring 0.3333333
Operator . 0.0001240
Operator from 0.0006745
Operator Operator 1.0000000
mkstemp arguments. 0.0384615
mkstemp None 0.0007880
mkstemp tmpfile.mkstemp 1.0000000
mkstemp tempfile.mkstemp 0.5000000
mkstemp as 0.0006614
At a 0.0005420
rhs and 0.0006096
rhs rhs 1.0000000
Ignores Only 0.3333333
Ignores look 0.2500000
invalid return 0.0008026
invalid invalid 0.6326531
invalid self.invalid 1.0000000
invalid parser.invalid 0.5000000
invalid NULL 0.0010729
invalid entry 0.0090090
MovedAttribute list 0.0030234
MovedAttribute NULL 0.0019183
MovedAttribute results 0.0109890
MovedAttribute 33 0.5000000
MovedAttribute function 0.0013894
MovedAttribute MovedAttribute 0.3750000
NameError NameError 0.8333333
groups match.groups 0.5000000
groups groups 0.5000000
groups tag.groups 0.5000000
groups assign 0.0129032
groups m.groups 0.5000000
callable name 0.0009302
callable NULL 0.0000325
callable callable.cache 0.5000000
callable substitute 0.0005688
callable object 0.0336323
callable response.render 0.3333333
callable not 0.0006609
callable replaced 0.0038462
callable a 0.0021680
callable callable 0.6938776
callable is 0.0030098
callable current. 0.5000000
Display NULL 0.0000325
local function 0.0017367
local threading.local 0.5000000
local assign 0.0064516
local NULL 0.0000325
local meta.local 0.3333333
local local 0.9444444
local method 0.0002189
local opts.local 0.5000000
our our 1.0000000
our 4 0.0083333
our : 0.0010787
debugger 14 1.0000000
headerlist list 0.0015117
headerlist headerlist 1.0000000
headerlist header 0.0131579
headerlist call 0.0002537
8081 RUNNER 0.5000000
colors elements 0.0018215
colors colors 1.0000000
colors first 0.0028490
colors from 0.0003373
colors element 0.0009766
nNote nNote 1.0000000
PROTOCOL PROTOCOL 1.0000000
PROTOCOL arguments 0.0016639
js u002D 1.0000000
js js 0.8000000
js getitem 0.0370370
js NULL 0.0000975
paths paths 0.8750000
paths NULL 0.0000650
paths self.self.paths 0.5000000
paths self.paths 0.6666667
WRAPPING WRAPPING 1.0000000
popen popen 1.0000000
popen function 0.0017367
argset argset 1.0000000
argset 2 0.0007022
argset arguments 0.0003328
argset : 0.0003596
argset set 0.0005362
423 NULL 0.0000325
.CMD .CMD 1.0000000
quantize 3 0.0014409
quantize arguments 0.0003328
quantize d.quantize 1.0000000
truncatechars truncatechars 1.0000000
truncatechars function 0.0006947
loading NULL 0.0000325
loading loading 0.9375000
django.template.defaulttags django.template.defaulttags 1.0000000
417 NULL 0.0000325
NoArgsCommand NoArgsCommand 1.0000000
NoArgsCommand from 0.0003373
relation relation 0.8333333
relation assign 0.0064516
inotify inotify 0.6666667
objects called 0.0026042
objects NULL 0.0000325
objects objects 0.8974359
objects substitute 0.0002844
objects self.objects.append 1.0000000
objects objects.using 0.5000000
objects list 0.0022676
objects self.objects 1.0000000
objects self.objects. 0.3333333
objects increment 0.0104167
slugify slugify 0.8571429
slugify mark 0.0140845
slugify function 0.0010420
mw my 1.0000000
mw mw 1.0000000
mw end 0.0078125
pass pass 0.5000000
pass and 0.0002032
pass ModelFormMetaclass 0.3333333
pass nothig 1.0000000
pass do 0.8797814
pass nothing 0.7511737
pass BaseModelForm. 1.0000000
MANY NULL 0.0000325
NumberAwareString NumberAwareString 1.0000000
NumberAwareString from 0.0003373
NumberAwareString return 0.0004013
NumberAwareString class 0.0004662
prec prec 1.0000000
ifilterfalse 13 0.1250000
changed&apos; changed 0.0256410
changed&apos; string 0.0003038
changed&apos; a 0.0005420
changed&apos; . 0.0000620
label&apos; label&apos; 1.0000000
label&apos; a 0.0005420
label&apos; string 0.0003038
overlaying CommandError 0.0106383
restart function 0.0006947
restart restart 1.0000000
dicts self.dicts 0.5937500
dicts integer 0.0012920
dicts self.dicts.pop 1.0000000
dicts context.dicts. 0.5000000
dicts RemovedInDjango19Warning 0.0232558
dicts duplicate.dicts. 1.0000000
dicts 2. 0.0666667
dicts dicts 0.8333333
dicts self.dicts. 0.3529412
dicts list 0.0030234
applied NULL 0.0000650
applied loader.applied 0.5000000
applied applied 0.5000000
see NULL 0.0001301
see evaluates 0.0068493
debugs debugs 1.0000000
debugs list 0.0007559
debugs NULL 0.0000650
x false 0.0033557
x parser.option 1.0000000
x striped 0.3333333
x return 0.0016051
x many 0.0526316
x . 0.0000620
x 2 0.0014045
x parameter 0.2000000
x by 0.0019960
x for 0.0001911
x pax 1.0000000
x NULL 0.0012355
x value 0.0014853
x identity 0.3333333
x maximum 0.5000000
x append 0.0057915
x x 0.7352941
x elements 0.0036430
x x.split 0.5000000
x input 0.0089286
MAIN MAIN 1.0000000
MAIN of 0.0002257
MAIN key 0.0005731
DIRS to 0.0002447
DIRS DIRS 1.0000000
permalink NULL 0.0000975
permalink permalink 0.5000000
permalink key 0.0005731
Fixture 4 0.0041667
problem model 0.0042017
problem NULL 0.0000325
problem meta.local 0.3333333
iglob character 0.0070423
iglob a 0.0005420
iglob appended 0.0212766
iglob into 0.0008039
iglob valid 0.0117647
val1 2 0.0021067
val1 val2 0.0833333
val1 val1 0.8333333
val1 5 0.0071429
val1 and 0.0002032
rmtree arguments 0.0003328
rmtree shutil.rmtree 1.0000000
rmtree 2 0.0007022
rmtree rmtree 1.0000000
rmtree function 0.0006947
chunk chunk.find 0.5000000
chunk call 0.0005075
chunk chunks 0.0714286
chunk first 0.0028490
chunk self.chunk 1.0000000
chunk increment 0.0104167
chunk x.chunk 1.0000000
chunk empty 0.0012240
chunk NULL 0.0000325
chunk chunk 0.9857143
chunk hunk 1.0000000
bcc 11 0.1000000
bcc self.bcc 0.6666667
bcc self.bcc. 0.5000000
bcc bcc 0.8333333
bcc 10 0.0263158
bcc put 0.0181818
bcc NULL 0.0000325
bcc into 0.0008039
TimeFormat TimeFormat 1.0000000
TimeFormat created 0.0036232
TimeFormat class 0.0004662
TimeFormat from 0.0003373
TimeFormat instance 0.0013369
.upload .upload 1.0000000
django django.http 0.5000000
django django.utils.xmlutils 0.3333333
django django.http.utils 0.5000000
django django.utils.translation 0.3333333
django django.core.mail.message 0.2500000
django django.dispatch 0.5000000
django django.core.urlresolvers 0.3333333
django django.utils.synch 0.3333333
django django.template.smartif 0.5000000
django django.db.migrations 0.3333333
django django.utils. 0.5000000
django django.core.cache 0.3333333
django django.core.servers.basehttp 0.2500000
