# % s ||| # % s ||| 0.714286 0.142857 0.142857 0.714286 0.142857 0.142857
# % ||| # % ||| 0.777778 0.111111 0.111111 0.777778 0.111111 0.111111
# \ n ||| # \ n ||| 0.6 0.2 0.2 0.6 0.2 0.2
# \ ||| # \ ||| 0.777778 0.111111 0.111111 0.777778 0.111111 0.111111
# ||| # ||| 0.979381 0.0103093 0.0103093 0.979381 0.0103093 0.0103093
% % &apos; ||| % % &apos; ||| 0.6 0.2 0.2 0.6 0.2 0.2
% % ( % s ) s ||| % % ( % s ) s ||| 0.777778 0.111111 0.111111 0.777778 0.111111 0.111111
% % ( % s ) ||| % % ( % s ) ||| 0.777778 0.111111 0.111111 0.777778 0.111111 0.111111
% % ( % s ||| % % ( % s ||| 0.777778 0.111111 0.111111 0.777778 0.111111 0.111111
% % ( % ||| % % ( % ||| 0.777778 0.111111 0.111111 0.777778 0.111111 0.111111
% % ( ||| % % ( ||| 0.777778 0.111111 0.111111 0.777778 0.111111 0.111111
% % ||| % % ||| 0.963636 0.0181818 0.0181818 0.963636 0.0181818 0.0181818
% &apos; ||| % &apos; . ||| 0.6 0.2 0.2 0.6 0.2 0.2
% &apos; ||| % &apos; string ||| 0.6 0.2 0.2 0.6 0.2 0.2
% &apos; ||| % &apos; ||| 0.777778 0.111111 0.111111 0.555556 0.111111 0.333333
% &apos; ||| where &apos; ||| 0.2 0.2 0.6 0.2 0.2 0.6
% ( % s ) s ||| % ( % s ) s ||| 0.777778 0.111111 0.111111 0.777778 0.111111 0.111111
% ( % s ) ||| % ( % s ) ||| 0.777778 0.111111 0.111111 0.777778 0.111111 0.111111
% ( % s ||| % ( % s ||| 0.777778 0.111111 0.111111 0.777778 0.111111 0.111111
% ( % ||| % ( % ||| 0.777778 0.111111 0.111111 0.777778 0.111111 0.111111
% ( ||| % ( ||| 0.983193 0.00840336 0.00840336 0.983193 0.00840336 0.00840336
% ( ||| % r &apos; with ||| 0.2 0.2 0.6 0.2 0.2 0.6
% ( ||| % s &apos; in previous string with ||| 0.2 0.2 0.6 0.2 0.2 0.6
% ( ||| % s &apos; in ||| 0.6 0.2 0.2 0.2 0.2 0.6
% ( ||| % s &apos; is replaced by ||| 0.428571 0.142857 0.428571 0.428571 0.142857 0.428571
% ( ||| % s &apos; is replaced with ||| 0.0769231 0.0769231 0.846154 0.846154 0.0769231 0.0769231
% ( ||| % s &apos; is substituted with : ||| 0.2 0.2 0.6 0.6 0.2 0.2
% ( ||| % s &apos; replaced by ||| 0.111111 0.111111 0.777778 0.333333 0.111111 0.555556
% ( ||| % s &apos; with ||| 0.0909091 0.0909091 0.818182 0.818182 0.0909091 0.0909091
% ( ||| % s &apos; ||| 0.333333 0.111111 0.555556 0.111111 0.111111 0.777778
% ( ||| % s with ||| 0.2 0.2 0.6 0.6 0.2 0.2
% ( ||| % s ||| 0.272727 0.0909091 0.636364 0.0909091 0.0909091 0.818182
% ( ||| % ||| 0.230769 0.0769231 0.692308 0.0769231 0.0769231 0.846154
% ( ||| &apos; % r &apos; with ||| 0.2 0.2 0.6 0.2 0.2 0.6
% ( ||| &apos; % s &apos; is replaced by ||| 0.2 0.2 0.6 0.6 0.2 0.2
% ( ||| &apos; % s &apos; is replaced with ||| 0.0769231 0.0769231 0.846154 0.846154 0.0769231 0.0769231
% ( ||| &apos; % s &apos; replaced by ||| 0.111111 0.111111 0.777778 0.333333 0.111111 0.555556
% ( ||| &apos; % s &apos; with ||| 0.0769231 0.0769231 0.846154 0.846154 0.0769231 0.0769231
% ( ||| &apos; % s &apos; ||| 0.142857 0.142857 0.714286 0.142857 0.142857 0.714286
% ( ||| &apos; % s ||| 0.111111 0.111111 0.777778 0.111111 0.111111 0.777778
% ( ||| &apos; % ||| 0.0909091 0.0909091 0.818182 0.0909091 0.0909091 0.818182
% ( ||| &apos; : ||| 0.6 0.2 0.2 0.2 0.2 0.6
% ( ||| &apos; are replaced with return value of ||| 0.2 0.2 0.6 0.6 0.2 0.2
% ( ||| &apos; is replaced with ||| 0.0666667 0.0666667 0.866667 0.733333 0.0666667 0.2
% ( ||| &apos; replaced by ||| 0.142857 0.142857 0.714286 0.428571 0.142857 0.428571
% ( ||| &apos; with ||| 0.142857 0.142857 0.714286 0.428571 0.142857 0.428571
% ( ||| , format it with ||| 0.6 0.2 0.2 0.2 0.2 0.6
% ( ||| , formated with ||| 0.818182 0.0909091 0.0909091 0.818182 0.0909091 0.0909091
% ( ||| , replace &apos; % 04i &apos; with ||| 0.6 0.2 0.2 0.6 0.2 0.2
% ( ||| , replace &apos; % s &apos; with ||| 0.454545 0.0909091 0.454545 0.818182 0.0909091 0.0909091
% ( ||| , substitute &apos; % s &apos; with ||| 0.6 0.2 0.2 0.6 0.2 0.2
% ( ||| , with ||| 0.6 0.2 0.2 0.6 0.2 0.2
% ( ||| , ||| 0.818182 0.0909091 0.0909091 0.0909091 0.0909091 0.818182
% ( ||| 2 ||| 0.2 0.2 0.6 0.2 0.2 0.6
% ( ||| an argument ||| 0.2 0.2 0.6 0.2 0.2 0.6
% ( ||| are replaced with return value of ||| 0.2 0.2 0.6 0.6 0.2 0.2
% ( ||| argument ||| 0.2 0.2 0.6 0.2 0.2 0.6
% ( ||| as argument ||| 0.777778 0.111111 0.111111 0.111111 0.111111 0.777778
% ( ||| by string ||| 0.2 0.2 0.6 0.6 0.2 0.2
% ( ||| called with an argument ||| 0.2 0.2 0.6 0.2 0.2 0.6
% ( ||| called with an ||| 0.2 0.2 0.6 0.2 0.2 0.6
% ( ||| called with ||| 0.2 0.2 0.6 0.2 0.2 0.6
% ( ||| every % s with ||| 0.2 0.2 0.6 0.6 0.2 0.2
% ( ||| format the previous string with ||| 0.714286 0.142857 0.142857 0.714286 0.142857 0.142857
% ( ||| formated with : ||| 0.2 0.2 0.6 0.6 0.2 0.2
% ( ||| formated with a tuple with an element ||| 0.2 0.2 0.6 0.6 0.2 0.2
% ( ||| formated with a tuple with an ||| 0.2 0.2 0.6 0.2 0.2 0.6
% ( ||| formated with a tuple with ||| 0.2 0.2 0.6 0.2 0.2 0.6
% ( ||| formated with a tuple ||| 0.2 0.2 0.6 0.2 0.2 0.6
% ( ||| formated with a ||| 0.2 0.2 0.6 0.2 0.2 0.6
% ( ||| formated with the result of the ||| 0.6 0.2 0.2 0.6 0.2 0.2
% ( ||| formated with the result of ||| 0.6 0.2 0.2 0.2 0.2 0.6
% ( ||| formated with the result ||| 0.6 0.2 0.2 0.2 0.2 0.6
% ( ||| formated with the ||| 0.6 0.2 0.2 0.2 0.2 0.6
% ( ||| formated with ||| 0.835616 0.0136986 0.150685 0.835616 0.0136986 0.150685
% ( ||| is replaced with ||| 0.157895 0.0526316 0.789474 0.789474 0.0526316 0.157895
% ( ||| module called with an argument ||| 0.2 0.2 0.6 0.2 0.2 0.6
% ( ||| module called with an ||| 0.2 0.2 0.6 0.2 0.2 0.6
% ( ||| module called with ||| 0.2 0.2 0.6 0.2 0.2 0.6
% ( ||| occurrences of &apos; % s &apos; with ||| 0.2 0.2 0.6 0.6 0.2 0.2
% ( ||| of &apos; % s &apos; replaced by ||| 0.2 0.2 0.6 0.2 0.2 0.6
% ( ||| of &apos; % s &apos; with ||| 0.2 0.2 0.6 0.6 0.2 0.2
% ( ||| of ||| 0.2 0.2 0.6 0.2 0.2 0.6
% ( ||| r &apos; with ||| 0.2 0.2 0.6 0.2 0.2 0.6
% ( ||| replace &apos; % 04i &apos; with ||| 0.2 0.2 0.6 0.6 0.2 0.2
% ( ||| replace &apos; % s &apos; with ||| 0.157895 0.0526316 0.789474 0.894737 0.0526316 0.0526316
% ( ||| replace every % s with ||| 0.6 0.2 0.2 0.6 0.2 0.2
% ( ||| replace with it &apos; % r &apos; ||| 0.2 0.2 0.6 0.2 0.2 0.6
% ( ||| replace with it &apos; % r ||| 0.2 0.2 0.6 0.2 0.2 0.6
% ( ||| replace with it &apos; % ||| 0.2 0.2 0.6 0.2 0.2 0.6
% ( ||| replace ||| 0.2 0.2 0.6 0.2 0.2 0.6
% ( ||| replaced by ||| 0.142857 0.142857 0.714286 0.428571 0.142857 0.428571
% ( ||| replaced with return value of ||| 0.2 0.2 0.6 0.6 0.2 0.2
% ( ||| replaced with ||| 0.037037 0.037037 0.925926 0.703704 0.037037 0.259259
% ( ||| s &apos; is replaced with ||| 0.0769231 0.0769231 0.846154 0.846154 0.0769231 0.0769231
% ( ||| s &apos; replaced by ||| 0.142857 0.142857 0.714286 0.428571 0.142857 0.428571
% ( ||| s &apos; with ||| 0.2 0.2 0.6 0.6 0.2 0.2
% ( ||| separated by string ||| 0.2 0.2 0.6 0.6 0.2 0.2
% ( ||| separated with &apos; ||| 0.2 0.2 0.6 0.2 0.2 0.6
% ( ||| separated with ||| 0.2 0.2 0.6 0.2 0.2 0.6
% ( ||| string separated by string ||| 0.2 0.2 0.6 0.6 0.2 0.2
% ( ||| string with ||| 0.6 0.2 0.2 0.6 0.2 0.2
% ( ||| substitute &apos; % s &apos; with ||| 0.2 0.2 0.6 0.6 0.2 0.2
% ( ||| the ||| 0.2 0.2 0.6 0.6 0.2 0.2
% ( ||| where ||| 0.2 0.2 0.6 0.6 0.2 0.2
% ( ||| with &apos; % s &apos; replaced by ||| 0.142857 0.142857 0.714286 0.428571 0.142857 0.428571
% ( ||| with &apos; ||| 0.2 0.2 0.6 0.2 0.2 0.6
% ( ||| with 3 elements ||| 0.6 0.2 0.2 0.2 0.2 0.6
% ( ||| with 3 ||| 0.6 0.2 0.2 0.2 0.2 0.6
% ( ||| with : ||| 0.777778 0.111111 0.111111 0.777778 0.111111 0.111111
% ( ||| with it &apos; % r &apos; in ||| 0.2 0.2 0.6 0.2 0.2 0.6
% ( ||| with it &apos; % r &apos; ||| 0.2 0.2 0.6 0.2 0.2 0.6
% ( ||| with it &apos; % r ||| 0.2 0.2 0.6 0.2 0.2 0.6
% ( ||| with it &apos; % ||| 0.2 0.2 0.6 0.2 0.2 0.6
% ( ||| with values of ||| 0.6 0.2 0.2 0.6 0.2 0.2
% ( ||| with ||| 0.84 0.04 0.12 0.76 0.04 0.2
% 02d % 02d &quot; ||| % 02d % 02d &quot; ||| 0.6 0.2 0.2 0.6 0.2 0.2
% 02d % 02d ||| % 02d % 02d ||| 0.714286 0.142857 0.142857 0.714286 0.142857 0.142857
% 02d % ||| % 02d % ||| 0.714286 0.142857 0.142857 0.714286 0.142857 0.142857
% 02d &apos; ||| % 02d &apos; ||| 0.904762 0.047619 0.047619 0.714286 0.047619 0.238095
% 02d &quot; ||| % 02d &quot; ||| 0.6 0.2 0.2 0.6 0.2 0.2
% 02d ||| % 02d ||| 0.925926 0.037037 0.037037 0.925926 0.037037 0.037037
% H % M % S &apos; ||| % H % M % S &apos; ||| 0.6 0.2 0.2 0.6 0.2 0.2
% H % M % S ||| % H % M % S ||| 0.714286 0.142857 0.142857 0.714286 0.142857 0.142857
% H % M % ||| % H % M % ||| 0.714286 0.142857 0.142857 0.714286 0.142857 0.142857
% H % M ||| % H % M ||| 0.714286 0.142857 0.142857 0.714286 0.142857 0.142857
% H % ||| % H % ||| 0.714286 0.142857 0.142857 0.714286 0.142857 0.142857
% H ||| % H ||| 0.818182 0.0909091 0.0909091 0.818182 0.0909091 0.0909091
% M % S &apos; ||| % M % S &apos; ||| 0.6 0.2 0.2 0.6 0.2 0.2
% M % S ||| % M % S ||| 0.714286 0.142857 0.142857 0.714286 0.142857 0.142857
% M % ||| % M % ||| 0.714286 0.142857 0.142857 0.714286 0.142857 0.142857
% M ||| % M ||| 0.818182 0.0909091 0.0909091 0.818182 0.0909091 0.0909091
% S &apos; ||| % S &apos; ||| 0.777778 0.111111 0.111111 0.777778 0.111111 0.111111
% S ||| % S ||| 0.818182 0.0909091 0.0909091 0.818182 0.0909091 0.0909091
% Y % m % d % ||| % Y % m % d % ||| 0.6 0.2 0.2 0.6 0.2 0.2
% Y % m % d ||| % Y % m % d ||| 0.6 0.2 0.2 0.6 0.2 0.2
% Y % m % ||| % Y % m % ||| 0.714286 0.142857 0.142857 0.714286 0.142857 0.142857
% Y % m ||| % Y % m ||| 0.714286 0.142857 0.142857 0.714286 0.142857 0.142857
% Y % ||| % Y % ||| 0.777778 0.111111 0.111111 0.777778 0.111111 0.111111
% Y ||| % Y ||| 0.818182 0.0909091 0.0909091 0.818182 0.0909091 0.0909091
% d % H % M % ||| % d % H % M % ||| 0.6 0.2 0.2 0.6 0.2 0.2
% d % H % M ||| % d % H % M ||| 0.6 0.2 0.2 0.6 0.2 0.2
% d % H % ||| % d % H % ||| 0.6 0.2 0.2 0.6 0.2 0.2
% d % H ||| % d % H ||| 0.6 0.2 0.2 0.6 0.2 0.2
% d % ||| % d % ||| 0.777778 0.111111 0.111111 0.777778 0.111111 0.111111
% d ) ||| % d ) ||| 0.777778 0.111111 0.111111 0.777778 0.111111 0.111111
% d ||| % d ||| 0.963636 0.0181818 0.0181818 0.963636 0.0181818 0.0181818
% d ||| , substitute the result for ||| 0.2 0.2 0.6 0.2 0.2 0.6
% d ||| , substitute the result ||| 0.2 0.2 0.6 0.2 0.2 0.6
% d ||| , substitute the ||| 0.2 0.2 0.6 0.2 0.2 0.6
% d ||| , substitute ||| 0.2 0.2 0.6 0.2 0.2 0.6
% d ||| , ||| 0.142857 0.142857 0.714286 0.142857 0.142857 0.714286
% m % d % H % ||| % m % d % H % ||| 0.6 0.2 0.2 0.6 0.2 0.2
% m % d % H ||| % m % d % H ||| 0.6 0.2 0.2 0.6 0.2 0.2
% m % d % ||| % m % d % ||| 0.6 0.2 0.2 0.6 0.2 0.2
% m % d ||| % m % d ||| 0.6 0.2 0.2 0.6 0.2 0.2
% m % ||| % m % ||| 0.714286 0.142857 0.142857 0.714286 0.142857 0.142857
% m ||| % m ||| 0.714286 0.142857 0.142857 0.714286 0.142857 0.142857
% r &apos; ||| % r &apos; ||| 0.846154 0.0769231 0.0769231 0.846154 0.0769231 0.0769231
% r ) ||| % r ) ||| 0.818182 0.0909091 0.0909091 0.818182 0.0909091 0.0909091
% r , % r ) ||| % r , % r ) ||| 0.714286 0.142857 0.142857 0.714286 0.142857 0.142857
% r , % r ||| % r , % r ||| 0.714286 0.142857 0.142857 0.714286 0.142857 0.142857
% r , % ||| % r , % ||| 0.714286 0.142857 0.142857 0.714286 0.142857 0.142857
% r , ||| % r , ||| 0.894737 0.0526316 0.0526316 0.894737 0.0526316 0.0526316
% r ||| % r &apos; , replace &apos; % ||| 0.6 0.2 0.2 0.2 0.2 0.6
% r ||| % r &apos; , replace &apos; ||| 0.6 0.2 0.2 0.2 0.2 0.6
% r ||| % r &apos; , replace ||| 0.6 0.2 0.2 0.2 0.2 0.6
% r ||| % r &apos; , ||| 0.6 0.2 0.2 0.2 0.2 0.6
% r ||| % r &apos; ||| 0.6 0.2 0.2 0.2 0.2 0.6
% r ||| % r &quot; , ||| 0.6 0.2 0.2 0.2 0.2 0.6
% r ||| % r &quot; ||| 0.6 0.2 0.2 0.2 0.2 0.6
% r ||| % r ||| 0.884892 0.00719424 0.107914 0.956835 0.00719424 0.0359712
% r ||| : ||| 0.2 0.2 0.6 0.2 0.2 0.6
% s % 02d % 02d &quot; ||| % s % 02d % 02d &quot; ||| 0.6 0.2 0.2 0.6 0.2 0.2
% s % 02d % 02d ||| % s % 02d % 02d ||| 0.6 0.2 0.2 0.6 0.2 0.2
% s % 02d % ||| % s % 02d % ||| 0.6 0.2 0.2 0.6 0.2 0.2
% s % 02d ||| % s % 02d ||| 0.6 0.2 0.2 0.6 0.2 0.2
% s % ||| % s % ||| 0.962264 0.0188679 0.0188679 0.962264 0.0188679 0.0188679
% s % ||| &quot; % s &gt; % ||| 0.6 0.2 0.2 0.6 0.2 0.2
% s % ||| &quot; % s &quot; % ||| 0.2 0.2 0.6 0.6 0.2 0.2
% s % ||| and concatenated ||| 0.714286 0.142857 0.142857 0.142857 0.142857 0.714286
% s % ||| by concatenating ||| 0.2 0.2 0.6 0.2 0.2 0.6
% s % ||| by joining ||| 0.2 0.2 0.6 0.2 0.2 0.6
% s % ||| concatenate them , substitute the result ||| 0.2 0.2 0.6 0.2 0.2 0.6
% s % ||| concatenate them , substitute the ||| 0.2 0.2 0.6 0.2 0.2 0.6
% s % ||| concatenate them , substitute ||| 0.2 0.2 0.6 0.2 0.2 0.6
% s % ||| concatenate them , ||| 0.2 0.2 0.6 0.2 0.2 0.6
% s % ||| concatenate them ||| 0.2 0.2 0.6 0.2 0.2 0.6
% s % ||| concatenated ||| 0.142857 0.142857 0.714286 0.142857 0.142857 0.714286
% s % ||| created by concatenating ||| 0.6 0.2 0.2 0.2 0.2 0.6
% s % ||| created by joining ||| 0.6 0.2 0.2 0.2 0.2 0.6
% s % ||| format ||| 0.2 0.2 0.6 0.2 0.2 0.6
% s &apos; , ||| % s &apos; , ||| 0.846154 0.0769231 0.0769231 0.384615 0.0769231 0.538462
% s &apos; , ||| % s &apos; with ||| 0.714286 0.142857 0.142857 0.714286 0.142857 0.142857
% s &apos; , ||| , ||| 0.2 0.2 0.6 0.2 0.2 0.6
% s &apos; in ||| % s &apos; in ||| 0.894737 0.0526316 0.0526316 0.894737 0.0526316 0.0526316
% s &apos; in ||| % s &apos; is contained in result ||| 0.6 0.2 0.2 0.2 0.2 0.6
% s &apos; in ||| % s &apos; is contained in ||| 0.714286 0.142857 0.142857 0.428571 0.142857 0.428571
% s &apos; is ||| % s &apos; is ||| 0.894737 0.0526316 0.0526316 0.894737 0.0526316 0.0526316
% s &apos; with ||| % s &apos; with ||| 0.6 0.2 0.2 0.6 0.2 0.2
% s &apos; ||| % s &apos; , where &apos; % ||| 0.714286 0.142857 0.142857 0.142857 0.142857 0.714286
% s &apos; ||| % s &apos; , where &apos; ||| 0.818182 0.0909091 0.0909091 0.454545 0.0909091 0.454545
% s &apos; ||| % s &apos; , where ||| 0.714286 0.142857 0.142857 0.142857 0.142857 0.714286
% s &apos; ||| % s &apos; , ||| 0.777778 0.111111 0.111111 0.555556 0.111111 0.333333
% s &apos; ||| % s &apos; is ||| 0.6 0.2 0.2 0.6 0.2 0.2
% s &apos; ||| % s &apos; with ||| 0.6 0.2 0.2 0.2 0.2 0.6
% s &apos; ||| % s &apos; ||| 0.987768 0.0030581 0.00917431 0.889908 0.0030581 0.107034
% s &apos; ||| &apos; , ||| 0.6 0.2 0.2 0.2 0.2 0.6
% s &apos; ||| &apos; ||| 0.818182 0.0909091 0.0909091 0.272727 0.0909091 0.636364
% s &apos; ||| , append character ||| 0.2 0.2 0.6 0.6 0.2 0.2
% s &apos; ||| a string and append ||| 0.2 0.2 0.6 0.2 0.2 0.6
% s &apos; ||| and append ||| 0.2 0.2 0.6 0.2 0.2 0.6
% s &apos; ||| append ||| 0.2 0.2 0.6 0.2 0.2 0.6
% s &apos; ||| call the function ||| 0.2 0.2 0.6 0.2 0.2 0.6
% s &apos; ||| converted to string and appended to ||| 0.2 0.2 0.6 0.2 0.2 0.6
% s &apos; ||| converted to string and appended ||| 0.2 0.2 0.6 0.2 0.2 0.6
% s &apos; ||| converted to string and ||| 0.2 0.2 0.6 0.2 0.2 0.6
% s &apos; ||| converted to string ||| 0.2 0.2 0.6 0.2 0.2 0.6
% s &apos; ||| function ||| 0.2 0.2 0.6 0.2 0.2 0.6
% s &apos; ||| into a string and concatenate it to ||| 0.2 0.2 0.6 0.2 0.2 0.6
% s &apos; ||| into a string and concatenate it ||| 0.2 0.2 0.6 0.2 0.2 0.6
% s &apos; ||| into a string and concatenate ||| 0.2 0.2 0.6 0.2 0.2 0.6
% s &apos; ||| into a string and ||| 0.2 0.2 0.6 0.2 0.2 0.6
% s &apos; ||| into a string ||| 0.2 0.2 0.6 0.2 0.2 0.6
% s &apos; ||| prepend ||| 0.2 0.2 0.6 0.2 0.2 0.6
% s &apos; ||| string &apos; ||| 0.2 0.2 0.6 0.6 0.2 0.2
% s &apos; ||| string and append ||| 0.2 0.2 0.6 0.2 0.2 0.6
% s &apos; ||| string and appended to ||| 0.2 0.2 0.6 0.2 0.2 0.6
% s &apos; ||| string and appended ||| 0.2 0.2 0.6 0.2 0.2 0.6
% s &apos; ||| string and ||| 0.2 0.2 0.6 0.2 0.2 0.6
% s &apos; ||| string ||| 0.333333 0.111111 0.555556 0.111111 0.111111 0.777778
% s &apos; ||| the function ||| 0.2 0.2 0.6 0.2 0.2 0.6
% s &apos; ||| to a string and append ||| 0.2 0.2 0.6 0.2 0.2 0.6
% s &apos; ||| to string and appended to ||| 0.2 0.2 0.6 0.2 0.2 0.6
% s &apos; ||| to string and appended ||| 0.2 0.2 0.6 0.2 0.2 0.6
% s &apos; ||| to string and ||| 0.2 0.2 0.6 0.2 0.2 0.6
% s &apos; ||| to string ||| 0.2 0.2 0.6 0.2 0.2 0.6
% s &apos; ||| with character ||| 0.6 0.2 0.2 0.6 0.2 0.2
% s &gt; &quot; ||| % s &gt; &quot; , where &apos; ||| 0.6 0.2 0.2 0.2 0.2 0.6
% s &gt; &quot; ||| % s &gt; &quot; , where ||| 0.6 0.2 0.2 0.2 0.2 0.6
% s &gt; &quot; ||| % s &gt; &quot; , ||| 0.6 0.2 0.2 0.2 0.2 0.6
% s &gt; &quot; ||| % s &gt; &quot; ||| 0.846154 0.0769231 0.0769231 0.384615 0.0769231 0.538462
% s &gt; ||| % s &gt; ||| 0.95122 0.0243902 0.0243902 0.95122 0.0243902 0.0243902
% s ( % ||| % s ( % ||| 0.904762 0.047619 0.047619 0.904762 0.047619 0.047619
% s ( ||| % s ( ||| 0.931034 0.0344828 0.0344828 0.931034 0.0344828 0.0344828
% s ) &apos; ||| % s ) &apos; replace every ||| 0.6 0.2 0.2 0.6 0.2 0.2
% s ) &apos; ||| % s ) &apos; replace ||| 0.6 0.2 0.2 0.2 0.2 0.6
% s ) &apos; ||| % s ) &apos; ||| 0.904762 0.047619 0.047619 0.619048 0.047619 0.333333
% s ) s ||| % s ) s ||| 0.777778 0.111111 0.111111 0.777778 0.111111 0.111111
% s ) ||| % s ) . * ? &#91; ||| 0.6 0.2 0.2 0.2 0.2 0.6
% s ) ||| % s ) . * ? ||| 0.6 0.2 0.2 0.2 0.2 0.6
% s ) ||| % s ) . * ||| 0.6 0.2 0.2 0.2 0.2 0.6
% s ) ||| % s ) . ||| 0.6 0.2 0.2 0.2 0.2 0.6
% s ) ||| % s ) ||| 0.968254 0.015873 0.015873 0.936508 0.015873 0.047619
% s ) ||| % s ||| 0.6 0.2 0.2 0.2 0.2 0.6
% s ) ||| % ||| 0.6 0.2 0.2 0.2 0.2 0.6
% s ) ||| formated with s . ||| 0.6 0.2 0.2 0.6 0.2 0.2
% s , ||| % s , ||| 0.939394 0.030303 0.030303 0.939394 0.030303 0.030303
% s : % s &gt; &quot; ||| % s : % s &gt; &quot; ||| 0.6 0.2 0.2 0.6 0.2 0.2
% s : % s &gt; ||| % s : % s &gt; ||| 0.714286 0.142857 0.142857 0.714286 0.142857 0.142857
% s : % s ) ||| % s : % s ) ||| 0.6 0.2 0.2 0.6 0.2 0.2
% s : % s ||| % s : % s ||| 0.913043 0.0434783 0.0434783 0.913043 0.0434783 0.0434783
% s : % s ||| concatenate them respectively , with ||| 0.6 0.2 0.2 0.6 0.2 0.2
% s : % s ||| into strings , concatenate them respectively ||| 0.2 0.2 0.6 0.6 0.2 0.2
% s : % ||| % s : % ||| 0.931034 0.0344828 0.0344828 0.931034 0.0344828 0.0344828
% s : % ||| concatenate them respectively , with ||| 0.6 0.2 0.2 0.2 0.2 0.6
% s : % ||| into strings , concatenate ||| 0.2 0.2 0.6 0.6 0.2 0.2
% s : ||| % s : ||| 0.945946 0.027027 0.027027 0.945946 0.027027 0.027027
% s : ||| concatenate them respectively , ||| 0.6 0.2 0.2 0.6 0.2 0.2
% s : ||| into strings , ||| 0.2 0.2 0.6 0.6 0.2 0.2
% s ||| % s &apos; , where ||| 0.777778 0.111111 0.111111 0.777778 0.111111 0.111111
% s ||| % s &apos; , ||| 0.6 0.2 0.2 0.2 0.2 0.6
% s ||| % s &apos; ||| 0.636364 0.0909091 0.272727 0.0909091 0.0909091 0.818182
% s ||| % s &lt; / a &gt; ||| 0.2 0.2 0.6 0.6 0.2 0.2
% s ||| % s &lt; / a ||| 0.2 0.2 0.6 0.2 0.2 0.6
% s ||| % s &lt; / ||| 0.2 0.2 0.6 0.2 0.2 0.6
% s ||| % s &lt; ||| 0.2 0.2 0.6 0.2 0.2 0.6
% s ||| % s ) . * ? &#91; ||| 0.6 0.2 0.2 0.2 0.2 0.6
% s ||| % s ) . * ? ||| 0.6 0.2 0.2 0.2 0.2 0.6
% s ||| % s ) . * ||| 0.6 0.2 0.2 0.2 0.2 0.6
% s ||| % s ) . ||| 0.6 0.2 0.2 0.2 0.2 0.6
% s ||| % s ) ||| 0.6 0.2 0.2 0.2 0.2 0.6
% s ||| % s import models ||| 0.6 0.2 0.2 0.2 0.2 0.6
% s ||| % s import ||| 0.6 0.2 0.2 0.2 0.2 0.6
% s ||| % s ||| 0.98977 0.000852515 0.00937766 0.97272 0.000852515 0.026428
% s ||| % ||| 0.6 0.2 0.2 0.2 0.2 0.6
% s ||| &apos; % s &apos; ||| 0.2 0.2 0.6 0.2 0.2 0.6
% s ||| &apos; % s ||| 0.2 0.2 0.6 0.2 0.2 0.6
% s ||| &apos; , substitute the result for ||| 0.714286 0.142857 0.142857 0.142857 0.142857 0.714286
% s ||| &apos; , substitute the result ||| 0.714286 0.142857 0.142857 0.142857 0.142857 0.714286
% s ||| &apos; , substitute the ||| 0.714286 0.142857 0.142857 0.142857 0.142857 0.714286
% s ||| &apos; , substitute ||| 0.714286 0.142857 0.142857 0.142857 0.142857 0.714286
% s ||| &apos; , ||| 0.714286 0.142857 0.142857 0.142857 0.142857 0.714286
% s ||| &apos; ||| 0.733333 0.0666667 0.2 0.466667 0.0666667 0.466667
% s ||| &gt; % s &lt; / a &gt; ||| 0.6 0.2 0.2 0.6 0.2 0.2
% s ||| &gt; % s &lt; / a ||| 0.6 0.2 0.2 0.2 0.2 0.6
% s ||| &gt; % s &lt; / ||| 0.6 0.2 0.2 0.2 0.2 0.6
% s ||| &gt; % s &lt; ||| 0.6 0.2 0.2 0.2 0.2 0.6
% s ||| &gt; % s ||| 0.6 0.2 0.2 0.2 0.2 0.6
% s ||| &quot; % s &gt; ||| 0.6 0.2 0.2 0.6 0.2 0.2
% s ||| &quot; % s ||| 0.428571 0.142857 0.428571 0.428571 0.142857 0.428571
% s ||| , append ||| 0.111111 0.111111 0.777778 0.555556 0.111111 0.333333
% s ||| , return ||| 0.2 0.2 0.6 0.2 0.2 0.6
% s ||| , ||| 0.111111 0.111111 0.777778 0.111111 0.111111 0.777778
% s ||| 80 ||| 0.6 0.2 0.2 0.2 0.6 0.2
% s ||| : value for string &apos; ||| 0.2 0.2 0.6 0.6 0.2 0.2
% s ||| : value for string ||| 0.2 0.2 0.6 0.2 0.2 0.6
% s ||| a string and append ||| 0.2 0.2 0.6 0.2 0.2 0.6
% s ||| a string ||| 0.2 0.2 0.6 0.2 0.2 0.6
% s ||| and append &apos; ||| 0.6 0.2 0.2 0.6 0.2 0.2
% s ||| and append ||| 0.428571 0.142857 0.428571 0.142857 0.142857 0.714286
% s ||| and concatenated ||| 0.714286 0.142857 0.142857 0.142857 0.142857 0.714286
% s ||| append &apos; ||| 0.2 0.2 0.6 0.6 0.2 0.2
% s ||| append ||| 0.0769231 0.0769231 0.846154 0.230769 0.0769231 0.692308
% s ||| by concatenating ||| 0.2 0.2 0.6 0.2 0.2 0.6
% s ||| by joining ||| 0.2 0.2 0.6 0.2 0.2 0.6
% s ||| concatenate them , substitute the result ||| 0.2 0.2 0.6 0.2 0.2 0.6
% s ||| concatenate them , substitute the ||| 0.2 0.2 0.6 0.2 0.2 0.6
% s ||| concatenate them , substitute ||| 0.2 0.2 0.6 0.2 0.2 0.6
% s ||| concatenate them , ||| 0.2 0.2 0.6 0.2 0.2 0.6
% s ||| concatenate them respectively ||| 0.6 0.2 0.2 0.6 0.2 0.2
% s ||| concatenate them ||| 0.2 0.2 0.6 0.2 0.2 0.6
% s ||| concatenated ||| 0.142857 0.142857 0.714286 0.142857 0.142857 0.714286
% s ||| created by concatenating ||| 0.6 0.2 0.2 0.2 0.2 0.6
% s ||| created by joining ||| 0.6 0.2 0.2 0.2 0.2 0.6
% s ||| for string &apos; ||| 0.2 0.2 0.6 0.6 0.2 0.2
% s ||| for string ||| 0.2 0.2 0.6 0.2 0.2 0.6
% s ||| format ||| 0.2 0.2 0.6 0.2 0.2 0.6
% s ||| formated with s ||| 0.6 0.2 0.2 0.6 0.2 0.2
% s ||| into a ||| 0.2 0.2 0.6 0.6 0.2 0.2
% s ||| into strings ||| 0.2 0.2 0.6 0.6 0.2 0.2
% s ||| is true , return ||| 0.2 0.2 0.6 0.2 0.2 0.6
% s ||| is true , ||| 0.2 0.2 0.6 0.2 0.2 0.6
% s ||| prepend ||| 0.2 0.2 0.6 0.2 0.2 0.6
% s ||| string &apos; ||| 0.2 0.2 0.6 0.6 0.2 0.2
% s ||| string and append ||| 0.2 0.2 0.6 0.2 0.2 0.6
% s ||| string append to it a string &apos; ||| 0.6 0.2 0.2 0.6 0.2 0.2
% s ||| string append to it a string ||| 0.6 0.2 0.2 0.2 0.2 0.6
% s ||| string append to it a ||| 0.6 0.2 0.2 0.2 0.2 0.6
% s ||| string append to it ||| 0.6 0.2 0.2 0.2 0.2 0.6
% s ||| string append to ||| 0.6 0.2 0.2 0.2 0.2 0.6
% s ||| string append ||| 0.6 0.2 0.2 0.2 0.2 0.6
% s ||| string ||| 0.111111 0.111111 0.777778 0.333333 0.111111 0.555556
% s ||| to a string and append ||| 0.2 0.2 0.6 0.2 0.2 0.6
% s ||| true , return ||| 0.2 0.2 0.6 0.2 0.2 0.6
% s ||| true , ||| 0.2 0.2 0.6 0.2 0.2 0.6
% s ||| value for string &apos; ||| 0.2 0.2 0.6 0.6 0.2 0.2
% s ||| value for string ||| 0.2 0.2 0.6 0.2 0.2 0.6
% s ||| with ||| 0.6 0.2 0.2 0.6 0.2 0.2
% ||| % ( ||| 0.2 0.2 0.6 0.2 0.2 0.6
% ||| % r &apos; in ||| 0.2 0.2 0.6 0.2 0.2 0.6
% ||| % r &apos; is replace with ||| 0.2 0.2 0.6 0.6 0.2 0.2
% ||| % r &apos; is replaced with ||| 0.2 0.2 0.6 0.6 0.2 0.2
% ||| % r &apos; is ||| 0.2 0.2 0.6 0.6 0.2 0.2
% ||| % r &apos; with ||| 0.2 0.2 0.6 0.6 0.2 0.2
% ||| % r &apos; ||| 0.111111 0.111111 0.777778 0.333333 0.111111 0.555556
% ||| % r ||| 0.142857 0.142857 0.714286 0.142857 0.142857 0.714286
% ||| % s &apos; are replaced ||| 0.2 0.2 0.6 0.6 0.2 0.2
% ||| % s &apos; in previous string ||| 0.2 0.2 0.6 0.6 0.2 0.2
% ||| % s &apos; in previous ||| 0.2 0.2 0.6 0.2 0.2 0.6
% ||| % s &apos; in the ||| 0.2 0.2 0.6 0.2 0.2 0.6
% ||| % s &apos; in ||| 0.157895 0.0526316 0.789474 0.0526316 0.0526316 0.894737
% ||| % s &apos; is replaced by ||| 0.428571 0.142857 0.428571 0.714286 0.142857 0.142857
% ||| % s &apos; is replaced with ||| 0.310345 0.0344828 0.655172 0.793103 0.0344828 0.172414
% ||| % s &apos; is replaced ||| 0.185185 0.037037 0.777778 0.62963 0.037037 0.333333
% ||| % s &apos; is substituted for ||| 0.2 0.2 0.6 0.6 0.2 0.2
% ||| % s &apos; is substituted ||| 0.142857 0.142857 0.714286 0.428571 0.142857 0.428571
% ||| % s &apos; is ||| 0.263158 0.0526316 0.684211 0.0526316 0.0526316 0.894737
% ||| % s &apos; replaced by value of ||| 0.6 0.2 0.2 0.6 0.2 0.2
% ||| % s &apos; replaced by value ||| 0.6 0.2 0.2 0.2 0.2 0.6
% ||| % s &apos; replaced by ||| 0.428571 0.142857 0.428571 0.428571 0.142857 0.428571
% ||| % s &apos; replaced with ||| 0.555556 0.111111 0.333333 0.777778 0.111111 0.111111
% ||| % s &apos; replaced ||| 0.384615 0.0769231 0.538462 0.692308 0.0769231 0.230769
% ||| % s &apos; with result of the ||| 0.2 0.2 0.6 0.6 0.2 0.2
% ||| % s &apos; with result of ||| 0.2 0.2 0.6 0.2 0.2 0.6
% ||| % s &apos; with result ||| 0.2 0.2 0.6 0.2 0.2 0.6
% ||| % s &apos; with ||| 0.0909091 0.0909091 0.818182 0.636364 0.0909091 0.272727
% ||| % s &apos; ||| 0.118644 0.0169492 0.864407 0.186441 0.0169492 0.79661
% ||| % s ) . * ? &#91; ||| 0.6 0.2 0.2 0.2 0.2 0.6
% ||| % s ) . * ? ||| 0.6 0.2 0.2 0.2 0.2 0.6
% ||| % s ) . * ||| 0.6 0.2 0.2 0.2 0.2 0.6
% ||| % s ) . ||| 0.6 0.2 0.2 0.2 0.2 0.6
% ||| % s ) ||| 0.6 0.2 0.2 0.2 0.2 0.6
% ||| % s in % s &quot; substitute ||| 0.2 0.2 0.6 0.2 0.2 0.6
% ||| % s in % s &quot; ||| 0.2 0.2 0.6 0.2 0.2 0.6
% ||| % s in % s ||| 0.2 0.2 0.6 0.2 0.2 0.6
% ||| % s in % ||| 0.2 0.2 0.6 0.2 0.2 0.6
% ||| % s in ||| 0.2 0.2 0.6 0.2 0.2 0.6
% ||| % s is replaced with ||| 0.2 0.2 0.6 0.2 0.2 0.6
% ||| % s ||| 0.123288 0.0136986 0.863014 0.0410959 0.0410959 0.917808
% ||| % ||| 0.94798 0.000553403 0.0514665 0.953514 0.000553403 0.0459325
% ||| &apos; % ( ||| 0.6 0.2 0.2 0.2 0.2 0.6
% ||| &apos; % d &apos; replaced ||| 0.2 0.2 0.6 0.2 0.2 0.6
% ||| &apos; % d &apos; ||| 0.2 0.2 0.6 0.2 0.2 0.6
% ||| &apos; % d ||| 0.2 0.2 0.6 0.2 0.2 0.6
% ||| &apos; % r &apos; in ||| 0.2 0.2 0.6 0.2 0.2 0.6
% ||| &apos; % r &apos; is replace with ||| 0.2 0.2 0.6 0.6 0.2 0.2
% ||| &apos; % r &apos; is replaced with ||| 0.2 0.2 0.6 0.6 0.2 0.2
% ||| &apos; % r &apos; is ||| 0.2 0.2 0.6 0.6 0.2 0.2
% ||| &apos; % r &apos; with ||| 0.2 0.2 0.6 0.6 0.2 0.2
% ||| &apos; % r &apos; ||| 0.111111 0.111111 0.777778 0.333333 0.111111 0.555556
% ||| &apos; % r ||| 0.142857 0.142857 0.714286 0.142857 0.142857 0.714286
% ||| &apos; % s &apos; are replaced ||| 0.2 0.2 0.6 0.6 0.2 0.2
% ||| &apos; % s &apos; for ||| 0.142857 0.142857 0.714286 0.714286 0.142857 0.142857
% ||| &apos; % s &apos; in previous string ||| 0.2 0.2 0.6 0.6 0.2 0.2
% ||| &apos; % s &apos; in previous ||| 0.2 0.2 0.6 0.2 0.2 0.6
% ||| &apos; % s &apos; in the ||| 0.2 0.2 0.6 0.2 0.2 0.6
% ||| &apos; % s &apos; in ||| 0.0666667 0.0666667 0.866667 0.0666667 0.0666667 0.866667
% ||| &apos; % s &apos; is replaced by ||| 0.2 0.2 0.6 0.6 0.2 0.2
% ||| &apos; % s &apos; is replaced with ||| 0.047619 0.047619 0.904762 0.714286 0.047619 0.238095
% ||| &apos; % s &apos; is replaced ||| 0.0434783 0.0434783 0.913043 0.652174 0.0434783 0.304348
% ||| &apos; % s &apos; is substituted for ||| 0.2 0.2 0.6 0.6 0.2 0.2
% ||| &apos; % s &apos; is substituted ||| 0.142857 0.142857 0.714286 0.428571 0.142857 0.428571
% ||| &apos; % s &apos; is ||| 0.0666667 0.0666667 0.866667 0.0666667 0.0666667 0.866667
% ||| &apos; % s &apos; replaced by ||| 0.2 0.2 0.6 0.6 0.2 0.2
% ||| &apos; % s &apos; replaced with ||| 0.2 0.2 0.6 0.6 0.2 0.2
% ||| &apos; % s &apos; replaced ||| 0.111111 0.111111 0.777778 0.777778 0.111111 0.111111
% ||| &apos; % s &apos; with result of ||| 0.2 0.2 0.6 0.2 0.2 0.6
% ||| &apos; % s &apos; with result ||| 0.2 0.2 0.6 0.2 0.2 0.6
% ||| &apos; % s &apos; with table ||| 0.2 0.2 0.6 0.2 0.2 0.6
% ||| &apos; % s &apos; with ||| 0.0769231 0.0769231 0.846154 0.538462 0.0769231 0.384615
% ||| &apos; % s &apos; ||| 0.134328 0.0149254 0.850746 0.19403 0.0149254 0.791045
% ||| &apos; % s is replaced with ||| 0.2 0.2 0.6 0.2 0.2 0.6
% ||| &apos; % s ||| 0.0153846 0.0153846 0.969231 0.0153846 0.0153846 0.969231
% ||| &apos; % ||| 0.0666667 0.0133333 0.92 0.04 0.0133333 0.946667
% ||| &apos; , substitute the result for ||| 0.714286 0.142857 0.142857 0.142857 0.142857 0.714286
% ||| &apos; , substitute the result ||| 0.714286 0.142857 0.142857 0.142857 0.142857 0.714286
% ||| &apos; , substitute the ||| 0.714286 0.142857 0.142857 0.142857 0.142857 0.714286
% ||| &apos; , substitute ||| 0.714286 0.142857 0.142857 0.142857 0.142857 0.714286
% ||| &apos; , ||| 0.714286 0.142857 0.142857 0.142857 0.142857 0.714286
% ||| &apos; are replaced ||| 0.2 0.2 0.6 0.6 0.2 0.2
% ||| &apos; is replace with ||| 0.2 0.2 0.6 0.6 0.2 0.2
% ||| &apos; is replaced by ||| 0.2 0.2 0.6 0.6 0.2 0.2
% ||| &apos; is replaced with ||| 0.047619 0.047619 0.904762 0.809524 0.047619 0.142857
% ||| &apos; is replaced ||| 0.0526316 0.0526316 0.894737 0.789474 0.0526316 0.157895
% ||| &apos; replaced by ||| 0.2 0.2 0.6 0.6 0.2 0.2
% ||| &apos; replaced ||| 0.142857 0.142857 0.714286 0.714286 0.142857 0.142857
% ||| &apos; with result of the ||| 0.2 0.2 0.6 0.6 0.2 0.2
% ||| &apos; with result of ||| 0.2 0.2 0.6 0.2 0.2 0.6
% ||| &apos; with result ||| 0.2 0.2 0.6 0.2 0.2 0.6
% ||| &apos; with ||| 0.0769231 0.0769231 0.846154 0.692308 0.0769231 0.230769
% ||| &apos; ||| 0.565217 0.0434783 0.391304 0.304348 0.0434783 0.652174
% ||| &gt; % ||| 0.6 0.2 0.2 0.6 0.2 0.2
% ||| &quot; % s in % s &quot; ||| 0.2 0.2 0.6 0.2 0.2 0.6
% ||| &quot; % s in % s ||| 0.2 0.2 0.6 0.2 0.2 0.6
% ||| &quot; % s in % ||| 0.2 0.2 0.6 0.2 0.2 0.6
% ||| &quot; % s in ||| 0.2 0.2 0.6 0.2 0.2 0.6
% ||| &quot; % s ||| 0.2 0.2 0.6 0.2 0.2 0.6
% ||| &quot; % ||| 0.333333 0.111111 0.555556 0.555556 0.111111 0.333333
% ||| , append ||| 0.2 0.2 0.6 0.2 0.2 0.6
% ||| , format it ||| 0.6 0.2 0.2 0.6 0.2 0.2
% ||| , format ||| 0.6 0.2 0.2 0.2 0.2 0.6
% ||| , formated with ||| 0.6 0.2 0.2 0.6 0.2 0.2
% ||| , formated ||| 0.818182 0.0909091 0.0909091 0.818182 0.0909091 0.0909091
% ||| , if not format it with ||| 0.6 0.2 0.2 0.2 0.2 0.6
% ||| , otherwise return boolean False. convert ||| 0.2 0.2 0.6 0.2 0.2 0.6
% ||| , replace &apos; % 04i &apos; ||| 0.6 0.2 0.2 0.6 0.2 0.2
% ||| , replace &apos; % s &apos; with ||| 0.2 0.2 0.6 0.6 0.2 0.2
% ||| , replace &apos; % s &apos; ||| 0.454545 0.0909091 0.454545 0.818182 0.0909091 0.0909091
% ||| , replace &apos; % s ||| 0.142857 0.142857 0.714286 0.142857 0.142857 0.714286
% ||| , replace &apos; % ||| 0.142857 0.142857 0.714286 0.142857 0.142857 0.714286
% ||| , replace ||| 0.6 0.2 0.2 0.2 0.2 0.6
% ||| , return the reminder of the division ||| 0.2 0.6 0.2 0.2 0.2 0.6
% ||| , return the reminder of the ||| 0.2 0.6 0.2 0.2 0.2 0.6
% ||| , return the reminder of ||| 0.2 0.6 0.2 0.2 0.2 0.6
% ||| , return the reminder ||| 0.2 0.6 0.2 0.2 0.2 0.6
% ||| , return ||| 0.2 0.2 0.6 0.2 0.2 0.6
% ||| , substitute &apos; % r &apos; with ||| 0.6 0.2 0.2 0.6 0.2 0.2
% ||| , substitute &apos; % s &apos; for ||| 0.142857 0.142857 0.714286 0.714286 0.142857 0.142857
% ||| , substitute &apos; % s &apos; in ||| 0.2 0.2 0.6 0.2 0.2 0.6
% ||| , substitute &apos; % s &apos; ||| 0.384615 0.0769231 0.538462 0.384615 0.0769231 0.538462
% ||| , substitute &apos; % s ||| 0.333333 0.111111 0.555556 0.111111 0.111111 0.777778
% ||| , substitute &apos; % ||| 0.428571 0.142857 0.428571 0.142857 0.142857 0.714286
% ||| , substitute the result for ||| 0.2 0.2 0.6 0.2 0.2 0.6
% ||| , substitute the result ||| 0.2 0.2 0.6 0.2 0.2 0.6
% ||| , substitute the ||| 0.2 0.2 0.6 0.2 0.2 0.6
% ||| , substitute ||| 0.428571 0.142857 0.428571 0.142857 0.142857 0.714286
% ||| , surround it ||| 0.2 0.2 0.6 0.2 0.6 0.2
% ||| , surround ||| 0.2 0.2 0.6 0.2 0.2 0.6
% ||| , where % s is replaced by ||| 0.6 0.2 0.2 0.2 0.2 0.6
% ||| , where % s is replaced ||| 0.6 0.2 0.2 0.2 0.2 0.6
% ||| , where % s is ||| 0.6 0.2 0.2 0.2 0.2 0.6
% ||| , where % s ||| 0.6 0.2 0.2 0.2 0.2 0.6
% ||| , where &apos; % r &apos; is ||| 0.6 0.2 0.2 0.6 0.2 0.2
% ||| , where &apos; % r &apos; ||| 0.6 0.2 0.2 0.2 0.2 0.6
% ||| , where &apos; % r ||| 0.6 0.2 0.2 0.2 0.2 0.6
% ||| , where &apos; % s &apos; is ||| 0.789474 0.0526316 0.157895 0.0526316 0.0526316 0.894737
% ||| , where &apos; % s &apos; ||| 0.789474 0.0526316 0.157895 0.0526316 0.0526316 0.894737
% ||| , where &apos; % s ||| 0.733333 0.0666667 0.2 0.0666667 0.2 0.733333
% ||| , where &apos; % ||| 0.866667 0.0666667 0.0666667 0.2 0.0666667 0.733333
% ||| , where ||| 0.6 0.2 0.2 0.2 0.2 0.6
% ||| , with &apos; % s &apos; replaced ||| 0.777778 0.111111 0.111111 0.777778 0.111111 0.111111
% ||| , with &apos; % s &apos; ||| 0.6 0.2 0.2 0.2 0.2 0.6
% ||| , with &apos; % s ||| 0.714286 0.142857 0.142857 0.142857 0.142857 0.714286
% ||| , with &apos; % ||| 0.6 0.2 0.2 0.2 0.2 0.6
% ||| , with ||| 0.714286 0.142857 0.142857 0.714286 0.142857 0.142857
% ||| , ||| 0.6 0.0222222 0.377778 0.244444 0.0222222 0.733333
% ||| .&apos; ||| 0.6 0.2 0.2 0.2 0.2 0.6
% ||| 4&apos; for value under the ||| 0.6 0.2 0.2 0.2 0.2 0.6
% ||| 4&apos; for value under ||| 0.6 0.2 0.2 0.2 0.2 0.6
% ||| 4&apos; for value ||| 0.6 0.2 0.2 0.2 0.2 0.6
% ||| 4&apos; for ||| 0.6 0.2 0.2 0.2 0.2 0.6
% ||| 4&apos; ||| 0.6 0.2 0.2 0.2 0.2 0.6
% ||| : value for string &apos; ||| 0.2 0.2 0.6 0.2 0.2 0.6
% ||| : value for string ||| 0.2 0.2 0.6 0.2 0.2 0.6
% ||| False. convert ||| 0.2 0.2 0.6 0.2 0.2 0.6
% ||| True , otherwise return boolean False. convert ||| 0.2 0.2 0.6 0.2 0.2 0.6
% ||| a string and append ||| 0.2 0.2 0.6 0.2 0.2 0.6
% ||| and append &apos; ||| 0.6 0.2 0.2 0.2 0.2 0.6
% ||| and append ||| 0.555556 0.111111 0.333333 0.111111 0.111111 0.777778
% ||| and concatenated ||| 0.714286 0.142857 0.142857 0.142857 0.142857 0.714286
% ||| append &apos; ||| 0.2 0.2 0.6 0.2 0.2 0.6
% ||| append convert ||| 0.2 0.2 0.6 0.6 0.2 0.2
% ||| append ||| 0.047619 0.047619 0.904762 0.428571 0.047619 0.52381
% ||| appended ||| 0.714286 0.142857 0.142857 0.142857 0.142857 0.714286
% ||| are replaced ||| 0.2 0.2 0.6 0.6 0.2 0.2
% ||| argument , substitute &apos; % s &apos; ||| 0.111111 0.111111 0.777778 0.111111 0.111111 0.777778
% ||| argument , substitute &apos; % s ||| 0.142857 0.142857 0.714286 0.142857 0.142857 0.714286
% ||| argument , substitute &apos; % ||| 0.2 0.2 0.6 0.2 0.2 0.6
% ||| argument , where &apos; % s &apos; ||| 0.2 0.2 0.6 0.2 0.2 0.6
% ||| argument , where &apos; % s ||| 0.2 0.2 0.6 0.2 0.2 0.6
% ||| as argument , substitute &apos; % s ||| 0.714286 0.142857 0.142857 0.142857 0.142857 0.714286
% ||| as argument , substitute &apos; % ||| 0.6 0.2 0.2 0.2 0.2 0.6
% ||| as argument , where &apos; % s ||| 0.6 0.2 0.2 0.2 0.2 0.6
% ||| as ||| 0.777778 0.111111 0.111111 0.777778 0.111111 0.111111
% ||| boolean False. convert ||| 0.2 0.2 0.6 0.2 0.2 0.6
% ||| by modulus ||| 0.6 0.2 0.2 0.6 0.2 0.2
% ||| by ||| 0.391304 0.0434783 0.565217 0.826087 0.0434783 0.130435
% ||| called ||| 0.2 0.2 0.6 0.6 0.2 0.2
% ||| concatenate ||| 0.428571 0.142857 0.428571 0.714286 0.142857 0.142857
% ||| concatenated ||| 0.142857 0.142857 0.714286 0.142857 0.142857 0.714286
% ||| convert ||| 0.0769231 0.0769231 0.846154 0.692308 0.0769231 0.230769
% ||| created by ||| 0.555556 0.111111 0.333333 0.555556 0.111111 0.333333
% ||| divisible by ||| 0.2 0.2 0.6 0.6 0.2 0.2
% ||| divisible ||| 0.142857 0.142857 0.714286 0.428571 0.142857 0.428571
% ||| every % s ||| 0.2 0.2 0.6 0.6 0.2 0.2
% ||| for string &apos; ||| 0.2 0.2 0.6 0.2 0.2 0.6
% ||| for string ||| 0.2 0.2 0.6 0.2 0.2 0.6
% ||| format it with ||| 0.2 0.2 0.6 0.2 0.2 0.6
% ||| format the previous ||| 0.6 0.2 0.2 0.6 0.2 0.2
% ||| format the result ||| 0.6 0.2 0.2 0.2 0.2 0.6
% ||| format the ||| 0.714286 0.142857 0.142857 0.142857 0.142857 0.714286
% ||| format ||| 0.636364 0.0909091 0.272727 0.272727 0.0909091 0.636364
% ||| formated with an argument ||| 0.6 0.2 0.2 0.6 0.2 0.2
% ||| formated with an ||| 0.6 0.2 0.2 0.2 0.2 0.6
% ||| formated with quote ||| 0.6 0.2 0.2 0.2 0.2 0.6
% ||| formated with ||| 0.904762 0.015873 0.0793651 0.84127 0.015873 0.142857
% ||| formated ||| 0.820225 0.011236 0.168539 0.88764 0.011236 0.101124
% ||| if not format it with ||| 0.2 0.2 0.6 0.2 0.2 0.6
% ||| in &quot; % s in % s ||| 0.2 0.2 0.6 0.2 0.2 0.6
% ||| in &quot; % s in % ||| 0.2 0.2 0.6 0.2 0.2 0.6
% ||| in &quot; % s in ||| 0.2 0.2 0.6 0.2 0.2 0.6
% ||| in &quot; % s ||| 0.2 0.2 0.6 0.2 0.2 0.6
% ||| in &quot; % ||| 0.2 0.2 0.6 0.2 0.2 0.6
% ||| in hexadecimal format ||| 0.2 0.2 0.6 0.2 0.2 0.6
% ||| in hexadecimal ||| 0.2 0.2 0.6 0.2 0.2 0.6
% ||| in ||| 0.111111 0.111111 0.777778 0.111111 0.111111 0.777778
% ||| into ||| 0.142857 0.142857 0.714286 0.714286 0.142857 0.142857
% ||| is divisible ||| 0.2 0.2 0.6 0.6 0.2 0.2
% ||| is replace with ||| 0.2 0.2 0.6 0.6 0.2 0.2
% ||| is replaced by ||| 0.2 0.2 0.6 0.6 0.2 0.2
% ||| is replaced with ||| 0.185185 0.037037 0.777778 0.703704 0.037037 0.259259
% ||| is replaced ||| 0.130435 0.0434783 0.826087 0.826087 0.0434783 0.130435
% ||| is true , return ||| 0.2 0.2 0.6 0.2 0.2 0.6
% ||| is true , ||| 0.2 0.2 0.6 0.2 0.2 0.6
% ||| it &apos; % r &apos; in ||| 0.2 0.6 0.2 0.2 0.2 0.6
% ||| it &apos; % r &apos; ||| 0.2 0.6 0.2 0.2 0.2 0.6
% ||| it &apos; % r ||| 0.2 0.6 0.2 0.2 0.2 0.6
% ||| it &apos; % ||| 0.2 0.6 0.2 0.2 0.2 0.6
% ||| it with ||| 0.2 0.2 0.6 0.2 0.2 0.6
% ||| module called ||| 0.2 0.2 0.6 0.6 0.2 0.2
% ||| modulo ||| 0.2 0.2 0.6 0.6 0.2 0.2
% ||| modulus ||| 0.555556 0.111111 0.333333 0.777778 0.111111 0.111111
% ||| not format it with ||| 0.2 0.2 0.6 0.2 0.2 0.6
% ||| occurrences of &apos; % s &apos; replaced ||| 0.2 0.2 0.6 0.6 0.2 0.2
% ||| occurrences of &apos; % s &apos; ||| 0.2 0.2 0.6 0.6 0.2 0.2
% ||| of &apos; % s &apos; replaced ||| 0.2 0.2 0.6 0.6 0.2 0.2
% ||| of &apos; % s &apos; ||| 0.2 0.2 0.6 0.6 0.2 0.2
% ||| otherwise return boolean False. convert ||| 0.2 0.2 0.6 0.2 0.2 0.6
% ||| prepend ||| 0.2 0.2 0.6 0.2 0.2 0.6
% ||| r &apos; is replace with ||| 0.2 0.2 0.6 0.6 0.2 0.2
% ||| r &apos; is replaced with ||| 0.2 0.2 0.6 0.6 0.2 0.2
% ||| r &apos; with ||| 0.2 0.2 0.6 0.6 0.2 0.2
% ||| r &apos; ||| 0.2 0.2 0.6 0.6 0.2 0.2
% ||| reminder of the division . ||| 0.2 0.2 0.6 0.2 0.2 0.6
% ||| reminder of the division ||| 0.2 0.2 0.6 0.2 0.2 0.6
% ||| reminder of the ||| 0.2 0.2 0.6 0.2 0.2 0.6
% ||| reminder of ||| 0.2 0.2 0.6 0.2 0.2 0.6
% ||| reminder ||| 0.2 0.2 0.6 0.2 0.2 0.6
% ||| replace &apos; % 04i &apos; ||| 0.2 0.2 0.6 0.6 0.2 0.2
% ||| replace &apos; % s &apos; in the ||| 0.2 0.2 0.6 0.2 0.2 0.6
% ||| replace &apos; % s &apos; in ||| 0.111111 0.111111 0.777778 0.111111 0.111111 0.777778
% ||| replace &apos; % s &apos; with ||| 0.2 0.2 0.6 0.6 0.2 0.2
% ||| replace &apos; % s &apos; ||| 0.111111 0.037037 0.851852 0.62963 0.037037 0.333333
% ||| replace &apos; % s ||| 0.0588235 0.0588235 0.882353 0.0588235 0.0588235 0.882353
% ||| replace &apos; % ||| 0.0588235 0.0588235 0.882353 0.0588235 0.0588235 0.882353
% ||| replace every % s ||| 0.6 0.2 0.2 0.6 0.2 0.2
% ||| replace with ||| 0.2 0.2 0.6 0.6 0.2 0.2
% ||| replace ||| 0.2 0.2 0.6 0.2 0.2 0.6
% ||| replaced by ||| 0.538462 0.0769231 0.384615 0.846154 0.0769231 0.0769231
% ||| replaced with ||| 0.0967742 0.0322581 0.870968 0.741935 0.0322581 0.225806
% ||| replaced ||| 0.0243902 0.0243902 0.95122 0.853659 0.0243902 0.121951
% ||| result is divisible ||| 0.2 0.2 0.6 0.6 0.2 0.2
% ||| return boolean False. convert ||| 0.2 0.2 0.6 0.2 0.2 0.6
% ||| return the reminder of the division . ||| 0.2 0.2 0.6 0.2 0.2 0.6
% ||| return the reminder of the division ||| 0.2 0.2 0.6 0.2 0.2 0.6
% ||| return the reminder of the ||| 0.2 0.2 0.6 0.2 0.2 0.6
% ||| return the reminder of ||| 0.2 0.2 0.6 0.2 0.2 0.6
% ||| return the reminder ||| 0.2 0.2 0.6 0.2 0.2 0.6
% ||| s &apos; are replaced ||| 0.2 0.2 0.6 0.6 0.2 0.2
% ||| s &apos; is replaced by ||| 0.2 0.2 0.6 0.6 0.2 0.2
% ||| s &apos; is replaced with ||| 0.0526316 0.0526316 0.894737 0.789474 0.0526316 0.157895
% ||| s &apos; is replaced ||| 0.0588235 0.0588235 0.882353 0.764706 0.0588235 0.176471
% ||| s &apos; is substituted for ||| 0.2 0.2 0.6 0.6 0.2 0.2
% ||| s &apos; is substituted ||| 0.2 0.2 0.6 0.2 0.2 0.6
% ||| s &apos; is ||| 0.2 0.2 0.6 0.2 0.2 0.6
% ||| s &apos; replaced by ||| 0.2 0.2 0.6 0.6 0.2 0.2
% ||| s &apos; replaced ||| 0.142857 0.142857 0.714286 0.714286 0.142857 0.142857
% ||| s &apos; with result of the ||| 0.2 0.2 0.6 0.6 0.2 0.2
% ||| s &apos; with result of ||| 0.2 0.2 0.6 0.2 0.2 0.6
% ||| s &apos; with result ||| 0.2 0.2 0.6 0.2 0.2 0.6
% ||| s &apos; with ||| 0.0909091 0.0909091 0.818182 0.636364 0.0909091 0.272727
% ||| s &apos; ||| 0.142857 0.142857 0.714286 0.428571 0.142857 0.428571
% ||| s is replaced with ||| 0.2 0.2 0.6 0.2 0.2 0.6
% ||| s ||| 0.2 0.2 0.6 0.2 0.2 0.6
% ||| separated by ||| 0.2 0.2 0.6 0.6 0.2 0.2
% ||| string &apos; ||| 0.2 0.2 0.6 0.2 0.2 0.6
% ||| string and append ||| 0.2 0.2 0.6 0.2 0.2 0.6
% ||| string separated by ||| 0.2 0.2 0.6 0.6 0.2 0.2
% ||| string with ||| 0.6 0.2 0.2 0.2 0.2 0.6
% ||| string ||| 0.555556 0.111111 0.333333 0.555556 0.111111 0.333333
% ||| substitute &apos; % r &apos; with ||| 0.2 0.2 0.6 0.6 0.2 0.2
% ||| substitute &apos; % s &apos; for ||| 0.142857 0.142857 0.714286 0.714286 0.142857 0.142857
% ||| substitute &apos; % s &apos; in previous ||| 0.2 0.2 0.6 0.2 0.2 0.6
% ||| substitute &apos; % s &apos; in ||| 0.2 0.2 0.6 0.2 0.2 0.6
% ||| substitute &apos; % s &apos; with ||| 0.2 0.2 0.6 0.6 0.2 0.2
% ||| substitute &apos; % s &apos; ||| 0.0666667 0.0666667 0.866667 0.333333 0.0666667 0.6
% ||| substitute &apos; % s ||| 0.0769231 0.0769231 0.846154 0.0769231 0.0769231 0.846154
% ||| substitute &apos; % ||| 0.111111 0.111111 0.777778 0.111111 0.111111 0.777778
% ||| substitute the &apos; % s &apos; with ||| 0.142857 0.142857 0.714286 0.428571 0.142857 0.428571
% ||| substitute the &apos; % s &apos; ||| 0.2 0.2 0.6 0.2 0.2 0.6
% ||| substitute the &apos; % s ||| 0.2 0.2 0.6 0.2 0.2 0.6
% ||| substitute the &apos; % ||| 0.2 0.2 0.6 0.2 0.2 0.6
% ||| substitute the &apos; ||| 0.2 0.2 0.6 0.2 0.2 0.6
% ||| the &apos; % s &apos; with table ||| 0.2 0.2 0.6 0.2 0.2 0.6
% ||| the &apos; % s &apos; with ||| 0.142857 0.142857 0.714286 0.428571 0.142857 0.428571
% ||| the &apos; % s &apos; ||| 0.142857 0.142857 0.714286 0.142857 0.142857 0.714286
% ||| the &apos; % s ||| 0.111111 0.111111 0.777778 0.111111 0.111111 0.777778
% ||| the &apos; % ||| 0.111111 0.111111 0.777778 0.111111 0.111111 0.777778
% ||| the &apos; ||| 0.2 0.2 0.6 0.2 0.2 0.6
% ||| the occurrences of &apos; % s &apos; ||| 0.2 0.2 0.6 0.6 0.2 0.2
% ||| the reminder of the division . ||| 0.2 0.2 0.6 0.2 0.2 0.6
% ||| the reminder of the division ||| 0.2 0.2 0.6 0.2 0.2 0.6
% ||| the reminder of the ||| 0.2 0.2 0.6 0.2 0.2 0.6
% ||| the reminder of ||| 0.2 0.2 0.6 0.2 0.2 0.6
% ||| the reminder ||| 0.2 0.2 0.6 0.2 0.2 0.6
% ||| the result is divisible ||| 0.2 0.2 0.6 0.6 0.2 0.2
% ||| to a string and append ||| 0.2 0.2 0.6 0.2 0.2 0.6
% ||| to ||| 0.692308 0.230769 0.0769231 0.692308 0.0769231 0.230769
% ||| true , return ||| 0.2 0.2 0.6 0.2 0.2 0.6
% ||| true , ||| 0.2 0.2 0.6 0.2 0.2 0.6
% ||| value for string &apos; ||| 0.2 0.2 0.6 0.2 0.2 0.6
% ||| value for string ||| 0.2 0.2 0.6 0.2 0.2 0.6
% ||| where &apos; % r &apos; is replaced ||| 0.2 0.2 0.6 0.6 0.2 0.2
% ||| where &apos; % r &apos; is ||| 0.2 0.2 0.6 0.6 0.2 0.2
% ||| where &apos; % r &apos; ||| 0.2 0.2 0.6 0.2 0.2 0.6
% ||| where &apos; % r ||| 0.2 0.2 0.6 0.2 0.2 0.6
% ||| where &apos; % s &apos; are replaced ||| 0.142857 0.142857 0.714286 0.714286 0.142857 0.142857
% ||| where &apos; % s &apos; are ||| 0.2 0.2 0.6 0.2 0.2 0.6
% ||| where &apos; % s &apos; is replaced ||| 0.103448 0.0344828 0.862069 0.517241 0.0344828 0.448276
% ||| where &apos; % s &apos; is substituted ||| 0.142857 0.142857 0.714286 0.428571 0.142857 0.428571
% ||| where &apos; % s &apos; is ||| 0.142857 0.047619 0.809524 0.047619 0.047619 0.904762
% ||| where &apos; % s &apos; ||| 0.12 0.04 0.84 0.04 0.04 0.92
% ||| where &apos; % s is replaced with ||| 0.2 0.2 0.6 0.2 0.2 0.6
% ||| where &apos; % s ||| 0.12 0.04 0.84 0.04 0.2 0.76
% ||| where &apos; % ||| 0.0588235 0.0588235 0.882353 0.0588235 0.0588235 0.882353
% ||| where &apos; ||| 0.2 0.2 0.6 0.2 0.2 0.6
% ||| where ||| 0.230769 0.0769231 0.692308 0.230769 0.0769231 0.692308
% ||| with &apos; % d &apos; replaced ||| 0.2 0.2 0.6 0.2 0.2 0.6
% ||| with &apos; % d &apos; ||| 0.2 0.2 0.6 0.2 0.2 0.6
% ||| with &apos; % d ||| 0.2 0.2 0.6 0.2 0.2 0.6
% ||| with &apos; % s &apos; replaced by ||| 0.2 0.2 0.6 0.6 0.2 0.2
% ||| with &apos; % s &apos; replaced with ||| 0.777778 0.111111 0.111111 0.777778 0.111111 0.111111
% ||| with &apos; % s &apos; replaced ||| 0.333333 0.111111 0.555556 0.777778 0.111111 0.111111
% ||| with &apos; % s &apos; ||| 0.2 0.2 0.6 0.2 0.2 0.6
% ||| with &apos; % s ||| 0.142857 0.142857 0.714286 0.142857 0.142857 0.714286
% ||| with &apos; % ||| 0.111111 0.111111 0.777778 0.111111 0.111111 0.777778
% ||| with it , substitute the result for ||| 0.714286 0.142857 0.142857 0.142857 0.142857 0.714286
% ||| with it , substitute the result ||| 0.714286 0.142857 0.142857 0.142857 0.142857 0.714286
% ||| with it , substitute the ||| 0.714286 0.142857 0.142857 0.142857 0.142857 0.714286
% ||| with it , substitute ||| 0.714286 0.142857 0.142857 0.142857 0.142857 0.714286
% ||| with it , ||| 0.714286 0.142857 0.142857 0.142857 0.142857 0.714286
% ||| with it ||| 0.777778 0.111111 0.111111 0.111111 0.111111 0.777778
% ||| with result of the ||| 0.2 0.2 0.6 0.6 0.2 0.2
% ||| with result of ||| 0.2 0.2 0.6 0.2 0.2 0.6
% ||| with result ||| 0.2 0.2 0.6 0.2 0.2 0.6
% ||| with return value ||| 0.714286 0.142857 0.142857 0.142857 0.142857 0.714286
% ||| with return ||| 0.714286 0.142857 0.142857 0.142857 0.142857 0.714286
% ||| with the ||| 0.6 0.2 0.2 0.6 0.2 0.2
% ||| with values ||| 0.6 0.2 0.2 0.6 0.2 0.2
% ||| with ||| 0.813665 0.00621118 0.180124 0.73913 0.00621118 0.254658
&#124; &apos; ||| &#124; &apos; . ||| 0.6 0.2 0.2 0.6 0.2 0.2
&#124; &apos; ||| &#124; &apos; ||| 0.818182 0.0909091 0.0909091 0.636364 0.0909091 0.272727
&#124; ||| &#124; &quot; &quot; &quot; ||| 0.6 0.2 0.2 0.2 0.2 0.6
&#124; ||| &#124; &quot; &quot; ||| 0.6 0.2 0.2 0.2 0.2 0.6
&#124; ||| &#124; &quot; ||| 0.6 0.2 0.2 0.2 0.2 0.6
&#124; ||| &#124; ^ &quot; ||| 0.2 0.2 0.6 0.2 0.2 0.6
&#124; ||| &#124; ^ ||| 0.2 0.2 0.6 0.2 0.2 0.6
&#124; ||| &#124; ||| 0.969925 0.0075188 0.0225564 0.93985 0.0075188 0.0526316
&#124; ||| &gt; ) ||| 0.2 0.2 0.6 0.2 0.2 0.6
&#124; ||| &quot; &#124; ^ &quot; ||| 0.2 0.2 0.6 0.2 0.2 0.6
&#124; ||| &quot; &#124; ^ ||| 0.2 0.2 0.6 0.2 0.2 0.6
&#124; ||| &quot; &#124; ||| 0.2 0.2 0.6 0.2 0.2 0.6
&#124; ||| ) ||| 0.2 0.2 0.6 0.2 0.2 0.6
&#124; ||| , perform bitwise OR with 2 operands ||| 0.2 0.2 0.6 0.2 0.2 0.6
&#124; ||| , perform bitwise OR with 2 ||| 0.2 0.2 0.6 0.2 0.2 0.6
&#124; ||| , perform bitwise OR with ||| 0.2 0.2 0.6 0.2 0.2 0.6
&#124; ||| , perform bitwise OR ||| 0.2 0.2 0.6 0.2 0.2 0.6
&#124; ||| , perform bitwise ||| 0.2 0.2 0.6 0.2 0.2 0.6
&#124; ||| 2 operands ||| 0.2 0.2 0.6 0.6 0.2 0.2
&#124; ||| 4 operands ||| 0.2 0.2 0.6 0.2 0.2 0.6
&#124; ||| OR on 2 operands ||| 0.2 0.2 0.6 0.6 0.2 0.2
&#124; ||| a ||| 0.2 0.2 0.6 0.2 0.2 0.6
&#124; ||| binary OR with the result and ||| 0.2 0.2 0.6 0.2 0.2 0.6
&#124; ||| binary OR with the result ||| 0.2 0.2 0.6 0.2 0.2 0.6
&#124; ||| binary OR with the ||| 0.2 0.2 0.6 0.2 0.2 0.6
&#124; ||| binary OR with ||| 0.2 0.2 0.6 0.2 0.2 0.6
&#124; ||| binary OR ||| 0.2 0.2 0.6 0.2 0.2 0.6
&#124; ||| binary or os.O ||| 0.2 0.2 0.6 0.2 0.2 0.6
&#124; ||| binary or ||| 0.2 0.2 0.6 0.2 0.2 0.6
&#124; ||| binary ||| 0.142857 0.142857 0.714286 0.142857 0.142857 0.714286
&#124; ||| bitwise OR with 2 operands : previous ||| 0.2 0.2 0.6 0.2 0.2 0.6
&#124; ||| bitwise OR with 2 operands : ||| 0.2 0.2 0.6 0.2 0.2 0.6
&#124; ||| bitwise OR with 2 operands ||| 0.2 0.2 0.6 0.2 0.2 0.6
&#124; ||| bitwise OR with 2 ||| 0.2 0.2 0.6 0.2 0.2 0.6
&#124; ||| bitwise OR with ||| 0.2 0.2 0.6 0.2 0.2 0.6
&#124; ||| bitwise OR ||| 0.2 0.2 0.6 0.2 0.2 0.6
&#124; ||| bitwise ||| 0.2 0.2 0.6 0.2 0.2 0.6
&#124; ||| calculate binary OR with the result and ||| 0.6 0.2 0.2 0.2 0.2 0.6
&#124; ||| calculate binary OR with the result ||| 0.6 0.2 0.2 0.2 0.2 0.6
&#124; ||| calculate binary OR with the ||| 0.6 0.2 0.2 0.2 0.2 0.6
&#124; ||| calculate binary OR with ||| 0.6 0.2 0.2 0.2 0.2 0.6
&#124; ||| calculate binary OR ||| 0.6 0.2 0.2 0.2 0.2 0.6
&#124; ||| calculate binary ||| 0.6 0.2 0.2 0.2 0.2 0.6
&#124; ||| exclusive OR on 2 operands ||| 0.2 0.2 0.6 0.6 0.2 0.2
&#124; ||| on 2 operands ||| 0.2 0.2 0.6 0.6 0.2 0.2
&#124; ||| operands : ||| 0.2 0.6 0.2 0.2 0.2 0.6
&#124; ||| operands ||| 0.111111 0.333333 0.555556 0.333333 0.111111 0.555556
&#124; ||| perform bitwise OR with 2 operands : ||| 0.2 0.2 0.6 0.2 0.2 0.6
&#124; ||| perform bitwise OR with 2 operands ||| 0.2 0.2 0.6 0.2 0.2 0.6
&#124; ||| perform bitwise OR with 2 ||| 0.2 0.2 0.6 0.2 0.2 0.6
&#124; ||| perform bitwise OR with ||| 0.2 0.2 0.6 0.2 0.2 0.6
&#124; ||| perform bitwise OR ||| 0.2 0.2 0.6 0.2 0.2 0.6
&#124; ||| perform bitwise ||| 0.2 0.2 0.6 0.2 0.2 0.6
&apos; # ||| &apos; # ||| 0.6 0.2 0.2 0.6 0.2 0.2
&apos; # ||| string &apos; # ||| 0.6 0.0666667 0.333333 0.866667 0.0666667 0.0666667
&apos; % % &apos; ||| &apos; % % &apos; ||| 0.6 0.2 0.2 0.6 0.2 0.2
&apos; % % ||| &apos; % % ||| 0.6 0.2 0.2 0.6 0.2 0.2
&apos; % % ||| &apos; in the string &apos; % % ||| 0.2 0.2 0.6 0.6 0.2 0.2
&apos; % % ||| in the string &apos; % % ||| 0.2 0.2 0.6 0.6 0.2 0.2
&apos; % % ||| string &apos; % % ||| 0.2 0.2 0.6 0.6 0.2 0.2
&apos; % % ||| the string &apos; % % ||| 0.2 0.2 0.6 0.6 0.2 0.2
&apos; % 02d &apos; ||| string &apos; % 02d &apos; ||| 0.866667 0.0666667 0.0666667 0.866667 0.0666667 0.0666667
&apos; % 02d ||| format string &apos; % 02d ||| 0.2 0.2 0.6 0.6 0.2 0.2
&apos; % 02d ||| result to format string &apos; % 02d ||| 0.2 0.2 0.6 0.6 0.2 0.2
&apos; % 02d ||| string &apos; % 02d ||| 0.764706 0.0588235 0.176471 0.882353 0.0588235 0.0588235
&apos; % 02d ||| to format string &apos; % 02d ||| 0.2 0.2 0.6 0.6 0.2 0.2
&apos; % r ||| % r ||| 0.0588235 0.0588235 0.882353 0.882353 0.0588235 0.0588235
&apos; % s &apos; in ||| &apos; % s &apos; in ||| 0.894737 0.0526316 0.0526316 0.894737 0.0526316 0.0526316
&apos; % s &apos; in ||| &apos; % s &apos; is contained in ||| 0.714286 0.142857 0.142857 0.428571 0.142857 0.428571
&apos; % s &apos; is ||| &apos; % s &apos; is ||| 0.894737 0.0526316 0.0526316 0.894737 0.0526316 0.0526316
&apos; % s &apos; with ||| &apos; % s &apos; with ||| 0.6 0.2 0.2 0.6 0.2 0.2
&apos; % s &apos; ||| &apos; % s &apos; ||| 0.990698 0.00465116 0.00465116 0.981395 0.00465116 0.0139535
&apos; % s &apos; ||| , append character ||| 0.6 0.2 0.2 0.6 0.2 0.2
&apos; % s &apos; ||| empty string ||| 0.6 0.2 0.2 0.2 0.2 0.6
&apos; % s ||| &apos; % s ||| 0.982979 0.00425532 0.012766 0.991489 0.00425532 0.00425532
&apos; % s ||| &apos; 80 &apos; ||| 0.2 0.2 0.6 0.2 0.2 0.6
&apos; % s ||| &apos; formated with s ||| 0.6 0.2 0.2 0.6 0.2 0.2
&apos; % s ||| &apos; in the string &apos; % s ||| 0.2 0.2 0.6 0.6 0.2 0.2
&apos; % s ||| &apos; ||| 0.428571 0.428571 0.142857 0.428571 0.142857 0.428571
&apos; % s ||| , append ||| 0.428571 0.142857 0.428571 0.714286 0.142857 0.142857
&apos; % s ||| .&apos; character , substitute it ||| 0.2 0.2 0.6 0.2 0.6 0.2
&apos; % s ||| .&apos; character , substitute ||| 0.2 0.2 0.6 0.2 0.2 0.6
&apos; % s ||| .&apos; character , ||| 0.2 0.2 0.6 0.2 0.2 0.6
&apos; % s ||| .&apos; character ||| 0.2 0.2 0.6 0.2 0.2 0.6
&apos; % s ||| a string &apos; % s ||| 0.2 0.2 0.6 0.6 0.2 0.2
&apos; % s ||| a string and append &apos; ||| 0.2 0.2 0.6 0.6 0.2 0.2
&apos; % s ||| a string and append ||| 0.2 0.2 0.6 0.2 0.2 0.6
&apos; % s ||| a string append to it a string ||| 0.2 0.2 0.6 0.2 0.2 0.6
&apos; % s ||| a string append to it a ||| 0.2 0.2 0.6 0.2 0.2 0.6
&apos; % s ||| a string append to it ||| 0.2 0.2 0.6 0.2 0.2 0.6
&apos; % s ||| a string append to ||| 0.2 0.2 0.6 0.2 0.2 0.6
&apos; % s ||| a string append ||| 0.2 0.2 0.6 0.2 0.2 0.6
&apos; % s ||| append string &apos; ||| 0.142857 0.142857 0.714286 0.714286 0.142857 0.142857
&apos; % s ||| append ||| 0.2 0.2 0.6 0.6 0.2 0.2
&apos; % s ||| character , substitute it ||| 0.2 0.2 0.6 0.2 0.6 0.2
&apos; % s ||| character , substitute ||| 0.2 0.2 0.6 0.2 0.2 0.6
&apos; % s ||| character , ||| 0.2 0.2 0.6 0.2 0.2 0.6
&apos; % s ||| character ||| 0.2 0.2 0.6 0.2 0.2 0.6
&apos; % s ||| empty ||| 0.6 0.2 0.2 0.6 0.2 0.2
&apos; % s ||| format ||| 0.6 0.2 0.2 0.2 0.2 0.6
&apos; % s ||| in the string &apos; % s ||| 0.2 0.2 0.6 0.6 0.2 0.2
&apos; % s ||| into a string append to it a ||| 0.6 0.2 0.2 0.2 0.2 0.6
&apos; % s ||| into a string append to it ||| 0.6 0.2 0.2 0.2 0.2 0.6
&apos; % s ||| into a string append to ||| 0.6 0.2 0.2 0.2 0.2 0.6
&apos; % s ||| into a string append ||| 0.6 0.2 0.2 0.2 0.2 0.6
&apos; % s ||| string &apos; % s ||| 0.795918 0.0204082 0.183673 0.959184 0.0204082 0.0204082
&apos; % s ||| string &apos; ||| 0.142857 0.142857 0.714286 0.714286 0.142857 0.142857
&apos; % s ||| string and append &apos; ||| 0.2 0.2 0.6 0.6 0.2 0.2
&apos; % s ||| string and append ||| 0.2 0.2 0.6 0.2 0.2 0.6
&apos; % s ||| strings and concatenated ||| 0.142857 0.142857 0.714286 0.142857 0.142857 0.714286
&apos; % s ||| the string &apos; % s ||| 0.428571 0.142857 0.428571 0.714286 0.142857 0.142857
&apos; % s ||| where &apos; % s &apos; is replaced ||| 0.2 0.2 0.6 0.2 0.2 0.6
&apos; % s ||| where &apos; % s &apos; is ||| 0.2 0.2 0.6 0.2 0.2 0.6
&apos; % s ||| where &apos; % s &apos; ||| 0.2 0.2 0.6 0.2 0.2 0.6
&apos; % s ||| with a string &apos; % s ||| 0.6 0.2 0.2 0.6 0.2 0.2
&apos; % ||| % r &apos; with ||| 0.2 0.2 0.6 0.2 0.2 0.6
&apos; % ||| % ||| 0.0588235 0.0588235 0.882353 0.882353 0.0588235 0.0588235
&apos; % ||| &apos; % r &apos; with ||| 0.2 0.2 0.6 0.2 0.2 0.6
&apos; % ||| &apos; % s &apos; is replaced with ||| 0.142857 0.142857 0.714286 0.714286 0.142857 0.142857
&apos; % ||| &apos; % ||| 0.975904 0.00401606 0.0200803 0.983936 0.00401606 0.0120482
&apos; % ||| &apos; , format it ||| 0.6 0.2 0.2 0.6 0.2 0.2
&apos; % ||| &apos; , format ||| 0.6 0.2 0.2 0.2 0.2 0.6
&apos; % ||| &apos; , formated ||| 0.714286 0.142857 0.142857 0.714286 0.142857 0.142857
&apos; % ||| &apos; , if not format it with ||| 0.6 0.2 0.2 0.2 0.2 0.6
&apos; % ||| &apos; , replace &apos; % s &apos; ||| 0.714286 0.142857 0.142857 0.714286 0.142857 0.142857
&apos; % ||| &apos; , replace &apos; % s ||| 0.6 0.2 0.2 0.2 0.2 0.6
&apos; % ||| &apos; , replace &apos; % ||| 0.6 0.2 0.2 0.2 0.2 0.6
&apos; % ||| &apos; , substitute ||| 0.6 0.2 0.2 0.2 0.2 0.6
&apos; % ||| &apos; , where &apos; % s &apos; ||| 0.846154 0.0769231 0.0769231 0.0769231 0.0769231 0.846154
&apos; % ||| &apos; , where &apos; % s ||| 0.777778 0.111111 0.111111 0.111111 0.111111 0.777778
&apos; % ||| &apos; , where &apos; % ||| 0.714286 0.142857 0.142857 0.142857 0.142857 0.714286
&apos; % ||| &apos; , with ||| 0.6 0.2 0.2 0.6 0.2 0.2
&apos; % ||| &apos; , ||| 0.692308 0.0769231 0.230769 0.230769 0.0769231 0.692308
&apos; % ||| &apos; .&apos; ||| 0.6 0.2 0.2 0.2 0.2 0.6
&apos; % ||| &apos; 4&apos; for value under the ||| 0.6 0.2 0.2 0.2 0.2 0.6
&apos; % ||| &apos; 4&apos; for value under ||| 0.6 0.2 0.2 0.2 0.2 0.6
&apos; % ||| &apos; 4&apos; for value ||| 0.6 0.2 0.2 0.2 0.2 0.6
&apos; % ||| &apos; 4&apos; for ||| 0.6 0.2 0.2 0.2 0.2 0.6
&apos; % ||| &apos; 4&apos; ||| 0.6 0.2 0.2 0.2 0.2 0.6
&apos; % ||| &apos; appended ||| 0.714286 0.142857 0.142857 0.142857 0.142857 0.714286
&apos; % ||| &apos; formated with an argument ||| 0.6 0.2 0.2 0.6 0.2 0.2
&apos; % ||| &apos; formated with an ||| 0.6 0.2 0.2 0.2 0.2 0.6
&apos; % ||| &apos; formated with quote ||| 0.6 0.2 0.2 0.2 0.2 0.6
&apos; % ||| &apos; formated with ||| 0.942857 0.0285714 0.0285714 0.771429 0.0285714 0.2
&apos; % ||| &apos; formated ||| 0.967213 0.0163934 0.0163934 0.836066 0.0163934 0.147541
&apos; % ||| &apos; in the string &apos; % ||| 0.142857 0.142857 0.714286 0.714286 0.142857 0.142857
&apos; % ||| &apos; is replaced with ||| 0.6 0.2 0.2 0.6 0.2 0.2
&apos; % ||| &apos; replace &apos; % s &apos; ||| 0.6 0.2 0.2 0.6 0.2 0.2
&apos; % ||| &apos; replace every % s ||| 0.6 0.2 0.2 0.6 0.2 0.2
&apos; % ||| &apos; to ||| 0.777778 0.111111 0.111111 0.777778 0.111111 0.111111
&apos; % ||| &apos; where &apos; % s &apos; is ||| 0.6 0.2 0.2 0.2 0.2 0.6
&apos; % ||| &apos; where &apos; % s &apos; ||| 0.6 0.2 0.2 0.2 0.2 0.6
&apos; % ||| &apos; where &apos; % s ||| 0.6 0.2 0.2 0.2 0.2 0.6
&apos; % ||| &apos; with it , substitute the result ||| 0.6 0.2 0.2 0.2 0.2 0.6
&apos; % ||| &apos; with it , substitute the ||| 0.6 0.2 0.2 0.2 0.2 0.6
&apos; % ||| &apos; with it , substitute ||| 0.6 0.2 0.2 0.2 0.2 0.6
&apos; % ||| &apos; with it , ||| 0.6 0.2 0.2 0.2 0.2 0.6
&apos; % ||| &apos; with it ||| 0.6 0.2 0.2 0.2 0.2 0.6
&apos; % ||| &apos; with the ||| 0.6 0.2 0.2 0.6 0.2 0.2
&apos; % ||| &apos; with ||| 0.911111 0.0222222 0.0666667 0.733333 0.0222222 0.244444
&apos; % ||| &apos; ||| 0.897436 0.025641 0.0769231 0.384615 0.025641 0.589744
&apos; % ||| , replace &apos; % r &apos; with ||| 0.2 0.2 0.6 0.2 0.2 0.6
&apos; % ||| , ||| 0.6 0.2 0.2 0.6 0.2 0.2
&apos; % ||| .&apos; character , substitute it ||| 0.2 0.2 0.6 0.2 0.6 0.2
&apos; % ||| .&apos; character , substitute ||| 0.2 0.2 0.6 0.2 0.2 0.6
&apos; % ||| .&apos; character , ||| 0.2 0.2 0.6 0.2 0.2 0.6
&apos; % ||| .&apos; character ||| 0.2 0.2 0.6 0.2 0.2 0.6
&apos; % ||| a string &apos; % ||| 0.428571 0.142857 0.428571 0.714286 0.142857 0.142857
&apos; % ||| a string and append &apos; ||| 0.2 0.2 0.6 0.2 0.2 0.6
&apos; % ||| a string and append ||| 0.142857 0.142857 0.714286 0.142857 0.142857 0.714286
&apos; % ||| a string ||| 0.428571 0.142857 0.428571 0.714286 0.142857 0.142857
&apos; % ||| a strings ||| 0.2 0.6 0.2 0.2 0.2 0.6
&apos; % ||| add string &apos; % ||| 0.2 0.2 0.6 0.6 0.2 0.2
&apos; % ||| append string &apos; ||| 0.142857 0.142857 0.714286 0.142857 0.142857 0.714286
&apos; % ||| append ||| 0.142857 0.142857 0.714286 0.714286 0.142857 0.142857
&apos; % ||| call the function ||| 0.2 0.2 0.6 0.6 0.2 0.2
&apos; % ||| character &apos; ||| 0.2 0.2 0.6 0.6 0.2 0.2
&apos; % ||| character , substitute it ||| 0.2 0.2 0.6 0.2 0.6 0.2
&apos; % ||| character , substitute ||| 0.2 0.2 0.6 0.2 0.2 0.6
&apos; % ||| character , ||| 0.2 0.2 0.6 0.2 0.2 0.6
&apos; % ||| character ||| 0.2 0.2 0.6 0.2 0.2 0.6
&apos; % ||| converted to string and appended to ||| 0.2 0.2 0.6 0.2 0.2 0.6
&apos; % ||| converted to string and appended ||| 0.2 0.2 0.6 0.2 0.2 0.6
&apos; % ||| converted to string and ||| 0.2 0.2 0.6 0.2 0.2 0.6
&apos; % ||| converted to string ||| 0.2 0.2 0.6 0.2 0.2 0.6
&apos; % ||| empty ||| 0.6 0.2 0.2 0.2 0.2 0.6
&apos; % ||| equal to string ||| 0.2 0.2 0.6 0.2 0.2 0.6
&apos; % ||| format string &apos; % ||| 0.111111 0.111111 0.777778 0.777778 0.111111 0.111111
&apos; % ||| format ||| 0.6 0.2 0.2 0.2 0.2 0.6
&apos; % ||| function ||| 0.2 0.2 0.6 0.6 0.2 0.2
&apos; % ||| import models &apos; % ||| 0.2 0.2 0.6 0.6 0.2 0.2
&apos; % ||| in hexadecimal format ||| 0.2 0.2 0.6 0.2 0.2 0.6
&apos; % ||| in hexadecimal ||| 0.2 0.2 0.6 0.2 0.2 0.6
&apos; % ||| in the string &apos; % ||| 0.142857 0.142857 0.714286 0.714286 0.142857 0.142857
&apos; % ||| in ||| 0.2 0.2 0.6 0.2 0.2 0.6
&apos; % ||| into a string ||| 0.6 0.2 0.2 0.6 0.2 0.2
&apos; % ||| is not equal to string ||| 0.2 0.2 0.6 0.2 0.2 0.6
&apos; % ||| models &apos; % ||| 0.2 0.2 0.6 0.6 0.2 0.2
&apos; % ||| not equal to string ||| 0.2 0.2 0.6 0.2 0.2 0.6
&apos; % ||| port is not equal to string ||| 0.2 0.2 0.6 0.2 0.2 0.6
&apos; % ||| r &apos; with ||| 0.2 0.2 0.6 0.2 0.2 0.6
&apos; % ||| replace &apos; % r &apos; with ||| 0.2 0.2 0.6 0.2 0.2 0.6
&apos; % ||| result to format string &apos; % ||| 0.2 0.2 0.6 0.6 0.2 0.2
&apos; % ||| s &apos; in the string &apos; % ||| 0.142857 0.142857 0.714286 0.714286 0.142857 0.142857
&apos; % ||| server port is not equal to string ||| 0.2 0.2 0.6 0.2 0.2 0.6
&apos; % ||| string &apos; % ||| 0.790476 0.00952381 0.2 0.980952 0.00952381 0.00952381
&apos; % ||| string &apos; ||| 0.454545 0.0909091 0.454545 0.454545 0.0909091 0.454545
&apos; % ||| string , ||| 0.2 0.2 0.6 0.2 0.2 0.6
&apos; % ||| string and append &apos; ||| 0.2 0.2 0.6 0.2 0.2 0.6
&apos; % ||| string and append ||| 0.142857 0.142857 0.714286 0.142857 0.142857 0.714286
&apos; % ||| string and appended to ||| 0.2 0.2 0.6 0.2 0.2 0.6
&apos; % ||| string and appended ||| 0.2 0.2 0.6 0.2 0.2 0.6
&apos; % ||| string and ||| 0.2 0.2 0.6 0.2 0.2 0.6
&apos; % ||| string ||| 0.0909091 0.0909091 0.818182 0.272727 0.0909091 0.636364
&apos; % ||| strings and concatenated ||| 0.142857 0.142857 0.714286 0.142857 0.142857 0.714286
&apos; % ||| strings ||| 0.2 0.2 0.6 0.2 0.2 0.6
&apos; % ||| the function ||| 0.2 0.2 0.6 0.6 0.2 0.2
&apos; % ||| the result to format string &apos; % ||| 0.2 0.2 0.6 0.6 0.2 0.2
&apos; % ||| the string &apos; % ||| 0.333333 0.111111 0.555556 0.777778 0.111111 0.111111
&apos; % ||| to a string and append ||| 0.2 0.2 0.6 0.2 0.2 0.6
&apos; % ||| to format string &apos; % ||| 0.2 0.2 0.6 0.6 0.2 0.2
&apos; % ||| to string and appended to ||| 0.2 0.2 0.6 0.2 0.2 0.6
&apos; % ||| to string and appended ||| 0.2 0.2 0.6 0.2 0.2 0.6
&apos; % ||| to string and ||| 0.2 0.2 0.6 0.2 0.2 0.6
&apos; % ||| to string ||| 0.142857 0.142857 0.714286 0.142857 0.142857 0.714286
&apos; % ||| where &apos; % s &apos; is replaced ||| 0.142857 0.142857 0.714286 0.714286 0.142857 0.142857
&apos; % ||| with a string &apos; % ||| 0.6 0.2 0.2 0.6 0.2 0.2
&apos; &#124; &apos; ||| &apos; &#124; &apos; ||| 0.428571 0.142857 0.428571 0.428571 0.142857 0.428571
&apos; &#124; &apos; ||| &gt; ) &apos; ||| 0.2 0.2 0.6 0.2 0.2 0.6
&apos; &#124; &apos; ||| ) &apos; ||| 0.2 0.2 0.6 0.2 0.2 0.6
&apos; &#124; &apos; ||| separated with &apos; &#124; &apos; ||| 0.2 0.2 0.6 0.6 0.2 0.2
&apos; &#124; &apos; ||| string &apos; &#124; &apos; . ||| 0.6 0.2 0.2 0.6 0.2 0.2
&apos; &#124; &apos; ||| string &apos; &#124; &apos; ||| 0.714286 0.142857 0.142857 0.428571 0.142857 0.428571
&apos; &#124; &apos; ||| with &apos; &#124; &apos; ||| 0.2 0.2 0.6 0.6 0.2 0.2
&apos; &#124; ||| &apos; &#124; ||| 0.428571 0.142857 0.428571 0.714286 0.142857 0.142857
&apos; &#124; ||| separated with &apos; &#124; ||| 0.2 0.2 0.6 0.6 0.2 0.2
&apos; &#124; ||| string &apos; &#124; ||| 0.714286 0.142857 0.142857 0.714286 0.142857 0.142857
&apos; &#124; ||| with &apos; &#124; ||| 0.2 0.2 0.6 0.6 0.2 0.2
&apos; &quot; &apos; , ||| &apos; &quot; &apos; and ||| 0.6 0.2 0.2 0.6 0.2 0.2
&apos; &quot; &apos; , ||| &apos; &quot; &apos; character or ||| 0.142857 0.142857 0.714286 0.714286 0.142857 0.142857
&apos; &quot; &apos; , ||| &apos; &quot; &apos; with ||| 0.6 0.2 0.2 0.6 0.2 0.2
&apos; &quot; &apos; ||| &apos; &quot; &apos; character ||| 0.142857 0.142857 0.714286 0.714286 0.142857 0.142857
&apos; &quot; &apos; ||| &apos; &quot; &apos; ||| 0.411765 0.0588235 0.529412 0.411765 0.0588235 0.529412
&apos; &quot; &apos; ||| double qoutes ||| 0.2 0.2 0.6 0.2 0.2 0.6
&apos; &quot; &apos; ||| double quote symbol ||| 0.2 0.2 0.6 0.6 0.2 0.2
&apos; &quot; &apos; ||| string &apos; &quot; &apos; , substitute the ||| 0.6 0.2 0.2 0.2 0.2 0.6
&apos; &quot; &apos; ||| string &apos; &quot; &apos; , substitute ||| 0.6 0.2 0.2 0.2 0.2 0.6
&apos; &quot; &apos; ||| string &apos; &quot; &apos; , ||| 0.6 0.2 0.2 0.2 0.2 0.6
&apos; &quot; &apos; ||| string &apos; &quot; &apos; ||| 0.555556 0.333333 0.111111 0.555556 0.111111 0.333333
&apos; &quot; &apos; ||| the double quote symbol ||| 0.6 0.2 0.2 0.6 0.2 0.2
&apos; &quot; , ||| , ||| 0.2 0.2 0.6 0.2 0.2 0.6
&apos; &quot; ||| &apos; &quot; , substitute &apos; ||| 0.6 0.2 0.2 0.6 0.2 0.2
&apos; &quot; ||| &apos; &quot; , substitute ||| 0.714286 0.142857 0.142857 0.428571 0.142857 0.428571
&apos; &quot; ||| &apos; &quot; , where &apos; % s ||| 0.6 0.2 0.2 0.2 0.2 0.6
&apos; &quot; ||| &apos; &quot; , where &apos; % ||| 0.6 0.2 0.2 0.2 0.2 0.6
&apos; &quot; ||| &apos; &quot; , where &apos; ||| 0.6 0.2 0.2 0.2 0.2 0.6
&apos; &quot; ||| &apos; &quot; , where ||| 0.6 0.2 0.2 0.2 0.2 0.6
&apos; &quot; ||| &apos; &quot; , ||| 0.866667 0.0666667 0.0666667 0.2 0.0666667 0.733333
&apos; &quot; ||| &apos; &quot; as the result . ||| 0.6 0.2 0.2 0.6 0.2 0.2
&apos; &quot; ||| &apos; &quot; as the result ||| 0.6 0.2 0.2 0.2 0.2 0.6
&apos; &quot; ||| &apos; &quot; as the ||| 0.6 0.2 0.2 0.2 0.2 0.6
&apos; &quot; ||| &apos; &quot; as ||| 0.6 0.2 0.2 0.2 0.2 0.6
&apos; &quot; ||| &apos; &quot; ||| 0.902913 0.00970874 0.0873786 0.553398 0.00970874 0.436893
&apos; &quot; ||| &apos; ||| 0.428571 0.142857 0.428571 0.428571 0.142857 0.428571
&apos; &quot; ||| &quot; ||| 0.6 0.2 0.2 0.2 0.2 0.6
&apos; &quot; ||| a string ||| 0.2 0.2 0.6 0.2 0.2 0.6
&apos; &quot; ||| by &apos; ||| 0.2 0.2 0.6 0.6 0.2 0.2
&apos; &quot; ||| character &quot; ||| 0.6 0.2 0.2 0.2 0.2 0.6
&apos; &quot; ||| converted to a string ||| 0.2 0.2 0.6 0.2 0.2 0.6
&apos; &quot; ||| double qoutes ||| 0.2 0.2 0.6 0.2 0.2 0.6
&apos; &quot; ||| double quote ||| 0.2 0.2 0.6 0.6 0.2 0.2
&apos; &quot; ||| double ||| 0.142857 0.142857 0.714286 0.142857 0.142857 0.714286
&apos; &quot; ||| string &apos; &quot; ||| 0.818182 0.030303 0.151515 0.939394 0.030303 0.030303
&apos; &quot; ||| string ||| 0.142857 0.142857 0.714286 0.142857 0.142857 0.714286
&apos; &quot; ||| the double quote ||| 0.6 0.2 0.2 0.6 0.2 0.2
&apos; &quot; ||| the double ||| 0.6 0.2 0.2 0.2 0.2 0.6
&apos; &quot; ||| to a string ||| 0.2 0.2 0.6 0.2 0.2 0.6
&apos; ( % s ||| format string &apos; ( % s ||| 0.2 0.2 0.6 0.6 0.2 0.2
&apos; ( % s ||| string &apos; ( % s ||| 0.428571 0.142857 0.428571 0.714286 0.142857 0.142857
&apos; ( % ||| format string &apos; ( % ||| 0.2 0.2 0.6 0.6 0.2 0.2
&apos; ( % ||| string &apos; ( % ||| 0.428571 0.142857 0.428571 0.714286 0.142857 0.142857
&apos; ( ||| &apos; ( ||| 0.741935 0.0322581 0.225806 0.935484 0.0322581 0.0322581
&apos; ( ||| ( ||| 0.142857 0.142857 0.714286 0.714286 0.142857 0.142857
&apos; ( ||| dictionary element under &apos; ( ||| 0.142857 0.142857 0.714286 0.714286 0.142857 0.142857
&apos; ( ||| element under &apos; ( ||| 0.142857 0.142857 0.714286 0.714286 0.142857 0.142857
&apos; ( ||| expression pattern string &apos; ( ||| 0.2 0.2 0.6 0.6 0.2 0.2
&apos; ( ||| format string &apos; ( ||| 0.2 0.2 0.6 0.6 0.2 0.2
&apos; ( ||| pattern string &apos; ( ||| 0.2 0.2 0.6 0.6 0.2 0.2
&apos; ( ||| regular expression pattern string &apos; ( ||| 0.6 0.2 0.2 0.6 0.2 0.2
&apos; ( ||| string &apos; ( ||| 0.898305 0.0169492 0.0847458 0.966102 0.0169492 0.0169492
&apos; ( ||| under &apos; ( ||| 0.142857 0.142857 0.714286 0.714286 0.142857 0.142857
&apos; + &apos; , ||| &apos; + &apos; , ||| 0.714286 0.142857 0.142857 0.142857 0.142857 0.714286
&apos; + &apos; , ||| , ||| 0.2 0.2 0.6 0.2 0.2 0.6
&apos; + &apos; ||| &apos; + &apos; , ||| 0.2 0.2 0.6 0.6 0.2 0.2
&apos; + &apos; ||| &apos; + &apos; . ||| 0.2 0.2 0.6 0.6 0.2 0.2
&apos; + &apos; ||| &apos; + &apos; ||| 0.538462 0.0769231 0.384615 0.538462 0.0769231 0.384615
&apos; + &apos; ||| &apos; , append the result to ||| 0.6 0.2 0.2 0.2 0.2 0.6
&apos; + &apos; ||| is &apos; + &apos; , ||| 0.6 0.2 0.2 0.6 0.2 0.2
&apos; + &apos; ||| is &apos; + &apos; . ||| 0.6 0.2 0.2 0.6 0.2 0.2
&apos; + &apos; ||| is &apos; + &apos; ||| 0.714286 0.142857 0.142857 0.142857 0.142857 0.714286
&apos; + &apos; ||| string &apos; + &apos; ||| 0.6 0.2 0.2 0.6 0.2 0.2
&apos; + ||| &apos; + ||| 0.538462 0.0769231 0.384615 0.846154 0.0769231 0.0769231
&apos; + ||| &apos; , append the result to ||| 0.6 0.2 0.2 0.2 0.2 0.6
&apos; + ||| &apos; , substitute the result for ||| 0.6 0.2 0.2 0.6 0.2 0.2
&apos; + ||| &apos; , substitute the result ||| 0.6 0.2 0.2 0.2 0.2 0.6
&apos; + ||| &apos; , substitute the ||| 0.6 0.2 0.2 0.2 0.2 0.6
&apos; + ||| &apos; , substitute ||| 0.6 0.2 0.2 0.2 0.2 0.6
&apos; + ||| &apos; , ||| 0.818182 0.0909091 0.0909091 0.272727 0.0909091 0.636364
&apos; + ||| &apos; and ||| 0.714286 0.142857 0.142857 0.714286 0.142857 0.142857
&apos; + ||| &apos; to it , ||| 0.6 0.2 0.2 0.2 0.2 0.6
&apos; + ||| &apos; to the result , append ||| 0.6 0.2 0.2 0.6 0.2 0.2
&apos; + ||| &apos; to ||| 0.777778 0.111111 0.111111 0.111111 0.111111 0.777778
&apos; + ||| , use ||| 0.2 0.2 0.6 0.2 0.2 0.6
&apos; + ||| , ||| 0.2 0.2 0.6 0.2 0.2 0.6
&apos; + ||| is &apos; + ||| 0.714286 0.142857 0.142857 0.714286 0.142857 0.142857
&apos; + ||| string &apos; + ||| 0.714286 0.142857 0.142857 0.714286 0.142857 0.142857
&apos; + ||| to ||| 0.2 0.2 0.6 0.2 0.2 0.6
&apos; , &apos; , ||| &apos; , &apos; , ||| 0.6 0.2 0.2 0.6 0.2 0.2
&apos; , &apos; , ||| &apos; , &apos; and ||| 0.142857 0.142857 0.714286 0.714286 0.142857 0.142857
&apos; , &apos; , ||| : characters &apos; , &apos; and ||| 0.2 0.2 0.6 0.6 0.2 0.2
&apos; , &apos; , ||| characters &apos; , &apos; and ||| 0.2 0.2 0.6 0.6 0.2 0.2
&apos; , &apos; , ||| elements : characters &apos; , &apos; and ||| 0.2 0.2 0.6 0.6 0.2 0.2
&apos; , &apos; ||| % s &apos; , replace &apos; ||| 0.2 0.2 0.6 0.2 0.2 0.6
&apos; , &apos; ||| &apos; % s &apos; , replace &apos; ||| 0.2 0.2 0.6 0.2 0.2 0.6
&apos; , &apos; ||| &apos; , &apos; . ||| 0.2 0.2 0.6 0.2 0.2 0.6
&apos; , &apos; ||| &apos; , &apos; Fri &apos; , &apos; ||| 0.6 0.2 0.2 0.6 0.2 0.2
&apos; , &apos; ||| &apos; , &apos; character ||| 0.6 0.2 0.2 0.6 0.2 0.2
&apos; , &apos; ||| &apos; , &apos; to ||| 0.6 0.2 0.2 0.2 0.2 0.6
&apos; , &apos; ||| &apos; , &apos; ||| 0.940075 0.00374532 0.0561798 0.947566 0.00374532 0.0486891
&apos; , &apos; ||| &apos; , and empty ||| 0.6 0.2 0.2 0.6 0.2 0.2
&apos; , &apos; ||| &apos; , empty ||| 0.714286 0.142857 0.142857 0.714286 0.142857 0.142857
&apos; , &apos; ||| &apos; , replace &apos; ||| 0.2 0.2 0.6 0.2 0.2 0.6
&apos; , &apos; ||| &apos; , string &apos; ||| 0.964912 0.0175439 0.0175439 0.964912 0.0175439 0.0175439
&apos; , &apos; ||| &apos; , substitute the result ||| 0.6 0.2 0.2 0.6 0.2 0.2
&apos; , &apos; ||| &apos; , substitute the ||| 0.6 0.2 0.2 0.2 0.2 0.6
&apos; , &apos; ||| &apos; , substitute ||| 0.6 0.2 0.2 0.2 0.2 0.6
&apos; , &apos; ||| &apos; , ||| 0.84 0.04 0.12 0.04 0.04 0.92
&apos; , &apos; ||| &apos; and &apos; ||| 0.978022 0.010989 0.010989 0.978022 0.010989 0.010989
&apos; , &apos; ||| &apos; and 12 for &apos; dec &apos; ||| 0.2 0.2 0.6 0.2 0.2 0.6
&apos; , &apos; ||| &apos; and 12 for &apos; dec ||| 0.2 0.2 0.6 0.2 0.2 0.6
&apos; , &apos; ||| &apos; and 12 for &apos; ||| 0.2 0.2 0.6 0.2 0.2 0.6
&apos; , &apos; ||| &apos; and an empty ||| 0.6 0.2 0.2 0.6 0.2 0.2
&apos; , &apos; ||| &apos; and character &apos; ||| 0.6 0.2 0.2 0.6 0.2 0.2
&apos; , &apos; ||| &apos; and empty ||| 0.866667 0.0666667 0.0666667 0.866667 0.0666667 0.0666667
&apos; , &apos; ||| &apos; and string &apos; ||| 0.818182 0.0909091 0.0909091 0.818182 0.0909091 0.0909091
&apos; , &apos; ||| &apos; file in read mode , substitute ||| 0.6 0.2 0.2 0.2 0.2 0.6
&apos; , &apos; ||| &apos; file in read mode , ||| 0.6 0.2 0.2 0.2 0.2 0.6
&apos; , &apos; ||| &apos; jul &apos; ||| 0.2 0.2 0.6 0.2 0.2 0.6
&apos; , &apos; ||| &apos; jul ||| 0.2 0.2 0.6 0.2 0.2 0.6
&apos; , &apos; ||| &apos; key of hte ||| 0.6 0.2 0.2 0.2 0.2 0.6
&apos; , &apos; ||| &apos; key of ||| 0.6 0.2 0.2 0.2 0.2 0.6
&apos; , &apos; ||| &apos; key ||| 0.6 0.2 0.2 0.2 0.2 0.6
&apos; , &apos; ||| &apos; or &apos; ||| 0.913043 0.0434783 0.0434783 0.913043 0.0434783 0.0434783
&apos; , &apos; ||| &apos; or string &apos; ||| 0.866667 0.0666667 0.0666667 0.866667 0.0666667 0.0666667
&apos; , &apos; ||| &apos; or with string &apos; ||| 0.6 0.2 0.2 0.6 0.2 0.2
&apos; , &apos; ||| &apos; string for &apos; ||| 0.6 0.2 0.2 0.6 0.2 0.2
&apos; , &apos; ||| &apos; with &apos; ||| 0.818182 0.0909091 0.0909091 0.818182 0.0909091 0.0909091
&apos; , &apos; ||| &apos; ||| 0.384615 0.0769231 0.538462 0.0769231 0.0769231 0.846154
&apos; , &apos; ||| , &apos; ||| 0.2 0.2 0.6 0.2 0.6 0.2
&apos; , &apos; ||| , where &apos; % s &apos; is ||| 0.2 0.2 0.6 0.2 0.2 0.6
&apos; , &apos; ||| , where &apos; % s &apos; ||| 0.2 0.2 0.6 0.2 0.2 0.6
&apos; , &apos; ||| , ||| 0.170732 0.0243902 0.804878 0.121951 0.0243902 0.853659
&apos; , &apos; ||| 15 elements : strings ||| 0.6 0.2 0.2 0.2 0.2 0.6
&apos; , &apos; ||| 15 elements : ||| 0.6 0.2 0.2 0.2 0.2 0.6
&apos; , &apos; ||| 2 elements : characters &apos; , &apos; ||| 0.6 0.2 0.2 0.6 0.2 0.2
&apos; , &apos; ||| 3 ||| 0.2 0.2 0.6 0.2 0.2 0.6
&apos; , &apos; ||| 8 entries : ||| 0.2 0.2 0.6 0.2 0.2 0.6
&apos; , &apos; ||| : characters &apos; , &apos; ||| 0.2 0.2 0.6 0.6 0.2 0.2
&apos; , &apos; ||| : strings ||| 0.142857 0.142857 0.714286 0.142857 0.142857 0.714286
&apos; , &apos; ||| : ||| 0.142857 0.047619 0.809524 0.047619 0.047619 0.904762
&apos; , &apos; ||| a string separated by &apos; , &apos; ||| 0.2 0.2 0.6 0.2 0.2 0.6
&apos; , &apos; ||| and ||| 0.428571 0.142857 0.428571 0.428571 0.142857 0.428571
&apos; , &apos; ||| by &apos; , &apos; ||| 0.2 0.2 0.6 0.2 0.2 0.6
&apos; , &apos; ||| character &apos; , &apos; ||| 0.6 0.2 0.2 0.6 0.2 0.2
&apos; , &apos; ||| characters &apos; , &apos; ||| 0.2 0.2 0.6 0.6 0.2 0.2
&apos; , &apos; ||| elements : characters &apos; , &apos; ||| 0.2 0.2 0.6 0.6 0.2 0.2
&apos; , &apos; ||| elements : strings ||| 0.428571 0.142857 0.428571 0.142857 0.142857 0.714286
&apos; , &apos; ||| elements : ||| 0.428571 0.142857 0.428571 0.142857 0.142857 0.714286
&apos; , &apos; ||| entries : ||| 0.2 0.2 0.6 0.2 0.2 0.6
&apos; , &apos; ||| equals , ||| 0.2 0.6 0.2 0.2 0.2 0.6
&apos; , &apos; ||| ext , ||| 0.2 0.2 0.6 0.2 0.2 0.6
&apos; , &apos; ||| field &apos; , &apos; ||| 0.2 0.2 0.6 0.6 0.2 0.2
&apos; , &apos; ||| for &apos; jul &apos; ||| 0.2 0.6 0.2 0.2 0.2 0.6
&apos; , &apos; ||| for &apos; jul ||| 0.2 0.6 0.2 0.2 0.2 0.6
&apos; , &apos; ||| for &apos; ||| 0.2 0.6 0.2 0.2 0.2 0.6
&apos; , &apos; ||| s &apos; , replace &apos; ||| 0.2 0.2 0.6 0.2 0.2 0.6
&apos; , &apos; ||| separated by &apos; , &apos; ||| 0.2 0.2 0.6 0.2 0.2 0.6
&apos; , &apos; ||| string &apos; , &apos; , substitute it ||| 0.6 0.2 0.2 0.6 0.2 0.2
&apos; , &apos; ||| string &apos; , &apos; , substitute ||| 0.6 0.2 0.2 0.2 0.2 0.6
&apos; , &apos; ||| string &apos; , &apos; , ||| 0.6 0.2 0.2 0.2 0.2 0.6
&apos; , &apos; ||| string &apos; , &apos; ||| 0.714286 0.142857 0.142857 0.428571 0.142857 0.428571
&apos; , &apos; ||| string , string &apos; ||| 0.6 0.2 0.2 0.6 0.2 0.2
&apos; , &apos; ||| string and an empty ||| 0.6 0.2 0.2 0.6 0.2 0.2
&apos; , &apos; ||| string for &apos; ||| 0.6 0.2 0.2 0.6 0.2 0.2
&apos; , &apos; ||| string separated by &apos; , &apos; ||| 0.2 0.2 0.6 0.2 0.2 0.6
&apos; , &apos; ||| string ||| 0.2 0.2 0.6 0.2 0.2 0.6
&apos; , &apos; ||| strings , &apos; ||| 0.2 0.2 0.6 0.2 0.6 0.2
&apos; , &apos; ||| strings , ||| 0.428571 0.142857 0.428571 0.142857 0.142857 0.714286
&apos; , &apos; ||| strings : ||| 0.2 0.2 0.6 0.2 0.2 0.6
&apos; , use ||| &apos; and use ||| 0.714286 0.142857 0.142857 0.714286 0.142857 0.142857
&apos; , ||| % s &apos; , replace ||| 0.2 0.2 0.6 0.6 0.2 0.2
&apos; , ||| % s &apos; , ||| 0.2 0.2 0.6 0.2 0.2 0.6
&apos; , ||| &apos; % s &apos; , replace ||| 0.2 0.2 0.6 0.6 0.2 0.2
&apos; , ||| &apos; % s &apos; , ||| 0.2 0.2 0.6 0.2 0.2 0.6
&apos; , ||| &apos; , and ||| 0.777778 0.111111 0.111111 0.777778 0.111111 0.111111
&apos; , ||| &apos; , convert ||| 0.6 0.2 0.2 0.2 0.2 0.6
&apos; , ||| &apos; , or ||| 0.6 0.2 0.2 0.6 0.2 0.2
&apos; , ||| &apos; , replace ||| 0.2 0.2 0.6 0.6 0.2 0.2
&apos; , ||| &apos; , string ||| 0.6 0.2 0.2 0.6 0.2 0.2
&apos; , ||| &apos; , substitute the result for ||| 0.6 0.2 0.2 0.2 0.2 0.6
&apos; , ||| &apos; , substitute the result ||| 0.714286 0.142857 0.142857 0.142857 0.142857 0.714286
&apos; , ||| &apos; , substitute the ||| 0.846154 0.0769231 0.0769231 0.538462 0.0769231 0.384615
&apos; , ||| &apos; , substitute ||| 0.846154 0.0769231 0.0769231 0.0769231 0.0769231 0.846154
&apos; , ||| &apos; , ||| 0.975691 0.00110497 0.0232044 0.781215 0.00110497 0.21768
&apos; , ||| &apos; and 12 for ||| 0.2 0.2 0.6 0.6 0.2 0.2
&apos; , ||| &apos; and 12 ||| 0.2 0.2 0.6 0.2 0.2 0.6
&apos; , ||| &apos; and bitwise OR performed with 2 ||| 0.6 0.2 0.2 0.2 0.2 0.6
&apos; , ||| &apos; and bitwise OR performed with ||| 0.6 0.2 0.2 0.2 0.2 0.6
&apos; , ||| &apos; and bitwise OR performed ||| 0.6 0.2 0.2 0.2 0.2 0.6
&apos; , ||| &apos; and bitwise OR ||| 0.6 0.2 0.2 0.2 0.2 0.6
&apos; , ||| &apos; and bitwise ||| 0.6 0.2 0.2 0.2 0.2 0.6
&apos; , ||| &apos; and previous result as the arguments ||| 0.6 0.2 0.2 0.2 0.2 0.6
&apos; , ||| &apos; and previous result as the ||| 0.6 0.2 0.2 0.2 0.2 0.6
&apos; , ||| &apos; and previous result as ||| 0.6 0.2 0.2 0.2 0.2 0.6
&apos; , ||| &apos; and previous result ||| 0.6 0.2 0.2 0.2 0.2 0.6
&apos; , ||| &apos; and previous ||| 0.777778 0.111111 0.111111 0.111111 0.111111 0.777778
&apos; , ||| &apos; and result of the ||| 0.6 0.2 0.2 0.6 0.2 0.2
&apos; , ||| &apos; and result of ||| 0.6 0.2 0.2 0.2 0.2 0.6
&apos; , ||| &apos; and result ||| 0.6 0.2 0.2 0.2 0.2 0.6
&apos; , ||| &apos; and return value ||| 0.6 0.2 0.2 0.2 0.2 0.6
&apos; , ||| &apos; and return ||| 0.6 0.2 0.2 0.2 0.2 0.6
&apos; , ||| &apos; and ||| 0.969231 0.00307692 0.0276923 0.895385 0.00307692 0.101538
&apos; , ||| &apos; append &apos; and ||| 0.2 0.2 0.6 0.6 0.2 0.2
&apos; , ||| &apos; attribute ||| 0.777778 0.111111 0.111111 0.111111 0.111111 0.777778
&apos; , ||| &apos; character , assign ||| 0.6 0.2 0.2 0.2 0.2 0.6
&apos; , ||| &apos; character , ||| 0.6 0.2 0.2 0.2 0.2 0.6
&apos; , ||| &apos; character or ||| 0.714286 0.142857 0.142857 0.714286 0.142857 0.142857
&apos; , ||| &apos; file in read mode , substitute ||| 0.6 0.2 0.2 0.2 0.2 0.6
&apos; , ||| &apos; file in read mode , ||| 0.6 0.2 0.2 0.2 0.2 0.6
&apos; , ||| &apos; for ||| 0.714286 0.142857 0.142857 0.428571 0.142857 0.428571
&apos; , ||| &apos; from the ||| 0.6 0.2 0.2 0.2 0.2 0.6
&apos; , ||| &apos; from ||| 0.6 0.2 0.2 0.2 0.2 0.6
&apos; , ||| &apos; in case insensitive mode , ||| 0.6 0.2 0.2 0.6 0.2 0.2
&apos; , ||| &apos; in string &apos; , ||| 0.2 0.2 0.6 0.6 0.2 0.2
&apos; , ||| &apos; in string ||| 0.6 0.2 0.2 0.2 0.2 0.6
&apos; , ||| &apos; in ||| 0.6 0.2 0.2 0.2 0.2 0.6
&apos; , ||| &apos; key , if it exists substitute ||| 0.931034 0.0344828 0.0344828 0.0344828 0.0344828 0.931034
&apos; , ||| &apos; key , if it exists ||| 0.935484 0.0322581 0.0322581 0.0322581 0.0322581 0.935484
&apos; , ||| &apos; key , if it ||| 0.942857 0.0285714 0.0285714 0.142857 0.0285714 0.828571
&apos; , ||| &apos; key , if ||| 0.948718 0.025641 0.025641 0.025641 0.025641 0.948718
&apos; , ||| &apos; key , ||| 0.948718 0.025641 0.025641 0.025641 0.025641 0.948718
&apos; , ||| &apos; key from kwargs dictionary and put ||| 0.6 0.2 0.2 0.2 0.2 0.6
&apos; , ||| &apos; key from kwargs dictionary and ||| 0.6 0.2 0.2 0.2 0.2 0.6
&apos; , ||| &apos; key from ||| 0.714286 0.142857 0.142857 0.142857 0.142857 0.714286
&apos; , ||| &apos; key of META dictionary ||| 0.6 0.2 0.2 0.2 0.2 0.6
&apos; , ||| &apos; key of META ||| 0.6 0.2 0.2 0.2 0.2 0.6
&apos; , ||| &apos; key of ||| 0.714286 0.142857 0.142857 0.142857 0.142857 0.714286
&apos; , ||| &apos; key ||| 0.894737 0.0526316 0.0526316 0.0526316 0.0526316 0.894737
&apos; , ||| &apos; of the ||| 0.6 0.2 0.2 0.2 0.2 0.6
&apos; , ||| &apos; of ||| 0.714286 0.142857 0.142857 0.142857 0.142857 0.714286
&apos; , ||| &apos; or with ||| 0.6 0.2 0.2 0.6 0.2 0.2
&apos; , ||| &apos; or ||| 0.948718 0.025641 0.025641 0.846154 0.025641 0.128205
&apos; , ||| &apos; string , ||| 0.6 0.2 0.2 0.2 0.2 0.6
&apos; , ||| &apos; string for ||| 0.6 0.2 0.2 0.6 0.2 0.2
&apos; , ||| &apos; with ||| 0.866667 0.0666667 0.0666667 0.866667 0.0666667 0.0666667
&apos; , ||| &apos; ||| 0.84127 0.015873 0.142857 0.0793651 0.015873 0.904762
&apos; , ||| * &apos; and ||| 0.2 0.2 0.6 0.6 0.2 0.2
&apos; , ||| , metavar as ||| 0.6 0.2 0.2 0.2 0.2 0.6
&apos; , ||| , metavar ||| 0.6 0.2 0.2 0.2 0.2 0.6
&apos; , ||| , substitute every occurrence of the whitespace ||| 0.2 0.2 0.6 0.2 0.2 0.6
&apos; , ||| , substitute every occurrence of the ||| 0.2 0.2 0.6 0.2 0.2 0.6
&apos; , ||| , substitute every occurrence of ||| 0.2 0.2 0.6 0.2 0.2 0.6
&apos; , ||| , substitute every occurrence ||| 0.2 0.2 0.6 0.2 0.2 0.6
&apos; , ||| , substitute every ||| 0.2 0.2 0.6 0.2 0.2 0.6
&apos; , ||| , substitute ||| 0.2 0.2 0.6 0.2 0.2 0.6
&apos; , ||| , ||| 0.126761 0.0422535 0.830986 0.0422535 0.0140845 0.943662
&apos; , ||| -e multiple times . &apos; and ||| 0.2 0.2 0.6 0.6 0.2 0.2
&apos; , ||| . &apos; and ||| 0.2 0.2 0.6 0.6 0.2 0.2
&apos; , ||| . &apos; ||| 0.142857 0.142857 0.714286 0.142857 0.142857 0.714286
&apos; , ||| 15 elements : strings ||| 0.6 0.2 0.2 0.2 0.2 0.6
&apos; , ||| 15 elements : ||| 0.6 0.2 0.2 0.2 0.2 0.6
&apos; , ||| 2 elements : characters &apos; , ||| 0.6 0.2 0.2 0.6 0.2 0.2
&apos; , ||| 3 ||| 0.142857 0.142857 0.714286 0.428571 0.142857 0.428571
&apos; , ||| 8 entries : ||| 0.2 0.2 0.6 0.2 0.2 0.6
&apos; , ||| : an empty string , ||| 0.2 0.2 0.6 0.6 0.2 0.2
&apos; , ||| : characters &apos; , ||| 0.2 0.2 0.6 0.6 0.2 0.2
&apos; , ||| : string ||| 0.2 0.2 0.6 0.2 0.2 0.6
&apos; , ||| : strings ||| 0.2 0.2 0.6 0.2 0.2 0.6
&apos; , ||| : ||| 0.128205 0.025641 0.846154 0.0769231 0.025641 0.897436
&apos; , ||| False and ||| 0.2 0.2 0.6 0.6 0.2 0.2
&apos; , ||| a comma , ||| 0.6 0.2 0.2 0.2 0.2 0.6
&apos; , ||| a string &apos; append &apos; and ||| 0.2 0.2 0.6 0.6 0.2 0.2
&apos; , ||| a string , ||| 0.2 0.2 0.6 0.2 0.2 0.6
&apos; , ||| a string separated by &apos; , ||| 0.2 0.2 0.6 0.6 0.2 0.2
&apos; , ||| an empty string , ||| 0.2 0.2 0.6 0.6 0.2 0.2
&apos; , ||| and ||| 0.176471 0.0588235 0.764706 0.411765 0.0588235 0.529412
&apos; , ||| append &apos; and ||| 0.2 0.2 0.6 0.6 0.2 0.2
&apos; , ||| arguments : an empty string , ||| 0.6 0.2 0.2 0.6 0.2 0.2
&apos; , ||| arguments : ||| 0.2 0.2 0.6 0.2 0.2 0.6
&apos; , ||| arguments ||| 0.111111 0.333333 0.555556 0.111111 0.111111 0.777778
&apos; , ||| as a string &apos; append &apos; and ||| 0.2 0.2 0.6 0.6 0.2 0.2
&apos; , ||| available choices . &apos; ||| 0.2 0.2 0.6 0.2 0.2 0.6
&apos; , ||| boolean False and ||| 0.2 0.2 0.6 0.6 0.2 0.2
&apos; , ||| by &apos; , ||| 0.2 0.2 0.6 0.6 0.2 0.2
&apos; , ||| character &apos; , ||| 0.6 0.2 0.2 0.6 0.2 0.2
&apos; , ||| characters &apos; , ||| 0.2 0.2 0.6 0.6 0.2 0.2
&apos; , ||| choices . &apos; ||| 0.2 0.2 0.6 0.2 0.2 0.6
&apos; , ||| elements : characters &apos; , ||| 0.2 0.2 0.6 0.6 0.2 0.2
&apos; , ||| elements : strings ||| 0.2 0.2 0.6 0.2 0.2 0.6
&apos; , ||| elements : ||| 0.555556 0.111111 0.333333 0.333333 0.111111 0.555556
&apos; , ||| empty and ||| 0.6 0.2 0.2 0.6 0.2 0.2
&apos; , ||| empty string , ||| 0.2 0.2 0.6 0.6 0.2 0.2
&apos; , ||| empty string if not and ||| 0.6 0.2 0.2 0.6 0.2 0.2
&apos; , ||| empty string ||| 0.6 0.2 0.2 0.2 0.2 0.6
&apos; , ||| entries : ||| 0.2 0.2 0.6 0.2 0.2 0.6
&apos; , ||| ext , ||| 0.2 0.2 0.6 0.2 0.2 0.6
&apos; , ||| field &apos; , ||| 0.2 0.2 0.6 0.6 0.2 0.2
&apos; , ||| for ||| 0.2 0.2 0.6 0.2 0.2 0.6
&apos; , ||| in string &apos; , ||| 0.2 0.2 0.6 0.6 0.2 0.2
&apos; , ||| into a string , ||| 0.2 0.2 0.6 0.2 0.2 0.6
&apos; , ||| mode ||| 0.6 0.2 0.2 0.2 0.2 0.6
&apos; , ||| multiple times . &apos; and ||| 0.2 0.2 0.6 0.6 0.2 0.2
&apos; , ||| or ||| 0.6 0.2 0.2 0.6 0.2 0.2
&apos; , ||| s &apos; , replace ||| 0.2 0.2 0.6 0.6 0.2 0.2
&apos; , ||| s &apos; , ||| 0.2 0.2 0.6 0.2 0.2 0.6
&apos; , ||| s &apos; in string &apos; , ||| 0.2 0.2 0.6 0.6 0.2 0.2
&apos; , ||| separated by &apos; , ||| 0.2 0.2 0.6 0.6 0.2 0.2
&apos; , ||| string &apos; , ||| 0.555556 0.111111 0.333333 0.777778 0.111111 0.111111
&apos; , ||| string &apos; append &apos; and ||| 0.2 0.2 0.6 0.6 0.2 0.2
&apos; , ||| string , ||| 0.878788 0.030303 0.0909091 0.636364 0.030303 0.333333
&apos; , ||| string and result of the ||| 0.6 0.2 0.2 0.6 0.2 0.2
&apos; , ||| string and result of ||| 0.6 0.2 0.2 0.2 0.2 0.6
&apos; , ||| string and result ||| 0.6 0.2 0.2 0.2 0.2 0.6
&apos; , ||| string and ||| 0.945946 0.027027 0.027027 0.891892 0.027027 0.0810811
&apos; , ||| string for ||| 0.6 0.2 0.2 0.6 0.2 0.2
&apos; , ||| string separated by &apos; , ||| 0.2 0.2 0.6 0.6 0.2 0.2
&apos; , ||| string ||| 0.142857 0.142857 0.714286 0.142857 0.142857 0.714286
&apos; , ||| strings , ||| 0.333333 0.111111 0.555556 0.333333 0.111111 0.555556
&apos; , ||| strings : ||| 0.2 0.2 0.6 0.2 0.2 0.6
&apos; , ||| the available choices . &apos; ||| 0.2 0.6 0.2 0.2 0.2 0.6
&apos; , ||| times . &apos; and ||| 0.2 0.2 0.6 0.6 0.2 0.2
&apos; , ||| until and ||| 0.2 0.2 0.6 0.2 0.2 0.6
&apos; , ||| use -e multiple times . &apos; and ||| 0.2 0.2 0.6 0.6 0.2 0.2
&apos; , ||| with &apos; % s &apos; , replace ||| 0.2 0.2 0.6 0.6 0.2 0.2
&apos; , ||| with &apos; % s &apos; , ||| 0.2 0.2 0.6 0.2 0.2 0.6
&apos; -&apos; , ||| &apos; -&apos; with ||| 0.6 0.2 0.2 0.6 0.2 0.2
&apos; -&apos; , ||| string &apos; -&apos; and ||| 0.6 0.2 0.2 0.6 0.2 0.2
&apos; -&apos; ||| &apos; -&apos; , otherwise ||| 0.714286 0.142857 0.142857 0.142857 0.142857 0.714286
&apos; -&apos; ||| &apos; -&apos; , ||| 0.714286 0.142857 0.142857 0.142857 0.142857 0.714286
&apos; -&apos; ||| &apos; -&apos; characters ||| 0.2 0.2 0.6 0.2 0.2 0.6
&apos; -&apos; ||| &apos; -&apos; in ||| 0.6 0.2 0.2 0.6 0.2 0.2
&apos; -&apos; ||| &apos; -&apos; to ||| 0.6 0.2 0.2 0.2 0.2 0.6
&apos; -&apos; ||| &apos; -&apos; ||| 0.741935 0.0322581 0.225806 0.548387 0.0967742 0.354839
&apos; -&apos; ||| &apos; ||| 0.6 0.2 0.2 0.2 0.2 0.6
&apos; -&apos; ||| character &apos; -&apos; in ||| 0.6 0.2 0.2 0.2 0.2 0.6
&apos; -&apos; ||| character &apos; -&apos; ||| 0.428571 0.142857 0.428571 0.714286 0.142857 0.142857
&apos; -&apos; ||| string &apos; -&apos; . ||| 0.6 0.2 0.2 0.6 0.2 0.2
&apos; -&apos; ||| string &apos; -&apos; ||| 0.777778 0.111111 0.111111 0.555556 0.111111 0.333333
&apos; -&apos; ||| symbol &apos; -&apos; , use new string ||| 0.2 0.2 0.6 0.6 0.2 0.2
&apos; -&apos; ||| symbol &apos; -&apos; , use new ||| 0.2 0.2 0.6 0.2 0.2 0.6
&apos; -&apos; ||| symbol &apos; -&apos; , use ||| 0.2 0.2 0.6 0.2 0.2 0.6
&apos; -&apos; ||| symbol &apos; -&apos; , ||| 0.2 0.2 0.6 0.2 0.2 0.6
&apos; -&apos; ||| symbol &apos; -&apos; ||| 0.2 0.2 0.6 0.2 0.2 0.6
&apos; -&apos; ||| with symbol &apos; -&apos; , use new ||| 0.2 0.2 0.6 0.2 0.2 0.6
&apos; -&apos; ||| with symbol &apos; -&apos; , use ||| 0.2 0.2 0.6 0.2 0.2 0.6
&apos; -&apos; ||| with symbol &apos; -&apos; , ||| 0.2 0.2 0.6 0.2 0.2 0.6
&apos; -&apos; ||| with symbol &apos; -&apos; ||| 0.2 0.2 0.6 0.2 0.2 0.6
&apos; . ||| % s &apos; ||| 0.6 0.2 0.2 0.2 0.2 0.6
&apos; . ||| &apos; % s ||| 0.2 0.2 0.6 0.2 0.2 0.6
&apos; . ||| &apos; % ||| 0.2 0.2 0.6 0.2 0.2 0.6
&apos; . ||| &apos; , format ||| 0.6 0.2 0.2 0.2 0.2 0.6
&apos; . ||| &apos; , return the result . ||| 0.6 0.2 0.2 0.2 0.2 0.6
&apos; . ||| &apos; , return the result ||| 0.6 0.2 0.2 0.2 0.2 0.6
&apos; . ||| &apos; , return the ||| 0.6 0.2 0.2 0.2 0.2 0.6
&apos; . ||| &apos; , return ||| 0.6 0.2 0.2 0.2 0.2 0.6
&apos; . ||| &apos; , substitute it for ||| 0.6 0.2 0.2 0.2 0.2 0.6
&apos; . ||| &apos; , ||| 0.818182 0.0909091 0.0909091 0.0909091 0.0909091 0.818182
&apos; . ||| &apos; . ||| 0.964912 0.0175439 0.0175439 0.859649 0.0175439 0.122807
&apos; . ||| &apos; .&apos; character ||| 0.2 0.2 0.6 0.2 0.2 0.6
&apos; . ||| &apos; .&apos; ||| 0.142857 0.142857 0.714286 0.428571 0.142857 0.428571
&apos; . ||| &apos; with ||| 0.2 0.2 0.6 0.6 0.2 0.2
&apos; . ||| &apos; ||| 0.578947 0.0526316 0.368421 0.0526316 0.0526316 0.894737
&apos; . ||| , substitute the ||| 0.6 0.2 0.2 0.2 0.2 0.6
&apos; . ||| , substitute ||| 0.6 0.2 0.2 0.2 0.2 0.6
&apos; . ||| , ||| 0.428571 0.142857 0.428571 0.142857 0.142857 0.714286
&apos; . ||| . ||| 0.111111 0.111111 0.777778 0.111111 0.111111 0.777778
&apos; . ||| T. ||| 0.2 0.2 0.6 0.6 0.2 0.2
&apos; . ||| _ headers. ||| 0.2 0.2 0.6 0.6 0.2 0.2
&apos; . ||| a list for T. ||| 0.2 0.2 0.6 0.6 0.2 0.2
&apos; . ||| a string , ||| 0.777778 0.111111 0.111111 0.111111 0.111111 0.777778
&apos; . ||| additional _ headers. ||| 0.2 0.2 0.6 0.6 0.2 0.2
&apos; . ||| an ||| 0.2 0.2 0.6 0.2 0.2 0.6
&apos; . ||| and appended to &apos; .&apos; character ||| 0.2 0.2 0.6 0.2 0.2 0.6
&apos; . ||| and appended to &apos; .&apos; ||| 0.2 0.2 0.6 0.2 0.2 0.6
&apos; . ||| and appended to &apos; ||| 0.2 0.2 0.6 0.2 0.2 0.6
&apos; . ||| and ||| 0.2 0.2 0.6 0.6 0.2 0.2
&apos; . ||| appended to &apos; .&apos; character ||| 0.2 0.2 0.6 0.2 0.2 0.6
&apos; . ||| appended to &apos; .&apos; ||| 0.2 0.2 0.6 0.2 0.2 0.6
&apos; . ||| appended to &apos; ||| 0.2 0.2 0.6 0.2 0.2 0.6
&apos; . ||| call ||| 0.428571 0.142857 0.428571 0.142857 0.142857 0.714286
&apos; . ||| for T. ||| 0.2 0.2 0.6 0.6 0.2 0.2
&apos; . ||| for additional _ headers. ||| 0.2 0.2 0.6 0.6 0.2 0.2
&apos; . ||| for ||| 0.142857 0.142857 0.714286 0.142857 0.142857 0.714286
&apos; . ||| headers. ||| 0.2 0.2 0.6 0.6 0.2 0.2
&apos; . ||| in a list for T. ||| 0.2 0.2 0.6 0.6 0.2 0.2
&apos; . ||| into a ||| 0.2 0.6 0.2 0.2 0.6 0.2
&apos; . ||| into ||| 0.2 0.6 0.2 0.2 0.2 0.6
&apos; . ||| it . ||| 0.111111 0.111111 0.777778 0.111111 0.111111 0.777778
&apos; . ||| list for T. ||| 0.2 0.2 0.6 0.6 0.2 0.2
&apos; . ||| list for additional _ headers. ||| 0.2 0.2 0.6 0.6 0.2 0.2
&apos; . ||| result for ||| 0.142857 0.142857 0.714286 0.142857 0.142857 0.714286
&apos; . ||| results in a list for T. ||| 0.2 0.2 0.6 0.6 0.2 0.2
&apos; . ||| s &apos; with ||| 0.2 0.2 0.6 0.6 0.2 0.2
&apos; . ||| s &apos; ||| 0.2 0.2 0.6 0.2 0.2 0.6
&apos; . ||| string &apos; . ||| 0.428571 0.142857 0.428571 0.714286 0.142857 0.142857
&apos; . ||| string , separated by ||| 0.714286 0.142857 0.142857 0.142857 0.142857 0.714286
&apos; . ||| string , separated ||| 0.777778 0.111111 0.111111 0.111111 0.111111 0.777778
&apos; . ||| string , substitute it for ||| 0.6 0.2 0.2 0.2 0.2 0.6
&apos; . ||| string , ||| 0.652174 0.0434783 0.304348 0.217391 0.0434783 0.73913
&apos; . ||| string ||| 0.866667 0.0666667 0.0666667 0.2 0.0666667 0.733333
&apos; . ||| substitute the result for ||| 0.428571 0.142857 0.428571 0.142857 0.142857 0.714286
&apos; . ||| substitute this list for additional _ headers. ||| 0.2 0.2 0.6 0.6 0.2 0.2
&apos; . ||| the list ||| 0.2 0.2 0.6 0.2 0.2 0.6
&apos; . ||| the method ||| 0.2 0.2 0.6 0.2 0.2 0.6
&apos; . ||| the result for ||| 0.142857 0.142857 0.714286 0.142857 0.142857 0.714286
&apos; . ||| the results in a list for T. ||| 0.2 0.2 0.6 0.6 0.2 0.2
&apos; . ||| the string &apos; . ||| 0.6 0.2 0.2 0.6 0.2 0.2
&apos; . ||| the ||| 0.142857 0.142857 0.714286 0.142857 0.142857 0.714286
&apos; . ||| this list for additional _ headers. ||| 0.2 0.2 0.6 0.6 0.2 0.2
&apos; . ||| to &apos; .&apos; character ||| 0.2 0.2 0.6 0.2 0.2 0.6
&apos; . ||| to &apos; .&apos; ||| 0.2 0.2 0.6 0.2 0.2 0.6
&apos; . ||| to &apos; ||| 0.2 0.2 0.6 0.2 0.2 0.6
&apos; . ||| where &apos; % s ||| 0.6 0.2 0.2 0.2 0.2 0.6
&apos; . ||| where &apos; % ||| 0.6 0.2 0.2 0.2 0.2 0.6
&apos; . ||| where &apos; ||| 0.6 0.2 0.2 0.2 0.2 0.6
&apos; .&apos; , ||| &apos; .&apos; , ||| 0.454545 0.0909091 0.454545 0.636364 0.0909091 0.272727
&apos; .&apos; , ||| &apos; .&apos; character , ||| 0.6 0.2 0.2 0.6 0.2 0.2
&apos; .&apos; , ||| &apos; .&apos; key , if it exists ||| 0.2 0.2 0.6 0.2 0.2 0.6
&apos; .&apos; , ||| &apos; .&apos; key , if it ||| 0.2 0.2 0.6 0.2 0.2 0.6
&apos; .&apos; , ||| &apos; .&apos; key , if ||| 0.2 0.2 0.6 0.2 0.2 0.6
&apos; .&apos; , ||| &apos; .&apos; key , ||| 0.2 0.2 0.6 0.2 0.2 0.6
&apos; .&apos; , ||| 7 elements : &apos; .&apos; , ||| 0.6 0.2 0.2 0.6 0.2 0.2
&apos; .&apos; , ||| : &apos; .&apos; , ||| 0.2 0.2 0.6 0.6 0.2 0.2
&apos; .&apos; , ||| arguments : character &apos; .&apos; and ||| 0.6 0.2 0.2 0.6 0.2 0.2
&apos; .&apos; , ||| elements : &apos; .&apos; , ||| 0.2 0.2 0.6 0.6 0.2 0.2
&apos; .&apos; , ||| separator &apos; .&apos; , ||| 0.2 0.2 0.6 0.2 0.2 0.6
&apos; .&apos; , ||| string &apos; .&apos; , ||| 0.6 0.2 0.2 0.6 0.2 0.2
&apos; .&apos; , ||| the separator &apos; .&apos; , ||| 0.6 0.2 0.2 0.2 0.2 0.6
&apos; .&apos; ||| &apos; .&apos; , substitute it ||| 0.2 0.2 0.6 0.2 0.6 0.2
&apos; .&apos; ||| &apos; .&apos; , substitute the result ||| 0.2 0.2 0.6 0.2 0.6 0.2
&apos; .&apos; ||| &apos; .&apos; , substitute the ||| 0.2 0.2 0.6 0.2 0.2 0.6
&apos; .&apos; ||| &apos; .&apos; , substitute ||| 0.142857 0.142857 0.714286 0.142857 0.142857 0.714286
&apos; .&apos; ||| &apos; .&apos; , ||| 0.142857 0.142857 0.714286 0.142857 0.142857 0.714286
&apos; .&apos; ||| &apos; .&apos; character ||| 0.714286 0.142857 0.142857 0.714286 0.142857 0.142857
&apos; .&apos; ||| &apos; .&apos; in ip _ str ||| 0.6 0.2 0.2 0.6 0.2 0.2
&apos; .&apos; ||| &apos; .&apos; in ip _ ||| 0.6 0.2 0.2 0.2 0.2 0.6
&apos; .&apos; ||| &apos; .&apos; in ip ||| 0.6 0.2 0.2 0.2 0.2 0.6
&apos; .&apos; ||| &apos; .&apos; in ||| 0.714286 0.142857 0.142857 0.142857 0.142857 0.714286
&apos; .&apos; ||| &apos; .&apos; key ||| 0.2 0.2 0.6 0.6 0.2 0.2
&apos; .&apos; ||| &apos; .&apos; value ||| 0.6 0.2 0.2 0.2 0.2 0.6
&apos; .&apos; ||| &apos; .&apos; ||| 0.770492 0.0163934 0.213115 0.737705 0.0163934 0.245902
&apos; .&apos; ||| 7 elements : &apos; .&apos; ||| 0.6 0.2 0.2 0.6 0.2 0.2
&apos; .&apos; ||| : &apos; .&apos; ||| 0.2 0.2 0.6 0.6 0.2 0.2
&apos; .&apos; ||| by character &apos; .&apos; , substitute ||| 0.2 0.2 0.6 0.2 0.2 0.6
&apos; .&apos; ||| by character &apos; .&apos; , ||| 0.2 0.2 0.6 0.2 0.2 0.6
&apos; .&apos; ||| by character &apos; .&apos; ||| 0.142857 0.142857 0.714286 0.428571 0.142857 0.428571
&apos; .&apos; ||| character &apos; .&apos; , substitute ||| 0.2 0.2 0.6 0.2 0.2 0.6
&apos; .&apos; ||| character &apos; .&apos; , ||| 0.2 0.2 0.6 0.2 0.2 0.6
&apos; .&apos; ||| character &apos; .&apos; ||| 0.384615 0.230769 0.384615 0.538462 0.0769231 0.384615
&apos; .&apos; ||| elements : &apos; .&apos; ||| 0.2 0.2 0.6 0.6 0.2 0.2
&apos; .&apos; ||| separated by character &apos; .&apos; , substitute ||| 0.2 0.2 0.6 0.2 0.2 0.6
&apos; .&apos; ||| separated by character &apos; .&apos; , ||| 0.2 0.2 0.6 0.2 0.2 0.6
&apos; .&apos; ||| separated by character &apos; .&apos; ||| 0.142857 0.142857 0.714286 0.428571 0.142857 0.428571
&apos; .&apos; ||| separated with &apos; .&apos; , substitute it ||| 0.2 0.2 0.6 0.2 0.6 0.2
&apos; .&apos; ||| separated with &apos; .&apos; , substitute ||| 0.2 0.2 0.6 0.2 0.2 0.6
&apos; .&apos; ||| separated with &apos; .&apos; , ||| 0.2 0.2 0.6 0.2 0.2 0.6
&apos; .&apos; ||| separated with &apos; .&apos; ||| 0.2 0.2 0.6 0.2 0.2 0.6
&apos; .&apos; ||| separator &apos; .&apos; ||| 0.2 0.2 0.6 0.6 0.2 0.2
&apos; .&apos; ||| string &apos; .&apos; ||| 0.846154 0.0769231 0.0769231 0.846154 0.0769231 0.0769231
&apos; .&apos; ||| string ||| 0.6 0.2 0.2 0.2 0.2 0.6
&apos; .&apos; ||| the separator &apos; .&apos; ||| 0.6 0.2 0.2 0.6 0.2 0.2
&apos; .&apos; ||| with &apos; .&apos; , substitute it ||| 0.2 0.2 0.6 0.2 0.6 0.2
&apos; .&apos; ||| with &apos; .&apos; , substitute ||| 0.2 0.2 0.6 0.2 0.2 0.6
&apos; .&apos; ||| with &apos; .&apos; , ||| 0.2 0.2 0.6 0.2 0.2 0.6
&apos; .&apos; ||| with &apos; .&apos; ||| 0.2 0.2 0.6 0.2 0.2 0.6
&apos; : &apos; , ||| &apos; : &apos; , convert ||| 0.2 0.2 0.6 0.2 0.2 0.6
&apos; : &apos; , ||| &apos; : &apos; , substitute the result ||| 0.6 0.2 0.2 0.2 0.2 0.6
&apos; : &apos; , ||| &apos; : &apos; , substitute the ||| 0.428571 0.142857 0.428571 0.428571 0.142857 0.428571
&apos; : &apos; , ||| &apos; : &apos; , substitute ||| 0.428571 0.142857 0.428571 0.142857 0.142857 0.714286
&apos; : &apos; , ||| &apos; : &apos; , ||| 0.454545 0.0909091 0.454545 0.272727 0.0909091 0.636364
&apos; : &apos; , ||| &apos; : &apos; and ||| 0.6 0.2 0.2 0.6 0.2 0.2
&apos; : &apos; , ||| character &apos; : &apos; , convert ||| 0.2 0.6 0.2 0.2 0.2 0.6
&apos; : &apos; , ||| character &apos; : &apos; , ||| 0.2 0.6 0.2 0.2 0.2 0.6
&apos; : &apos; ||| &apos; , &apos; ||| 0.777778 0.111111 0.111111 0.777778 0.111111 0.111111
&apos; : &apos; ||| &apos; , 2 for ||| 0.6 0.2 0.2 0.2 0.2 0.6
&apos; : &apos; ||| &apos; , 2 ||| 0.6 0.2 0.2 0.2 0.2 0.6
&apos; : &apos; ||| &apos; , empty ||| 0.6 0.2 0.2 0.6 0.2 0.2
&apos; : &apos; ||| &apos; , ||| 0.866667 0.0666667 0.0666667 0.466667 0.0666667 0.466667
&apos; : &apos; ||| &apos; : &apos; , return it . ||| 0.2 0.2 0.6 0.2 0.2 0.6
&apos; : &apos; ||| &apos; : &apos; , return it ||| 0.2 0.2 0.6 0.2 0.2 0.6
&apos; : &apos; ||| &apos; : &apos; , return ||| 0.2 0.2 0.6 0.2 0.2 0.6
&apos; : &apos; ||| &apos; : &apos; , substitute it for ||| 0.2 0.2 0.6 0.2 0.2 0.6
&apos; : &apos; ||| &apos; : &apos; , substitute it ||| 0.2 0.2 0.6 0.2 0.2 0.6
&apos; : &apos; ||| &apos; : &apos; , substitute ||| 0.2 0.2 0.6 0.2 0.2 0.6
&apos; : &apos; ||| &apos; : &apos; , ||| 0.111111 0.111111 0.777778 0.111111 0.111111 0.777778
&apos; : &apos; ||| &apos; : &apos; in ||| 0.714286 0.142857 0.142857 0.142857 0.142857 0.714286
&apos; : &apos; ||| &apos; : &apos; ||| 0.773585 0.0188679 0.207547 0.849057 0.0188679 0.132075
&apos; : &apos; ||| &apos; : , ||| 0.6 0.2 0.2 0.2 0.2 0.6
&apos; : &apos; ||| &apos; : ||| 0.6 0.2 0.2 0.6 0.2 0.2
&apos; : &apos; ||| , ||| 0.2 0.2 0.6 0.6 0.2 0.2
&apos; : &apos; ||| : &apos; ||| 0.2 0.2 0.6 0.6 0.2 0.2
&apos; : &apos; ||| : string &apos; ||| 0.2 0.2 0.6 0.6 0.2 0.2
&apos; : &apos; ||| character &apos; : &apos; , ||| 0.2 0.2 0.6 0.2 0.2 0.6
&apos; : &apos; ||| character &apos; : &apos; ||| 0.454545 0.0909091 0.454545 0.818182 0.0909091 0.0909091
&apos; : &apos; ||| elements : &apos; ||| 0.6 0.2 0.2 0.6 0.2 0.2
&apos; : &apos; ||| entries : string &apos; ||| 0.2 0.2 0.6 0.6 0.2 0.2
&apos; : &apos; ||| initial entries : string &apos; ||| 0.6 0.2 0.2 0.6 0.2 0.2
&apos; : &apos; ||| separated with &apos; : &apos; , return ||| 0.2 0.2 0.6 0.2 0.2 0.6
&apos; : &apos; ||| separated with &apos; : &apos; , ||| 0.2 0.2 0.6 0.2 0.2 0.6
&apos; : &apos; ||| string &apos; : &apos; . ||| 0.6 0.2 0.2 0.6 0.2 0.2
&apos; : &apos; ||| string &apos; : &apos; ||| 0.714286 0.142857 0.142857 0.428571 0.142857 0.428571
&apos; : &apos; ||| string separated with &apos; : &apos; , ||| 0.2 0.2 0.6 0.2 0.2 0.6
&apos; : &apos; ||| with &apos; : &apos; , return it ||| 0.2 0.2 0.6 0.2 0.2 0.6
&apos; : &apos; ||| with &apos; : &apos; , return ||| 0.2 0.2 0.6 0.2 0.2 0.6
&apos; : &apos; ||| with &apos; : &apos; , ||| 0.2 0.2 0.6 0.2 0.2 0.6
&apos; : _ ( &apos; ||| _ with an argument , ||| 0.2 0.2 0.6 0.2 0.2 0.6
&apos; : _ ( &apos; ||| function _ with an argument , ||| 0.2 0.2 0.6 0.2 0.2 0.6
&apos; : _ ( &apos; ||| of ||| 0.6 0.2 0.2 0.2 0.2 0.6
&apos; : _ ( &apos; ||| the function _ with an argument , ||| 0.2 0.2 0.6 0.2 0.2 0.6
&apos; : _ ( &apos; ||| with an argument string , ||| 0.6 0.2 0.2 0.2 0.2 0.6
&apos; : _ ( &apos; ||| with ||| 0.428571 0.142857 0.428571 0.142857 0.142857 0.714286
&apos; : _ ( ||| _ with an argument , ||| 0.2 0.2 0.6 0.2 0.2 0.6
&apos; : _ ( ||| function _ with an argument , ||| 0.2 0.2 0.6 0.2 0.2 0.6
&apos; : _ ( ||| of ||| 0.428571 0.142857 0.428571 0.142857 0.142857 0.714286
&apos; : _ ( ||| the function _ with an argument , ||| 0.2 0.2 0.6 0.2 0.2 0.6
&apos; : _ ( ||| value of ||| 0.2 0.2 0.6 0.2 0.2 0.6
&apos; : _ ( ||| with an argument string , ||| 0.6 0.2 0.2 0.2 0.2 0.6
&apos; : _ ( ||| with ||| 0.333333 0.111111 0.555556 0.111111 0.111111 0.777778
&apos; : _ ||| : return ||| 0.2 0.2 0.6 0.2 0.2 0.6
&apos; : _ ||| : ||| 0.2 0.2 0.6 0.2 0.2 0.6
&apos; : _ ||| _ called with an argument string , ||| 0.2 0.2 0.6 0.2 0.2 0.6
&apos; : _ ||| _ called with an argument ||| 0.2 0.2 0.6 0.2 0.2 0.6
&apos; : _ ||| _ called with an ||| 0.2 0.2 0.6 0.2 0.2 0.6
&apos; : _ ||| _ called with ||| 0.2 0.2 0.6 0.2 0.2 0.6
&apos; : _ ||| _ called ||| 0.2 0.2 0.6 0.2 0.2 0.6
&apos; : _ ||| _ ||| 0.111111 0.111111 0.777778 0.111111 0.111111 0.777778
&apos; : _ ||| an argument string , ||| 0.2 0.6 0.2 0.2 0.2 0.6
&apos; : _ ||| argument string , ||| 0.2 0.2 0.6 0.2 0.2 0.6
&apos; : _ ||| string , ||| 0.142857 0.142857 0.714286 0.142857 0.142857 0.714286
&apos; : ||| &apos; , 2 for ||| 0.6 0.2 0.2 0.2 0.2 0.6
&apos; : ||| &apos; , 2 ||| 0.6 0.2 0.2 0.2 0.2 0.6
