\data\
ngram 1=7423
ngram 2=40301
ngram 3=80044

\1-grams:
-4.6296687	<unk>	0
0	<s>	-1.3003758
-1.991011	</s>	0
-1.9059652	from	-0.49457315
-3.6304173	threading	-0.33112076
-2.3418255	import	-0.17062195
-3.6304173	local	-0.26124653
-1.997391	into	-1.1972363
-3.199826	default	-0.36324847
-2.8312488	name	-0.41472188
-3.6790557	space	-0.14229266
-1.4945786	.	-1.239155
-3.0682728	module	-0.23531912
-4.068959	warnings	-0.16958478
-4.4878917	django.conf	-0.12500647
-3.4769683	settings	-0.24219319
-4.31458	django.core	-0.12500647
-4.31458	signals	-0.1250065
-4.4878917	django.core.cache.backends.base	-0.12500647
-4.068959	InvalidCacheBackendError	-0.12500647
-1.3482523	,	-0.71462566
-4.2182107	CacheKeyWarning	-0.1250065
-1.7140915	and	-0.39374685
-3.7965379	BaseCache	-0.16654895
-4.31458	django.core.exceptions	-0.21926783
-3.6304173	ImproperlyConfigured	-0.17634375
-4.4878917	django.utils.deprecation	-0.12500647
-3.8698447	RemovedInDjango19Warning	-0.1975731
-4.4878917	django.utils.module	-0.12500647
-1.359695	_	-0.4595577
-4.2182107	loading	-0.1250065
-2.6636136	string	-0.51385194
-2.9575574	all	-0.39849573
-1.5661246	is	-1.1800442
-2.7961712	an	-0.28990394
-2.5505557	list	-0.46348682
-3.6304173	containing	-0.2141918
-3.6304173	6	-0.21267462
-2.5505557	elements	-0.6337628
-2.3562682	:	-0.28021136
-1.500679	&apos;	-0.5283353
-3.0558417	get	-0.34425658
-3.1514106	cache	-0.42756242
-3.5469506	DEFAULT	-0.8845041
-4.4878917	CACHE	-0.12500647
-4.4878917	ALIAS	-0.12500647
-4.4878917	&apos;CacheKeyWarning	-0.12500647
-2.6165857	a	-0.32923532
-2.299023	if	-0.222628
-3.0437565	not	-0.18374762
-3.7338364	contained	-0.4166095
-2.1559324	in	-0.32949784
-4.2182107	settings.CACHES	-0.12500647
-3.2353878	raise	-0.4421646
-2.6121514	exception	-0.65678257
-1.4996563	with	-0.7730881
-2.1119437	&quot;	-0.39941156
-4.2182107	You	-0.14425653
-2.967442	must	-0.6145405
-2.824003	define	-0.61593246
-2.408205	%	-0.7331024
-3.1218941	s	-0.26994118
-2.0823002	as	-0.69128597
-2.987913	argument	-0.17176796
-3.7965379	replaced	-0.3798571
-2.809864	converted	-1.2561481
-2.3120894	the	-0.27771106
-2.3919618	function	-0.22933438
-3.5105512	backend	-0.2838626
-2.3418255	dictionary	-0.6805661
-3.9580894	pair	-0.14991698
-2.408205	of	-0.25769132
-3.254324	kwargs	-0.4336516
-2.9291859	arguments	-0.2677741
-2.436705	call	-0.7922287
-4.2182107	warnings.warn	-0.18552251
-4.2182107	deprecated	-0.17387372
-4.31458	favor	-0.21926783
-3.7965379	caches	-0.15696628
-4.31458	stacklevel	-0.18552251
-2.0915146	set	-0.8973321
-2.0682044	to	-0.34547594
-3.1514106	2	-0.23693174
-4.2182107	arguments.	-0.20772557
-3.4457967	create	-0.2902459
-2.8856664	substitute	-0.16511545
-2.8940284	result	-0.5064577
-1.7599459	for	-0.29795158
-4.2182107	signals.request	-0.28244412
-4.4878917	finished.connect	-0.12500647
-4.31458	cache.close.	-0.21926783
-2.6165857	return	-0.2480208
-3.2741234	try	-0.78020644
-2.6077616	value	-0.5793636
-3.217243	under	-0.4278263
-2.473574	key	-0.6568842
-4.2182107	conf	-0.16958478
-3.9580894	KeyError	-0.19289571
-4.2182107	caught	-0.25606096
-3.7965379	ImportError	-0.19289571
-3.3894563	renamed	-0.43546066
-3.2741234	e	-0.3447997
-4.31458	Could	-0.21926783
-3.6304173	find	-0.21365306
-3.4457967	replace	-0.2824991
-3.7965379	respectively	-0.2124895
-3.3166554	remove	-0.23993784
-4.4878917	LOCATION	-0.12500647
-3.9580894	put	-0.15962319
-2.7575064	it	-0.36045897
-3.5866818	location	-0.21796015
-2.5544012	or	-0.20038384
-3.0558417	use	-0.27977017
-3.1514106	empty	-0.4054885
-2.9985218	doesnt	-0.5434108
-3.0205505	exists	-0.5284244
-3.3395927	params	-0.30026755
-4.4878917	conf.copy	-0.12500647
-4.31458	params.update	-0.21926783
-4.31458	BACKEND	-0.1250065
-3.3395927	cls	-0.41081628
-4.4878917	aise	-0.12500647
-3.7338364	evaluate	-0.24820083
-3.4457967	derive	-0.5135195
-2.2083526	class	-0.3313139
-4.31458	CacheHandler	-0.12500647
-2.5864556	object	-0.49534565
-2.4396608	base	-0.8651178
-4.068959	init	-0.33433092
-2.2503657	method	-0.21321692
-2.8774624	self	-0.5488629
-4.4878917	getitem	-0.12500647
-3.8698447	alias	-0.17634375
-4.4878917	caches.caches	-0.12500647
-4.2182107	except	-0.12500647
-3.8698447	AttributeError	-0.28472525
-3.7965379	do	-0.20554398
-4.2182107	nothing	-0.23128513
-4.4878917	setting.CACHES	-0.12500647
-3.4457967	config	-0.30808586
-4.4878917	reuturn	-0.12500647
-2.9291859	attribute	-0.51420987
-3.294869	otherwise	-0.26816356
-3.1218941	values	-0.37505198
-2.809864	on	-0.5924394
-4.31458	DefaultCacheProxy	-0.12500647
-4.068959	getattr	-0.16958478
-4.4878917	setattr	-0.12500647
-4.4878917	delattr	-0.12500647
-3.5105512	delete	-0.19633904
-3.5105512	contains	-0.180556
-3.1364017	boolean	-0.53660107
-3.5866818	True	-0.3077803
-3.4769683	False	-0.33941332
-4.4878917	eq	-0.12500647
-3.4457967	other	-0.33504006
-2.4609334	equals	-0.69558036
-4.4878917	ne	-0.12500647
-3.4769683	equal	-0.4393739
-3.5105512	close	-0.21889885
-3.4457967	every	-0.13840479
-4.4878917	caches.all.	-0.12500647
-4.31458	future	-0.12500647
-3.5105512	unicode	-0.2890103
-4.31458	literals	-0.12500647
-3.4769683	time	-0.39812613
-4.2182107	DjangoRuntimeWarning	-0.1250065
-4.068959	TIMEOUT	-0.17141993
-3.1830807	instance	-0.39760166
-4.068959	memcache	-0.16958478
-4.068959	MAX	-0.40738285
-3.8698447	KEY	-0.16598846
-4.31458	LENGTH	-0.12500647
-3.0093966	integer	-0.37927383
-4.4878917	250	-0.12500647
-3.254324	func	-0.36629105
-3.3166554	3	-0.2848693
-3.363809	prefix	-0.3337769
-3.4769683	version	-0.20196186
-3.363809	convert	-0.16898854
-3.166957	strings	-0.4359377
-4.068959	concatenate	-0.13645382
-3.5469506	them	-0.19537894
-3.0810704	character	-0.44753844
-4.2182107	delimiter	-0.16029553
-3.1514106	None	-0.4411916
-3.0093966	type	-0.3686644
-3.6304173	callable	-0.21777366
-4.068959	initialization	-0.33433092
-4.31458	params.get	-0.16958478
-4.31458	300	-0.1250065
-3.5105512	timeout	-0.22572874
-3.3894563	previous	-0.25755584
-3.5866818	ValueError	-0.39218786
-3.7965379	TypeError	-0.1949625
-3.5105512	exceptions	-0.5154454
-3.9580894	occurred	-0.33524218
-3.5469506	self.default	-0.8845041
-4.31458	OPTIONS	-0.12500647
-3.254324	options	-0.3550837
-4.4878917	options.get	-0.12500647
-4.4878917	ENTRIES	-0.12500647
-3.3395927	max	-0.55331725
-3.363809	entries	-0.47238395
-4.4878917	CULL	-0.12500647
-4.4878917	FREQUENCY	-0.12500647
-3.9580894	cull	-0.3215686
-4.4878917	frequency	-0.1250065
-4.4878917	PREFIX	-0.1250065
-4.068959	wit	-0.12500647
-4.2182107	VERSION	-0.1250065
-3.166957	1	-0.29756916
-4.4878917	self.version.	-0.12500647
-4.4878917	FUNCTION	-0.12500647
-3.9580894	self.key	-0.25606096
-4.068959	else	-0.12500647
-3.3395927	0	-0.29053923
-4.4878917	-1	-0.1250065
-4.4878917	timeouts	-0.12500647
-3.4769683	sum	-0.25289088
-4.2182107	time.time	-0.1250065
-3.4769683	make	-0.3554912
-4.4878917	self.version	-0.12500647
-3.0682728	new	-0.43667924
-3.363809	add	-0.21020277
-3.7965379	5	-0.23873651
-3.2353878	defaulting	-1.1855341
-4.4878917	docsring	-0.12500647
-3.7965379	NotImplementedError	-0.2885734
-4.4878917	subclasses	-0.12500647
-4.2182107	provide	-0.15421125
-2.376304	(	-0.43469012
-2.5661461	)	-0.5408086
-3.4769683	4	-0.22315794
-4.31458	many	-0.12500647
-3.3395927	keys	-0.26386556
-3.166957	d	-0.27809373
-3.1514106	k	-0.35308018
-4.068959	self.get	-0.19662985
-3.294869	val	-0.34628326
-2.68395	has	-0.75987214
-4.4878917	incr	-0.12500647
-3.7338364	delta	-0.1949625
-4.4878917	Key	-0.12500647
-3.4457967	found	-0.25039554
-3.8698447	where	-0.21717744
-4.2182107	substituted	-0.2124895
-3.6304173	together	-0.4184786
-4.31458	self.set	-0.1250065
-4.4878917	decr	-0.12500647
-4.31458	self.incr	-0.12500647
-3.5866818	negative	-0.15800391
-4.2182107	private	-0.16958478
-4.31458	self.has	-0.21926783
-2.977557	data	-0.39847007
-4.31458	data.items	-0.1250065
-3.6790557	clear	-0.22540607
-3.4167135	validate	-0.6489275
-3.0205505	length	-0.48798257
-3.7965379	greater	-0.23372902
-3.5866818	than	-0.1968339
-4.31458	MEMCACHE	-0.21926783
-4.31458	Cache	-0.1250065
-3.4167135	will	-0.3687928
-4.31458	cause	-0.12500647
-3.217243	errors	-0.2894458
-3.5105512	used	-0.29759786
-4.4878917	memcached	-0.12500647
-4.4878917	longer	-0.12500647
-3.7338364	char	-0.20780133
-4.31458	ascii	-0.12500647
-4.068959	smaller	-0.40738285
-4.31458	33	-0.12500647
-4.4878917	127	-0.12500647
-3.5469506	r	-0.18184985
-3.4167135	characters	-0.2104477
-3.2353878	that	-0.14496294
-3.6304173	incremented	-0.8053229
-2.5429654	by	-0.35118544
-4.4878917	self.delete	-0.12500647
-3.7338364	pairs	-0.3215686
-4.4878917	docstirng	-0.12500647
-3.7965379	base64	-0.16958478
-3.4769683	datetime	-0.2584074
-4.4878917	django.utils.six.moves	-0.12500647
-4.4878917	cPickle	-0.12500647
-4.2182107	pickle	-0.16958478
-3.7338364	namespace	-0.18096992
-4.31458	django.db	-0.12500647
-3.5866818	connections	-0.18558897
-4.2182107	transaction	-0.1250065
-4.2182107	router	-0.16958478
-4.2182107	DatabaseError	-0.16029553
-4.4878917	django.db.backends.utils	-0.12500647
-4.31458	typecast	-0.21926783
-3.7338364	timestamp	-0.22873904
-4.31458	django.utils	-0.21926783
-3.5866818	timezone	-0.24207939
-3.8698447	six	-0.16958478
-4.31458	django.utils.encoding	-0.12500647
-3.5105512	force	-0.9192662
-3.0205505	bytes	-0.3875422
-4.4878917	Options	-0.12500647
-3.1830807	table	-0.37596974
-3.9580894	self.db	-0.28244412
-3.8698447	self.app	-0.58347416
-3.199826	label	-0.297815
-3.5866818	django	-0.19979253
-4.2182107	self.model	-0.1250065
-4.4878917	cacheentry	-0.12500647
-4.4878917	self.verbose	-0.12500647
-3.294869	entry	-0.2577009
-3.5469506	plural	-0.32515946
-3.6304173	self.object	-0.4184786
-4.2182107	CacheEntry	-0.1250065
-4.4878917	self.abstract	-0.12500647
-4.4878917	self.managed	-0.12500647
-4.4878917	self.proxy	-0.12500647
-4.068959	BaseDatabaseCache	-0.12500647
-3.5105512	meta	-0.3065736
-3.8698447	initialized	-0.29167077
-3.7965379	self.cache	-0.6504209
-3.0205505	model	-0.4919185
-4.31458	DatabaseCache	-0.12500647
-4.2182107	self.make	-0.28244412
-4.4878917	Whit	-0.12500647
-4.2182107	self.validate	-0.23742087
-4.4878917	router.db	-0.12500647
-3.6304173	read	-0.18750733
-3.4457967	db	-0.3355632
-4.4878917	ops.quote	-0.12500647
-3.4457967	cursor	-0.28426802
-4.4878917	preform	-0.12500647
-4.068959	following	-0.14425653
-3.5469506	named	-0.23858956
-4.31458	cursor.execute	-0.1250065
-4.4878917	SELECT	-0.12500647
-3.4769683	expires	-0.21665135
-3.9580894	FROM	-0.29167077
-4.4878917	WHERE	-0.12500647
-2.7637162	=	-0.40198278
-4.2182107	respectively.	-0.14229266
-4.31458	cursor.fetchone	-0.21926783
-3.3894563	row	-0.3192219
-4.4878917	timezone.now	-0.12500647
-3.5105512	now	-0.21267462
-3.7338364	third	-0.4598713
-2.824003	element	-0.41151664
-4.4878917	features.needs	-0.12500647
-4.4878917	cast	-0.12500647
-2.7575064	field	-0.49802727
-4.4878917	represented	-0.12500647
-4.2182107	stored	-0.18552251
-3.4167135	true	-0.3121836
-4.4878917	datetime.	-0.12500647
-4.4878917	lesser	-0.12500647
-3.5105512	write	-0.17008452
-4.2182107	DELETE	-0.1250065
-4.4878917	ops.process	-0.12500647
-4.4878917	clob	-0.12500647
-3.217243	second	-0.3945791
-4.31458	base64.b64decode	-0.18552251
-4.31458	pickle.loads	-0.1250065
-3.8698447	result.	-0.19183473
-4.2182107	protected	-0.16958478
-4.31458	COUNT	-0.1250065
-3.199826	*	-0.301735
-4.2182107	fetch	-0.16958478
-3.254324	one	-0.2419299
-4.2182107	record	-0.1250065
-3.199826	database	-0.27424324
-4.31458	points	-0.1250065
-2.8856664	at	-0.51297414
-2.947893	first	-0.3679871
-3.363809	num	-0.40973958
-4.31458	now.replace	-0.21926783
-4.2182107	microseconds	-0.16958478
-4.4878917	datetime.max	-0.12500647
-3.6790557	exp	-0.27940202
-3.7965379	settings.USE	-0.6504209
-4.4878917	TI	-0.12500647
-4.4878917	datetime.utcfromtimestamp	-0.12500647
-4.4878917	datetime.fromtimestamp	-0.12500647
-4.4878917	exp.replace	-0.12500647
-4.068959	microsecond	-0.16958478
-4.2182107	pickle.dumps	-0.18552251
-4.31458	pickle.HIGHEST	-0.21926783
-4.4878917	PROTOCOL	-0.12500647
-3.8698447	pickled	-0.15421125
-4.4878917	base64.b64encode	-0.12500647
-4.31458	b64encoded	-0.12500647
-4.31458	six.PY3	-0.12500647
-4.4878917	b64encoded.decode	-0.12500647
-4.4878917	latin1	-0.12500647
-4.2182107	transaction.atomic	-0.16958478
-3.3395927	using	-0.20887427
-3.6304173	perform	-0.3623596
-3.1830807	current	-0.49425614
-4.31458	ops.value	-0.21926783
-3.2741234	mode	-0.30839294
-4.4878917	UPDATE	-0.12500647
-4.4878917	SET	-0.12500647
-4.4878917	INSERT	-0.12500647
-4.4878917	INTO	-0.12500647
-4.31458	VALUES	-0.12500647
-4.4878917	TZ	-0.12500647
-4.31458	datetime.utcnow	-0.21926783
-4.31458	datetime.now	-0.18552251
-2.770016	&gt;	-0.66344094
-3.4457967	next	-0.2590996
-3.8698447	self.clear	-0.28244412
-3.5105512	tzinfo	-0.19950682
-3.3166554	&lt;	-0.2036386
-4.2182107	divide	-0.12500647
-4.2182107	floor	-0.18552251
-3.0942564	&#91;	-0.2757851
-2.8856664	&#93;	-0.55363226
-4.4878917	.ops.cache	-0.12500647
-4.4878917	culling	-0.12500647
-3.3166554	sql	-0.42588407
-4.068959	modulus	-0.12500647
-4.4878917	CacheClass	-0.12500647
-4.31458	DummyCache	-0.12500647
-3.3166554	host	-0.25124606
-3.0942564	args	-0.48658484
-4.31458	errno	-0.12500647
-4.4878917	glob	-0.12500647
-4.068959	hashlib	-0.12500647
-4.2182107	io	-0.18552251
-3.6304173	os	-0.1975731
-3.9580894	random	-0.18564598
-4.31458	tempfile	-0.12500647
-4.4878917	zlib	-0.12500647
-4.4878917	django.core.files.move	-0.12500647
-2.7220042	file	-0.46515685
-3.8698447	move	-0.16958478
-3.4457967	safe	-0.3512148
-4.4878917	FileBasedCache	-0.12500647
-3.5866818	suffix	-0.26479018
-4.4878917	.djcache	-0.12500647
-3.5105512	dir	-0.2570429
-4.4878917	FileBaseCache	-0.12500647
-3.363809	absolute	-0.33764586
-3.0205505	directory	-0.36201814
-2.861505	path	-0.43587065
-4.4878917	createdir	-0.12500647
-3.6790557	fname	-0.19979253
-4.31458	io.open	-0.12500647
-4.4878917	rb	-0.12500647
-3.2353878	f	-0.3118477
-4.4878917	expired	-0.12500647
-3.6304173	false	-0.3740996
-4.4878917	f.read	-0.12500647
-4.31458	zlib.decompress	-0.12500647
-4.068959	IOError	-0.17634375
-4.2182107	e.errno	-0.12500647
-4.4878917	errno.ENOENT	-0.12500647
-4.4878917	tempfile.mkstemp	-0.12500647
-3.6790557	fd	-0.23830077
-3.8698447	tmp	-0.19662985
-4.31458	expiry	-0.12500647
-4.31458	f.write	-0.12500647
-4.4878917	zlib.compress	-0.12500647
-3.5469506	allow	-0.6596476
-4.4878917	overwrite	-0.12500647
-4.2182107	finally	-0.23742087
-3.3166554	start	-0.33103284
-4.31458	os.remove	-0.12500647
-4.2182107	OSError	-0.14991698
-3.2353878	does	-0.92849284
-4.31458	invert	-0.21926783
-3.2741234	files	-0.22771503
-3.7965379	filelist	-0.27240735
-4.4878917	random.sample	-0.12500647
-4.2182107	os.makedirs	-0.21926783
-3.7965379	hexadecimal	-0.14069243
-4.4878917	0o700	-0.12500647
-4.31458	errno.EEXIST	-0.21926783
-4.4878917	EnvironmentError	-0.12500647
-3.9580894	exist	-0.18558897
-4.068959	could	-0.40738285
-3.4457967	be	-0.14241837
-3.0682728	created	-0.53049123
-3.7338364	string.	-0.21361192
-3.254324	join	-0.19931997
-4.2182107	md5	-0.18552251
-3.7965379	hash	-0.12500647
-4.4878917	compose	-0.12500647
-3.294869	root	-0.36414343
-3.2741234	out	-0.36872572
-4.4878917	pickle.load	-0.12500647
-3.217243	stream	-0.48466974
-4.4878917	f.name.	-0.12500647
-4.4878917	glob.glob1	-0.12500647
-2.603416	called	-1.0642257
-3.5105512	appended	-0.5032097
-4.2182107	os.path.join	-0.1250065
-4.31458	results.	-0.12500647
-4.4878917	django.utils.synch	-0.12500647
-4.2182107	RWLock	-0.1250065
-4.4878917	expire	-0.12500647
-3.9580894	info	-0.15676974
-4.31458	locks	-0.1250065
-4.4878917	LocMemCache	-0.12500647
-4.4878917	caches.setdefault	-0.12500647
-4.4878917	info.setdefault	-0.12500647
-4.4878917	lock.setdefault	-0.12500647
-3.9580894	lock	-0.16958478
-4.4878917	lock.writer	-0.12500647
-4.4878917	lock.reader	-0.12500647
-4.4878917	pickle.PickleError	-0.12500647
-3.0558417	evaluates	-1.1916634
-4.4878917	info.get	-0.12500647
-3.1514106	i	-0.3252
-4.4878917	enumerated	-0.12500647
-4.4878917	divisible	-0.12500647
-3.0319986	append	-0.2068751
-4.31458	doomed	-0.12500647
-4.31458	cache.clear.	-0.21926783
-4.4878917	info.clear.	-0.12500647
-4.2182107	RenameMethodsBase	-0.12500647
-3.4769683	str	-0.2816998
-4.4878917	django.utils.functional	-0.12500647
-3.5866818	cached	-0.49452657
-3.3894563	property	-0.2980164
-4.4878917	BaseMemcachedCacheMethods	-0.12500647
-4.31458	methods	-0.18552251
-3.0558417	tuple	-0.4319685
-4.2182107	BaseMemcachedCache	-0.16029553
-3.4457967	server	-0.26317585
-3.6304173	library	-0.24184966
-3.7965379	six.string	-0.6504209
-3.7965379	types	-0.1770061
-3.4457967	split	-0.17552014
-3.1364017	;	-0.29036534
-4.4878917	servers	-0.1250065
-4.4878917	self.LibraryValueNotFoundException.	-0.12500647
-3.6790557	lib	-0.310544
-3.1364017	decorator	-0.3529288
-4.2182107	client	-0.16958478
-4.4878917	lib.Client	-0.12500647
-4.4878917	2592000	-0.12500647
-3.8698447	increment	-0.14093566
-4.4878917	cache.add	-0.12500647
-4.31458	cache.get	-0.1250065
-4.31458	cache.set	-0.16958478
-4.4878917	cache.delete	-0.12500647
-4.4878917	multi	-0.12500647
-3.7965379	ret	-0.2021797
-4.068959	zip	-0.12500647
-3.6304173	assign	-0.27030703
-3.363809	m	-0.28818408
-3.3166554	v	-0.28037488
-4.4878917	ret.items	-0.12500647
-4.4878917	k-th	-0.12500647
-4.4878917	cache.disconnect	-0.12500647
-4.4878917	cache.decr	-0.12500647
-4.4878917	cache.incr	-0.12500647
-4.4878917	self.LibraryValueNotFoundException	-0.12500647
-3.5469506	l	-0.15421125
-3.5105512	lambda	-0.62746286
-3.1364017	x	-0.4035954
-4.31458	calls	-0.12500647
-3.8698447	mapped	-0.21441542
-3.7338364	through	-0.17141993
-3.7965379	flush	-0.16598846
-4.4878917	MemcachedCache	-0.12500647
-4.4878917	ValueError.	-0.12500647
-4.4878917	pickleProtocol	-0.12500647
-4.4878917	PyLibMCCache	-0.12500647
-4.31458	pylibmc	-0.12500647
-4.4878917	pylibmc.NotFound.	-0.12500647
-4.4878917	client.behaviors.	-0.12500647
-4.4878917	django.utils.http	-0.12500647
-3.9580894	urlquote	-0.19289571
-3.0437565	template	-0.46629953
-4.4878917	FRAGMENT	-0.12500647
-3.9580894	TEMPLATE	-0.29167077
-4.4878917	template.cache.	-0.12500647
-4.2182107	fragment	-0.18552251
-3.7965379	vary	-0.6504209
-3.363809	var	-0.34582454
-3.363809	results	-0.2928837
-3.5866818	separated	-0.41527936
-4.31458	hashlib.md5	-0.12500647
-4.4878917	fuction	-0.12500647
-4.4878917	args.hexdigest	-0.12500647
-4.4878917	.messages	-0.12500647
-4.2182107	CheckMessage	-0.12500647
-4.068959	Debug	-0.12500647
-4.068959	Info	-0.12500647
-3.8698447	Warning	-0.15421125
-3.6790557	Error	-0.1629294
-3.8698447	Critical	-0.15421125
-3.9580894	DEBUG	-0.23128513
-4.31458	INFO	-0.12500647
-4.4878917	WARNING	-0.12500647
-3.8698447	ERROR	-0.16439956
-4.4878917	CRITICAL	-0.12500647
-4.4878917	.registry	-0.12500647
-3.5866818	register	-0.25228724
-3.4167135	run	-0.25824374
-3.7338364	checks	-0.1454159
-3.1514106	tag	-0.34213108
-4.2182107	Tags	-0.1250065
-4.4878917	django.core.checks.compatibility.django	-0.12500647
-3.6790557	7	-0.20942098
-4.4878917	django.core.checks.model	-0.12500647
-4.4878917	django.apps	-0.12500647
-3.5105512	apps	-0.16516599
-4.2182107	..	-0.18552251
-4.4878917	Tags.compatibility.	-0.12500647
-3.2741234	check	-0.3046155
-4.2182107	compatibility	-0.1250065
-3.4769683	test	-0.29166654
-4.31458	runner	-0.14672394
-4.4878917	errors.extend.	-0.12500647
-2.9575574	app	-0.48717552
-4.2182107	weight	-0.18552251
-4.31458	settings.is	-0.21926783
-4.4878917	overridden	-0.12500647
-4.2182107	TEST	-0.28244412
-4.4878917	RUNNER	-0.12500647
-4.4878917	settings.SITE	-0.12500647
-4.4878917	ID	-0.12500647
-4.4878917	settings.BASE	-0.12500647
-4.4878917	DIR	-0.12500647
-4.4878917	LOADERS	-0.12500647
-4.4878917	MANAGERS	-0.12500647
-4.4878917	ADMINS	-0.12500647
-4.4878917	django.middleware.clickjacking.XFrameOptionsMiddleware	-0.12500647
-4.4878917	settings.MIDDLEWARE	-0.12500647
-4.4878917	CLASSES	-0.12500647
-3.7965379	hint	-0.16029553
-3.4457967	Django	-0.14769323
-4.31458	1.6	-0.12500647
-4.4878917	introduced	-0.12500647
-4.4878917	looks	-0.12500647
-4.2182107	like	-0.1250065
-3.1364017	this	-0.20010076
-3.4769683	project	-0.2374143
-3.4769683	was	-0.12500647
-3.7965379	generated	-0.24767756
-4.4878917	1.5	-0.12500647
-4.4878917	earlier	-0.12500647
-3.3395927	you	-0.1518937
-3.5866818	should	-0.22286567
-4.2182107	ensure	-0.18552251
-3.6304173	your	-0.13936342
-4.2182107	tests	-0.1250065
-2.7513843	are	-0.3704952
-3.8698447	running	-0.14425653
-3.6790557	&amp;	-0.15762588
-4.4878917	behaving	-0.12500647
-3.7338364	expected	-0.16958478
-4.2182107	see	-0.1250065
-4.068959	https	-0.2124895
-2.8774624	/	-0.21950018
-4.4878917	docs.djangoproject.com	-0.12500647
-4.4878917	en	-0.12500647
-4.31458	dev	-0.12500647
-4.4878917	releases	-0.12500647
-3.3395927	#	-0.20618404
-4.4878917	new-test-runner	-0.12500647
-3.5866818	more	-0.29635867
-4.31458	information	-0.21926783
-3.2353878	obj	-0.4426393
-3.2741234	id	-0.40646222
-4.4878917	6.W001	-0.12500647
-4.068959	it.	-0.14672394
-3.4457967	models	-0.18981664
-4.31458	problem	-0.12500647
-3.3166554	fields	-0.27240738
-4.068959	apps.get	-0.40738285
-3.2741234	only	-0.20710433
-4.4878917	configs	-0.12500647
-4.4878917	meta.app	-0.12500647
-4.4878917	meta.local	-0.12500647
-4.4878917	ANNOTATION	-0.12500647
-4.4878917	models.BooleanField	-0.12500647
-4.4878917	field.has	-0.12500647
-4.2182107	False.	-0.13645382
-3.9580894	BooleanField	-0.14672394
-3.4769683	have	-0.1872779
-3.7338364	middleware	-0.24678008
-3.8698447	classes	-0.25228724
-4.068959	MIDDLEWARE	-0.40738285
-4.4878917	1.7	-0.12500647
-3.7965379	changed	-0.14672394
-3.9580894	global	-0.22824948
-3.363809	defaults	-0.32842267
-4.4878917	CLASSES.	-0.12500647
-4.4878917	django.contrib.sessions.middleware.SessionMiddleware	-0.12500647
-4.4878917	django.contrib.auth.middleware.AuthenticationMiddleware	-0.12500647
-4.4878917	django.contrib.messages.middleware.MessageMiddleware	-0.12500647
-4.068959	were	-0.12500647
-4.2182107	removed	-0.1250065
-3.7965379	needs	-0.26357666
-4.4878917	these	-0.12500647
-3.9580894	then	-0.14672394
-4.068959	configure	-0.14229266
-3.4769683	setting	-0.20404547
-4.4878917	7.W001	-0.12500647
-3.5469506	python	-0.3764836
-4.4878917	compatible	-0.12500647
-3.9580894	st	-0.12500647
-3.6304173	10	-0.24086156
-3.9580894	20	-0.12500647
-3.7965379	warning	-0.16439956
-4.2182107	30	-0.1250065
-3.166957	error	-0.46776205
-4.2182107	40	-0.12500647
-4.31458	50	-0.1250065
-3.254324	level	-0.2977509
-3.363809	msg	-0.36140788
-3.166957	message	-0.33991385
-4.068959	The	-0.14119187
-4.4878917	self.level.	-0.12500647
-4.4878917	self.msg.	-0.12500647
-4.31458	self.hint.	-0.12500647
-4.4878917	self.obj.	-0.12500647
-4.2182107	self.id.	-0.18552251
-3.3395927	attr	-0.29391852
-4.068959	attributes	-0.12500647
-4.31458	same	-0.1250065
-3.8698447	self.obj	-0.15421125
-3.2741234	?	-0.31918404
-4.4878917	models.base.ModelBase	-0.12500647
-4.4878917	meta.object	-0.12500647
-4.4878917	separating	-0.12500647
-4.4878917	.&apos;	-0.12500647
-3.9580894	self.id	-0.17634375
-4.4878917	surround	-0.12500647
-4.4878917	round	-0.12500647
-4.4878917	brackets	-0.12500647
-4.31458	self.hint	-0.12500647
-2.861505	\	-0.43214965
-3.5866818	n	-0.14069243
-4.4878917	tHINT	-0.12500647
-4.31458	self.msg	-0.1250065
-4.068959	repr	-0.17141993
-4.31458	self.level	-0.12500647
-4.4878917	serious	-0.12500647
-4.4878917	silence	-0.12500647
-4.4878917	settings.SILENCED	-0.12500647
-4.4878917	SYSTEM	-0.12500647
-4.4878917	CHECKS	-0.12500647
-3.4769683	unpacked	-0.5323707
-4.068959	itertools	-0.16958478
-4.2182107	chain	-0.12500647
-4.4878917	Tags.models	-0.12500647
-4.4878917	model.check	-0.12500647
-4.2182107	ot	-0.1250065
-4.4878917	elements.	-0.12500647
-4.4878917	Tags.signals	-0.12500647
-4.4878917	models.signals	-0.12500647
-4.068959	store	-0.17634375
-4.4878917	models.signals.ModelSignal	-0.12500647
-4.2182107	reference	-0.1250065
-4.31458	receivers	-0.12500647
-4.4878917	obj.unresolved	-0.12500647
-4.2182107	references.items	-0.18552251
-3.8698447	receiver	-0.15421125
-4.31458	types.FunctionType	-0.12500647
-3.7338364	description	-0.16958478
-4.4878917	An	-0.12500647
-4.4878917	connected	-0.12500647
-3.9580894	signal	-0.14991698
-3.8698447	lazy	-0.17356722
-3.7338364	sender	-0.22700159
-3.5105512	which	-0.16533777
-4.2182107	been	-0.12500647
-3.7338364	installed	-0.21717744
-3.2353878	joined	-0.6188644
-4.4878917	delimited	-0.12500647
-4.4878917	signals.E001	-0.12500647
-4.31458	errors.	-0.12500647
-4.4878917	django.utils.itercompat	-0.12500647
-3.5105512	iterable	-0.18028405
-4.4878917	admin	-0.12500647
-4.4878917	admin&apos;	-0.12500647
-4.4878917	models&apos;	-0.12500647
-4.4878917	signals&apos;	-0.12500647
-4.31458	CheckRegistry	-0.12500647
-4.068959	self.registered	-0.40738285
-4.31458	ans	-0.12500647
-3.3894563	tags	-0.27415597
-3.5866818	inner	-0.33112076
-4.4878917	check.tags.	-0.12500647
-4.4878917	checks.append	-0.12500647
-4.4878917	self.register	-0.12500647
-4.31458	check.tags	-0.12500647
-4.4878917	intersection	-0.12500647
-3.6790557	non	-0.5896034
-4.068959	did	-0.23742087
-3.9580894	functions	-0.12500647
-4.31458	registered	-0.12500647
-3.9580894	registry	-0.14991698
-4.4878917	errors.extend	-0.12500647
-3.8698447	self.tags	-0.19662985
-3.6304173	available	-0.19248314
-4.4878917	registry.register	-0.12500647
-4.4878917	registry.run	-0.12500647
-4.4878917	registry.tag	-0.12500647
-4.4878917	django.middleware.csrf	-0.12500647
-3.294869	token	-0.40737692
-3.7338364	smart	-0.7084128
-3.217243	text	-0.3231372
-3.7338364	csrf	-0.5896034
-3.3166554	request	-0.35627943
-4.4878917	NOTPROVIDED	-0.12500647
-3.5469506	six.text	-0.8845041
-4.2182107	debug	-0.1250065
-3.2353878	context	-0.44304556
-4.4878917	extras	-0.1250065
-4.31458	settings.DEBUG	-0.18552251
-4.4878917	request.META	-0.12500647
-4.4878917	REMOTE	-0.12500647
-4.4878917	ADDR	-0.12500647
-4.4878917	settings.INTERNAL	-0.12500647
-4.4878917	IPS	-0.12500647
-3.4457967	connection	-0.36225855
-4.4878917	connection.queries	-0.12500647
-3.9580894	i18n	-0.33433092
-3.5105512	translation	-0.2935399
-4.31458	settings.LANGUAGES	-0.12500647
-4.31458	LANGUAGES	-0.12500647
-4.31458	translation.get	-0.21926783
-3.2741234	language	-0.29461774
-4.068959	LANGUAGE	-0.23742087
-4.31458	CODE	-0.14991698
-4.4878917	bidi	-0.12500647
-4.4878917	BIDI	-0.1250065
-3.9580894	tz	-0.1518937
-4.31458	timezone.get	-0.21926783
-4.4878917	TIME	-0.12500647
-4.4878917	ZONE	-0.1250065
-4.068959	static	-0.23742087
-4.2182107	settings.STATIC	-0.28244412
-3.8698447	URL	-0.14672394
-4.4878917	STATIC	-0.12500647
-3.3894563	media	-0.25039554
-4.2182107	settings.MEDIA	-0.28244412
-4.2182107	MEDIA	-0.18552251
-4.31458	functools	-0.12500647
-4.31458	reduce	-0.12500647
-4.31458	operator	-0.12500647
-4.4878917	RuntimeWarning	-0.12500647
-4.068959	AppRegistryNotReady	-0.16958478
-3.6790557	Exception	-0.2604293
-4.4878917	ObjectDoesNotExist	-0.12500647
-3.8698447	silent	-0.14672394
-3.5469506	variable	-0.19726408
-4.4878917	failure	-0.12500647
-4.4878917	MultipleObjectsReturned	-0.12500647
-4.068959	SuspiciousOperation	-0.12500647
-4.31458	SuspiciousMultipartForm	-0.12500647
-4.2182107	SuspiciousFileOperation	-0.1250065
-4.2182107	DisallowedHost	-0.1250065
-4.2182107	DisallowedRedirect	-0.1250065
-4.2182107	PermissionDenied	-0.1250065
-4.2182107	ViewDoesNotExist	-0.1250065
-4.2182107	MiddlewareNotUsed	-0.1250065
-4.2182107	FieldError	-0.1250065
-4.2182107	FIELD	-0.1250065
-4.2182107	ERRORS	-0.12500647
-3.4769683	ValidationError	-0.28367728
-3.2353878	code	-0.30922535
-3.5469506	dict	-0.26221716
-4.31458	message.error	-0.21926783
-4.31458	alternatively	-0.12500647
-4.068959	message.message	-0.23742087
-4.2182107	message.code	-0.1250065
-4.4878917	message.params	-0.12500647
-3.5469506	self.error	-0.5992619
-3.5105512	messages	-0.22456998
-4.4878917	message.items	-0.12500647
-4.4878917	messages.error	-0.12500647
-3.5866818	extend	-0.16442452
-4.4878917	self.message.	-0.12500647
-4.31458	self.code.	-0.21926783
-4.31458	self.params.	-0.12500647
-3.7338364	getter	-0.3129103
-4.4878917	operator.add	-0.12500647
-3.9580894	until	-0.1250065
-4.4878917	reduced	-0.12500647
-4.2182107	single	-0.16958478
-3.5469506	update	-0.20225932
-4.4878917	dict.items	-0.12500647
-4.4878917	dict.setdefault	-0.12500647
-4.068959	iter	-0.2021797
-4.2182107	yield	-0.1486085
-4.4878917	error.message	-0.12500647
-4.31458	error.params	-0.12500647
-4.4878917	residue	-0.12500647
-4.31458	division	-0.16958478
-3.6790557	printable	-0.5896034
-4.068959	representation	-0.19662985
-4.4878917	django.core.files.base	-0.12500647
-3.7338364	File	-0.18552251
-3.7965379	BytesIO	-0.16439956
-3.7965379	StringIO	-0.16958478
-4.31458	UnsupportedOperation	-0.12500647
-4.4878917	django.core.files.utils	-0.12500647
-4.2182107	FileProxyMixin	-0.12500647
-4.31458	bring	-0.1250065
-4.4878917	power	-0.12500647
-4.31458	multiply	-0.12500647
-4.068959	64	-0.2124895
-4.4878917	CHUNK	-0.12500647
-4.4878917	SIZE	-0.1250065
-4.2182107	self.file.	-0.28244412
-3.9580894	self.name.	-0.33433092
-4.4878917	file.mode	-0.12500647
-4.4878917	self.mode.	-0.12500647
-3.4457967	self.name	-0.29704788
-4.2182107	bool	-0.12500647
-4.4878917	nonzero	-0.12500647
-3.6304173	len	-0.29259378
-4.31458	self.size.	-0.21926783
-3.2741234	size	-0.3118477
-4.4878917	underlying	-0.12500647
-3.5105512	self.file	-0.31304878
-4.31458	self.file.size.	-0.21926783
-4.4878917	os.path.getsize	-0.12500647
-4.4878917	self.file.name	-0.12500647
-4.068959	tell	-0.12500647
-4.31458	seek	-0.12500647
-3.7338364	position	-0.17490284
-4.2182107	pointer	-0.25606096
-3.5866818	pos	-0.19289571
-3.166957	end	-0.32179138
-4.31458	Unable	-0.21926783
-4.4878917	determine	-0.12500647
-3.8698447	&apos;s	-0.1250065
-3.8698447	setter	-0.24522674
-4.068959	closed	-0.16029553
-4.4878917	self.file.closed	-0.12500647
-3.6790557	chunks	-0.19104066
-3.254324	chunk	-0.40293455
-4.31458	self.DEFAULT	-0.21926783
-4.4878917	beginning	-0.1250065
-4.31458	endless	-0.18552251
-3.6790557	loop	-0.27059543
-4.31458	self.read	-0.1250065
-4.068959	break	-0.19662985
-4.31458	smallest	-0.21926783
-4.4878917	enclosing	-0.12500647
-3.5105512	multiple	-0.20303914
-4.4878917	self.size	-0.12500647
-3.6304173	buffer	-0.30263922
-4.4878917	self.chunks	-0.12500647
-3.2353878	line	-0.35094896
-3.1514106	last	-0.36706704
-3.4769683	newline	-0.350091
-4.31458	carriage	-0.21926783
-4.2182107	enter	-0.18552251
-3.6304173	exit	-0.37827095
-3.4769683	exc	-0.49124312
-3.9580894	tb	-0.17973658
-3.5866818	open	-0.2233882
-4.4878917	self.mode	-0.12500647
-4.4878917	whichever	-0.12500647
-3.3395927	handler	-0.24437858
-3.6304173	cannot	-0.24573018
-4.4878917	reopened	-0.12500647
-4.4878917	self.file.close.	-0.12500647
-4.31458	ContentFile	-0.12500647
-3.1830807	content	-0.36713582
-4.4878917	Raw	-0.12500647
-4.4878917	self.seek	-0.12500647
-4.4878917	django.core.files	-0.12500647
-4.31458	ImageFile	-0.12500647
-3.7965379	width	-0.1949625
-4.31458	det	-0.21926783
-3.8698447	image	-0.14991698
-4.4878917	dimensions	-0.1250065
-4.4878917	height	-0.12500647
-4.4878917	self.closed	-0.12500647
-4.4878917	self.open	-0.12500647
-4.4878917	dimension	-0.12500647
-4.4878917	PIL	-0.12500647
-4.4878917	PillowImageFile	-0.12500647
-3.199826	p	-0.2642827
-3.3166554	parser	-0.30613658
-4.31458	calling	-0.18552251
-4.4878917	PillowImageFile.Parser	-0.12500647
-4.31458	reading	-0.12500647
-3.3894563	handle	-0.3002934
-4.2182107	1024	-0.16029553
-3.8698447	while	-0.13645382
-3.9580894	feed	-0.19662985
-4.4878917	zlib.error	-0.12500647
-3.9580894	raised	-0.29167077
-3.9580894	e.args	-0.18552251
-3.217243	starts	-1.2032629
-4.4878917	-5	-0.12500647
-4.4878917	nothig	-0.12500647
-4.4878917	p.image	-0.12500647
-4.4878917	fed	-0.12500647
-3.9580894	double	-0.15421125
-4.068959	execute	-0.12500647
-4.31458	regardless	-0.21926783
-4.068959	being	-0.12500647
-4.4878917	EX	-0.1250065
-4.068959	LOCK	-0.40738285
-4.4878917	SH	-0.12500647
-4.4878917	NB	-0.12500647
-4.31458	unlock	-0.12500647
-4.4878917	f.fileno	-0.12500647
-4.31458	fileno	-0.12500647
-4.2182107	os.name	-0.18552251
-4.4878917	nt	-0.12500647
-4.4878917	msvcrt	-0.12500647
-4.31458	ctypes	-0.12500647
-4.4878917	sizeof	-0.12500647
-3.4769683	c	-0.18866713
-4.4878917	ulong	-0.1250065
-4.4878917	void	-0.12500647
-4.4878917	int64	-0.12500647
-4.31458	Structure	-0.12500647
-4.31458	Union	-0.12500647
-4.31458	POINTER	-0.12500647
-4.4878917	windll	-0.12500647
-4.31458	byref	-0.12500647
-4.4878917	ctypes.wintypes	-0.12500647
-4.31458	BOOL	-0.12500647
-4.31458	DWORD	-0.16958478
-4.4878917	HANDLE	-0.12500647
-4.31458	ULONG	-0.21926783
-4.4878917	PTR	-0.12500647
-4.31458	PVOID	-0.21926783
-4.4878917	OFFSET	-0.1250065
-3.5866818	tuples	-0.27240735
-4.4878917	Offset	-0.12500647
-4.4878917	OffsetHigh	-0.12500647
-4.4878917	UNION	-0.12500647
-4.4878917	anonymous	-0.12500647
-3.5105512	offset	-0.24577184
-4.4878917	Pointer	-0.12500647
-4.2182107	OVERLAPPED	-0.1250065
-4.2182107	union	-0.18552251
-4.4878917	Internal	-0.12500647
-4.4878917	InternalHigh	-0.12500647
-4.4878917	forth	-0.12500647
-4.4878917	hEvent	-0.12500647
-4.4878917	HANDLE.	-0.12500647
-4.31458	LPOVERLAPPED	-0.21926783
-4.4878917	windll.kernel32.LockFileEx	-0.12500647
-4.31458	LockFileEx	-0.12500647
-4.4878917	LockFileEx.restype.	-0.12500647
-4.4878917	LockFileEx.argtypes	-0.12500647
-4.4878917	windll.kernel32.UnlockFileEx	-0.12500647
-4.4878917	UnlockFileEx	-0.12500647
-4.4878917	UnlockFileEx.restype.	-0.12500647
-4.4878917	UnlockFileEx.argtypes	-0.12500647
-3.6790557	flags	-0.18558897
-4.4878917	msvcrt.get	-0.12500647
-4.4878917	osfhandle	-0.12500647
-4.31458	hfile	-0.12500647
-4.31458	overlapped	-0.12500647
-4.4878917	FFFF0000	-0.12500647
-4.4878917	fcntl	-0.12500647
-4.31458	fcntl.LOCK	-0.21926783
-4.4878917	fcntl.flock	-0.12500647
-4.4878917	UN	-0.12500647
-4.31458	shutil	-0.12500647
-4.31458	copystat	-0.12500647
-4.2182107	stat	-0.28244412
-3.7965379	src	-0.29343507
-4.068959	dst	-0.14425653
-4.31458	os.stat	-0.12500647
-4.068959	stat.S	-0.40738285
-4.4878917	IMODE	-0.12500647
-4.2182107	st.st	-0.28244412
-4.4878917	utime	-0.12500647
-4.4878917	os.utime	-0.12500647
-4.4878917	atime	-0.12500647
-3.9580894	mtime	-0.18552251
-4.4878917	chmod	-0.12500647
-4.4878917	os.chmod	-0.12500647
-4.31458	samefile	-0.12500647
-4.31458	os.path	-0.12500647
-4.4878917	os.path.samefile	-0.12500647
-3.294869	old	-0.6970297
-3.5866818	integers	-0.23128518
-4.31458	os.access	-0.12500647
-4.4878917	os.F	-0.12500647
-4.2182107	OK	-0.1250065
-4.4878917	Destination	-0.12500647
-4.4878917	os.rename	-0.12500647
-4.4878917	descriptor	-0.12500647
-3.7965379	binary	-0.21441542
-3.5105512	expression	-0.23404934
-3.8698447	operands	-0.20376709
-4.31458	os.O	-0.21926783
-4.4878917	WRONLY	-0.12500647
-4.068959	CREATE	-0.18552251
-4.2182107	O	-0.1250065
-4.4878917	BINARY	-0.12500647
-4.4878917	EXCL	-0.12500647
-4.4878917	fd.	-0.12500647
-4.4878917	locks.lock	-0.12500647
-4.4878917	locks.LOCK	-0.12500647
-4.068959	long	-0.1250065
-4.4878917	locks.unlock	-0.12500647
-4.2182107	tr	-0.16958478
-4.4878917	winerror	-0.12500647
-4.4878917	32	-0.12500647
-4.068959	13	-0.15421125
-3.4769683	filepath	-0.20325324
-4.31458	uri	-0.12500647
-4.068959	LazyObject	-0.12500647
-4.4878917	django.utils.six.moves.urllib.parse	-0.12500647
-4.068959	urljoin	-0.12500647
-4.4878917	django.utils.text	-0.12500647
-3.5866818	valid	-0.17437086
-3.199826	filename	-0.36422879
-4.4878917	django.utils.	-0.12500647
-4.2182107	abspathu	-0.1250065
-4.4878917	django.utils.deconstruct	-0.12500647
-4.2182107	deconstructible	-0.1250065
-4.068959	Storage	-0.12500647
-4.31458	FileSystemStorage	-0.12500647
-4.2182107	DefaultStorage	-0.1250065
-4.4878917	storage	-0.1250065
-3.7338364	save	-0.45313388
-4.4878917	content.name	-0.12500647
-4.4878917	os.path.split	-0.12500647
-4.068959	os.path.splitext	-0.16958478
-3.3894563	ext	-0.3045454
-4.4878917	itertools.count	-0.12500647
-3.5866818	count	-0.21584791
-4.4878917	self.exists	-0.12500647
-4.2182107	This	-0.12500647
-3.6790557	doesn	-0.5896034
-3.5105512	&apos;t	-0.14383551
-3.7965379	support	-0.17758653
-3.6790557	paths	-0.24773693
-4.31458	listdir	-0.12500647
-3.2353878	url	-0.40982032
-4.2182107	accessed	-0.18552251
-4.31458	modified	-0.21926783
-4.4878917	permissions	-0.12500647
-3.8698447	None.	-0.17055535
-4.4878917	ROOT	-0.12500647
-3.8698447	self.base	-0.58347416
-4.4878917	self.location.	-0.12500647
-3.363809	ends	-0.71950865
-3.7965379	settings.FILE	-0.6504209
-4.4878917	UPLOAD	-0.12500647
-4.4878917	PERMISSIONS	-0.12500647
-4.4878917	is.	-0.12500647
-4.2182107	self.directory	-0.28244412
-4.4878917	DIRECTORY	-0.12500647
-3.6304173	self.path	-0.21501903
-4.4878917	creatinon	-0.12500647
-3.5469506	full	-0.71454215
-4.31458	os.path.dirname	-0.16958478
-4.2182107	os.path.exists	-0.18552251
-4.2182107	os.umask	-0.18552251
-4.2182107	umask	-0.18552251
-4.2182107	temporary	-0.18552251
-4.4878917	content.temporary	-0.12500647
-4.4878917	CREAT	-0.12500647
-4.4878917	exists.	-0.12500647
-4.4878917	os.open	-0.12500647
-4.4878917	octal	-0.12500647
-3.0942564	number	-0.3813591
-4.4878917	0o666	-0.12500647
-4.4878917	content.chunks	-0.12500647
-4.4878917	wb	-0.12500647
-4.4878917	wt	-0.12500647
-4.31458	os.fdopen	-0.12500647
-4.2182107	assert	-0.1250065
-3.7965379	allowed	-0.26357666
-3.7965379	directories	-0.12500647
-3.8698447	lists	-0.15421125
-4.31458	os.listdir	-0.21926783
-4.4878917	self.location	-0.12500647
-4.4878917	Attempted	-0.12500647
-4.068959	access	-0.12500647
-4.2182107	denied	-0.1250065
-4.31458	os.path.normpath	-0.12500647
-4.4878917	accessible	-0.12500647
-4.4878917	via	-0.12500647
-4.4878917	os.path.getatime	-0.12500647
-4.4878917	os.path.getctime	-0.12500647
-4.4878917	os.path.getmtime	-0.12500647
-3.8698447	settings.DEFAULT	-0.58347416
-3.6790557	FILE	-0.46776202
-4.31458	STORAGE	-0.12500647
-4.31458	setup	-0.16029553
-3.8698447	wrapped	-0.23300232
-4.31458	NamedTemporaryFile	-0.12500647
-4.31458	gettempdir	-0.12500647
-4.31458	TemporaryFile	-0.12500647
-3.6790557	w	-0.1454159
-3.3166554	+	-0.28621444
-3.6304173	b	-0.22643824
-4.31458	bufsize	-0.12500647
-4.4878917	strig	-0.12500647
-4.4878917	tmpfile.mkstemp	-0.12500647
-4.4878917	respective	-0.12500647
-4.2182107	self.close	-0.18552251
-4.2182107	os.unlink	-0.18552251
-4.31458	unlink	-0.12500647
-4.4878917	built-in	-0.12500647
-4.4878917	self.file.closed.	-0.12500647
-4.31458	del	-0.12500647
-4.31458	tempfile.NamedTemporaryFile	-0.12500647
-4.4878917	tempfile.gettempdir	-0.12500647
-4.068959	temp	-0.23742087
-4.31458	UploadedFile	-0.1250065
-4.068959	TemporaryUploadedFile	-0.12500647
-4.068959	InMemoryUploadedFile	-0.16029553
-4.31458	SimpleUploadedFile	-0.12500647
-3.6304173	charset	-0.25984251
-3.363809	extra	-0.42703682
-3.7965379	self.content	-0.35861757
-4.4878917	self.charset.	-0.12500647
-3.9580894	os.path.basename	-0.18564598
-4.31458	255	-0.12500647
-4.4878917	os.path.splitex	-0.12500647
-4.31458	subtract	-0.12500647
-3.9580894	take	-0.1518937
-3.7965379	up	-0.18564598
-2.9291859	index	-0.49469858
-3.8698447	resulting	-0.18444677
-4.2182107	name.	-0.16439956
-4.4878917	TEMP	-0.12500647
-4.4878917	.upload	-0.12500647
-4.4878917	self.file.name.	-0.12500647
-4.4878917	self.file.close	-0.12500647
-3.8698447	8	-0.1887881
-4.4878917	extra.	-0.12500647
-4.31458	self.field	-0.21926783
-4.4878917	ad	-0.12500647
-3.9580894	whole	-0.19662985
-3.7965379	generator	-0.24155562
-4.4878917	hunk	-0.12500647
-4.068959	plain	-0.21926783
-4.2182107	classmethod	-0.12500647
-4.4878917	django.core.files.uploadedfile	-0.12500647
-4.2182107	UploadFileException	-0.1250065
-4.068959	StopUpload	-0.16029553
-4.068959	SkipFile	-0.12500647
-4.068959	FileUploadHandler	-0.12500647
-4.4878917	&apos;TemporaryFileUploadHandler	-0.12500647
-4.2182107	MemoryFileUploadHandler	-0.1250065
-3.6304173	load	-0.31443512
-3.9580894	StopFutureHandlers	-0.12500647
-3.5866818	reset	-0.38972887
-4.2182107	self.connection	-0.21926783
-4.31458	halt	-0.12500647
-3.4769683	upload	-0.31597942
-4.2182107	consume	-0.18552251
-4.31458	self.charset	-0.1250065
-4.31458	self.request	-0.12500647
-3.3894563	raw	-0.5153886
-3.199826	input	-0.35208815
-3.7965379	META	-0.2021797
-3.4769683	boundary	-0.19770955
-3.3894563	encoding	-0.36740625
-4.2182107	receive	-0.28244412
-4.068959	complete	-0.1250065
-4.31458	TemporaryFileUploadHandler	-0.12500647
-4.2182107	kwargs.	-0.13936342
-4.31458	self.file.write	-0.12500647
-4.4878917	MEMORY	-0.12500647
-4.31458	self.activated	-0.21926783
-2.8312488	form	-0.6202382
-4.31458	initialize	-0.12500647
-4.31458	making	-0.1250065
-4.4878917	new-style	-0.12500647
-3.5469506	returns	-0.18056534
-4.4878917	self.file.encoding	-0.12500647
-4.4878917	self.file.fileno	-0.12500647
-4.4878917	self.file.flush	-0.12500647
-4.4878917	self.file.isatty	-0.12500647
-4.31458	isatty	-0.12500647
-4.4878917	self.file.newlines	-0.12500647
-3.7338364	newlines	-0.17085443
-4.4878917	self.file.read	-0.12500647
-4.4878917	self.file.readinto	-0.12500647
-4.4878917	readinto	-0.12500647
-4.4878917	self.file.readline	-0.12500647
-4.2182107	readline	-0.18552251
-4.4878917	self.file.readlines	-0.12500647
-4.4878917	readlines	-0.12500647
-4.4878917	self.file.seek	-0.12500647
-4.4878917	self.file.softspace	-0.12500647
-4.4878917	softspace	-0.12500647
-4.4878917	self.file.tell	-0.12500647
-4.4878917	self.file.truncate	-0.12500647
-3.4457967	truncate	-0.3955147
-4.4878917	self.file.writelines	-0.12500647
-4.4878917	writelines	-0.12500647
-4.4878917	self.file.xreadlines	-0.12500647
-4.31458	xreadlines	-0.12500647
-3.5469506	iterator	-0.16958478
-4.31458	based	-0.21926783
-4.4878917	collection	-0.12500647
-3.5105512	logging	-0.44827425
-4.31458	sys	-0.18552251
-3.5469506	http	-0.41527936
-4.4878917	urlresolvers	-0.12500647
-4.4878917	django.views	-0.12500647
-4.068959	logging.getLogger	-0.18552251
-4.4878917	django.request	-0.12500647
-3.7338364	logger	-0.1975731
-4.4878917	BaseHandler	-0.12500647
-3.5866818	style	-0.2707463
-3.2741234	response	-0.26759267
-4.4878917	fixes	-0.1250065
-4.4878917	http.fix	-0.12500647
-3.2741234	header	-0.3037264
-4.4878917	http.conditional	-0.12500647
-4.4878917	removal	-0.1250065
-3.4167135	view	-0.3341645
-4.4878917	my	-0.12500647
-4.068959	mw	-0.40738285
-4.068959	skip	-0.25606096
-4.068959	iteration	-0.16029553
-4.31458	he	-0.12500647
-3.7338364	process	-0.2990897
-4.4878917	instance.process	-0.12500647
-4.068959	insert	-0.12500647
-4.4878917	atomic	-0.1250065
-4.4878917	requests	-0.1250065
-4.4878917	connections.all	-0.12500647
-4.4878917	ATOMIC	-0.12500647
-4.31458	REQUESTS	-0.12500647
-4.4878917	db.settings	-0.12500647
-4.4878917	dic	-0.12500647
-4.31458	db.alias	-0.12500647
-4.31458	present	-0.12500647
-4.31458	view.	-0.12500647
-3.7965379	resolver	-0.23865321
-3.6790557	status	-0.2494312
-4.31458	resolver.resolve	-0.18552251
-3.3166554	callback	-0.3493076
-3.6304173	param	-0.21664824
-4.31458	signals.got	-0.21926783
-4.4878917	exception.send	-0.12500647
-4.2182107	self.handle	-0.23742087
-4.4878917	uncaught	-0.12500647
-4.31458	sys.exec	-0.21926783
-4.4878917	settings.ROOT	-0.12500647
-4.4878917	URLCONF	-0.12500647
-3.5866818	urlconf	-0.34667742
-4.31458	urlresolvers.set	-0.21926783
-4.4878917	urlresolvers.RegexURLResolver	-0.12500647
-3.6790557	literal	-0.19662985
-3.7965379	^	-0.19042408
-4.4878917	breaks	-0.12500647
-4.31458	execution	-0.12500647
-4.4878917	request.urlconf	-0.12500647
-4.2182107	request.path	-0.16958478
-3.5469506	match	-0.231376
-4.4878917	request.resolver	-0.12500647
-4.2182107	response.	-0.16029553
-4.2182107	didn	-0.28244412
-4.068959	HttpResponse	-0.1250065
-3.8698447	returned	-0.15421125
-3.294869	instead	-0.5954569
-4.4878917	raise.	-0.12500647
-3.5469506	render	-0.3866293
-4.2182107	response.render	-0.18552251
-4.4878917	s.process	-0.12500647
-4.4878917	http.Http404	-0.12500647
-4.2182107	Not	-0.16029553
-4.4878917	Found	-0.12500647
-3.4769683	two	-0.21886002
-3.9580894	404	-0.15421125
-4.4878917	logger.warning	-0.12500647
-3.9580894	function.	-0.21441542
-4.31458	debug.technical	-0.21926783
-4.4878917	Forbidden	-0.12500647
-4.31458	Permission	-0.12500647
-4.4878917	&apos;status	-0.12500647
-4.2182107	403	-0.16958478
-4.4878917	django.security.	-0.12500647
-4.31458	security	-0.21926783
-4.4878917	logger.	-0.12500647
-4.2182107	400	-0.18564598
-4.4878917	logger.error.	-0.12500647
-4.068959	500	-0.16029553
-4.068959	evaluated	-0.16958478
-4.2182107	sys.exc	-0.28244412
-4.4878917	SystemExit	-0.12500647
-3.5469506	any	-0.14769323
-4.2182107	argument.	-0.15421125
-4.4878917	self.apply	-0.12500647
-3.8698447	member	-0.12500647
-4.31458	closable	-0.12500647
-3.5105512	objects	-0.26782098
-3.7965379	exec	-0.4166095
-4.4878917	PROPAGATE	-0.12500647
-4.4878917	EXCEPTIONS	-0.12500647
-4.4878917	Server	-0.12500647
-4.4878917	logger.error	-0.12500647
-4.4878917	resolver.urlconf	-0.12500647
-4.2182107	reraise	-0.12500647
-4.31458	parameters	-0.12500647
-3.7965379	apply	-0.1856089
-4.4878917	self.response	-0.12500647
-4.4878917	cgi	-0.12500647
-4.4878917	codecs	-0.12500647
-4.31458	Lock	-0.12500647
-4.4878917	django.core.handlers	-0.12500647
-4.4878917	django.core.urlresolvers	-0.12500647
-3.5866818	script	-0.31783444
-4.4878917	datastructures	-0.12500647
-4.4878917	django.http.response	-0.12500647
-4.31458	REASON	-0.21926783
-4.4878917	PHRASES	-0.1250065
-4.068959	STATUS	-0.23742087
-4.4878917	TEXT	-0.12500647
-4.4878917	NOQA	-0.12500647
-4.068959	iso	-0.40738285
-4.4878917	8859	-0.12500647
-4.4878917	iso-8859-1	-0.12500647
-4.2182107	UTF	-0.28244412
-4.31458	utf-8	-0.21926783
-4.31458	LimitedStream	-0.12500647
-3.9580894	def	-0.14672394
-3.4769683	limit	-0.39386493
-3.5866818	buf	-0.20780133
-4.068959	product	-0.12500647
-4.4878917	self.stream.	-0.12500647
-4.4878917	self.remaining.	-0.12500647
-4.31458	self.buffer.	-0.21926783
-4.4878917	self.buf	-0.12500647
-4.4878917	limited	-0.1250065
-4.2182107	self.remaining	-0.1250065
-3.9580894	zero	-0.23128513
-3.6790557	self.stream	-0.20554398
-4.31458	decrement	-0.12500647
-3.8698447	self.buffer	-0.16439956
-4.4878917	less	-0.12500647
-3.7965379	subtracted	-0.6504209
-4.4878917	limiter	-0.12500647
-4.4878917	sio	-0.12500647
-4.4878917	sio.readline	-0.12500647
-4.4878917	sio.read	-0.12500647
-4.31458	WSGIRequest	-0.12500647
-4.4878917	http.HttpRequest.	-0.12500647
-3.7965379	environ	-0.20376709
-4.4878917	self.environ.	-0.12500647
-3.4769683	strip	-0.27787527
-4.2182107	trailing	-0.18552251
-3.9580894	occurrence	-0.25606096
-4.4878917	self.path.	-0.12500647
-4.31458	self.META.	-0.21926783
-4.31458	PATH	-0.15421125
-3.9580894	self.META	-0.16029553
-4.4878917	SCRIP	-0.12500647
-4.31458	NAME	-0.14991698
-4.068959	REQUEST	-0.12500647
-4.31458	METHOD	-0.12500647
-4.31458	uppercase	-0.1250065
-4.4878917	self.method.	-0.12500647
-3.9580894	CONTENT	-0.25606096
-4.068959	TYPE	-0.16439956
-4.31458	cgi.parse	-0.21926783
-4.4878917	codec.lookup	-0.12500647
-4.2182107	LookupError	-0.12500647
-4.31458	self.encoding.	-0.21926783
-3.5866818	post	-0.3121836
-3.3894563	parse	-0.39847896
-4.31458	self.environ	-0.18552251
-4.4878917	wsgi.input	-0.12500647
-4.4878917	length.	-0.12500647
-4.2182107	started	-0.1250065
-4.4878917	self.resolver	-0.12500647
-3.7338364	scheme	-0.2124895
-4.4878917	wsgi.url	-0.12500647
-4.4878917	`request.REQUEST`	-0.12500647
-4.4878917	`request.GET`	-0.12500647
-4.4878917	`request.POST`	-0.12500647
-4.4878917	datastructures.MergeDict	-0.12500647
-4.31458	self.POST	-0.12500647
-4.4878917	self.GET	-0.12500647
-3.9580894	GET	-0.2124895
-3.7965379	wsgi	-0.46776202
-4.4878917	QUERY	-0.12500647
-4.4878917	STRING	-0.12500647
-3.5866818	query	-0.28736
-4.4878917	http.QueryDict	-0.12500647
-4.2182107	COOKIES	-0.18552251
-4.068959	HTTP	-0.16029553
-4.4878917	COOKIE	-0.12500647
-3.6790557	cookie	-0.2718129
-4.4878917	http.parse	-0.12500647
-4.068959	POST	-0.16958478
-4.4878917	FILES	-0.12500647
-4.2182107	WSGIHandler	-0.1250065
-4.4878917	base.BaseHandler.	-0.12500647
-4.4878917	initLock	-0.12500647
-4.4878917	self.initLock	-0.12500647
-3.9580894	self.load	-0.50429285
-3.7338364	re	-0.24184966
-4.4878917	started.send	-0.12500647
-3.7338364	UnicodeDecodeError	-0.16958478
-4.4878917	Bad	-0.12500647
-4.4878917	Request	-0.12500647
-4.4878917	http.HttpResponseBadRequest	-0.12500647
-4.2182107	response.status	-0.28244412
-4.4878917	response.reason	-0.12500647
-4.4878917	phrase	-0.1250065
-4.4878917	response.item	-0.12500647
-3.8698447	headers	-0.15599191
-4.4878917	above	-0.12500647
-4.4878917	response.cookies.values	-0.12500647
-4.4878917	Set-Cookie	-0.12500647
-4.4878917	c.output	-0.12500647
-3.0682728	format	-0.36699316
-4.31458	headers.	-0.18552251
-4.4878917	info.decode	-0.12500647
-4.31458	settings.FORCE	-0.21926783
-4.31458	SCRIPT	-0.21926783
-4.068959	REDIRECT	-0.16958478
-3.9580894	but	-0.13936342
-4.4878917	scrip	-0.12500647
-4.4878917	name.decode	-0.12500647
-3.9580894	value.	-0.17085443
-4.31458	six.PY2	-0.1250065
-4.31458	value.encode	-0.12500647
-4.31458	ISO	-0.21926783
-4.4878917	.decode	-0.12500647
-4.4878917	django.core.mail.utils	-0.12500647
-4.068959	CachedDnsName	-0.12500647
-3.8698447	DNS	-0.58347416
-4.4878917	django.core.mail.message	-0.12500647
-3.9580894	EmailMessage	-0.1250065
-3.9580894	EmailMultiAlternatives	-0.1250065
-4.068959	SafeMIMEText	-0.16029553
-4.31458	SafeMIMEMultipart	-0.18552251
-4.4878917	ATTACHMENT	-0.12500647
-4.4878917	MIME	-0.12500647
-4.2182107	msgid	-0.1250065
-4.068959	BadHeaderError	-0.12500647
-4.2182107	forbid	-0.28244412
-4.4878917	&apos;SafeMIMEMultipart	-0.12500647
-3.8698447	send	-0.40218902
-3.8698447	mail	-0.14672394
-4.4878917	mass	-0.12500647
-4.4878917	admins	-0.12500647
-4.4878917	managers	-0.12500647
-3.6304173	fail	-0.49452657
-4.4878917	silently	-0.12500647
-3.9580894	kwds	-0.2021797
-4.2182107	settings.EMAIL	-0.28244412
-3.4769683	klass	-0.3324181
-4.31458	funtion	-0.1250065
-3.3894563	subject	-0.34401172
-3.5469506	email	-0.2909021
-4.31458	recipient	-0.1250065
-4.31458	dont	-0.1250065
-4.2182107	modify	-0.1250065
-4.068959	username	-0.16958478
-4.068959	auth	-0.16958478
-3.6304173	user	-0.4544913
-3.5866818	password	-0.2982319
-3.363809	html	-0.38775975
-4.31458	mail.attach	-0.21926783
-3.9580894	alternative	-0.14991698
-4.4878917	mail.send	-0.12500647
-4.31458	datatuple	-0.21926783
-3.8698447	change	-0.18552251
-4.31458	connection.	-0.16958478
-3.6304173	list.	-0.18993142
-4.4878917	connection.send	-0.12500647
-4.4878917	fails	-0.12500647
-4.4878917	settings.ADMINS	-0.12500647
-4.4878917	SUBJECT	-0.12500647
-4.31458	concatenated	-0.12500647
-4.4878917	settings.SERVER	-0.12500647
-4.068959	EMAIL	-0.2124895
-4.4878917	settings.Managers	-0.12500647
-4.4878917	mail.	-0.12500647
-4.4878917	hmtl	-0.12500647
-4.4878917	settings.MANAGERS	-0.12500647
-4.068959	BaseEmailBackend	-0.12500647
-4.31458	self.fail	-0.21926783
-4.4878917	self.open.	-0.12500647
-3.9580894	traceback	-0.2436379
-4.4878917	self.close.	-0.12500647
-4.068959	override	-0.12500647
-4.4878917	django.core.mail.backends.base	-0.12500647
-4.068959	EmailBackend	-0.16958478
-4.068959	pop	-0.14991698
-3.8698447	sys.stdout	-0.15421125
-4.4878917	threading.RLock	-0.12500647
-4.4878917	msg.as	-0.12500647
-4.31458	msg.get	-0.21926783
-3.1830807	output	-0.43668377
-4.31458	data.decode	-0.12500647
-4.31458	self.stream.write	-0.12500647
-4.4878917	79	-0.12500647
-4.4878917	-&apos;	-0.12500647
-4.4878917	self.write	-0.12500647
-4.4878917	self.stream.flush.	-0.12500647
-4.4878917	django.core.mail.backends.console	-0.12500647
-4.31458	ConsoleEmailBackend	-0.12500647
-4.31458	Path	-0.1250065
-4.4878917	saving	-0.12500647
-4.4878917	emails	-0.12500647
-3.4167135	invalid	-0.3509941
-4.2182107	os.path.abspath	-0.23128513
-3.7338364	err	-0.46018094
-4.31458	writable	-0.12500647
-4.068959	strftime	-0.16958478
-4.068959	Y	-0.12500647
-4.4878917	d-	-0.12500647
-4.2182107	H	-0.16958478
-3.9580894	M	-0.12500647
-4.068959	S	-0.19662985
-4.31458	datetime.datetime.now	-0.12500647
-4.31458	s-	-0.12500647
-4.4878917	s.log	-0.12500647
-4.4878917	ab	-0.12500647
-4.31458	obtained	-0.12500647
-4.4878917	self.stream.close	-0.12500647
-4.4878917	outbox	-0.12500647
-4.4878917	mail.outbox	-0.12500647
-4.31458	message.message.	-0.21926783
-4.4878917	mes	-0.12500647
-4.4878917	mail.outbox.extend	-0.12500647
-4.4878917	smtplib	-0.12500647
-4.31458	ssl	-0.15421125
-4.2182107	sanitize	-0.2124895
-3.6304173	address	-0.17431098
-3.5469506	port	-0.19546205
-4.4878917	tls	-0.12500647
-4.31458	self.host	-0.21926783
-4.4878917	HOST	-0.12500647
-4.4878917	self.host.	-0.12500647
-4.4878917	PORT	-0.12500647
-4.31458	self.port.	-0.21926783
-4.4878917	USER	-0.12500647
-4.2182107	self.username	-0.18552251
-4.4878917	self.username.	-0.12500647
-4.4878917	PASSWORD	-0.12500647
-4.31458	self.password.	-0.21926783
-4.068959	USE	-0.23742087
-4.4878917	TLS	-0.12500647
-3.7965379	self.use	-0.6504209
-4.4878917	SSL	-0.1250065
-4.31458	self.timeout.	-0.21926783
-4.4878917	mutually	-0.12500647
-4.31458	exclusive	-0.12500647
-3.8698447	so	-0.1250065
-4.31458	those	-0.12500647
-4.4878917	smtplib.SMTP	-0.12500647
-2.987913	initial	-0.5053843
-4.4878917	NAME.get	-0.12500647
-4.31458	fqdn	-0.12500647
-4.4878917	hostname	-0.12500647
-4.4878917	self.timeout	-0.12500647
-4.31458	instantiated	-0.21926783
-4.2182107	self.port	-0.16958478
-4.4878917	params.	-0.12500647
-4.4878917	self.connection.ehlo.	-0.12500647
-4.4878917	self.connection.starttls.	-0.12500647
-4.4878917	self.password	-0.12500647
-4.4878917	self.connection.login	-0.12500647
-4.4878917	smtplib.SMTPException	-0.12500647
-4.4878917	self.connection.quit.	-0.12500647
-4.4878917	ssl.SSLError	-0.12500647
-4.4878917	smtplib.SMTPServerDisconnected	-0.12500647
-4.4878917	self.connection.close.	-0.12500647
-4.4878917	conn	-0.12500647
-4.2182107	sent	-0.19870768
-4.4878917	message.recipients	-0.12500647
-4.4878917	message.from	-0.12500647
-4.4878917	message.encoding	-0.12500647
-3.5866818	addr	-0.2061161
-4.2182107	recipients	-0.1250065
-4.4878917	self.connection.sendmail	-0.12500647
-4.4878917	message.as	-0.12500647
-4.4878917	mimetypes	-0.12500647
-4.4878917	Charset	-0.12500647
-4.4878917	encoders	-0.12500647
-4.4878917	Encoders	-0.12500647
-4.4878917	email.message	-0.12500647
-4.31458	Message	-0.12500647
-4.4878917	email.mime.text	-0.12500647
-4.2182107	MIMEText	-0.1250065
-4.4878917	email.mime.multipart	-0.12500647
-4.2182107	MIMEMultipart	-0.1250065
-4.4878917	email.mime.base	-0.12500647
-4.2182107	MIMEBase	-0.18552251
-4.4878917	email.mime.message	-0.12500647
-4.2182107	MIMEMessage	-0.1250065
-4.4878917	email.header	-0.12500647
-3.9580894	Header	-0.16029553
-4.4878917	email.utils	-0.12500647
-4.2182107	formatdate	-0.12500647
-4.4878917	getaddresses	-0.12500647
-4.31458	formataddr	-0.12500647
-4.31458	parseaddr	-0.12500647
-4.4878917	Charset.Charset	-0.12500647
-3.9580894	utf8	-0.50429285
-4.4878917	charset.body	-0.12500647
-3.6304173	application	-0.16683196
-4.4878917	octet-stream	-0.12500647
-3.8698447	idstring	-0.15421125
-4.31458	timeval	-0.12500647
-4.4878917	time.gmtime	-0.12500647
-4.31458	time.strftime	-0.12500647
-4.31458	utcdate	-0.12500647
-4.2182107	os.getpid	-0.1250065
-4.2182107	pid	-0.1250065
-4.4878917	random.randrange	-0.12500647
-4.4878917	100000	-0.12500647
-4.31458	randint	-0.12500647
-4.31458	idhost	-0.12500647
-3.7338364	@	-0.17141993
-4.4878917	HEADERS	-0.12500647
-4.4878917	reply-to	-0.12500647
-3.5469506	cc	-0.19979253
-3.9580894	bcc	-0.12500647
-4.4878917	resent-from	-0.12500647
-4.4878917	resent-sender	-0.12500647
-4.4878917	&apos;resent-to	-0.12500647
-4.4878917	resent-cc	-0.12500647
-4.4878917	resent-bcc	-0.12500647
-4.31458	CHARSET	-0.12500647
-3.363809	can	-0.38968265
-4.2182107	contain	-0.1250065
-3.8698447	got	-0.15421125
-4.4878917	val.encode	-0.12500647
-4.2182107	UnicodeEncodeError	-0.18552251
-4.2182107	lower	-0.12500647
-4.2182107	case	-0.12500647
-4.31458	ADDRESS	-0.12500647
-4.4878917	getadresses	-0.12500647
-3.7965379	encode	-0.1949625
-4.068959	nm	-0.23742087
-4.4878917	addr.encode	-0.12500647
-4.4878917	addr.split	-0.12500647
-4.2182107	localpart	-0.23742087
-3.4167135	domain	-0.2928837
-4.2182107	instantiate	-0.13728318
-3.8698447	decode	-0.14991698
-4.4878917	domain.encode	-0.12500647
-4.4878917	idna	-0.12500647
-4.31458	MIMEMixin	-0.12500647
-4.31458	unixfrom	-0.12500647
-3.7338364	fp	-0.25396222
-4.4878917	six.StringIO.	-0.12500647
-4.2182107	g	-0.1250065
-4.4878917	generator.Generator	-0.12500647
-4.4878917	mangle	-0.12500647
-4.4878917	g.flatten	-0.12500647
-4.4878917	fp.getvalue	-0.12500647
-4.4878917	six.BytesIO.	-0.12500647
-4.4878917	generator.BytesGenerator	-0.12500647
-4.4878917	SafeMIMEMessage	-0.12500647
-4.4878917	setitem	-0.12500647
-4.068959	subtype	-0.19289571
-4.4878917	Content-Transfer-Encoding	-0.12500647
-4.068959	sys.version	-0.40738285
-4.4878917	3,4	-0.12500647
-4.4878917	text.encode	-0.12500647
-4.4878917	charset.output	-0.12500647
-4.31458	payload	-0.18552251
-4.4878917	payload.decode	-0.12500647
-4.4878917	surrogateescape	-0.12500647
-4.4878917	self.replace	-0.12500647
-4.31458	Content-Type	-0.12500647
-4.4878917	symbols	-0.12500647
-4.2182107	self.encoding	-0.18552251
-4.31458	mixed	-0.12500647
-4.4878917	subparts	-0.12500647
-3.7338364	body	-0.14229266
-4.4878917	self.to.	-0.12500647
-3.5469506	self.to	-0.49765986
-4.4878917	self.cc.	-0.12500647
-4.068959	self.cc	-0.16958478
-4.4878917	self.bcc.	-0.12500647
-4.31458	self.bcc	-0.12500647
-4.31458	self.from	-0.21926783
-4.4878917	self.subject.	-0.12500647
-4.4878917	self.body.	-0.12500647
-4.068959	attachments	-0.12500647
-3.9580894	self.attachments	-0.19870768
-3.7338364	self.extra	-0.53845084
-4.2182107	self.connection.	-0.18552251
-4.4878917	django.core.mail	-0.12500647
-4.31458	self.body	-0.1250065
-4.31458	self.subject	-0.12500647
-4.4878917	Subject	-0.12500647
-4.4878917	headers.get	-0.12500647
-4.4878917	From	-0.12500647
-4.4878917	To	-0.12500647
-3.2741234	dictionary.	-0.30535755
-4.4878917	Cc	-0.12500647
-4.4878917	key.lower	-0.12500647
-3.7338364	names	-0.15584663
-3.2353878	date	-0.4028234
-4.4878917	Date	-0.12500647
-4.4878917	message-id	-0.12500647
-4.4878917	Message-ID	-0.12500647
-4.4878917	headers.items	-0.12500647
-4.4878917	self.recipients	-0.12500647
-4.4878917	attach	-0.12500647
-3.9580894	mimetype	-0.14991698
-4.4878917	self.attach	-0.12500647
-4.4878917	self.mixed	-0.12500647
-4.31458	msg.attach	-0.18552251
-3.6790557	attachment	-0.19289571
-3.9580894	mime	-0.50429285
-4.4878917	mimetype.split	-0.12500647
-4.2182107	basetype	-0.18552251
-4.4878917	rfc822	-0.12500647
-4.4878917	content.message	-0.12500647
-4.4878917	attachment.set	-0.12500647
-4.4878917	Encoders.encode	-0.12500647
-4.31458	mimetypes.guess	-0.21926783
-4.4878917	filename.encode	-0.12500647
-4.4878917	ascii&apos;	-0.12500647
-4.4878917	attachment.add	-0.12500647
-4.4878917	Content-Disposition	-0.12500647
-4.068959	11	-0.16029553
-3.8698447	9	-0.18552251
-4.31458	cc.	-0.1250065
-4.31458	alternatives	-0.12500647
-3.9580894	self.alternatives	-0.19870768
-4.4878917	self.alternative	-0.12500647
-4.2182107	socket	-0.18552251
-4.4878917	socket.getfqdn	-0.12500647
-4.31458	collections	-0.12500647
-4.068959	importlib	-0.16958478
-4.4878917	django.core.management.base	-0.12500647
-3.8698447	BaseCommand	-0.16029553
-3.5105512	CommandError	-0.22206351
-4.068959	CommandParser	-0.16958478
-4.4878917	django.core.management.color	-0.12500647
-3.6304173	color	-0.5927008
-3.9580894	lru	-0.50429285
-3.5469506	commands	-0.23392883
-3.7338364	management	-0.2436379
-3.3894563	command	-0.2457546
-3.2353878	without	-0.35842195
-4.2182107	.py	-0.18552251
-4.4878917	s.management.commands.	-0.12500647
-4.31458	module.	-0.1250065
-4.4878917	module.Command	-0.12500647
-4.4878917	cache.lru	-0.12500647
-3.8698447	maxsize	-0.14991698
-4.4878917	settings.configured	-0.12500647
-3.6304173	reversed	-0.20659344
-4.4878917	config.path	-0.12500647
-4.4878917	commands.update	-0.12500647
-4.2182107	Unknown	-0.1250065
-4.4878917	namefor	-0.12500647
-4.4878917	command.create	-0.12500647
-4.4878917	command.use	-0.12500647
-4.2182107	argparse	-0.12500647
-4.4878917	parser.parse	-0.1250065
-3.6304173	mapping	-0.19410545
-4.4878917	command.execute	-0.12500647
-4.31458	ManagementUtility	-0.12500647
-3.7965379	argv	-0.180556
-4.4878917	substitue	-0.12500647
-3.9580894	self.argv	-0.29167077
-4.068959	sys.argv	-0.12500647
-4.31458	self.argv.	-0.21926783
-4.2182107	self.prog	-0.28244412
-4.068959	self.settings	-0.40738285
-3.7965379	main	-0.48045892
-3.4167135	help	-0.35582596
-3.7965379	sorted	-0.23128513
-3.6790557	usage	-0.20039235
-4.4878917	Type	-0.12500647
-3.5866818	subcommand	-0.20784682
-4.2182107	specific	-0.12500647
-4.4878917	Available	-0.12500647
-4.068959	subcommands	-0.12500647
-4.4878917	collections.defaultdict	-0.12500647
-4.4878917	dict.	-0.12500647
-4.2182107	six.iteritems	-0.15421125
-4.4878917	calle	-0.12500647
-4.4878917	arugment	-0.12500647
-4.4878917	django&apos;	-0.12500647
-4.4878917	app.rpartition	-0.12500647
-4.4878917	dict.keys	-0.12500647
-4.31458	style.NOTICE	-0.12500647
-4.4878917	Note	-0.12500647
-4.4878917	core	-0.12500647
-4.4878917	listed	-0.12500647
-4.2182107	properly	-0.1250065
-4.31458	configured	-0.12500647
-4.31458	settings.INSTALLED	-0.21926783
-4.4878917	APPS	-0.1250065
-4.31458	sys.stderr.write	-0.12500647
-4.4878917	nType	-0.12500647
-4.4878917	sys.exit	-0.12500647
-4.31458	BaseCommands	-0.12500647
-4.4878917	autocomplete	-0.12500647
-3.9580894	DJANGO	-0.50429285
-4.4878917	AUTO	-0.12500647
-4.4878917	COMPLETE	-0.12500647
-4.2182107	os.environ	-0.18552251
-4.4878917	slit	-0.12500647
-3.8698447	whitespace	-0.15421125
-4.4878917	COMP	-0.12500647
-4.4878917	WORDS	-0.12500647
-4.2182107	cwords	-0.12500647
-4.4878917	CWORD	-0.12500647
-4.2182107	cword	-0.1250065
-3.5469506	decremented	-0.71454215
-4.068959	curr	-0.16958478
-4.31458	IndexError	-0.1250065
-4.4878917	caugh	-0.12500647
-4.4878917	--help	-0.12500647
-4.4878917	equlals	-0.12500647
-3.199826	filter	-0.48549667
-4.4878917	x.startswith	-0.12500647
-3.7965379	sort	-0.13936342
-4.2182107	blank	-0.1250065
-3.9580894	spaces	-0.26357666
-3.6790557	print	-0.23515446
-4.31458	standard	-0.12500647
-4.068959	output.	-0.16958478
-4.31458	contanied	-0.21926783
-4.4878917	self.fetch	-0.12500647
-4.4878917	runfcgi	-0.12500647
-4.4878917	django.core.servers.fastcgi	-0.12500647
-3.8698447	FASTCGI	-0.58347416
-4.4878917	dumpdata	-0.12500647
-4.4878917	sqlall	-0.12500647
-4.4878917	sqlclear	-0.12500647
-4.31458	sqlcustom	-0.12500647
-4.4878917	config.label	-0.1250065
-4.4878917	cls.create	-0.12500647
-4.4878917	cls.use	-0.12500647
-4.2182107	firs	-0.28244412
-4.4878917	opt.option	-0.12500647
-4.4878917	opt.nargs	-0.12500647
-3.4769683	opt	-0.31443512
-4.4878917	actions	-0.12500647
-4.4878917	opt.get	-0.12500647
-4.4878917	parser.option	-0.12500647
-3.7338364	slice	-0.1518937
-4.2182107	prev	-0.16029553
-3.5469506	opts	-0.1891935
-4.31458	options.	-0.12500647
-3.3894563	option	-0.2980164
-3.8698447	prog	-0.2436379
-4.2182107	parser.add	-0.28244412
-4.4878917	--settings	-0.12500647
-4.4878917	--pythonpath	-0.12500647
-4.2182107	nargs	-0.23742087
-3.7338364	known	-0.4166095
-3.7338364	wiht	-0.17758653
-3.294869	no	-0.23750237
-4.4878917	--version	-0.12500647
-4.4878917	-h	-0.12500647
-4.4878917	compilemessages	-0.12500647
-4.31458	makemessages	-0.12500647
-4.4878917	&apos;startapp	-0.12500647
-4.4878917	startproject	-0.12500647
-4.4878917	settings.configure.	-0.12500647
-4.4878917	django.setup.	-0.12500647
-4.4878917	self.autocomplete.	-0.12500647
-4.4878917	--commands	-0.12500647
-4.4878917	self.main	-0.12500647
-4.31458	sys.stdout.	-0.21926783
-4.31458	options.args	-0.1250065
-4.4878917	options.args.	-0.12500647
-4.4878917	--version&apos;	-0.12500647
-4.31458	django.get	-0.21926783
-4.4878917	utility	-0.12500647
-4.4878917	utility.execute.	-0.12500647
-4.2182107	ArgumentParser	-0.1250065
-4.4878917	optparse	-0.12500647
-4.2182107	OptionParser	-0.1250065
-4.068959	RemovedInDjango20Warning	-0.16029553
-3.7338364	cmd	-0.17758653
-4.31458	self.cmd.	-0.12500647
-4.4878917	self.cmd	-0.12500647
-3.6790557	missing	-0.3819406
-3.6790557	statement	-0.17490284
-3.166957	arg	-0.31187418
-4.4878917	self.cmd.missing	-0.12500647
-4.31458	options.settings	-0.12500647
-4.4878917	SETTINGS	-0.12500647
-4.4878917	MODULE	-0.1250065
-4.31458	options.pythonpath	-0.12500647
-4.4878917	sys.path.	-0.12500647
-4.2182107	OutputWrapper	-0.18552251
-4.4878917	endings	-0.12500647
-3.9580894	self.style	-0.21926783
-4.4878917	out.isatty	-0.12500647
-3.7965379	ending	-0.12500647
-4.4878917	self.ending.	-0.12500647
-4.4878917	self.ending	-0.12500647
-4.31458	returning	-0.12500647
-4.4878917	func.	-0.1250065
-4.4878917	out.write.	-0.12500647
-4.068959	leave	-0.16958478
-3.166957	locale	-0.38185298
-4.31458	alone	-0.12500647
-4.4878917	self.style.	-0.12500647
-3.7965379	requires	-0.2533322
-4.4878917	validation	-0.12500647
-3.6304173	system	-0.1856089
-4.4878917	&apos;in	-0.12500647
-4.4878917	RemovedInDjango19Warning.	-0.12500647
-3.5469506	both	-0.17037033
-3.7965379	Command	-0.14229266
-4.31458	defines	-0.12500647
-4.4878917	&apos;and	-0.12500647
-3.9580894	illegal	-0.33433092
-4.068959	self.requires	-0.40738285
-4.068959	they	-0.21926783
-4.31458	self.option	-0.21926783
-4.31458	inverted	-0.12500647
-3.9580894	self.args	-0.15421125
-3.9580894	self.help	-0.16029553
-4.4878917	RemovedInDjango20Warning.	-0.1250065
-4.4878917	self.usage	-0.12500647
-4.4878917	version.	-0.12500647
-4.4878917	-v	-0.12500647
-4.4878917	--verbosity	-0.12500647
-4.068959	action	-0.16439956
-4.31458	dest	-0.21926783
-3.6790557	verbosity	-0.2124895
-4.4878917	1&apos;	-0.12500647
-3.3395927	choice	-0.32194436
-3.5105512	choices	-0.2774599
-4.4878917	0&apos;	-0.12500647
-4.4878917	2&apos;	-0.1250065
-4.4878917	3&apos;	-0.1250065
-4.4878917	Verbosity	-0.12500647
-4.2182107	minimal	-0.1250065
-3.8698447	normal	-0.19662985
-4.31458	verbose	-0.21926783
-4.4878917	very	-0.12500647
-3.6790557	Python	-0.14229266
-4.31458	e.g.	-0.1250065
-4.4878917	myproject.settings.main	-0.12500647
-4.068959	isn	-0.23742087
-3.3166554	t	-0.29632103
-3.6304173	provided	-0.1856089
-4.31458	environment	-0.21926783
-4.068959	A	-0.1250065
-4.31458	home	-0.12500647
-4.4878917	djangoprojects	-0.12500647
-4.4878917	myproject	-0.12500647
-4.4878917	--traceback	-0.12500647
-4.4878917	Raise	-0.12500647
-4.4878917	--no-color	-0.12500647
-4.4878917	Don	-0.12500647
-4.2182107	colorize	-0.1250065
-4.31458	joining	-0.1250065
-4.31458	otherwise.	-0.12500647
-3.5105512	int	-0.3687928
-4.2182107	self.add	-0.28244412
-4.31458	self.create	-0.21926783
-4.4878917	parser.print	-0.12500647
-4.31458	vars	-0.1250065
-4.4878917	self.execute	-0.12500647
-4.4878917	options.traceback	-0.12500647
-3.9580894	stderr	-0.12500647
-4.068959	sys.stderr	-0.12500647
-4.4878917	self.style.ERROR.	-0.12500647
-4.2182107	self.stdout	-0.17634375
-4.31458	stdout	-0.12500647
-4.31458	self.stderr	-0.1250065
-3.9580894	self.can	-0.50429285
-3.7965379	saved	-0.48045892
-4.31458	self.leave	-0.21926783
-4.4878917	Incompatible	-0.12500647
-4.4878917	settings.	-0.12500647
-3.9580894	th	-0.16029553
-4.4878917	translation.activate	-0.12500647
-4.31458	en-us	-0.12500647
-4.31458	self.check	-0.16958478
-4.4878917	self.output	-0.12500647
-4.4878917	DB	-0.12500647
-4.4878917	connection.ops.start	-0.12500647
-4.4878917	self.style.SQL	-0.12500647
-4.4878917	KEYWORD	-0.12500647
-4.068959	stream.	-0.12500647
-4.4878917	connection.ops.end	-0.12500647
-4.4878917	self.stdout.	-0.12500647
-3.6790557	display	-0.5896034
-4.4878917	checks.run	-0.12500647
-3.7338364	issues	-0.19870768
-3.7965379	visible	-0.6504209
-4.2182107	issue	-0.1250065
-4.4878917	debugs	-0.12500647
-4.2182107	e.level	-0.18552251
-4.31458	checks.INFO	-0.12500647
-4.2182107	e.is	-0.28244412
-4.31458	silenced	-0.1250065
-4.31458	infos	-0.12500647
-4.31458	checks.WARNING	-0.12500647
-4.2182107	false.	-0.1250065
-4.4878917	checks.ERROR	-0.12500647
-4.4878917	checks.CRITICAL.	-0.12500647
-4.4878917	criticals	-0.12500647
-4.4878917	checks.CRITICAL	-0.12500647
-4.4878917	e.level.	-0.12500647
-4.31458	CRITICALS	-0.12500647
-4.4878917	WARNINGS	-0.12500647
-4.4878917	INFOS	-0.12500647
-4.31458	group	-0.21926783
-3.7965379	formatted	-0.19371623
-4.4878917	System	-0.12500647
-4.4878917	identified	-0.12500647
-3.9580894	some	-0.12500647
-4.4878917	stirting	-0.12500647
-3.9580894	AppCommand	-0.1250065
-4.31458	Enter	-0.16958478
-4.31458	least	-0.14991698
-4.4878917	metavar	-0.12500647
-4.4878917	One	-0.12500647
-3.6304173	labels	-0.19210891
-4.4878917	lable	-0.12500647
-4.068959	sure	-0.15421125
-4.31458	INSTALLED	-0.21926783
-4.31458	correct	-0.12500647
-4.4878917	eery	-0.12500647
-4.31458	Subclasses	-0.12500647
-4.31458	AppCommand.handle	-0.21926783
-4.4878917	superseded	-0.12500647
-4.4878917	2.	-0.12500647
-4.4878917	config.models	-0.12500647
-4.31458	legacy	-0.1250065
-3.9580894	because	-0.26357666
-4.4878917	config.label.	-0.12500647
-4.31458	LabelCommand	-0.12500647
-4.4878917	label&apos;	-0.12500647
-4.068959	self.label	-0.16958478
-4.2182107	NoArgsCommand	-0.18552251
-4.31458	2.0	-0.12500647
-3.4769683	takes	-0.3151519
-3.7965379	accept	-0.32355985
-4.4878917	noargs	-0.1250065
-4.4878917	termcolors	-0.12500647
-4.068959	supports	-0.2124895
-4.2182107	sys.platform	-0.16958478
-4.2182107	plat	-0.18552251
-4.4878917	logic	-0.12500647
-4.4878917	Pocket	-0.12500647
-4.4878917	PC	-0.12500647
-4.4878917	win32&apos;	-0.12500647
-4.4878917	ANICON	-0.12500647
-3.7338364	supported	-0.27012375
-4.4878917	platform.	-0.12500647
-4.4878917	sys.stdout.isatty	-0.12500647
-4.4878917	tty	-0.12500647
-4.4878917	platform	-0.12500647
-4.4878917	COLORS	-0.1250065
-4.4878917	termcolors.parse	-0.12500647
-3.7338364	dummy	-0.22824948
-3.8698447	role	-0.14991698
-4.4878917	termcolors.PALETTES	-0.12500647
-4.4878917	termcolors.NOCOLOR	-0.12500647
-4.4878917	PALETTE	-0.12500647
-4.068959	sets	-0.16029553
-4.4878917	termcolors.make	-0.12500647
-4.31458	style.ERROR	-0.12500647
-4.4878917	OUTPUT	-0.12500647
-3.9580894	identity	-0.19870768
-3.9580894	parameter	-0.12500647
-4.4878917	django.core.checks.registry	-0.12500647
-4.4878917	Checks	-0.12500647
-4.4878917	entire	-0.12500647
-4.4878917	potential	-0.12500647
-4.4878917	problems	-0.12500647
-4.4878917	--tag	-0.12500647
-4.4878917	-t	-0.12500647
-4.31458	Run	-0.12500647
-4.4878917	labeled	-0.12500647
-4.31458	given	-0.12500647
-4.4878917	--list-tags	-0.12500647
-4.4878917	List	-0.12500647
-4.4878917	unapcked	-0.12500647
-4.4878917	dictionay	-0.12500647
-4.4878917	registry.tags	-0.12500647
-4.068959	separate	-0.12500647
-4.4878917	config.	-0.12500647
-4.4878917	checks.tag	-0.12500647
-4.31458	tag.	-0.12500647
-4.4878917	There	-0.12500647
-4.4878917	django.core.management.utils	-0.12500647
-4.2182107	popen	-0.28244412
-3.8698447	wrapper	-0.1975731
-4.068959	npath	-0.12500647
-4.068959	upath	-0.16029553
-4.4878917	bom	-0.12500647
-3.9580894	fn	-0.15421125
-4.068959	sample	-0.16958478
-4.2182107	three	-0.1250065
-4.4878917	xef	-0.12500647
-4.4878917	xbb	-0.12500647
-4.4878917	xbf	-0.12500647
-4.4878917	codecs.BOM	-0.12500647
-4.4878917	UTF16	-0.12500647
-4.4878917	LE	-0.12500647
-4.4878917	BE	-0.12500647
-4.31458	expression.	-0.12500647
-4.4878917	unction	-0.12500647
-4.4878917	Compiles	-0.12500647
-4.2182107	.po	-0.18552251
-4.31458	.mo	-0.12500647
-4.2182107	builtin	-0.18552251
-3.3894563	gettext	-0.31058246
-3.7965379	program	-0.14672394
-4.4878917	msgfmt&apos;	-0.12500647
-4.4878917	--check-format	-0.12500647
-4.31458	--locale	-0.12500647
-4.4878917	-l	-0.12500647
-4.4878917	Locale	-0.12500647
-4.4878917	de	-0.12500647
-4.4878917	AT	-0.12500647
-4.2182107	times	-0.16958478
-4.2182107	--exclude	-0.1250065
-4.4878917	-x	-0.12500647
-3.363809	exclude	-0.29531178
-4.4878917	Locales	-0.12500647
-3.6790557	none	-0.28004587
-4.4878917	evaluation	-0.12500647
-4.2182107	self.program	-0.12500647
-4.2182107	sring	-0.18552251
-4.4878917	Can	-0.12500647
-4.4878917	GNU	-0.12500647
-4.4878917	tools	-0.12500647
-4.4878917	0.15	-0.12500647
-4.4878917	newer	-0.12500647
-4.31458	self.program.	-0.21926783
-3.8698447	basedirs	-0.19662985
-3.9580894	settings.LOCALE	-0.50429285
-4.4878917	PATHS	-0.12500647
-3.5469506	items	-0.21441542
-3.7338364	basedir	-0.15696628
-4.31458	os.path.isdir	-0.12500647
-4.4878917	Git	-0.12500647
-4.4878917	checkout	-0.12500647
-3.9580894	tree	-0.15421125
-3.5105512	specified	-0.16741411
-3.6790557	locales	-0.28980973
-3.6790557	dirs	-0.28010574
-4.4878917	maths	-0.12500647
-4.4878917	wild	-0.12500647
-4.4878917	card	-0.12500647
-4.068959	applied	-0.19662985
-3.7965379	relative	-0.26357666
-4.4878917	complement	-0.12500647
-4.4878917	LC	-0.12500647
-4.4878917	MESSAGES	-0.12500647
-3.7965379	locations	-0.21548906
-4.31458	ldir	-0.12500647
-3.5866818	dirpath	-0.3757236
-4.2182107	dirnames	-0.1250065
-3.7965379	filenames	-0.2021797
-3.6790557	starting	-0.29343507
-4.31458	self.compile	-0.21926783
-3.5866818	compile	-0.41474447
-4.068959	self.verbosity	-0.18552251
-4.2182107	self.stdout.write	-0.16029553
-4.31458	processing	-0.12500647
-4.31458	replacing	-0.12500647
-3.9580894	occurrences	-0.33433092
-4.068959	po	-0.18564598
-4.31458	BOM	-0.12500647
-4.31458	Byte	-0.12500647
-4.31458	Order	-0.12500647
-4.31458	Mark	-0.12500647
-3.9580894	encoded	-0.14991698
-4.2182107	UTF-8	-0.1250065
-4.4878917	self.stderr.write	-0.12500647
-4.4878917	seemingly	-0.12500647
-4.4878917	location.	-0.12500647
-4.4878917	mo	-0.12500647
-4.31458	updated	-0.12500647
-4.4878917	-o	-0.12500647
-4.068959	args.	-0.12500647
-4.4878917	Execution	-0.12500647
-4.068959	failed	-0.2124895
-4.4878917	django.core.cache	-0.12500647
-4.4878917	django.core.cache.backends.db	-0.12500647
-4.4878917	django.db.utils	-0.12500647
-4.31458	Creates	-0.12500647
-3.5866818	tables	-0.21777366
-4.4878917	needed	-0.12500647
-3.6304173	SQL	-0.25282887
-4.4878917	Optional	-0.12500647
-4.4878917	--database	-0.12500647
-4.4878917	Nominates	-0.12500647
-4.4878917	onto	-0.12500647
-4.2182107	tablenames	-0.1250065
-4.4878917	convet	-0.12500647
-4.4878917	self.verbosity.	-0.12500647
-3.7965379	tablename	-0.2533322
-4.31458	router.allow	-0.21926783
-4.068959	migrate	-0.16654895
-4.4878917	cache.cache	-0.12500647
-4.068959	connection.introspection.table	-0.40738285
-4.068959	already	-0.16958478
-4.4878917	models.CharField	-0.12500647
-3.5105512	unique	-0.40571564
-3.5469506	primary	-0.47930995
-4.4878917	models.TextField	-0.12500647
-4.4878917	models.DateTimeField	-0.12500647
-4.31458	True.	-0.12500647
-4.4878917	connection.ops.quote	-0.12500647
-4.31458	qn	-0.12500647
-3.6790557	f.name	-0.1975731
-4.31458	f.db	-0.21926783
-4.4878917	f.null	-0.12500647
-3.7965379	NOT	-0.1250065
-4.31458	NULL	-0.21926783
-4.4878917	f.primary	-0.12500647
-4.4878917	PRIMARY	-0.12500647
-4.4878917	f.unique	-0.12500647
-4.4878917	UNIQUE	-0.12500647
-4.4878917	sINDEX	-0.12500647
-4.4878917	ON	-0.12500647
-3.7965379	whitespaces	-0.2436379
-4.31458	TABLE	-0.16958478
-3.4167135	its	-0.17679524
-4.4878917	statement.	-0.12500647
-4.31458	savepoint	-0.21926783
-4.31458	connection.features.can	-0.21926783
-4.068959	rollback	-0.17634375
-4.4878917	ddl	-0.12500647
-4.31458	connection.cursor	-0.12500647
-4.31458	curs	-0.12500647
-4.4878917	curs.execute.	-0.12500647
-4.4878917	nThe	-0.12500647
-4.31458	Runs	-0.16029553
-4.31458	command-line	-0.12500647
-3.6304173	shell	-0.1856089
-4.4878917	connection.client.runshell.	-0.12500647
-4.2182107	appear	-0.1250065
-4.31458	omittable	-0.12500647
-4.4878917	.items	-0.12500647
-4.2182107	--all	-0.1250065
-4.4878917	Display	-0.12500647
-4.068959	their	-0.12500647
-3.8698447	prefixed	-0.18564598
-4.4878917	newlies	-0.12500647
-4.2182107	OrderedDict	-0.1250065
-3.7965379	serializers	-0.20780133
-4.4878917	Output	-0.12500647
-3.6790557	contents	-0.19438557
-3.1218941	fixture	-0.42894655
-4.2182107	each	-0.18552251
-4.31458	manager	-0.12500647
-4.4878917	unless	-0.12500647
-4.4878917	.ModelName	-0.12500647
-4.4878917	Restricts	-0.12500647
-4.4878917	dumped	-0.12500647
-4.4878917	label.ModelName.	-0.12500647
-4.4878917	--format	-0.12500647
-3.8698447	json	-0.17634375
-4.4878917	Specifies	-0.12500647
-3.9580894	serialization	-0.17758653
-3.6790557	fixtures	-0.13824204
-4.4878917	--indent	-0.12500647
-3.6304173	indent	-0.16260378
-3.7338364	when	-0.12500647
-4.4878917	pretty-printing	-0.12500647
-4.2182107	dump	-0.1250065
-4.31458	-e	-0.12500647
-4.31458	-n	-0.12500647
-4.4878917	--natural	-0.12500647
-3.8698447	natural	-0.21717744
-4.4878917	Use	-0.12500647
-4.31458	--natural-foreign	-0.12500647
-4.2182107	foreign	-0.1250065
-4.4878917	--natural-primary	-0.12500647
-4.4878917	-a	-0.12500647
-4.31458	--pks	-0.12500647
-4.31458	Only	-0.1250065
-4.4878917	Accepts	-0.12500647
-3.9580894	comma	-0.19662985
-3.8698447	work	-0.29167077
-4.31458	specify	-0.12500647
-4.4878917	--output	-0.12500647
-4.4878917	written	-0.12500647
-4.4878917	``--natural``	-0.12500647
-4.4878917	``--natural-foreign``	-0.12500647
-3.9580894	pks	-0.16029553
-4.2182107	excluded	-0.28244412
-4.4878917	excludes	-0.12500647
-4.4878917	apps.	-0.12500647
-4.4878917	config.get	-0.12500647
-4.4878917	list.setdefault	-0.12500647
-4.4878917	serializers.get	-0.12500647
-4.2182107	public	-0.18552251
-3.9580894	serializer	-0.1975731
-4.31458	formats	-0.12500647
-4.4878917	serializers.SerializerDoesNotExist	-0.12500647
-4.4878917	list.items	-0.12500647
-3.9580894	dependencies	-0.14672394
-4.4878917	meta.proxy	-0.12500647
-4.4878917	objects.using	-0.12500647
-3.6304173	order	-0.2577845
-4.4878917	meta.pk.name	-0.12500647
-4.4878917	queryset.	-0.12500647
-4.4878917	queryset.filter	-0.12500647
-3.363809	pk	-0.3181023
-3.5866818	queryset	-0.23897016
-4.4878917	queryset.iterator	-0.12500647
-4.4878917	self.stdout.ending	-0.12500647
-4.4878917	writing	-0.12500647
-4.4878917	serializers.serialize	-0.12500647
-3.7965379	show	-0.48045892
-3.9580894	serialize	-0.14672394
-4.4878917	fr	-0.1250065
-4.4878917	model.natural	-0.12500647
-3.7965379	deps	-0.21617368
-4.31458	dep	-0.12500647
-4.4878917	meta.fields	-0.1250065
-4.2182107	field.rel	-0.23742087
-4.31458	field.rel.to	-0.1250065
-3.7338364	rel	-0.36931735
-4.4878917	meta.many	-0.12500647
-4.4878917	field.rel.through.	-0.12500647
-4.4878917	meta.auto	-0.12500647
-4.4878917	methof	-0.12500647
-4.4878917	dependencies.reverse.	-0.12500647
-3.9580894	skipped	-0.12500647
-3.5105512	candidate	-0.30850244
-4.2182107	elemetns	-0.1250065
-3.6790557	resolve	-0.22286567
-4.2182107	serialized	-0.1250065
-3.7338364	separator	-0.34048238
-4.068959	obj.	-0.12500647
-4.4878917	django.core.management	-0.12500647
-4.4878917	django.core.management.sql	-0.12500647
-3.9580894	emit	-0.41351217
-4.4878917	Removes	-0.12500647
-4.068959	ALL	-0.23742087
-4.4878917	DATA	-0.12500647
-4.31458	including	-0.12500647
-4.068959	added	-0.16958478
-4.31458	during	-0.12500647
-4.4878917	&apos;migrations	-0.12500647
-4.2182107	unmigrated	-0.28244412
-4.31458	also	-0.12500647
-4.4878917	reloaded	-0.12500647
-4.31458	achieve	-0.12500647
-4.4878917	fresh	-0.12500647
-4.2182107	install	-0.12500647
-3.5105512	state	-0.27449656
-4.4878917	--noinput	-0.12500647
-3.6790557	interactive	-0.20206751
-4.4878917	Tells	-0.12500647
-4.4878917	prompt	-0.12500647
-4.4878917	kind	-0.12500647
-4.4878917	--no-initial-data	-0.12500647
-3.6304173	after	-0.12500647
-4.4878917	synchronization	-0.12500647
-4.2182107	sequences	-0.1250065
-4.4878917	cascade	-0.12500647
-3.9580894	inhibit	-0.50429285
-4.31458	.management	-0.12500647
-4.4878917	config.name.	-0.12500647
-3.6304173	o	-0.13936342
-4.068959	confirm	-0.16029553
-4.4878917	requested	-0.12500647
-4.4878917	IRREVERSIBLY	-0.12500647
-4.4878917	DESTROY	-0.12500647
-4.068959	currently	-0.12500647
-4.2182107	want	-0.18552251
-3.8698447	yes	-0.18564598
-4.2182107	continue	-0.1250065
-4.4878917	cancel	-0.12500647
-4.4878917	connection.settings	-0.12500647
-4.2182107	couldn	-0.23742087
-4.4878917	flushed	-0.12500647
-4.068959	possible	-0.16958478
-4.4878917	reasons	-0.12500647
-4.31458	correctly	-0.12500647
-4.4878917	At	-0.12500647
-4.4878917	nHint	-0.12500647
-4.2182107	look	-0.1250065
-4.4878917	django-admin.py	-0.12500647
-4.31458	sqlflush	-0.12500647
-4.31458	wasn	-0.21926783
-4.4878917	able	-0.12500647
-4.31458	e.	-0.12500647
-4.2182107	six.reraise	-0.16958478
-4.4878917	info.	-0.1250065
-4.4878917	self.emit	-0.12500647
-4.31458	loaddata	-0.12500647
-4.4878917	Flush	-0.12500647
-4.4878917	cancelled	-0.12500647
-4.2182107	router.get	-0.28244412
-4.4878917	migratable	-0.12500647
-3.6790557	include	-0.37272114
-3.6790557	auto	-0.75956535
-3.7338364	keyword	-0.27240735
-4.4878917	Introspects	-0.12500647
-4.31458	outputs	-0.12500647
-4.31458	introspect	-0.12500647
-4.31458	inspection	-0.1250065
-4.4878917	Database	-0.12500647
-3.5866818	selected	-0.3819406
-4.2182107	table2model	-0.23742087
-4.068959	re.sub	-0.23742087
-4.31458	a-zA-Z0-9	-0.21926783
-4.4878917	name.title.	-0.12500647
-3.6790557	u	-0.1856089
-4.31458	s.	-0.16958478
-4.4878917	auto-generated	-0.12500647
-4.31458	&apos;ll	-0.21926783
-4.4878917	manually	-0.12500647
-3.6790557	clean	-0.35259655
-4.4878917	Rearrange	-0.12500647
-4.4878917	Make	-0.12500647
-4.31458	Remove	-0.12500647
-4.4878917	`managed	-0.12500647
-4.4878917	False`	-0.12500647
-3.5866818	lines	-0.23536162
-4.4878917	wish	-0.12500647
-4.4878917	Feel	-0.12500647
-4.4878917	free	-0.12500647
-4.2182107	rename	-0.1250065
-3.8698447	don	-0.58347416
-4.4878917	Also	-0.12500647
-4.4878917	note	-0.12500647
-4.4878917	connection.introspection.get	-0.12500647
-3.9580894	relations	-0.1250065
-3.7338364	indexes	-0.16741411
-3.7965379	column	-0.3215686
-3.8698447	COMMENT	-0.34048238
-4.2182107	notes	-0.17634375
-4.4878917	relation	-0.1250065
-4.4878917	self.normalize	-0.12500647
-3.7965379	col	-0.48045892
-3.9580894	att	-0.26357666
-3.7338364	comment	-0.53845084
-3.5866818	i-th	-0.5154454
-4.4878917	to.	-0.12500647
-3.7338364	ForeignKey	-0.19289571
-4.2182107	AutoField	-0.12500647
-3.9580894	IntegerField	-0.17758653
-4.4878917	autofield	-0.12500647
-4.31458	seventh	-0.21926783
-4.31458	NullBooleanField	-0.1250065
-4.4878917	TextField	-0.12500647
-4.2182107	CharField	-0.15421125
-4.2182107	null	-0.16958478
-4.4878917	desc	-0.1250065
-4.4878917	type.	-0.12500647
-4.4878917	params.items	-0.12500647
-4.4878917	desc.	-0.12500647
-3.7965379	normalize	-0.2990897
-3.7965379	lowercase	-0.17055535
-3.7965379	Field	-0.17490284
-4.31458	made	-0.12500647
-4.31458	cal	-0.21926783
-4.4878917	re.subn	-0.12500647
-4.2182107	W	-0.18552251
-4.4878917	repl	-0.12500647
-4.4878917	unsuitable	-0.12500647
-4.4878917	name.find	-0.12500647
-4.4878917	ended	-0.12500647
-4.4878917	keyword.iskeyword	-0.12500647
-4.4878917	reserved	-0.12500647
-3.7338364	word	-0.1856089
-3.6304173	digit	-0.17490284
-4.2182107	identifier	-0.18552251
-4.4878917	conflict	-0.12500647
-4.4878917	guess	-0.12500647
-4.4878917	params.1	-0.12500647
-3.8698447	fourth	-0.58347416
-3.4769683	digits	-0.26260424
-4.2182107	DecimalField	-0.12500647
-4.31458	fifth	-0.18552251
-4.2182107	sixth	-0.18552251
-3.4167135	decimal	-0.39386493
-4.2182107	places	-0.14229266
-3.8698447	guessed	-0.41351217
-4.31458	handles	-0.12500647
-4.2182107	float	-0.1250065
-4.4878917	10.	-0.12500647
-4.4878917	5.	-0.12500647
-4.2182107	Meta	-0.1250065
-4.4878917	managed	-0.12500647
-4.2182107	gzip	-0.1250065
-4.4878917	zipfile	-0.12500647
-4.31458	IntegrityError	-0.12500647
-4.2182107	bz2	-0.1250065
-4.4878917	Installs	-0.12500647
-4.31458	No	-0.12500647
-4.2182107	Please	-0.12500647
-4.4878917	Fixture	-0.12500647
-4.4878917	--app	-0.12500647
-4.4878917	--ignorenonexistent	-0.12500647
-4.4878917	-i	-0.12500647
-3.5105512	ignore	-0.36030036
-4.4878917	Ignores	-0.12500647
-4.4878917	self.ignore.	-0.12500647
-4.4878917	self.database.	-0.12500647
-4.31458	hide	-0.21926783
-4.2182107	self.hide	-0.28244412
-4.068959	self.using	-0.16958478
-4.4878917	self.loaddata	-0.12500647
-4.4878917	transaction.get	-0.12500647
-4.4878917	autocommit	-0.12500647
-3.8698447	self.fixture	-0.58347416
-3.9580894	self.loaded	-0.50429285
-4.068959	self.models	-0.12500647
-4.31458	self.serialization	-0.21926783
-4.068959	self.compression	-0.40738285
-4.4878917	gzip.GzipFile	-0.12500647
-4.4878917	gz	-0.12500647
-4.31458	SingleZipReader	-0.12500647
-4.4878917	bz2.BZ2File	-0.12500647
-4.4878917	connection.constraint	-0.12500647
-4.4878917	disabled	-0.12500647
-4.4878917	meta.db	-0.12500647
-4.4878917	connection.check	-0.12500647
-4.4878917	constraints	-0.12500647
-4.4878917	Problem	-0.12500647
-4.4878917	installing	-0.12500647
-4.4878917	connection.ops.sequence	-0.12500647
-3.7338364	sequence	-0.1856089
-4.4878917	sql.	-0.12500647
-4.31458	grater	-0.18552251
-4.4878917	Resetting	-0.12500647
-4.4878917	Installed	-0.12500647
-4.4878917	count.	-0.12500647
-3.9580894	self.find	-0.50429285
-4.31458	self.parse	-0.21926783
-3.7338364	ser	-0.7084128
-3.7338364	fmt	-0.2982319
-3.7338364	cmp	-0.7084128
-3.9580894	loaded	-0.33433092
-4.4878917	Installing	-0.12500647
-4.4878917	humanize	-0.1250065
-4.4878917	dir.	-0.12500647
-4.4878917	serializers.deserialize	-0.12500647
-4.31458	ignorenonexistent	-0.12500647
-3.9580894	self.ignore	-0.2124895
-4.4878917	objects.	-0.12500647
-4.068959	obj.object.	-0.40738285
-4.4878917	obj.save	-0.12500647
-4.4878917	self.using.	-0.12500647
-4.4878917	obj.object.pk	-0.12500647
-4.4878917	fixture.close.	-0.12500647
-3.8698447	may	-0.21441542
-4.4878917	RuntimeWarning.	-0.12500647
-4.2182107	databases	-0.1250065
-4.4878917	formats.keys	-0.12500647
-4.4878917	fmts	-0.12500647
-4.4878917	fmt.	-0.12500647
-4.4878917	Loading	-0.12500647
-3.6790557	...	-0.29343507
-4.4878917	os.path.sep	-0.12500647
-4.31458	dirs.	-0.12500647
-4.31458	combo	-0.12500647
-4.4878917	suffixes.	-0.12500647
-4.4878917	suffixes	-0.12500647
-3.6790557	targets	-0.15696628
-4.4878917	Checking	-0.12500647
-4.4878917	glob.iglob	-0.12500647
-4.4878917	Multiple	-0.12500647
-4.4878917	Aborting	-0.12500647
-4.4878917	ever	-0.12500647
-4.4878917	settings.FIXTURE	-0.12500647
-4.4878917	DIRS	-0.1250065
-4.4878917	os.path.realpath	-0.12500647
-4.4878917	name.rsplit	-0.12500647
-3.5469506	parts	-0.23331863
-4.4878917	parts.	-0.12500647
-4.31458	zipfile.ZipFile	-0.12500647
-4.4878917	zipfile.ZipFile.	-0.12500647
-4.31458	self.namelist	-0.12500647
-4.4878917	Zip-compressed	-0.12500647
-4.4878917	zipfile.ZipFile.read	-0.12500647
-3.6790557	dirname	-0.16029553
-4.4878917	surounded	-0.12500647
-4.2182107	quotes	-0.16958478
-4.4878917	fnmatch	-0.12500647
-4.31458	dropwhile	-0.12500647
-3.6304173	extensions	-0.1629294
-3.6304173	total	-0.5135195
-3.9580894	ordering	-0.1518937
-4.4878917	django.utils.jslex	-0.12500647
-4.068959	prepare	-0.40738285
-3.9580894	js	-0.16439956
-4.2182107	re.compile	-0.16958478
-4.4878917	Plural-Forms	-0.12500647
-3.4167135	$	-0.41439202
-3.8698447	bitwise	-0.29479045
-4.2182107	OR	-0.23128513
-4.4878917	performed	-0.12500647
-4.31458	re.MULTILINE	-0.21926783
-4.4878917	re.DOTALL	-0.12500647
-3.5866818	forms	-0.28661904
-4.2182107	programs	-0.1250065
-4.2182107	TranslatableFile	-0.1250065
-4.4878917	self.dirpath.	-0.12500647
-3.6790557	self.locale	-0.75956535
-4.2182107	self.dirpath	-0.21926783
-4.31458	other.path	-0.21926783
-4.4878917	mehod	-0.12500647
-4.31458	lt	-0.1250065
-4.4878917	django.utils.translation	-0.12500647
-4.2182107	templatize	-0.1250065
-4.4878917	command.verbosity	-0.12500647
-4.4878917	command.stdout.	-0.12500647
-4.31458	djangojs	-0.12500647
-4.4878917	command.extensions	-0.12500647
-4.4878917	templatized	-0.12500647
-3.8698447	orig	-0.4166095
-4.31458	fp.read	-0.21926783
-4.4878917	.c	-0.12500647
-4.2182107	thefile	-0.12500647
-4.4878917	fp.write	-0.12500647
-4.4878917	command.xgettext	-0.12500647
-4.2182107	xgettext	-0.1250065
-4.4878917	-d	-0.12500647
-4.4878917	--language	-0.12500647
-4.4878917	C	-0.12500647
-4.4878917	--keyword	-0.12500647
-4.4878917	noop	-0.12500647
-3.8698447	ngettext	-0.2436379
-4.31458	1,2	-0.12500647
-3.8698447	pgettext	-0.27449656
-4.4878917	1c	-0.12500647
-4.068959	npgettext	-0.18564598
-4.4878917	2,3	-0.12500647
-3.4167135	-	-0.20784436
-4.068959	domains	-0.12500647
-4.31458	sliced	-0.12500647
-4.31458	15	-0.18552251
-3.5866818	ugettext	-0.31910157
-3.7338364	ungettext	-0.2585701
-3.5105512	msgs	-0.22492573
-4.4878917	happened	-0.12500647
-4.4878917	sel.file	-0.12500647
-4.4878917	command.stdout.write	-0.12500647
-4.4878917	msgs.decode	-0.12500647
-4.31458	.pot	-0.12500647
-3.6304173	potfile	-0.21361192
-4.068959	pot	-0.26357666
-4.4878917	fie	-0.12500647
-4.4878917	spit	-0.12500647
-4.4878917	msgs.	-0.12500647
-3.8698447	over	-0.29167077
-3.2741234	source	-0.30187055
-4.4878917	pulls	-0.12500647
-4.4878917	marked	-0.12500647
-4.4878917	creates	-0.12500647
-4.068959	updates	-0.12500647
-4.4878917	projects	-0.12500647
-4.4878917	applications	-0.12500647
-4.4878917	nYou	-0.12500647
-3.8698447	either	-0.15421125
-4.2182107	msgmerge	-0.1250065
-4.4878917	-q	-0.12500647
-4.4878917	--previous	-0.12500647
-4.2182107	msguniq	-0.1250065
-4.4878917	--to-code	-0.12500647
-4.2182107	msgattrib	-0.1250065
-4.4878917	--no-obsolete	-0.12500647
-4.4878917	--from-code	-0.12500647
-4.4878917	--add-comments	-0.12500647
-4.31458	Translators	-0.21926783
-4.4878917	pt	-0.12500647
-4.4878917	BR	-0.12500647
-4.4878917	--domain	-0.12500647
-4.4878917	&apos;store	-0.12500647
-4.31458	Updates	-0.12500647
-3.6304173	existing	-0.22778265
-4.4878917	--extension	-0.12500647
-4.068959	extension	-0.16958478
-4.4878917	examine	-0.12500647
-4.31458	txt	-0.12500647
-4.31458	commas	-0.18552251
-4.4878917	--symlinks	-0.12500647
-4.4878917	-s	-0.12500647
-4.2182107	symlinks	-0.1250065
-4.4878917	Follows	-0.12500647
-4.31458	examining	-0.12500647
-4.2182107	templates	-0.16958478
-4.4878917	--ignore	-0.12500647
-3.6304173	patterns	-0.27240735
-4.31458	PATTERN	-0.12500647
-4.4878917	Ignore	-0.12500647
-4.31458	matching	-0.12500647
-4.31458	glob-style	-0.12500647
-3.217243	pattern	-0.3294649
-4.4878917	--no-default-ignore	-0.12500647
-3.7338364	common	-0.4166095
-4.4878917	CVS	-0.12500647
-3.8698447	~	-0.17634375
-4.2182107	.pyc	-0.18552251
-4.4878917	--no-wrap	-0.12500647
-3.8698447	wrap	-0.18552251
-4.4878917	several	-0.12500647
-4.4878917	--no-location	-0.12500647
-4.31458	obsolete	-0.12500647
-4.4878917	--keep-pot	-0.12500647
-4.2182107	keep	-0.28244412
-4.4878917	Keep	-0.12500647
-4.4878917	Useful	-0.12500647
-4.4878917	debugging	-0.12500647
-4.31458	self.domain.	-0.21926783
-4.4878917	self.symlinks.	-0.12500647
-4.31458	self.msgmerge	-0.21926783
-4.31458	self.msguniq	-0.21926783
-4.31458	self.msgattrib	-0.21926783
-4.4878917	self.xgettext	-0.12500647
-4.31458	self.no	-0.21926783
-4.31458	self.keep	-0.21926783
-3.7338364	self.domain	-0.23865321
-4.2182107	exts	-0.18552251
-4.4878917	self.extensions.	-0.12500647
-4.4878917	sys.argv.	-0.12500647
-4.068959	I18N	-0.19662985
-4.4878917	settings.configure	-0.12500647
-4.4878917	self.extensions	-0.12500647
-4.2182107	self.invoked	-0.28244412
-4.4878917	glob.glob	-0.12500647
-3.9580894	map	-0.14672394
-3.8698447	difference	-0.33524218
-3.9580894	between	-0.16958478
-4.4878917	self.build	-0.12500647
-3.8698447	potfiles	-0.27240735
-4.4878917	self.remove	-0.12500647
-4.2182107	build	-0.28244412
-4.4878917	f.process	-0.12500647
-4.4878917	f.file	-0.12500647
-4.4878917	f.dirpath	-0.12500647
-4.4878917	s.pot	-0.12500647
-3.9580894	ignored	-0.14672394
-4.4878917	fnmatch.fnmatchcase	-0.12500647
-4.4878917	pattern.	-0.12500647
-4.4878917	os.sep	-0.12500647
-4.2182107	norm	-0.18552251
-4.4878917	patterns.	-0.12500647
-4.4878917	os.walk	-0.12500647
-4.4878917	topdown	-0.12500647
-4.4878917	followlinks	-0.12500647
-4.4878917	self.symlinks	-0.12500647
-4.4878917	ignoring	-0.12500647
-4.4878917	inset	-0.12500647
-4.4878917	beggining	-0.12500647
-4.31458	translations	-0.1250065
-4.4878917	path.	-0.12500647
-4.4878917	basedir.	-0.12500647
-3.8698447	pofile	-0.18552251
-4.4878917	statue	-0.12500647
-4.4878917	self.copy	-0.12500647
-4.4878917	PACKAGE	-0.12500647
-3.7338364	copy	-0.16029553
-4.2182107	re.search	-0.2124895
-4.2182107	m.group	-0.1250065
-4.4878917	line.	-0.12500647
-4.4878917	copying	-0.12500647
-4.4878917	django.db.migrations	-0.12500647
-4.068959	Migration	-0.16958478
-4.4878917	django.db.migrations.loader	-0.12500647
-4.31458	MigrationLoader	-0.12500647
-4.4878917	django.db.migrations.autodetector	-0.12500647
-4.31458	MigrationAutodetector	-0.1250065
-4.4878917	django.db.migrations.questioner	-0.12500647
-4.4878917	MigrationQuestioner	-0.12500647
-4.2182107	InteractiveMigrationQuestioner	-0.1250065
-4.4878917	django.db.migrations.state	-0.12500647
-4.4878917	ProjectState	-0.12500647
-4.4878917	django.db.migrations.writer	-0.12500647
-4.2182107	MigrationWriter	-0.1250065
-3.199826	migration	-0.38246918
-4.4878917	Specify	-0.12500647
-3.1514106	migrations	-0.23579231
-4.4878917	--dry-run	-0.12500647
-4.31458	dry	-0.21926783
-4.4878917	Just	-0.12500647
-4.4878917	what	-0.12500647
-4.4878917	would	-0.12500647
-4.31458	actually	-0.12500647
-4.31458	--merge	-0.21926783
-3.7965379	merge	-0.20554398
-4.4878917	Enable	-0.12500647
-4.4878917	fixing	-0.12500647
-3.6790557	conflicts	-0.23536162
-4.31458	--empty	-0.12500647
-4.4878917	Create	-0.12500647
-4.31458	self.interactive.	-0.12500647
-4.068959	self.dry	-0.40738285
-3.9580894	self.merge	-0.19662985
-3.6790557	self.empty	-0.53231514
-4.31458	crate	-0.21926783
-3.7965379	bad	-0.48045892
-4.31458	App	-0.12500647
-4.31458	self.stderr.	-0.12500647
-3.4167135	loader	-0.24771467
-4.4878917	loader.detect	-0.12500647
-4.4878917	conflicts.items	-0.12500647
-4.4878917	str.	-0.1250065
-4.4878917	Conflicting	-0.12500647
-4.2182107	detected	-0.12500647
-4.4878917	nTo	-0.12500647
-4.068959	fix	-0.16029553
-4.31458	manage.py	-0.21926783
-4.4878917	makemigrations	-0.12500647
-4.2182107	throw	-0.28244412
-4.4878917	exception.	-0.12500647
-4.4878917	autodetector	-0.12500647
-4.4878917	loader.project	-0.12500647
-4.4878917	ProjectState.from	-0.12500647
-4.4878917	run.	-0.12500647
-4.4878917	supply	-0.12500647
-3.5105512	custom	-0.33846563
-4.4878917	labels.	-0.12500647
-4.4878917	autodetector.arrange	-0.12500647
-4.068959	graph	-0.16958478
-3.7338364	changes	-0.2436379
-4.2182107	loader.graph	-0.18552251
-4.4878917	autodetector.changes	-0.12500647
-3.9580894	trim	-0.50429285
-4.4878917	changes.	-0.12500647
-4.4878917	iteger	-0.12500647
-4.4878917	labels.pop	-0.12500647
-4.4878917	changes.items	-0.12500647
-4.31458	Migrations	-0.12500647
-4.068959	self.style.MIGRATE	-0.40738285
-4.4878917	HEADING	-0.1250065
-4.068959	writer	-0.16029553
-4.4878917	LABEL	-0.1250065
-4.31458	writer.filename	-0.21926783
-4.2182107	operation	-0.1250065
-4.4878917	migration.operations	-0.12500647
-4.4878917	operation.describe	-0.12500647
-4.2182107	writer.path	-0.18552251
-4.4878917	writer.as	-0.12500647
-4.068959	fh	-0.12500647
-4.4878917	Full	-0.12500647
-4.2182107	self.interactive	-0.18552251
-4.4878917	questioner	-0.12500647
-4.4878917	ask	-0.12500647
-4.4878917	loader.get	-0.12500647
-4.4878917	loader.graph.forwards	-0.12500647
-3.6304173	plan	-0.23515446
-4.4878917	migration.ancestry.	-0.12500647
-4.31458	ancestor	-0.12500647
-4.4878917	m.ancestry	-0.12500647
-4.31458	operator.eq	-0.12500647
-4.4878917	migration.ancestry.index	-0.12500647
-4.4878917	migration.ancestry	-0.12500647
-4.4878917	migration.branch.	-0.12500647
-4.2182107	migration.merged	-0.28244412
-3.7338364	operations	-0.2061161
-3.363809	node	-0.35407495
-4.4878917	migration.branch	-0.12500647
-4.4878917	Merging	-0.12500647
-4.4878917	Branch	-0.12500647
-3.9580894	migration.name	-0.21441542
-4.4878917	questioner.ask	-0.12500647
-4.068959	numbers	-0.16958478
-4.4878917	MigrationAutodetector.parse	-0.12500647
-4.4878917	migrations.	-0.12500647
-4.31458	biggest	-0.21926783
-4.31458	maximum	-0.12500647
-3.9580894	subclass	-0.16029553
-4.31458	derived	-0.21926783
-4.4878917	subsclass	-0.12500647
-4.4878917	04i	-0.12500647
-4.4878917	occupies	-0.12500647
-4.4878917	minimum	-0.12500647
-4.4878917	within	-0.12500647
-4.4878917	migration.	-0.12500647
-4.4878917	nCreated	-0.12500647
-4.4878917	pre	-0.12500647
-4.4878917	django.db.migrations.executor	-0.12500647
-3.9580894	MigrationExecutor	-0.16029553
-4.2182107	AmbiguityError	-0.18552251
-4.4878917	submodule	-0.1250065
-4.4878917	schema	-0.12500647
-4.4878917	Manages	-0.12500647
-4.4878917	charcter	-0.12500647
-4.4878917	&apos;App	-0.12500647
-4.4878917	synchronize	-0.12500647
-4.4878917	&apos;Database	-0.12500647
-4.4878917	brought	-0.12500647
-4.4878917	--fake	-0.12500647
-4.068959	fake	-0.12500647
-4.4878917	--list	-0.12500647
-4.4878917	Show	-0.12500647
-4.2182107	self.show	-0.28244412
-4.2182107	self.test	-0.28244412
-4.4878917	config.module	-0.12500647
-3.4457967	package	-0.24086156
-4.4878917	self.migration	-0.12500647
-4.4878917	progress	-0.12500647
-4.4878917	fro	-0.12500647
-4.068959	executor	-0.21926783
-4.4878917	executor.loader.detect	-0.12500647
-4.31458	syncdb	-0.1250065
-3.4769683	target	-0.33278555
-4.4878917	executor.loader.migrated	-0.12500647
-4.4878917	selectively	-0.12500647
-4.31458	sync	-0.12500647
-4.31458	executor.loader.get	-0.21926783
-4.4878917	More	-0.12500647
-3.7965379	matches	-0.22824948
-4.31458	Cannot	-0.1250065
-4.4878917	migration.name.	-0.12500647
-4.2182107	vale	-0.12500647
-4.4878917	executor.loader.graph.leaf	-0.12500647
-3.9580894	nodes	-0.14425653
-4.31458	executor.migration	-0.21926783
-4.4878917	Operations	-0.12500647
-4.2182107	method.	-0.21926783
-4.31458	executor.loader.unmigrated	-0.21926783
-4.4878917	Synchronize	-0.12500647
-4.4878917	Apply	-0.12500647
-4.31458	self.stdout.write.	-0.12500647
-4.4878917	Unapply	-0.12500647
-4.4878917	Target	-0.12500647
-4.4878917	Synchronizing	-0.12500647
-4.4878917	self.sync	-0.12500647
-4.4878917	Running	-0.1250065
-4.4878917	executor.loader.project	-0.12500647
-4.4878917	autodetector.	-0.12500647
-4.4878917	executor.loader.graph	-0.12500647
-4.31458	self.style.NOTICE	-0.12500647
-4.31458	Your	-0.12500647
-4.4878917	yet	-0.12500647
-4.4878917	reflected	-0.12500647
-4.31458	won	-0.21926783
-4.4878917	re-run	-0.12500647
-4.4878917	executor.migrate	-0.12500647
-4.068959	connection.alias	-0.24522674
-4.4878917	Applying	-0.12500647
-4.4878917	success	-0.12500647
-4.4878917	wrte	-0.12500647
-4.4878917	SUCCESS	-0.12500647
-4.4878917	FAKED	-0.12500647
-4.2182107	unapply	-0.18552251
-4.4878917	Unapplying	-0.12500647
-4.068959	seen	-0.26357666
-3.8698447	pending	-0.58347416
-3.8698447	references	-0.17085443
-4.4878917	models.	-0.12500647
-3.7338364	converter	-0.15696628
-4.4878917	opts.db	-0.12500647
-4.31458	opts.auto	-0.21926783
-4.4878917	manifest	-0.12500647
-4.4878917	OrderDict	-0.12500647
-4.2182107	modules	-0.12500647
-3.7965379	unpack	-0.28472525
-4.4878917	manifest.values	-0.12500647
-4.4878917	itertools.chain	-0.12500647
-4.4878917	chanied	-0.12500647
-4.4878917	Creating	-0.12500647
-4.4878917	manifest.items	-0.12500647
-4.4878917	Processing	-0.12500647
-4.068959	connection.creation.sql	-0.40738285
-4.068959	refto	-0.2124895
-4.31458	refs	-0.1250065
-4.4878917	references.setdefault	-0.12500647
-4.4878917	sql.extend	-0.12500647
-3.5866818	statements	-0.2442891
-4.31458	cursor.close	-0.12500647
-4.4878917	Failed	-0.12500647
-4.4878917	traceback.print	-0.12500647
-4.4878917	squl	-0.12500647
-4.31458	loader.migrated	-0.21926783
-4.4878917	invalided	-0.12500647
-4.068959	shown	-0.16958478
-4.4878917	graph.leaf	-0.12500647
-4.4878917	graph.forwards	-0.12500647
-3.5866818	title	-0.20780133
-3.8698447	replaces	-0.15421125
-3.5105512	filed	-0.29730237
-4.4878917	graph.nodes	-0.12500647
-3.8698447	squashed	-0.1250065
-4.4878917	loader.applied	-0.12500647
-4.068959	X	-0.12500647
-4.4878917	FAILURE	-0.12500647
-4.31458	FastCGI	-0.12500647
-3.5866818	flup	-0.21752515
-4.4878917	argparse.REMAINDER	-0.12500647
-4.4878917	Various	-0.12500647
-4.4878917	1.9	-0.12500647
-3.8698447	settings.LANGUAGE	-0.58347416
-4.2182107	runfastcgi	-0.1250065
-4.4878917	HELP	-0.1250065
-4.4878917	django.core.servers.basehttp	-0.12500647
-4.2182107	internal	-0.18552251
-4.4878917	autoreload	-0.12500647
-3.6790557	ipv4	-0.29730237
-3.254324	{	-0.2764103
-4.4878917	1,3	-0.12500647
-3.1364017	}	-0.40368548
-3.199826	&#124;	-0.3081052
-3.8698447	ipv6	-0.16958478
-4.4878917	a-fA-F0-9	-0.12500647
-4.4878917	a-zA-Z0-9-	-0.12500647
-4.4878917	re.X	-0.12500647
-4.4878917	8000	-0.12500647
-4.4878917	Starts	-0.12500647
-4.4878917	lightweight	-0.12500647
-4.4878917	Web	-0.12500647
-4.2182107	development	-0.18552251
